{"learner":{"attributes":{"best_iteration":"108","best_score":"3.982877830222801"},"feature_names":["home_adj_em","away_adj_em","home_off_eff","away_off_eff","home_def_eff","away_def_eff","home_tempo","away_tempo"],"feature_types":["float","float","float","float","float","float","float","float"],"gradient_booster":{"model":{"cats":{"enc":[],"feature_segments":[],"sorted_idx":[]},"gbtree_model_param":{"num_parallel_tree":"1","num_trees":"139"},"iteration_indptr":[0,1,2,3,4,5,6,7,8,9,10,11,12,13,14,15,16,17,18,19,20,21,22,23,24,25,26,27,28,29,30,31,32,33,34,35,36,37,38,39,40,41,42,43,44,45,46,47,48,49,50,51,52,53,54,55,56,57,58,59,60,61,62,63,64,65,66,67,68,69,70,71,72,73,74,75,76,77,78,79,80,81,82,83,84,85,86,87,88,89,90,91,92,93,94,95,96,97,98,99,100,101,102,103,104,105,106,107,108,109,110,111,112,113,114,115,116,117,118,119,120,121,122,123,124,125,126,127,128,129,130,131,132,133,134,135,136,137,138,139],"tree_info":[0,0,0,0,0,0,0,0,0,0,0,0,0,0,0,0,0,0,0,0,0,0,0,0,0,0,0,0,0,0,0,0,0,0,0,0,0,0,0,0,0,0,0,0,0,0,0,0,0,0,0,0,0,0,0,0,0,0,0,0,0,0,0,0,0,0,0,0,0,0,0,0,0,0,0,0,0,0,0,0,0,0,0,0,0,0,0,0,0,0,0,0,0,0,0,0,0,0,0,0,0,0,0,0,0,0,0,0,0,0,0,0,0,0,0,0,0,0,0,0,0,0,0,0,0,0,0,0,0,0,0,0,0,0,0,0,0,0,0],"trees":[{"base_weights":[1.9444445E-2,-1.10526316E-1,2.269461E-1,-3.25E-1,-3.0256411E-2,6.2962964E-2,3.017544E-1,-3.952381E-1,1.4E-1,-9.699248E-2,1.0952381E-1,8.333333E-3,2.0714287E-2,6.551724E-2,3.7674418E-1,-2.346154E-2,-3.333333E-2,-3.3333332E-3,1.9E-2,-3E-1,-6.37931E-2,-1.75E-2,1.4E-1,-6.315789E-2,2.6363635E-1,-1.1666667E-2,1.4166667E-1,-0E0,4.05E-1,-2.0000001E-2,1.3571429E-2,-7E-3,-2.1666666E-2,-5.1086955E-3,3.7999998E-3,2.5675676E-3,1.3333335E-2,-1.9E-2,-5.882353E-4,-0E0,2.0714287E-2,1.0263158E-2,-3.3333332E-3,2.4166666E-2,1.6555555E-2],"categories":[],"categories_nodes":[],"categories_segments":[],"categories_sizes":[],"default_left":[0,0,0,0,0,0,0,0,0,0,0,0,0,0,0,0,0,0,0,0,0,0,0,0,0,0,0,0,0,0,0,0,0,0,0,0,0,0,0,0,0,0,0,0,0],"id":0,"left_children":[1,3,5,7,9,11,13,15,17,19,21,23,-1,25,27,-1,29,-1,-1,31,33,-1,35,37,39,-1,41,-1,43,-1,-1,-1,-1,-1,-1,-1,-1,-1,-1,-1,-1,-1,-1,-1,-1],"loss_changes":[1.1687398E1,4.5340395E0,1.9931679E0,2.4324288E0,1.8284047E0,9.906878E-1,1.9506435E0,1.6211348E0,5.5266666E-1,8.4086585E-1,9.102857E-1,9.127911E-1,0E0,6.8385065E-1,9.1548824E-1,0E0,1.462381E0,0E0,0E0,2.6600003E-1,6.327658E-1,0E0,6.2823415E-1,5.7512695E-1,4.368831E-1,0E0,3.4552628E-1,0E0,2.2155571E-1,0E0,0E0,0E0,0E0,0E0,0E0,0E0,0E0,0E0,0E0,0E0,0E0,0E0,0E0,0E0,0E0],"parents":[2147483647,0,0,1,1,2,2,3,3,4,4,5,5,6,6,7,7,8,8,9,9,10,10,11,11,13,13,14,14,16,16,19,19,20,20,22,22,23,23,24,24,26,26,28,28],"right_children":[2,4,6,8,10,12,14,16,18,20,22,24,-1,26,28,-1,30,-1,-1,32,34,-1,36,38,40,-1,42,-1,44,-1,-1,-1,-1,-1,-1,-1,-1,-1,-1,-1,-1,-1,-1,-1,-1],"split_conditions":[1.175E2,6.6E1,2.19E1,6.91E1,6.82E1,7.15E1,6.55E1,2.185E1,1.778E1,1.539E1,1.408E1,7.09E1,6.54195E-1,1.189E2,6.43E1,-7.211556E-1,6.58E1,-4.052086E-1,3.962551E-1,1.501E1,6.74E1,-2.006195E-1,6.93E1,1.541E1,6.65E1,-2.6840973E-1,7.06E1,8.4560394E-2,6.88E1,-3.949173E-1,1.456543E-1,-1.624527E-1,-5.2697223E-1,-1.5600204E-1,1.2209397E-1,1.0264435E-1,2.5313187E-1,-4.900677E-1,-8.8063814E-2,1.799141E-1,5.6284636E-1,2.6675835E-1,-5.5732727E-2,6.123009E-1,4.8800203E-1],"split_indices":[3,6,0,7,7,6,6,0,0,0,1,7,0,3,7,0,7,0,0,0,7,0,6,1,6,0,7,0,6,0,0,0,0,0,0,0,0,0,0,0,0,0,0,0,0],"split_type":[0,0,0,0,0,0,0,0,0,0,0,0,0,0,0,0,0,0,0,0,0,0,0,0,0,0,0,0,0,0,0,0,0,0,0,0,0,0,0,0,0,0,0,0,0],"sum_hessian":[4.31E2,2.65E2,1.66E2,7.1E1,1.94E2,5.3E1,1.13E2,6.2E1,9E0,1.32E2,6.2E1,4.7E1,6E0,2.8E1,8.5E1,5.1E1,1.1E1,5E0,4E0,1.7E1,1.15E2,3E0,5.9E1,3.7E1,1E1,5E0,2.3E1,6E0,7.9E1,5E0,6E0,9E0,8E0,9.1E1,2.4E1,3.6E1,2.3E1,4E0,3.3E1,4E0,6E0,1.8E1,5E0,3.5E1,4.4E1],"tree_param":{"num_deleted":"0","num_feature":"8","num_nodes":"45","size_leaf_vector":"1"}},{"base_weights":[-3.3175356E-3,-1.2988506E-1,2E-1,-2.1038961E-1,-1.29629625E-2,1.2522523E-1,3.5384616E-1,-3.7567568E-1,-1.559322E-1,-7.662338E-2,1.375E-1,3.1147541E-2,2.3333333E-1,1.1666667E-1,2.0609757E-2,-4.1875E-1,-3.3333332E-3,-1.04210526E-1,-3.5E-1,1.3571429E-2,-1.11267604E-1,-6E-2,1.5000001E-2,9.607843E-2,-2.6363635E-1,-1.75E-2,2.7916667E-1,-0E0,1.75E-2,-2.224138E-2,-5.0000004E-3,-6.4772726E-3,8.75E-3,-2.1E-2,-0E0,7.307693E-3,-8.389831E-3,1.75E-2,-1.0000001E-2,9.324324E-3,-6.3333334E-3,5.0000004E-3,-2.125E-2,7.857143E-3,2.1190478E-2,-9.000001E-3,9.000001E-3],"categories":[],"categories_nodes":[],"categories_segments":[],"categories_sizes":[],"default_left":[0,0,0,0,0,0,0,0,0,0,0,0,0,0,0,0,0,0,0,0,0,0,0,0,0,0,0,0,0,0,0,0,0,0,0,0,0,0,0,0,0,0,0,0,0,0,0],"id":1,"left_children":[1,3,5,7,9,11,13,15,17,19,21,23,25,27,-1,29,-1,31,33,-1,35,37,-1,39,41,-1,43,45,-1,-1,-1,-1,-1,-1,-1,-1,-1,-1,-1,-1,-1,-1,-1,-1,-1,-1,-1],"loss_changes":[1.0878459E1,2.4316678E0,1.7714E0,1.2744212E0,1.0389297E0,1.0952162E0,6.186614E-1,4.1602468E-1,1.1025314E0,9.426505E-1,1.069E0,1.1761494E0,1.4541664E0,3.2666665E-1,0E0,1.6702604E-1,0E0,6.901339E-1,5.8800006E-1,0E0,1.0598648E0,9.16E-1,0E0,1.0566391E0,7.204546E-1,0E0,7.2249985E-1,3.24E-1,0E0,0E0,0E0,0E0,0E0,0E0,0E0,0E0,0E0,0E0,0E0,0E0,0E0,0E0,0E0,0E0,0E0,0E0,0E0],"parents":[2147483647,0,0,1,1,2,2,3,3,4,4,5,5,6,6,7,7,8,8,9,9,10,10,11,11,12,12,13,13,15,15,17,17,18,18,20,20,21,21,23,23,24,24,26,26,27,27],"right_children":[2,4,6,8,10,12,14,16,18,20,22,24,26,28,-1,30,-1,32,34,-1,36,38,-1,40,42,-1,44,46,-1,-1,-1,-1,-1,-1,-1,-1,-1,-1,-1,-1,-1,-1,-1,-1,-1,-1,-1],"split_conditions":[1.175E2,1.168E2,1.209E2,6.53E1,6.89E1,6.89E1,6.56E1,1.15E2,9.88E1,9.41E1,1.185E2,6.85E1,1.142E2,9.93E1,5.6043094E-1,1.707E1,-2.7172852E-2,1.003E2,6.87E1,2.672432E-1,6.48E1,6.9E1,1.6597366E-1,1.189E2,1.137E2,-4.0759966E-1,9.97E1,2.606E1,6.341751E-1,-6.8701935E-1,-1.37677E-1,-1.658455E-1,6.255112E-2,-4.935959E-1,-1.724968E-2,2.5957298E-1,-1.5390244E-1,2.4874039E-1,-2.0794526E-1,2.5342065E-1,-1.5721016E-1,1.2772675E-1,-4.8632738E-1,3.1788483E-1,4.681305E-1,-3.3020288E-1,4.0370256E-1],"split_indices":[3,2,2,7,7,7,7,3,4,4,2,7,2,4,0,1,0,5,7,0,7,7,0,2,2,0,5,1,0,0,0,0,0,0,0,0,0,0,0,0,0,0,0,0,0,0,0],"split_type":[0,0,0,0,0,0,0,0,0,0,0,0,0,0,0,0,0,0,0,0,0,0,0,0,0,0,0,0,0,0,0,0,0,0,0,0,0,0,0,0,0,0,0,0,0,0,0],"sum_hessian":[4.21E2,2.6E2,1.61E2,1.53E2,1.07E2,1.1E2,5.1E1,3.6E1,1.17E2,7.6E1,3.1E1,6E1,5E1,1.1E1,4E1,3.1E1,5E0,9.4E1,2.3E1,6E0,7E1,1.4E1,1.7E1,5E1,1E1,3E0,4.7E1,8E0,3E0,2.8E1,3E0,8.7E1,7E0,1.9E1,4E0,1.2E1,5.8E1,3E0,1.1E1,3.6E1,1.4E1,3E0,7E0,2.7E1,2E1,4E0,4E0],"tree_param":{"num_deleted":"0","num_feature":"8","num_nodes":"47","size_leaf_vector":"1"}},{"base_weights":[1.2735849E-2,-1.0676692E-1,2.1320754E-1,-1.8765432E-1,1.8095238E-2,1.375E-1,1.9166667E-2,-2.862069E-1,-7.105263E-2,-7.586207E-2,1.3333334E-1,8.604651E-2,2.9259259E-1,-3.4857142E-1,-2.2222223E-2,-0E0,-3E-1,8.7878786E-2,-2.846154E-1,-1.1666667E-1,2.1351351E-1,3.8666666E-2,3.6666667E-1,1.7777778E-2,1.4E-1,-1.8870968E-2,-5.0000004E-3,3E-3,-1.75E-2,-1.7924529E-3,1.3571429E-2,5.0000004E-3,-1.9666668E-2,7.333333E-3,-1.75E-2,-1.6818183E-2,-0E0,-0E0,-1.75E-2,-1.2500001E-3,1.909091E-2,-6.071429E-3,6.6666673E-3,5.0000004E-3,2.1666666E-2,-5.0000004E-3,1.3571429E-2],"categories":[],"categories_nodes":[],"categories_segments":[],"categories_sizes":[],"default_left":[0,0,0,0,0,0,0,0,0,0,0,0,0,0,0,0,0,0,0,0,0,0,0,0,0,0,0,0,0,0,0,0,0,0,0,0,0,0,0,0,0,0,0,0,0,0,0],"id":2,"left_children":[1,3,5,7,9,11,-1,13,15,17,19,21,23,25,27,29,31,33,35,37,39,41,43,-1,45,-1,-1,-1,-1,-1,-1,-1,-1,-1,-1,-1,-1,-1,-1,-1,-1,-1,-1,-1,-1,-1,-1],"loss_changes":[1.0191143E1,2.7068918E0,1.9430981E0,1.8055444E0,1.1527455E0,8.3072543E-1,0E0,1.3874798E0,1.2363157E0,2.027209E0,9.9675673E-1,1.0887226E0,1.6007423E-1,4.1647053E-1,5.351111E-1,5.838275E-1,7.4066675E-1,8.804848E-1,3.829372E-1,3.2666665E-1,1.5305158E0,1.154057E0,1.16666675E-1,0E0,3.597143E-1,0E0,0E0,0E0,0E0,0E0,0E0,0E0,0E0,0E0,0E0,0E0,0E0,0E0,0E0,0E0,0E0,0E0,0E0,0E0,0E0,0E0,0E0],"parents":[2147483647,0,0,1,1,2,2,3,3,4,4,5,5,7,7,8,8,9,9,10,10,11,11,12,12,13,13,14,14,15,15,16,16,17,17,18,18,19,19,20,20,21,21,22,22,24,24],"right_children":[2,4,6,8,10,12,-1,14,16,18,20,22,24,26,28,30,32,34,36,38,40,42,44,-1,46,-1,-1,-1,-1,-1,-1,-1,-1,-1,-1,-1,-1,-1,-1,-1,-1,-1,-1,-1,-1,-1,-1],"split_conditions":[1.175E2,1.168E2,1.216E2,1.139E2,9.93E1,1.219E2,5.9994507E-1,6.86E1,1.157E2,9.83E1,1.489E1,9.93E1,2.536E1,1.78E1,1.795E1,1.941E1,6.57E1,1.172E2,6.95E1,1.474E1,6.64E1,2.101E1,1.484E1,7.1385497E-1,2.729E1,-5.9504473E-1,-4.209984E-1,1.4141884E-1,-2.892746E-1,-5.558586E-2,1.0934563E-1,1.2839508E-2,-3.0118752E-1,1.6460037E-1,-1.7778245E-1,-2.2234802E-1,1.0384484E-1,-6.289559E-2,-4.9317247E-1,-2.622223E-3,4.139305E-1,-5.934448E-2,2.0378648E-1,4.1734314E-1,1.9838218E-1,-1.3526611E-1,5.128258E-1],"split_indices":[3,2,2,3,4,3,0,7,2,4,1,4,1,0,1,1,7,3,7,1,7,0,1,0,0,0,0,0,0,0,0,0,0,0,0,0,0,0,0,0,0,0,0,0,0,0,0],"split_type":[0,0,0,0,0,0,0,0,0,0,0,0,0,0,0,0,0,0,0,0,0,0,0,0,0,0,0,0,0,0,0,0,0,0,0,0,0,0,0,0,0,0,0,0,0,0,0],"sum_hessian":[4.23E2,2.65E2,1.58E2,1.61E2,1.04E2,1.11E2,4.7E1,8.6E1,7.5E1,5.7E1,4.7E1,8.5E1,2.6E1,6.9E1,1.7E1,5.8E1,1.7E1,3.2E1,2.5E1,1.1E1,3.6E1,7.4E1,1.1E1,1.7E1,9E0,6.1E1,8E0,1.4E1,3E0,5.2E1,6E0,3E0,1.4E1,2.9E1,3E0,2.1E1,4E0,8E0,3E0,1.5E1,2.1E1,2.7E1,4.7E1,3E0,8E0,3E0,6E0],"tree_param":{"num_deleted":"0","num_feature":"8","num_nodes":"47","size_leaf_vector":"1"}},{"base_weights":[-5.529954E-3,-1.14893615E-1,1.9542484E-1,-2.8148147E-1,-1.08571425E-2,-5.135135E-2,2.726496E-1,-3.3232322E-1,2.4E-1,-9.370079E-2,2.0204082E-1,-1E-1,1.75E-2,-5E-2,2.9454544E-1,-3.696629E-1,-0E0,3.3333332E-3,1.9E-2,-4.6666667E-2,-3E-1,-4.7368422E-2,3.516129E-1,3.6E-2,-2.2E-2,5.0000004E-3,-9.000001E-3,1.2608695E-1,3.3409092E-1,-1.9819278E-2,-0E0,-9.000001E-3,6.428571E-3,-1.06666675E-2,9.210526E-4,-1.7777778E-2,-3.3333332E-3,-8.571429E-3,1.1666667E-2,5.8333334E-3,2.3500001E-2,-4.375E-3,1.2E-2,-1.6666666E-3,1.4166667E-2,-5.0000004E-3,1.7588235E-2],"categories":[],"categories_nodes":[],"categories_segments":[],"categories_sizes":[],"default_left":[0,0,0,0,0,0,0,0,0,0,0,0,0,0,0,0,0,0,0,0,0,0,0,0,0,0,0,0,0,0,0,0,0,0,0,0,0,0,0,0,0,0,0,0,0,0,0],"id":3,"left_children":[1,3,5,7,9,11,13,15,17,19,21,23,-1,25,27,29,31,-1,-1,33,35,37,39,41,-1,-1,-1,43,45,-1,-1,-1,-1,-1,-1,-1,-1,-1,-1,-1,-1,-1,-1,-1,-1,-1,-1],"loss_changes":[9.552484E0,4.855112E0,2.9518862E0,2.9523983E0,3.094615E0,7.324325E-1,8.657522E-1,1.2284756E0,1.7266661E-1,1.1836271E0,1.8750081E0,1.6284001E0,0E0,1.82E-1,6.446514E-1,8.7917423E-1,2.7771428E-1,0E0,0E0,1.1624562E0,2.3222232E-1,6.954637E-1,7.487531E-1,6.661E-1,0E0,0E0,0E0,6.110145E-1,7.354927E-1,0E0,0E0,0E0,0E0,0E0,0E0,0E0,0E0,0E0,0E0,0E0,0E0,0E0,0E0,0E0,0E0,0E0,0E0],"parents":[2147483647,0,0,1,1,2,2,3,3,4,4,5,5,6,6,7,7,8,8,9,9,10,10,11,11,13,13,14,14,15,15,16,16,19,19,20,20,21,21,22,22,23,23,27,27,28,28],"right_children":[2,4,6,8,10,12,14,16,18,20,22,24,-1,26,28,30,32,-1,-1,34,36,38,40,42,-1,-1,-1,44,46,-1,-1,-1,-1,-1,-1,-1,-1,-1,-1,-1,-1,-1,-1,-1,-1,-1,-1],"split_conditions":[1.995E1,6.66E1,6.58E1,7.03E1,9.92E1,9.93E1,9.02E1,1.936E1,9.84E1,9.88E1,1.604E1,9.64E1,5.7246935E-1,2.647E1,6.56E1,1.012E2,9.58E1,1.2975541E-1,4.8879585E-1,9.66E1,2.006E1,6.87E1,6.7E1,9.46E1,-3.404854E-1,2.4897079E-1,-5.093323E-1,2.296E1,8.77E1,-5.652874E-1,-1.8318787E-1,-3.3065414E-1,2.5120163E-1,-1.6693345E-1,4.0898133E-2,-3.1675872E-1,-9.712982E-2,-1.4565888E-1,2.1560745E-1,1.4371262E-1,4.3658066E-1,-1.9099121E-1,2.8414994E-1,-1.0192566E-1,6.781624E-1,-4.2097092E-1,4.4618607E-1],"split_indices":[1,6,7,7,4,4,4,1,4,4,1,4,0,1,6,5,5,0,0,5,0,7,7,5,0,0,0,1,5,0,0,0,0,0,0,0,0,0,0,0,0,0,0,0,0,0,0],"split_type":[0,0,0,0,0,0,0,0,0,0,0,0,0,0,0,0,0,0,0,0,0,0,0,0,0,0,0,0,0,0,0,0,0,0,0,0,0,0,0,0,0,0,0,0,0,0,0],"sum_hessian":[4.33E2,2.81E2,1.52E2,1.07E2,1.74E2,3.6E1,1.16E2,9.8E1,9E0,1.26E2,4.8E1,3.3E1,3E0,7E0,1.09E2,8.8E1,1E1,5E0,4E0,1.04E2,2.2E1,1.8E1,3E1,2.4E1,9E0,3E0,4E0,2.2E1,8.7E1,8.2E1,6E0,4E0,6E0,2.9E1,7.5E1,1.7E1,5E0,1.3E1,5E0,1.1E1,1.9E1,1.5E1,9E0,1.1E1,1.1E1,3E0,8.4E1],"tree_param":{"num_deleted":"0","num_feature":"8","num_nodes":"47","size_leaf_vector":"1"}},{"base_weights":[-7.6233186E-3,-1.21232875E-1,2.0580645E-1,-2.1744186E-1,1.5702479E-2,1.1237113E-1,1.7711865E-2,-2.7333334E-1,-1.0526315E-2,-7.5E-2,1.48E-1,-4.6341464E-2,2.263158E-1,-4.4285715E-1,-2.2592592E-1,-1.5000001E-2,6.1290324E-2,1.8148148E-1,-2.2608696E-1,-1.75E-2,1.893617E-1,-1E-1,1.75E-1,1.4545454E-1,2.2857143E-2,-2.38E-2,-5.0000004E-3,-8.563219E-3,-2.1363636E-2,-1.75E-2,6.071429E-3,-8.75E-3,1.6E-2,5.0000004E-3,-1.5000001E-2,1.4285714E-3,1.2352942E-2,3E-3,-1.1E-2,1.75E-2,-0E0,1.0882353E-2,-4.090909E-3],"categories":[],"categories_nodes":[],"categories_segments":[],"categories_sizes":[],"default_left":[0,0,0,0,0,0,0,0,0,0,0,0,0,0,0,0,0,0,0,0,0,0,0,0,0,0,0,0,0,0,0,0,0,0,0,0,0,0,0,0,0,0,0],"id":4,"left_children":[1,3,5,7,9,11,-1,13,15,17,19,21,23,25,27,-1,29,31,33,-1,35,37,39,41,-1,-1,-1,-1,-1,-1,-1,-1,-1,-1,-1,-1,-1,-1,-1,-1,-1,-1,-1],"loss_changes":[1.0830951E1,3.8705158E0,2.063179E0,1.9578848E0,1.4703652E0,1.782677E0,0E0,9.180212E-1,8.322411E-1,2.835564E0,1.0801193E0,4.9695125E-1,9.3714976E-1,2.1297169E-1,1.0556107E0,0E0,7.8640556E-1,1.4037404E0,1.1586955E0,0E0,4.0140343E-1,6.8200004E-1,2.45E-1,7.533155E-1,0E0,0E0,0E0,0E0,0E0,0E0,0E0,0E0,0E0,0E0,0E0,0E0,0E0,0E0,0E0,0E0,0E0,0E0,0E0],"parents":[2147483647,0,0,1,1,2,2,3,3,4,4,5,5,7,7,8,8,9,9,10,10,11,11,12,12,13,13,14,14,16,16,17,17,18,18,20,20,21,21,22,22,23,23],"right_children":[2,4,6,8,10,12,-1,14,16,18,20,22,24,26,28,-1,30,32,34,-1,36,38,40,42,-1,-1,-1,-1,-1,-1,-1,-1,-1,-1,-1,-1,-1,-1,-1,-1,-1,-1,-1],"split_conditions":[1.178E2,1.168E2,1.208E2,6.93E1,6.85E1,6.74E1,5.228104E-1,1.12E2,9.45E1,1.718E1,1.464E1,9.93E1,1.224E2,1.825E1,6.83E1,-4.4529343E-1,1.485E1,1.51E1,9.14E1,-3.5825273E-1,1.185E2,6.46E1,1.001E2,1.207E2,5.26075E-1,-7.633957E-1,-1.0019302E-1,-2.6620102E-1,-3.0818787E-1,-2.4547195E-1,7.158356E-2,-3.7561417E-1,1.8461151E-1,1.4857674E-1,-2.7275315E-1,1.1579972E-1,2.1195069E-1,2.2600518E-1,-1.5432815E-1,3.2532272E-1,1.6953087E-1,1.8552093E-1,-1.1968918E-1],"split_indices":[3,2,2,6,6,6,0,3,4,1,1,4,3,0,6,0,0,1,4,0,2,6,4,3,0,0,0,0,0,0,0,0,0,0,0,0,0,0,0,0,0,0,0],"split_type":[0,0,0,0,0,0,0,0,0,0,0,0,0,0,0,0,0,0,0,0,0,0,0,0,0,0,0,0,0,0,0,0,0,0,0,0,0,0,0,0,0,0,0],"sum_hessian":[4.45E2,2.91E2,1.54E2,1.71E2,1.2E2,9.6E1,5.8E1,1.34E2,3.7E1,7.1E1,4.9E1,4E1,5.6E1,2.7E1,1.07E2,7E0,3E1,2.6E1,4.5E1,3E0,4.6E1,3.3E1,7E0,4.3E1,1.3E1,2.4E1,3E0,8.6E1,2.1E1,3E0,2.7E1,7E0,1.9E1,8E0,3.7E1,1.3E1,3.3E1,1.4E1,1.9E1,3E0,4E0,3.3E1,1E1],"tree_param":{"num_deleted":"0","num_feature":"8","num_nodes":"43","size_leaf_vector":"1"}},{"base_weights":[-0E0,-1.6213593E-1,1.3801652E-1,-3.4262297E-1,-8.493151E-2,7.2093025E-2,2.943662E-1,-3.862069E-1,1.75E-2,-1.1777778E-1,1.4166667E-2,-5.3424656E-2,1.64E-1,-2.8571429E-2,3.689655E-1,-2.3965517E-2,-2.8E-1,-3.4705883E-1,-8.319328E-2,-0E0,-3.5454544E-1,-0E0,2.3428571E-1,2.1111111E-1,-2.0000001E-2,1.4E-1,4.0612245E-1,3.3333332E-3,-1.7800001E-2,-6.428571E-3,-2.2272727E-2,-4.9137934E-3,1.75E-2,-2.8431374E-3,1.1153846E-2,-2.125E-2,-5.0000004E-3,1.5000001E-2,-1.0263158E-2,6.4705885E-3,1.6081082E-2,-0E0,1.9E-2,1.75E-2,-0E0,2.1086957E-2,5.0000004E-3],"categories":[],"categories_nodes":[],"categories_segments":[],"categories_sizes":[],"default_left":[0,0,0,0,0,0,0,0,0,0,0,0,0,0,0,0,0,0,0,0,0,0,0,0,0,0,0,0,0,0,0,0,0,0,0,0,0,0,0,0,0,0,0,0,0,0,0],"id":5,"left_children":[1,3,5,7,9,11,13,15,-1,17,-1,19,21,23,25,-1,27,29,31,33,35,37,39,41,-1,43,45,-1,-1,-1,-1,-1,-1,-1,-1,-1,-1,-1,-1,-1,-1,-1,-1,-1,-1,-1,-1],"loss_changes":[1.0025092E1,2.7986302E0,2.4364548E0,1.9802146E0,1.7828493E0,2.0040026E0,1.7550368E0,3.6337948E-1,0E0,9.9859405E-1,0E0,1.1743711E0,1.1526856E0,1.3496826E0,3.819747E-1,0E0,8.430667E-1,2.507944E-1,7.867314E-1,8.1182504E-1,1.0227275E-1,1.9705262E0,5.5442333E-1,3.208889E-1,0E0,2.94E-1,1.3990211E-1,0E0,0E0,0E0,0E0,0E0,0E0,0E0,0E0,0E0,0E0,0E0,0E0,0E0,0E0,0E0,0E0,0E0,0E0,0E0,0E0],"parents":[2147483647,0,0,1,1,2,2,3,3,4,4,5,5,6,6,7,7,9,9,11,11,12,12,13,13,14,14,16,16,17,17,18,18,19,19,20,20,21,21,22,22,23,23,25,25,26,26],"right_children":[2,4,6,8,10,12,14,16,-1,18,-1,20,22,24,26,-1,28,30,32,34,36,38,40,42,-1,44,46,-1,-1,-1,-1,-1,-1,-1,-1,-1,-1,-1,-1,-1,-1,-1,-1,-1,-1,-1,-1],"split_conditions":[1.157E2,6.6E1,1.209E2,7.01E1,2.536E1,6.74E1,6.52E1,1.125E2,1.365776E-1,1.539E1,2.4983215E-1,6.68E1,1.799E1,6.47E1,6.55E1,-6.2661934E-1,1.13E2,1.098E2,7.27E1,6.96E1,1.004E2,6.85E1,6.91E1,6.61E1,-1.6246644E-1,6.82E1,1.021E2,1.0495072E-1,-3.760235E-1,-1.6443215E-1,-4.3025208E-1,-1.0287018E-1,3.9529726E-1,-9.320221E-2,3.2136574E-1,-3.568054E-1,-1.1565399E-2,1.10219575E-1,-1.2369957E-1,2.0050736E-1,1.9467926E-1,-3.7099075E-2,6.535301E-1,6.5940475E-1,1.75391E-1,5.129204E-1,3.5860445E-2],"split_indices":[3,6,2,7,0,6,7,3,0,0,0,6,0,7,6,0,3,3,6,7,5,6,6,6,0,7,5,0,0,0,0,0,0,0,0,0,0,0,0,0,0,0,0,0,0,0,0],"split_type":[0,0,0,0,0,0,0,0,0,0,0,0,0,0,0,0,0,0,0,0,0,0,0,0,0,0,0,0,0,0,0,0,0,0,0,0,0,0,0,0,0,0,0,0,0,0,0],"sum_hessian":[4.46E2,2.05E2,2.41E2,6E1,1.45E2,1.71E2,7E1,5.7E1,3E0,1.34E2,1.1E1,7.2E1,9.9E1,1.3E1,5.7E1,2.8E1,2.9E1,1.6E1,1.18E2,6.2E1,1E1,3E1,6.9E1,8E0,5E0,9E0,4.8E1,5E0,2.4E1,6E0,1E1,1.15E2,3E0,5E1,1.2E1,7E0,3E0,1.2E1,1.8E1,3.3E1,3.6E1,4E0,4E0,3E0,6E0,4.5E1,3E0],"tree_param":{"num_deleted":"0","num_feature":"8","num_nodes":"47","size_leaf_vector":"1"}},{"base_weights":[3.2258064E-3,-7.647059E-2,1.9302325E-1,-3.1935483E-1,-4.8550725E-2,-1.3809524E-1,2.559633E-1,-1.8888889E-1,-2.2857143E-2,-6.329588E-2,1.7E-2,-2.4444444E-1,1.75E-2,-3.3333332E-3,2.7307692E-1,-1.7727273E-2,5E-2,-1.2352941E-1,1.6521739E-2,-8.181818E-2,-2.125E-2,-0E0,2.9583332E-1,9.000001E-3,-5.0000004E-3,-1.7068965E-2,-3.5599999E-3,3.375E-3,-4.722222E-3,-1.75E-2,2.5000002E-3,1.1666667E-2,-1.75E-2,1.24285715E-2,2.0185186E-2],"categories":[],"categories_nodes":[],"categories_segments":[],"categories_sizes":[],"default_left":[0,0,0,0,0,0,0,0,0,0,0,0,0,0,0,0,0,0,0,0,0,0,0,0,0,0,0,0,0,0,0,0,0,0,0],"id":6,"left_children":[1,3,5,7,9,11,13,15,-1,17,-1,19,-1,-1,21,-1,23,25,27,29,-1,31,33,-1,-1,-1,-1,-1,-1,-1,-1,-1,-1,-1,-1],"loss_changes":[6.5911746E0,2.022781E0,2.7355728E0,4.0632343E-1,1.5751207E0,1.1650794E0,6.4067507E-1,7.60505E-1,0E0,1.2963969E0,0E0,4.430809E-1,0E0,0E0,6.462822E-1,0E0,1.82E-1,1.6786294E0,6.542198E-1,4.3636364E-1,0E0,8.166667E-1,3.2384682E-1,0E0,0E0,0E0,0E0,0E0,0E0,0E0,0E0,0E0,0E0,0E0,0E0],"parents":[2147483647,0,0,1,1,2,2,3,3,4,4,5,5,6,6,7,7,9,9,11,11,14,14,16,16,17,17,18,18,19,19,21,21,22,22],"right_children":[2,4,6,8,10,12,14,16,-1,18,-1,20,-1,-1,22,-1,24,26,28,30,-1,32,34,-1,-1,-1,-1,-1,-1,-1,-1,-1,-1,-1,-1],"split_conditions":[1.19E2,1.574E1,6.55E1,1.125E2,2.422E1,2.848E1,1.486E1,9.79E1,-5.069458E-1,6.77E1,3.775688E-1,2.324E1,2.886055E-1,-1.0914536E-1,9.08E1,-3.8334998E-1,1.009E2,9.46E1,1.176E2,6.41E1,-1.79039E-1,3.062E1,3.062E1,1.07722856E-1,-3.5488817E-1,-5.358208E-1,-6.892395E-2,4.7815707E-2,-8.445282E-2,-3.2891464E-1,4.058319E-1,1.500969E-1,-3.9877626E-1,3.7533495E-1,6.380947E-1],"split_indices":[2,0,7,2,1,0,1,5,0,7,0,1,0,0,5,0,5,5,2,7,0,0,0,0,0,0,0,0,0,0,0,0,0,0,0],"split_type":[0,0,0,0,0,0,0,0,0,0,0,0,0,0,0,0,0,0,0,0,0,0,0,0,0,0,0,0,0,0,0,0,0,0,0],"sum_hessian":[4.33E2,3.05E2,1.28E2,3E1,2.75E2,2E1,1.08E2,1.7E1,1.3E1,2.66E2,9E0,1.7E1,3E0,5E0,1.03E2,1E1,7E0,1.52E2,1.14E2,1E1,7E0,8E0,9.5E1,4E0,3E0,2.8E1,1.24E2,7.9E1,3.5E1,3E0,7E0,5E0,3E0,6.9E1,2.6E1],"tree_param":{"num_deleted":"0","num_feature":"8","num_nodes":"35","size_leaf_vector":"1"}},{"base_weights":[-1.4678899E-2,-1.0123077E-1,2.3571429E-1,-2.6853934E-1,-3.7552744E-2,-1.3571429E-2,2.6792452E-1,-2.3636363E-2,-1.9705883E-1,-3E-1,-8.837209E-3,-1.1666667E-1,3.1473684E-1,-3.7E-1,-1.2040816E-1,-1.4E-1,-3.857143E-1,-2.6470589E-2,2.8333333E-1,-0E0,-1.1666667E-2,1.2608695E-1,3.6849314E-1,-2.2857143E-2,-6.428571E-3,8.571429E-3,-1.1666667E-2,5.0000004E-3,-1.3571429E-2,-5.0000004E-3,-2.2272727E-2,-7.181818E-3,8.0000004E-4,6.428571E-3,2.0000001E-2,-1.6666666E-3,1.4166667E-2,1.348485E-2,2.1829268E-2],"categories":[],"categories_nodes":[],"categories_segments":[],"categories_sizes":[],"default_left":[0,0,0,0,0,0,0,0,0,0,0,0,0,0,0,0,0,0,0,0,0,0,0,0,0,0,0,0,0,0,0,0,0,0,0,0,0,0,0],"id":7,"left_children":[1,3,5,7,9,-1,11,-1,13,15,17,19,21,23,25,27,29,31,33,-1,-1,35,37,-1,-1,-1,-1,-1,-1,-1,-1,-1,-1,-1,-1,-1,-1,-1,-1],"loss_changes":[9.459406E0,3.4218173E0,1.9019136E0,1.1388617E0,1.7525711E0,0E0,1.9649086E0,0E0,8.0781984E-1,2.088573E-1,1.0894839E0,1.6333334E-1,8.6748505E-1,3.0342865E-1,1.6610203E0,3.597143E-1,1.3987017E-1,1.0301862E0,1.1238098E-1,0E0,0E0,6.110145E-1,3.0271626E-1,0E0,0E0,0E0,0E0,0E0,0E0,0E0,0E0,0E0,0E0,0E0,0E0,0E0,0E0,0E0,0E0],"parents":[2147483647,0,0,1,1,2,2,3,3,4,4,6,6,8,8,9,9,10,10,11,11,12,12,13,13,14,14,15,15,16,16,17,17,18,18,21,21,22,22],"right_children":[2,4,6,8,10,-1,12,-1,14,16,18,20,22,24,26,28,30,32,34,-1,-1,36,38,-1,-1,-1,-1,-1,-1,-1,-1,-1,-1,-1,-1,-1,-1,-1,-1],"split_conditions":[1.189E2,6.6E1,1.794E1,1.121E2,1.464E1,-3.376503E-2,6.52E1,-6.7700654E-1,6.61E1,1.134E2,7.27E1,2.285E1,6.59E1,9.93E1,6.7E1,6.85E1,6.34E1,1.135E2,1.794E1,-7.5667575E-2,-1.7008744E-1,6.94E1,6.89E1,-3.5091707E-1,-1.726452E-1,8.031082E-2,-2.992401E-1,1.5826417E-2,-2.7755928E-1,-4.1075212E-1,-3.7084007E-1,-1.3907929E-1,2.6714325E-2,2.633442E-1,6.0056156E-1,-1.1095429E-2,6.21109E-1,2.3620187E-1,5.3424835E-1],"split_indices":[3,6,0,3,1,0,7,0,7,3,6,0,6,5,7,6,7,3,0,0,0,7,7,0,0,0,0,0,0,0,0,0,0,0,0,0,0,0,0],"split_type":[0,0,0,0,0,0,0,0,0,0,0,0,0,0,0,0,0,0,0,0,0,0,0,0,0,0,0,0,0,0,0,0,0,0,0,0,0,0,0],"sum_hessian":[4.35E2,3.24E2,1.11E2,8.8E1,2.36E2,6E0,1.05E2,2.1E1,6.7E1,2.2E1,2.14E2,1.1E1,9.4E1,1.9E1,4.8E1,9E0,1.3E1,2.03E2,1.1E1,6E0,5E0,2.2E1,7.2E1,1.3E1,6E0,1.3E1,3.5E1,3E0,6E0,3E0,1E1,5.4E1,1.49E2,6E0,5E0,1.1E1,1.1E1,3.2E1,4E1],"tree_param":{"num_deleted":"0","num_feature":"8","num_nodes":"39","size_leaf_vector":"1"}},{"base_weights":[-1.5646258E-2,-5.074627E-2,3.35E-1,-9.934641E-2,1.0206185E-1,5E-2,3.909091E-1,-1.9E-1,-0E0,-8E-2,1.8235295E-1,-9.000001E-3,1.75E-2,2.4285714E-1,2.3500001E-2,-2.3953488E-1,1.25E-2,2.4545455E-1,-4.2857144E-2,1.9E-2,-1.6923077E-1,2.1666666E-2,1.4E-1,1E-1,2.0000001E-2,-1.4514563E-2,-1.6666668E-3,-5.8333334E-3,4.5238095E-3,-6.428571E-3,2.0000001E-2,-1.2380953E-2,2.882353E-3,-0E0,-1.8333334E-2,-9.000001E-3,8.392857E-3,1.1666667E-2,-5.0000004E-3],"categories":[],"categories_nodes":[],"categories_segments":[],"categories_sizes":[],"default_left":[0,0,0,0,0,0,0,0,0,0,0,0,0,0,0,0,0,0,0,0,0,0,0,0,0,0,0,0,0,0,0,0,0,0,0,0,0,0,0],"id":8,"left_children":[1,3,5,7,9,11,13,15,17,19,21,-1,-1,23,-1,25,27,29,31,-1,33,-1,35,37,-1,-1,-1,-1,-1,-1,-1,-1,-1,-1,-1,-1,-1,-1,-1],"loss_changes":[5.4162645E0,2.995319E0,5.737276E-1,2.7558694E0,1.4427639E0,6.32E-1,2.0098686E-1,1.6306281E0,1.5568831E0,1.2746154E0,6.048238E-1,0E0,0E0,2.2428578E-1,0E0,1.3080802E0,3.302381E-1,1.3502597E0,2.6262803E0,0E0,8.687179E-1,0E0,5.638572E-1,2.7666667E-1,0E0,0E0,0E0,0E0,0E0,0E0,0E0,0E0,0E0,0E0,0E0,0E0,0E0,0E0,0E0],"parents":[2147483647,0,0,1,1,2,2,3,3,4,4,5,5,6,6,7,7,8,8,9,9,10,10,13,13,15,15,16,16,17,17,18,18,20,20,22,22,23,23],"right_children":[2,4,6,8,10,12,14,16,18,20,22,-1,-1,24,-1,26,28,30,32,-1,34,-1,36,38,-1,-1,-1,-1,-1,-1,-1,-1,-1,-1,-1,-1,-1,-1,-1],"split_conditions":[2.848E1,6.93E1,9.02E1,1.159E2,6.6E1,1.234E2,2.655E1,6.87E1,1.647E1,9.41E1,1.541E1,-5.115475E-1,6.3721466E-1,1.198E2,5.069794E-1,1.001E2,1.69E1,1.541E1,1.908E1,3.3712348E-1,6.48E1,2.231495E-1,1.135E2,3.062E1,6.206337E-1,-4.235817E-1,-1.7198792E-1,-1.4133453E-1,7.714653E-2,-5.663643E-1,6.471711E-2,-2.5106126E-1,1.20542146E-1,3.632431E-2,-2.6695022E-1,-4.051815E-1,1.776123E-1,1.1914291E-1,-2.4274293E-1],"split_indices":[0,6,4,3,7,3,1,7,1,4,1,0,0,3,0,4,0,1,1,0,7,0,3,0,0,0,0,0,0,0,0,0,0,0,0,0,0,0,0],"split_type":[0,0,0,0,0,0,0,0,0,0,0,0,0,0,0,0,0,0,0,0,0,0,0,0,0,0,0,0,0,0,0,0,0,0,0,0,0,0,0],"sum_hessian":[4.4E2,4.01E2,3.9E1,3.05E2,9.6E1,7E0,3.2E1,1.59E2,1.46E2,2.9E1,6.7E1,4E0,3E0,1.3E1,1.9E1,1.28E2,3.1E1,2.1E1,1.25E2,4E0,2.5E1,8E0,5.9E1,8E0,5E0,1.02E2,2.6E1,1.1E1,2E1,6E0,1.5E1,4.1E1,8.4E1,1.4E1,1.1E1,4E0,5.5E1,5E0,3E0],"tree_param":{"num_deleted":"0","num_feature":"8","num_nodes":"39","size_leaf_vector":"1"}},{"base_weights":[4.328018E-3,-7.267081E-2,2.1525423E-1,-2.069307E-1,-1.0810811E-2,3.1034483E-2,2.711111E-1,-3.2083333E-1,-1E-1,-3.047619E-2,3E-1,-5.8333334E-2,2.0000001E-2,2.9506174E-1,4E-2,-4.304348E-1,-2.0769231E-1,-2.2258064E-1,5.8333334E-2,-9.569892E-2,2.0338982E-2,-5.0000004E-3,2.2E-2,-1.5263158E-1,1.1666667E-2,1.8148148E-1,3.4363636E-1,1.75E-2,-1.2857142E-1,-2.3500001E-2,-5.0000004E-3,-1.5714286E-2,-3.4615386E-3,1.1666667E-2,-1.6153848E-2,1.5000001E-2,-1.0000001E-2,-8.387097E-3,2.1875E-3,7.1052634E-3,-1.7901234E-3,-4.375E-3,-1.75E-2,1.2826087E-2,-9.000001E-3,3.3333332E-3,1.84E-2,-1.75E-2,5.0000004E-3],"categories":[],"categories_nodes":[],"categories_segments":[],"categories_sizes":[],"default_left":[0,0,0,0,0,0,0,0,0,0,0,0,0,0,0,0,0,0,0,0,0,0,0,0,0,0,0,0,0,0,0,0,0,0,0,0,0,0,0,0,0,0,0,0,0,0,0,0,0],"id":9,"left_children":[1,3,5,7,9,11,13,15,17,19,21,23,-1,25,27,29,31,33,35,37,39,-1,-1,41,-1,43,45,-1,47,-1,-1,-1,-1,-1,-1,-1,-1,-1,-1,-1,-1,-1,-1,-1,-1,-1,-1,-1,-1],"loss_changes":[7.1597314E0,2.6503007E0,1.1755848E0,1.155982E0,1.3391017E0,1.0137358E0,4.5286465E-1,4.4200945E-1,1.0774732E0,7.0548636E-1,8.060001E-1,6.876316E-1,0E0,3.3201075E-1,5.8971435E-1,1.966958E-1,3.2362652E-1,1.5047061E0,1.5683333E0,9.540457E-1,8.2238203E-1,0E0,0E0,1.6986844E-1,0E0,7.8621894E-1,3.031397E-1,0E0,4.1428575E-1,0E0,0E0,0E0,0E0,0E0,0E0,0E0,0E0,0E0,0E0,0E0,0E0,0E0,0E0,0E0,0E0,0E0,0E0,0E0,0E0],"parents":[2147483647,0,0,1,1,2,2,3,3,4,4,5,5,6,6,7,7,8,8,9,9,10,10,11,11,13,13,14,14,15,15,16,16,17,17,18,18,19,19,20,20,23,23,25,25,26,26,28,28],"right_children":[2,4,6,8,10,12,14,16,18,20,22,24,-1,26,28,30,32,34,36,38,40,-1,-1,42,-1,44,46,-1,48,-1,-1,-1,-1,-1,-1,-1,-1,-1,-1,-1,-1,-1,-1,-1,-1,-1,-1,-1,-1],"split_conditions":[1.197E2,1.135E2,6.59E1,6.66E1,1.219E2,1.241E2,1.008E2,1.12E2,1.144E2,6.74E1,9.04E1,1.252E2,8.144905E-1,1.174E2,9.49E1,1.168E2,9.52E1,1.114E2,1.175E2,9.92E1,9.56E1,-9.86023E-3,4.816307E-1,2.647E1,4.2471772E-1,1.168E2,9.08E1,9.173935E-1,1.017E2,-5.163681E-1,-6.786751E-1,-4.6274492E-1,-2.9056588E-1,1.19766235E-1,-4.7419205E-1,1.617035E-1,-1.3248597E-1,-2.4129792E-1,3.4225464E-3,8.0170445E-2,-1.6460419E-2,-1.6905213E-2,-5.8071977E-1,3.4250376E-1,-2.0901719E-1,2.7980042E-1,4.2864305E-1,-2.0839997E-1,9.0791017E-1],"split_indices":[2,3,6,6,3,3,5,3,2,6,4,2,0,3,4,2,4,2,2,4,4,0,0,1,0,3,5,0,5,0,0,0,0,0,0,0,0,0,0,0,0,0,0,0,0,0,0,0,0],"split_type":[0,0,0,0,0,0,0,0,0,0,0,0,0,0,0,0,0,0,0,0,0,0,0,0,0,0,0,0,0,0,0,0,0,0,0,0,0,0,0,0,0,0,0,0,0,0,0,0,0],"sum_hessian":[4.38E2,3.21E2,1.17E2,1E2,2.21E2,2.8E1,8.9E1,4.7E1,5.3E1,2.09E2,1.2E1,2.3E1,5E0,8E1,9E0,2.2E1,2.5E1,3E1,2.3E1,9.2E1,1.17E2,3E0,9E0,1.8E1,5E0,2.6E1,5.4E1,3E0,6E0,1.9E1,3E0,1.3E1,1.2E1,5E0,2.5E1,1.2E1,1.1E1,6.1E1,3.1E1,3.7E1,8E1,1.5E1,3E0,2.2E1,4E0,5E0,4.9E1,3E0,3E0],"tree_param":{"num_deleted":"0","num_feature":"8","num_nodes":"49","size_leaf_vector":"1"}},{"base_weights":[8.9285715E-4,-6.510904E-2,1.671875E-1,-3.0588236E-1,-3.6111113E-2,-1.2608695E-1,2.3018868E-1,-3.7586206E-1,3.3333332E-3,-9.1907516E-2,4.6551723E-2,-2.882353E-1,1.3571429E-2,2.0789474E-2,1.8636364E-1,-2.0000001E-2,-5.0000004E-3,-3E-1,-5.8940396E-2,-1.590909E-2,2.3793103E-1,9.000001E-3,-2.2692308E-2,-0E0,2.3428571E-1,-0E0,-1.8157896E-2,-3.758621E-3,1.3571429E-2,4.6226415E-3,-8.888889E-3,1.6666666E-3,1.7777778E-2,8.636364E-3,-1.0555556E-2,-0E0,1.4642857E-2],"categories":[],"categories_nodes":[],"categories_segments":[],"categories_sizes":[],"default_left":[0,0,0,0,0,0,0,0,0,0,0,0,0,0,0,0,0,0,0,0,0,0,0,0,0,0,0,0,0,0,0,0,0,0,0,0,0],"id":10,"left_children":[1,3,5,7,9,11,13,15,-1,17,19,21,-1,-1,23,-1,-1,25,27,29,31,-1,-1,33,35,-1,-1,-1,-1,-1,-1,-1,-1,-1,-1,-1,-1],"loss_changes":[4.938234E0,2.1959534E0,2.4044435E0,9.423866E-1,1.3371532E0,1.562415E0,7.2449684E-1,1.0310364E-1,0E0,1.13324E0,1.4126174E0,1.4273394E0,0E0,0E0,7.8592205E-1,0E0,0E0,4.357896E-1,8.10524E-1,1.568524E0,6.471648E-1,0E0,0E0,7.2929287E-1,9.605713E-1,0E0,0E0,0E0,0E0,0E0,0E0,0E0,0E0,0E0,0E0,0E0,0E0],"parents":[2147483647,0,0,1,1,2,2,3,3,4,4,5,5,6,6,7,7,9,9,10,10,11,11,14,14,17,17,18,18,19,19,20,20,23,23,24,24],"right_children":[2,4,6,8,10,12,14,16,-1,18,20,22,-1,-1,24,-1,-1,26,28,30,32,-1,-1,34,36,-1,-1,-1,-1,-1,-1,-1,-1,-1,-1,-1,-1],"split_conditions":[2.345E1,1.113E2,6.52E1,1.165E2,6.81E1,2.848E1,6.7E1,1.78E1,1.5638733E-2,1.574E1,9.93E1,2.422E1,3.450348E-1,4.101677E-1,1.168E2,-3.82061E-1,-4.8474884E-1,1.501E1,1.197E2,9.76E1,1.153E2,3.47015E-1,-2.6180306E-1,1.151E2,9.04E1,-9.2041396E-2,-3.4533882E-1,-7.557716E-2,4.2775726E-1,1.0634041E-1,-1.4496155E-1,1.46659855E-2,2.5012514E-1,2.1531525E-1,-3.1737366E-1,6.4247134E-3,4.0721056E-1],"split_indices":[0,3,7,2,7,0,7,0,0,0,4,0,0,0,3,0,0,0,2,4,3,0,0,3,4,0,0,0,0,0,0,0,0,0,0,0,0],"split_type":[0,0,0,0,0,0,0,0,0,0,0,0,0,0,0,0,0,0,0,0,0,0,0,0,0,0,0,0,0,0,0,0,0,0,0,0,0],"sum_hessian":[4.47E2,3.2E2,1.27E2,3.3E1,2.87E2,2.2E1,1.05E2,2.8E1,5E0,1.72E2,1.15E2,1.6E1,6E0,1.8E1,8.7E1,2.5E1,3E0,2.2E1,1.5E2,8.7E1,2.8E1,4E0,1.2E1,1.8E1,6.9E1,4E0,1.8E1,1.44E2,6E0,5.2E1,3.5E1,1.1E1,1.7E1,1E1,8E0,1.4E1,5.5E1],"tree_param":{"num_deleted":"0","num_feature":"8","num_nodes":"37","size_leaf_vector":"1"}},{"base_weights":[-1.7874395E-2,-1.4153005E-1,7.931034E-2,-2.4166666E-1,-7.5E-2,3.7E-2,3.3030304E-1,-2.357143E-2,-1.423077E-1,-2.6666667E-2,-2.5652173E-1,-0E0,3.3636364E-1,-0E0,3.7586206E-1,-1.893617E-1,1.1666667E-2,-2.3333333E-1,3.4285713E-2,-3.4705883E-1,-0E0,-6.428572E-2,5.625E-2,2.0555556E-2,-0E0,2.2307692E-1,2.3235295E-2,-6.75E-3,-2.125E-2,5.0000004E-3,-1.5000001E-2,-3.9189192E-3,7.941177E-3,-0E0,-2.2692308E-2,4.722222E-3,-9.081633E-3,4.647059E-3,-1.0000001E-2,2.5000002E-3,2.0000001E-2],"categories":[],"categories_nodes":[],"categories_segments":[],"categories_sizes":[],"default_left":[0,0,0,0,0,0,0,0,0,0,0,0,0,0,0,0,0,0,0,0,0,0,0,0,0,0,0,0,0,0,0,0,0,0,0,0,0,0,0,0,0],"id":11,"left_children":[1,3,5,7,9,11,13,-1,15,17,19,21,23,-1,25,27,-1,29,31,33,-1,35,37,-1,-1,39,-1,-1,-1,-1,-1,-1,-1,-1,-1,-1,-1,-1,-1,-1,-1],"loss_changes":[4.9926686E0,1.1693716E0,2.4147925E0,1.5152197E0,9.474783E-1,2.215291E0,4.965937E-1,0E0,9.589089E-1,1.1616191E0,5.3416896E-1,6.5089285E-1,5.531311E-1,0E0,2.2120285E-1,4.8868084E-1,0E0,5.1666665E-1,1.0026586E0,6.300452E-1,0E0,1.5904988E0,9.1048527E-1,0E0,0E0,3.3307695E-1,0E0,0E0,0E0,0E0,0E0,0E0,0E0,0E0,0E0,0E0,0E0,0E0,0E0,0E0,0E0],"parents":[2147483647,0,0,1,1,2,2,3,3,4,4,5,5,6,6,8,8,9,9,10,10,11,11,12,12,14,14,15,15,17,17,18,18,19,19,21,21,22,22,25,25],"right_children":[2,4,6,8,10,12,14,-1,16,18,20,22,24,-1,26,28,-1,30,32,34,-1,36,38,-1,-1,40,-1,-1,-1,-1,-1,-1,-1,-1,-1,-1,-1,-1,-1,-1,-1],"split_conditions":[1.152E2,6.66E1,2.848E1,1.12E2,1.145E2,7.15E1,1.178E2,-5.394406E-1,7E1,1.585E1,9.9E1,2.101E1,7.28E1,-1.3676377E-1,6.61E1,6.64E1,1.472374E-1,6.81E1,6.7E1,9.56E1,-8.283043E-2,1.732E1,1.241E2,3.6546096E-1,2.181118E-1,1.234E2,4.2202416E-1,-2.7303085E-1,-3.3494034E-1,6.452637E-2,-1.4475556E-1,-4.0846635E-2,2.9202348E-1,-7.3949434E-2,-2.6792184E-1,3.8915254E-2,-1.6059648E-1,1.4072914E-1,-4.134674E-2,2.254486E-2,6.058785E-1],"split_indices":[3,6,0,3,3,6,3,0,7,0,4,0,6,0,6,6,0,6,7,4,0,0,3,0,0,3,0,0,0,0,0,0,0,0,0,0,0,0,0,0,0],"split_type":[0,0,0,0,0,0,0,0,0,0,0,0,0,0,0,0,0,0,0,0,0,0,0,0,0,0,0,0,0,0,0,0,0,0,0,0,0,0,0,0,0],"sum_hessian":[4.13E2,1.82E2,2.31E2,7.1E1,1.11E2,1.99E2,3.2E1,2E1,5.1E1,8.9E1,2.2E1,1.78E2,2.1E1,4E0,2.8E1,4.6E1,5E0,2E1,6.9E1,1.6E1,6E0,8.3E1,9.5E1,1.7E1,4E0,1.2E1,1.6E1,3.9E1,7E0,3E0,1.7E1,3.6E1,3.3E1,4E0,1.2E1,3.5E1,4.8E1,8.4E1,1.1E1,7E0,5E0],"tree_param":{"num_deleted":"0","num_feature":"8","num_nodes":"41","size_leaf_vector":"1"}},{"base_weights":[-2.5290024E-2,-1.1014493E-1,1.24358974E-1,-2.0077519E-1,-2.972973E-2,-7.435898E-2,1.8983051E-1,-3.6341465E-1,-1.2247191E-1,-2.0555556E-1,2.5663717E-2,3.3333335E-2,-3E-1,3.5E-2,2.6455697E-1,-4.448276E-1,-1.4615385E-1,-2E-1,-1.0526315E-2,6.428571E-3,-2.8E-1,-1.372549E-2,3.6666667E-1,-1.3571429E-2,1.3809524E-1,-2.1666666E-2,-0E0,1.2142857E-1,-1.4615385E-1,-3.3333332E-3,2.891892E-1,-2.3846155E-2,-5.0000004E-3,3.3333332E-3,-1.5000001E-2,-0E0,-1.1818182E-2,-7.8000003E-3,1.2142858E-2,-1.6818183E-2,-5.0000004E-3,-2.5000002E-3,9.666666E-3,5.0000004E-3,2.1666666E-2,-5.0000004E-3,1.5000001E-2,1.6111111E-2,1E-3,-1.9E-2,-0E0,2.0384615E-2,7.5000003E-3],"categories":[],"categories_nodes":[],"categories_segments":[],"categories_sizes":[],"default_left":[0,0,0,0,0,0,0,0,0,0,0,0,0,0,0,0,0,0,0,0,0,0,0,0,0,0,0,0,0,0,0,0,0,0,0,0,0,0,0,0,0,0,0,0,0,0,0,0,0,0,0,0,0],"id":12,"left_children":[1,3,5,7,9,11,13,15,17,19,21,23,25,27,29,31,33,35,37,-1,39,41,43,-1,45,-1,-1,47,49,-1,51,-1,-1,-1,-1,-1,-1,-1,-1,-1,-1,-1,-1,-1,-1,-1,-1,-1,-1,-1,-1,-1,-1],"loss_changes":[5.485308E0,1.9824827E0,2.0552804E0,1.5497441E0,1.4647249E0,9.843589E-1,1.3260369E0,6.0109043E-1,7.4926686E-1,9.466033E-1,1.5581243E0,8.8619053E-1,5.200001E-1,6.415494E-1,6.8607473E-1,2.1556997E-1,4.6897438E-1,3.781817E-1,1.4299037E0,0E0,2.2709084E-1,7.61451E-1,1.16666675E-1,0E0,8.595238E-1,0E0,0E0,5.2958727E-1,4.443077E-1,0E0,1.1036587E0,0E0,0E0,0E0,0E0,0E0,0E0,0E0,0E0,0E0,0E0,0E0,0E0,0E0,0E0,0E0,0E0,0E0,0E0,0E0,0E0,0E0,0E0],"parents":[2147483647,0,0,1,1,2,2,3,3,4,4,5,5,6,6,7,7,8,8,9,9,10,10,11,11,12,12,13,13,14,14,15,15,16,16,17,17,18,18,20,20,21,21,22,22,24,24,27,27,28,28,30,30],"right_children":[2,4,6,8,10,12,14,16,18,20,22,24,26,28,30,32,34,36,38,-1,40,42,44,-1,46,-1,-1,48,50,-1,52,-1,-1,-1,-1,-1,-1,-1,-1,-1,-1,-1,-1,-1,-1,-1,-1,-1,-1,-1,-1,-1,-1],"split_conditions":[1.996E1,6.74E1,6.58E1,6.62E1,1.513E1,9.64E1,1.185E2,9.76E1,9.92E1,9.73E1,1E2,1.168E2,9.93E1,9.46E1,9.02E1,6.7E1,6.43E1,1.109E2,1.647E1,1.937046E-1,6.81E1,1.008E2,1.542E1,-5.898533E-1,6.61E1,-2.4098054E-1,1.3238259E-1,6.85E1,9.64E1,-2.2002412E-2,9.49E1,-4.7906724E-1,-1.1860504E-1,4.5941163E-2,-2.9694366E-1,-4.760361E-3,-2.961815E-1,-2.26548E-1,3.148346E-1,-4.2597732E-1,-5.8602143E-2,-3.7944794E-2,3.8949966E-2,4.406502E-1,3.0847168E-1,-2.6437494E-1,2.3514786E-1,2.718788E-1,1.4859009E-2,-2.5837097E-1,3.180771E-2,3.6609268E-1,3.207619E-1],"split_indices":[1,6,7,7,1,4,2,5,4,5,4,2,4,4,4,6,7,2,1,0,7,5,1,0,6,0,0,7,5,0,4,0,0,0,0,0,0,0,0,0,0,0,0,0,0,0,0,0,0,0,0,0,0],"split_type":[0,0,0,0,0,0,0,0,0,0,0,0,0,0,0,0,0,0,0,0,0,0,0,0,0,0,0,0,0,0,0,0,0,0,0,0,0,0,0,0,0,0,0,0,0,0,0,0,0,0,0,0,0],"sum_hessian":[4.3E2,2.75E2,1.55E2,1.28E2,1.47E2,3.8E1,1.17E2,4E1,8.8E1,3.5E1,1.12E2,2.6E1,1.2E1,3.9E1,7.8E1,2.8E1,1.2E1,5.1E1,3.7E1,6E0,2.9E1,1.01E2,1.1E1,6E0,2E1,8E0,4E0,2.7E1,1.2E1,5E0,7.3E1,2.5E1,3E0,5E0,7E0,8E0,4.3E1,2.4E1,1.3E1,2.1E1,8E0,8.7E1,1.4E1,3E0,8E0,8E0,1.2E1,8E0,1.9E1,4E0,8E0,3.8E1,3.5E1],"tree_param":{"num_deleted":"0","num_feature":"8","num_nodes":"53","size_leaf_vector":"1"}},{"base_weights":[-5.6872037E-3,-8.675958E-2,1.6470589E-1,-1.9770992E-1,5.732484E-3,-0E0,2.2857143E-1,-2.7209303E-1,-5.2173913E-2,-1.2894737E-2,4.2446043E-2,2.4E-1,-8E-2,2.875E-1,1.11428574E-1,-3.1875E-1,-1.2608695E-1,-2.6E-1,4.375E-2,-3.2786885E-3,3.5555556E-1,-0E0,2.0000001E-2,-2.2307692E-1,2.2222223E-2,1.8E-1,3.6857143E-1,1.5806451E-1,-9.000001E-3,-2.2692308E-2,-1.3846154E-2,1.3571429E-2,-1.4411765E-2,-1.8333334E-2,5.0000004E-3,2.0000001E-2,-1.6666668E-3,-1.3181818E-2,1.0714286E-3,2.3E-2,-5.0000004E-3,-2.5000002E-3,-2.0000001E-2,-9.000001E-3,5.0000004E-3,1.35E-2,-0E0,6.428571E-3,2.0517243E-2,-2.5000002E-3,1.12499995E-2],"categories":[],"categories_nodes":[],"categories_segments":[],"categories_sizes":[],"default_left":[0,0,0,0,0,0,0,0,0,0,0,0,0,0,0,0,0,0,0,0,0,0,0,0,0,0,0,0,0,0,0,0,0,0,0,0,0,0,0,0,0,0,0,0,0,0,0,0,0,0,0],"id":13,"left_children":[1,3,5,7,9,11,13,15,17,-1,19,21,23,25,27,29,31,33,35,37,39,-1,-1,41,43,45,47,49,-1,-1,-1,-1,-1,-1,-1,-1,-1,-1,-1,-1,-1,-1,-1,-1,-1,-1,-1,-1,-1,-1,-1],"loss_changes":[5.8360763E0,2.9655328E0,1.430588E0,1.3715072E0,1.5089567E0,7.68E-1,6.0457134E-1,5.011754E-1,9.5003265E-1,0E0,2.0264354E0,3.84E-1,4.6381196E-1,4.365716E-1,5.019448E-1,1.6288471E-1,1.562415E0,6.3933325E-1,9.2875004E-1,8.146625E-1,9.384444E-1,0E0,0E0,3.3307695E-1,2.931111E-1,4.8599994E-1,2.44246E-1,4.6048385E-1,0E0,0E0,0E0,0E0,0E0,0E0,0E0,0E0,0E0,0E0,0E0,0E0,0E0,0E0,0E0,0E0,0E0,0E0,0E0,0E0,0E0,0E0,0E0],"parents":[2147483647,0,0,1,1,2,2,3,3,4,4,5,5,6,6,7,7,8,8,10,10,11,11,12,12,13,13,14,14,15,15,16,16,17,17,18,18,19,19,20,20,23,23,24,24,25,25,26,26,27,27],"right_children":[2,4,6,8,10,12,14,16,18,-1,20,22,24,26,28,30,32,34,36,38,40,-1,-1,42,44,46,48,50,-1,-1,-1,-1,-1,-1,-1,-1,-1,-1,-1,-1,-1,-1,-1,-1,-1,-1,-1,-1,-1,-1,-1],"split_conditions":[2.058E1,6.74E1,1.175E2,9.93E1,1.469E1,9.21E1,9.76E1,1.819E1,1.512E1,-3.1466103E-1,1.19E2,8.97E1,6.82E1,1.208E2,2.536E1,1.109E2,1.882E1,1.153E2,1.131E2,9.45E1,1.908E1,-1.229557E-1,2.3108064E-1,9.3E1,1.185E2,1.189E2,1.189E2,1.169E2,-9.544144E-2,-3.8484383E-1,-2.8209686E-1,2.0921937E-1,-4.3765756E-1,-3.068657E-1,5.732735E-1,3.6637804E-1,-3.5414126E-2,-3.4590492E-1,1.21681215E-2,4.5622864E-1,-3.7766267E-2,-2.461609E-1,-1.5349655E-1,-2.1965142E-1,3.1999895E-1,2.2732316E-1,2.474556E-2,1.834446E-1,3.6907998E-1,-8.364106E-3,3.319336E-1],"split_indices":[1,6,3,4,1,4,5,1,1,0,2,4,6,2,1,3,1,3,3,4,1,0,0,5,2,2,3,2,0,0,0,0,0,0,0,0,0,0,0,0,0,0,0,0,0,0,0,0,0,0,0],"split_type":[0,0,0,0,0,0,0,0,0,0,0,0,0,0,0,0,0,0,0,0,0,0,0,0,0,0,0,0,0,0,0,0,0,0,0,0,0,0,0,0,0,0,0,0,0,0,0,0,0,0,0],"sum_hessian":[4.21E2,2.86E2,1.35E2,1.3E2,1.56E2,3.8E1,9.7E1,8.5E1,4.5E1,1.8E1,1.38E2,9E0,2.9E1,6.3E1,3.4E1,6.3E1,2.2E1,1.4E1,3.1E1,1.21E2,1.7E1,4E0,5E0,1.2E1,1.7E1,2.9E1,3.4E1,3E1,4E0,1.2E1,5.1E1,6E0,1.6E1,1.1E1,3E0,5E0,2.6E1,1E1,1.11E2,1.4E1,3E0,7E0,5E0,4E0,1.3E1,1.9E1,1E1,6E0,2.8E1,7E0,2.3E1],"tree_param":{"num_deleted":"0","num_feature":"8","num_nodes":"51","size_leaf_vector":"1"}},{"base_weights":[-1.8764846E-2,-7.5E-2,1.4E-1,-2.8666666E-1,-3.880597E-2,-7.037037E-2,2.0714286E-1,-3.5641026E-1,1.2857142E-1,-2.2258064E-1,-1.4285714E-2,1.5E-1,-3.6666667E-1,2.2857143E-2,1.5352112E-1,-3.9411765E-1,-3.3333332E-3,-5.0000004E-3,1.75E-2,-2.846154E-1,3.3333332E-3,-6.263736E-2,1.3859649E-1,2.4E-1,-0E0,-2.1666666E-2,-5.0000004E-3,-1.1666667E-2,1.8787879E-1,-2.2142857E-2,-6.428571E-3,-5.8333334E-3,-1.9666668E-2,-8.219178E-4,-1.2027027E-2,1.8333334E-2,3.6956524E-3,-5.0000004E-3,2.0714287E-2,5.6249998E-3,1.8157896E-2],"categories":[],"categories_nodes":[],"categories_segments":[],"categories_sizes":[],"default_left":[0,0,0,0,0,0,0,0,0,0,0,0,0,0,0,0,0,0,0,0,0,0,0,0,0,0,0,0,0,0,0,0,0,0,0,0,0,0,0,0,0],"id":14,"left_children":[1,3,5,7,9,11,13,15,17,19,21,23,25,-1,27,29,-1,-1,-1,31,-1,33,35,37,-1,-1,-1,-1,39,-1,-1,-1,-1,-1,-1,-1,-1,-1,-1,-1,-1],"loss_changes":[3.762758E0,2.3465824E0,1.5819893E0,1.3718164E0,1.1807958E0,1.8396297E0,9.948087E-1,3.537407E-1,4.1428575E-1,5.9701395E-1,1.7604069E0,2.1600002E-1,1.16666675E-1,0E0,9.8298323E-1,3.2596588E-1,0E0,0E0,0E0,3.7784648E-1,0E0,1.4661968E0,7.6972544E-1,6.6542846E-1,0E0,0E0,0E0,0E0,7.835927E-1,0E0,0E0,0E0,0E0,0E0,0E0,0E0,0E0,0E0,0E0,0E0,0E0],"parents":[2147483647,0,0,1,1,2,2,3,3,4,4,5,5,6,6,7,7,8,8,9,9,10,10,11,11,12,12,14,14,15,15,19,19,21,21,22,22,23,23,28,28],"right_children":[2,4,6,8,10,12,14,16,18,20,22,24,26,-1,28,30,-1,-1,-1,32,-1,34,36,38,-1,-1,-1,-1,40,-1,-1,-1,-1,-1,-1,-1,-1,-1,-1,-1,-1],"split_conditions":[2.345E1,9.46E1,6.56E1,6.87E1,1.574E1,9.41E1,6.7E1,6.98E1,9.51E1,6.89E1,9.93E1,9.39E1,7.05E1,4.1816026E-1,6.76E1,1E2,-1.3146973E-1,-7.126541E-1,2.7233735E-1,1.501E1,5.4254916E-2,9.88E1,9.67E1,9.09E1,4.6915818E-2,-3.2733843E-1,-1.3206176E-1,-2.078743E-1,6.95E1,-3.5150224E-1,-2.787281E-1,-3.0931473E-1,-2.6561663E-1,-2.991028E-2,-2.0207481E-1,1.5481034E-1,5.562668E-2,-2.7460557E-1,1.8026276E-1,3.4523544E-1,4.450283E-1],"split_indices":[0,5,7,7,0,4,7,6,4,7,4,5,6,0,7,4,0,0,0,0,0,4,5,4,0,0,0,0,6,0,0,0,0,0,0,0,0,0,0,0,0],"split_type":[0,0,0,0,0,0,0,0,0,0,0,0,0,0,0,0,0,0,0,0,0,0,0,0,0,0,0,0,0,0,0,0,0,0,0,0,0,0,0,0,0],"sum_hessian":[4.2E2,3.11E2,1.09E2,4.4E1,2.67E2,2.6E1,8.3E1,3.8E1,6E0,3E1,2.37E2,1.5E1,1.1E1,1.3E1,7E1,3.3E1,5E0,3E0,3E0,2.5E1,5E0,1.81E2,5.6E1,9E0,6E0,8E0,3E0,5E0,6.5E1,2.7E1,6E0,1.1E1,1.4E1,1.45E2,3.6E1,1.1E1,4.5E1,3E0,6E0,4.7E1,1.8E1],"tree_param":{"num_deleted":"0","num_feature":"8","num_nodes":"41","size_leaf_vector":"1"}},{"base_weights":[-2.045977E-2,-7.770701E-2,1.2622951E-1,-1.8545455E-1,-1.902439E-2,-7E-2,1.6407767E-1,-2.890909E-1,-7.857143E-2,-8.051948E-2,1.6153847E-1,-2.4E-1,8.181818E-2,9.7530864E-2,3.869565E-1,-3.3829787E-1,-0E0,1.3809524E-1,-2.0555556E-1,-2.1333334E-1,-4.72E-2,2.9090908E-1,6.1290324E-2,5.0000004E-3,-2.0714287E-2,1.9E-2,-1.2857142E-1,-1.1666667E-2,1.2368421E-1,5.0000004E-3,2.1E-2,-1.9102564E-2,-5.0000004E-3,9.000001E-3,-9.000001E-3,2.125E-2,-1.4285714E-3,5.0000004E-3,-1.9347826E-2,-1.2777778E-2,5.0000004E-3,7.307693E-3,-3.4955752E-3,8.571429E-3,2.1666666E-2,-7.6923077E-4,2.0000001E-2,-1.75E-2,5.0000004E-3,1.0102041E-2,-7.142857E-4],"categories":[],"categories_nodes":[],"categories_segments":[],"categories_sizes":[],"default_left":[0,0,0,0,0,0,0,0,0,0,0,0,0,0,0,0,0,0,0,0,0,0,0,0,0,0,0,0,0,0,0,0,0,0,0,0,0,0,0,0,0,0,0,0,0,0,0,0,0,0,0],"id":15,"left_children":[1,3,5,7,9,11,13,15,17,19,21,23,25,27,29,31,33,35,37,39,41,43,45,-1,-1,-1,47,-1,49,-1,-1,-1,-1,-1,-1,-1,-1,-1,-1,-1,-1,-1,-1,-1,-1,-1,-1,-1,-1,-1,-1],"loss_changes":[3.6578934E0,1.961417E0,9.269781E-1,1.1589866E0,2.2811694E0,5.516364E-1,1.4414945E0,7.823911E-1,1.5758729E0,6.4537185E-1,6.2134683E-1,6.6542846E-1,7.6407796E-1,7.1880454E-1,1.2408686E-1,4.0362787E-1,3.24E-1,1.0559524E0,2.062802E0,4.3799996E-1,5.515131E-1,2.3961055E-1,8.4970224E-1,0E0,0E0,0E0,4.1428575E-1,0E0,8.4328663E-1,0E0,0E0,0E0,0E0,0E0,0E0,0E0,0E0,0E0,0E0,0E0,0E0,0E0,0E0,0E0,0E0,0E0,0E0,0E0,0E0,0E0,0E0],"parents":[2147483647,0,0,1,1,2,2,3,3,4,4,5,5,6,6,7,7,8,8,9,9,10,10,11,11,12,12,13,13,14,14,15,15,16,16,17,17,18,18,19,19,20,20,21,21,22,22,26,26,28,28],"right_children":[2,4,6,8,10,12,14,16,18,20,22,24,26,28,30,32,34,36,38,40,42,44,46,-1,-1,-1,48,-1,50,-1,-1,-1,-1,-1,-1,-1,-1,-1,-1,-1,-1,-1,-1,-1,-1,-1,-1,-1,-1,-1,-1],"split_conditions":[2.183E1,6.63E1,9.04E1,1.139E2,6.93E1,2.619E1,2.655E1,6.98E1,9.63E1,9.52E1,1.145E2,6.8E1,2.657E1,6.43E1,1.189E2,2.033E1,6.42E1,1.163E2,1.719E1,2.034E1,6.67E1,6.81E1,1E2,3.5946122E-1,-6.422653E-2,4.9830398E-1,6.81E1,-3.0360642E-1,2.422E1,3.4345247E-2,3.6536026E-1,-3.964119E-1,-3.7960052E-1,2.4944459E-1,-3.089176E-1,1.8040085E-1,-3.9297488E-2,6.562958E-2,-3.748665E-1,-2.7323762E-1,2.1588288E-1,9.717331E-2,-6.615448E-2,1.3867874E-1,2.7865526E-1,-2.5300598E-2,4.5954362E-1,-3.810318E-1,7.7624893E-1,1.806591E-1,-2.9571534E-3],"split_indices":[1,7,4,3,6,1,1,6,4,4,3,7,1,7,3,0,7,3,0,1,7,7,4,0,0,0,7,0,1,0,0,0,0,0,0,0,0,0,0,0,0,0,0,0,0,0,0,0,0,0,0],"split_type":[0,0,0,0,0,0,0,0,0,0,0,0,0,0,0,0,0,0,0,0,0,0,0,0,0,0,0,0,0,0,0,0,0,0,0,0,0,0,0,0,0,0,0,0,0,0,0,0,0,0,0],"sum_hessian":[4.34E2,3.13E2,1.21E2,1.09E2,2.04E2,1.9E1,1.02E2,5.4E1,5.5E1,1.53E2,5.1E1,9E0,1E1,8E1,2.2E1,4.6E1,8E0,2E1,3.5E1,2.9E1,1.24E2,2.1E1,3E1,3E0,6E0,4E0,6E0,5E0,7.5E1,3E0,1.9E1,3.8E1,8E0,4E0,4E0,7E0,1.3E1,1.3E1,2.2E1,2.6E1,3E0,1.2E1,1.12E2,1.3E1,8E0,2.5E1,5E0,3E0,3E0,4.8E1,2.7E1],"tree_param":{"num_deleted":"0","num_feature":"8","num_nodes":"51","size_leaf_vector":"1"}},{"base_weights":[7.055961E-3,-4.832215E-2,1.5263158E-1,-2.85E-1,-1.1196911E-2,6.901409E-2,2.8181818E-1,-1.3333334E-1,-3.869565E-1,-4.9523808E-2,1.48E-1,-2.125E-2,1.3125E-1,1.9032258E-1,2.2857143E-2,-1.4166667E-2,1.2857142E-1,-5.0000004E-3,-4.2E-1,-7.777778E-3,-2.8709677E-1,-4.7368422E-2,2.625E-1,2.4222222E-1,-1.2E-1,-1.2857142E-1,2.76E-1,-5.0000004E-3,1.75E-2,-2.3235295E-2,-5.0000004E-3,-1.8333334E-2,8.579882E-4,-2.2499999E-2,-8.5E-3,1.0555556E-2,-1.3181818E-2,-3.3333332E-3,1.6481481E-2,6.724138E-3,2.0294119E-2,1.0555556E-2,-1.8333334E-2,5.0000004E-3,-1.75E-2,1.6428573E-2,-0E0],"categories":[],"categories_nodes":[],"categories_segments":[],"categories_sizes":[],"default_left":[0,0,0,0,0,0,0,0,0,0,0,0,0,0,0,0,0,0,0,0,0,0,0,0,0,0,0,0,0,0,0,0,0,0,0,0,0,0,0,0,0,0,0,0,0,0,0],"id":16,"left_children":[1,3,5,7,9,11,13,15,17,19,21,-1,23,25,-1,-1,27,-1,29,31,33,35,37,39,41,43,45,-1,-1,-1,-1,-1,-1,-1,-1,-1,-1,-1,-1,-1,-1,-1,-1,-1,-1,-1,-1],"loss_changes":[3.3311663E0,2.585632E0,1.1769247E0,5.1491284E-1,1.5777766E0,2.209331E0,5.5407214E-1,7.590476E-1,1.2408686E-1,2.0510025E0,1.1524316E0,0E0,1.8257222E0,8.9721096E-1,0E0,0E0,4.1428575E-1,0E0,1.8317652E-1,1.6522077E0,4.528389E-1,1.123025E0,7.553704E-1,6.84849E-1,1.7264444E0,4.1428575E-1,3.6274278E-1,0E0,0E0,0E0,0E0,0E0,0E0,0E0,0E0,0E0,0E0,0E0,0E0,0E0,0E0,0E0,0E0,0E0,0E0,0E0,0E0],"parents":[2147483647,0,0,1,1,2,2,3,3,4,4,5,5,6,6,7,7,8,8,9,9,10,10,12,12,13,13,16,16,18,18,19,19,20,20,21,21,22,22,23,23,24,24,25,25,26,26],"right_children":[2,4,6,8,10,12,14,16,18,20,22,-1,24,26,-1,-1,28,-1,30,32,34,36,38,40,42,44,46,-1,-1,-1,-1,-1,-1,-1,-1,-1,-1,-1,-1,-1,-1,-1,-1,-1,-1,-1,-1],"split_conditions":[1.185E2,1.486E1,6.96E1,1.501E1,9.93E1,9.04E1,2.635E1,1.485E1,6.34E1,9.88E1,6.62E1,-2.8530046E-1,9.7E1,9.31E1,4.9679413E-1,-2.9054108E-1,1.408E1,-3.1579056E-1,1.59E1,6.19E1,9.89E1,6.43E1,1.585E1,1.216E2,1.196E2,9.04E1,1.001E2,-8.0964965E-1,3.1407854E-1,-2.7893564E-1,-3.0412522E-1,-3.5808563E-1,9.178924E-3,-2.6311722E-1,-1.7527084E-1,1.2565842E-1,-4.5345613E-1,-2.3079376E-1,1.716507E-1,5.556984E-2,3.4136772E-1,2.8946877E-1,-1.4236604E-1,4.8370362E-4,-5.4524004E-1,3.4285203E-1,1.420803E-1],"split_indices":[3,1,7,0,4,4,1,0,7,4,7,0,4,4,0,0,1,0,0,7,4,7,0,3,3,4,4,0,0,0,0,0,0,0,0,0,0,0,0,0,0,0,0,0,0,0,0],"split_type":[0,0,0,0,0,0,0,0,0,0,0,0,0,0,0,0,0,0,0,0,0,0,0,0,0,0,0,0,0,0,0,0,0,0,0,0,0,0,0,0,0,0,0,0,0,0,0],"sum_hessian":[4.1E2,2.97E2,1.13E2,3.9E1,2.58E2,7E1,4.3E1,1.7E1,2.2E1,2.09E2,4.9E1,7E0,6.3E1,3E1,1.3E1,1.1E1,6E0,3E0,1.9E1,1.79E2,3E1,1.8E1,3.1E1,4.4E1,1.9E1,6E0,2.4E1,3E0,3E0,1.6E1,3E0,1.1E1,1.68E2,1.1E1,1.9E1,8E0,1E1,5E0,2.6E1,2.8E1,1.6E1,8E0,1.1E1,3E0,3E0,2E1,4E0],"tree_param":{"num_deleted":"0","num_feature":"8","num_nodes":"47","size_leaf_vector":"1"}},{"base_weights":[9.263658E-3,-6.865671E-2,1.4545454E-1,-1.752E-1,2.3611112E-2,-1.8888889E-1,1.8905109E-1,-4E-1,-1.4E-1,-1.5966387E-2,2.0769231E-1,-3E-1,3.3333332E-3,-1.5000001E-2,2.1846154E-1,-2.2692308E-2,-5.0000004E-3,-1.6666666E-2,-1.7126437E-1,-2.4E-1,3.6363637E-3,-1.75E-1,3.631579E-1,-3.3333332E-3,-2.125E-2,1.7358491E-1,3.96E-1,-5.0000004E-3,1.1666667E-2,-1.1122449E-2,-5.0000004E-3,5.0000004E-3,-2.0714287E-2,-3.7931036E-3,4.6226415E-3,-1.75E-2,-0E0,6.428571E-3,2.2692308E-2,2.5675676E-3,1.1714286E-2,8.75E-3,2.3333333E-2],"categories":[],"categories_nodes":[],"categories_segments":[],"categories_sizes":[],"default_left":[0,0,0,0,0,0,0,0,0,0,0,0,0,0,0,0,0,0,0,0,0,0,0,0,0,0,0,0,0,0,0,0,0,0,0,0,0,0,0,0,0,0,0],"id":17,"left_children":[1,3,5,7,9,11,13,15,17,19,21,23,-1,-1,25,-1,-1,27,29,31,33,35,37,-1,-1,39,41,-1,-1,-1,-1,-1,-1,-1,-1,-1,-1,-1,-1,-1,-1,-1,-1],"loss_changes":[4.4853373E0,2.653874E0,2.280464E0,8.791201E-1,1.0715967E0,5.544444E-1,2.0278845E0,1.5769243E-1,4.0250564E-1,5.471184E-1,1.6292512E0,3.0166674E-1,0E0,0E0,9.1005516E-1,0E0,0E0,5.1E-1,2.628548E-1,6.6542846E-1,7.853574E-1,2.45E-1,2.876172E-1,0E0,0E0,7.4589086E-1,2.4459982E-1,0E0,0E0,0E0,0E0,0E0,0E0,0E0,0E0,0E0,0E0,0E0,0E0,0E0,0E0,0E0,0E0],"parents":[2147483647,0,0,1,1,2,2,3,3,4,4,5,5,6,6,7,7,8,8,9,9,10,10,11,11,14,14,17,17,18,18,19,19,20,20,21,21,22,22,25,25,26,26],"right_children":[2,4,6,8,10,12,14,16,18,20,22,24,-1,-1,26,-1,-1,28,30,32,34,36,38,-1,-1,40,42,-1,-1,-1,-1,-1,-1,-1,-1,-1,-1,-1,-1,-1,-1,-1,-1],"split_conditions":[2.273E1,6.75E1,9.04E1,1.113E2,1E2,1.234E2,1.14E2,9.46E1,1.13E2,9.46E1,1.464E1,2.317E1,5.084305E-1,-4.0644303E-1,2.635E1,-4.2795563E-1,-2.7601394E-1,9.95E1,9.94E1,6.97E1,6.93E1,1.553E1,1.51E1,-8.034134E-2,-4.1864625E-1,9.51E1,9.08E1,-1.1728745E-1,1.6060714E-1,-2.4732132E-1,-3.311043E-2,1.9120026E-2,-3.064846E-1,-1.0311051E-1,4.591408E-2,-2.3680344E-1,1.0667992E-1,2.5852967E-2,2.723835E-1,9.056854E-3,2.0497055E-1,3.216858E-2,4.1243973E-1],"split_indices":[0,6,4,3,4,3,3,5,3,5,1,1,0,0,1,0,0,4,5,6,6,0,1,0,0,5,5,0,0,0,0,0,0,0,0,0,0,0,0,0,0,0,0],"split_type":[0,0,0,0,0,0,0,0,0,0,0,0,0,0,0,0,0,0,0,0,0,0,0,0,0,0,0,0,0,0,0,0,0,0,0,0,0,0,0,0,0,0,0],"sum_hessian":[4.2E2,2.67E2,1.53E2,1.24E2,1.43E2,1.7E1,1.36E2,1.5E1,1.09E2,1.18E2,2.5E1,1.2E1,5E0,7E0,1.29E2,1.2E1,3E0,2.3E1,8.6E1,9E0,1.09E2,7E0,1.8E1,5E0,7E0,1.05E2,2.4E1,1.8E1,5E0,4.8E1,3.8E1,3E0,6E0,5.7E1,5.2E1,3E0,4E0,6E0,1.2E1,3.6E1,6.9E1,7E0,1.7E1],"tree_param":{"num_deleted":"0","num_feature":"8","num_nodes":"43","size_leaf_vector":"1"}},{"base_weights":[1.3378684E-2,-3.969231E-2,1.6153847E-1,-5.3650793E-2,3.5454544E-1,4.8E-2,2.4117647E-1,-1.6E-1,-1.0619469E-2,5.0000004E-3,2.125E-2,-7.058824E-2,1.4411765E-2,2.7894738E-1,3.333333E-2,-3E-1,-7.586207E-2,4.109589E-3,-2.125E-2,-2.8333333E-1,3.9130434E-2,-0E0,3.1176472E-1,9.000001E-3,-2.5000002E-3,-1.8571429E-2,3.3333332E-3,1.9E-2,-5.925926E-3,-1.3841809E-3,6.860465E-3,5.0000004E-3,-2.1666666E-2,-1.4285714E-3,7E-3,-1.75E-2,1.75E-2,1.06666675E-2,2.1363636E-2],"categories":[],"categories_nodes":[],"categories_segments":[],"categories_sizes":[],"default_left":[0,0,0,0,0,0,0,0,0,0,0,0,0,0,0,0,0,0,0,0,0,0,0,0,0,0,0,0,0,0,0,0,0,0,0,0,0,0,0],"id":18,"left_children":[1,3,5,7,9,11,13,15,17,-1,-1,19,-1,21,23,25,27,29,-1,31,33,35,37,-1,-1,-1,-1,-1,-1,-1,-1,-1,-1,-1,-1,-1,-1,-1,-1],"loss_changes":[3.4861734E0,1.7773948E0,1.017417E0,1.4227883E0,1.0227275E-1,1.4665647E0,4.9330258E-1,9.997933E-1,1.4232119E0,0E0,0E0,8.29139E-1,0E0,5.2179575E-1,1.6866666E-1,9.1952395E-1,1.1467254E0,9.41486E-1,0E0,7.6666665E-1,1.7221119E-1,9.8E-1,4.246378E-1,0E0,0E0,0E0,0E0,0E0,0E0,0E0,0E0,0E0,0E0,0E0,0E0,0E0,0E0,0E0,0E0],"parents":[2147483647,0,0,1,1,2,2,3,3,4,4,5,5,6,6,7,7,8,8,11,11,13,13,14,14,15,15,16,16,17,17,19,19,20,20,21,21,22,22],"right_children":[2,4,6,8,10,12,14,16,18,-1,-1,20,-1,22,24,26,28,30,-1,32,34,36,38,-1,-1,-1,-1,-1,-1,-1,-1,-1,-1,-1,-1,-1,-1,-1,-1],"split_conditions":[1.189E2,7.27E1,2.273E1,6.6E1,6.57E1,6.91E1,9.75E1,1.641E1,1.183E2,3.3396837E-1,4.4962922E-1,9.51E1,2.1328774E-1,6.41E1,2.366E1,1.008E2,1.647E1,6.95E1,-2.0358506E-1,6.36E1,6.96E1,6.89E1,2.647E1,3.012066E-1,-9.073639E-3,-4.917488E-1,7.0113376E-2,5.4570388E-2,-2.2119904E-1,-1.8721772E-2,3.674927E-2,1.9472198E-1,-2.8314477E-1,-1.23054504E-1,2.6128465E-1,-3.2678375E-1,7.1976167E-1,2.3444138E-1,2.750252E-1],"split_indices":[3,6,1,7,7,6,4,1,3,0,0,4,0,6,1,4,1,6,0,6,7,7,1,0,0,0,0,0,0,0,0,0,0,0,0,0,0,0,0],"split_type":[0,0,0,0,0,0,0,0,0,0,0,0,0,0,0,0,0,0,0,0,0,0,0,0,0,0,0,0,0,0,0,0,0,0,0,0,0,0,0],"sum_hessian":[4.4E2,3.24E2,1.16E2,3.14E2,1E1,4.9E1,6.7E1,8.9E1,2.25E2,3E0,7E0,3.3E1,1.6E1,5.6E1,1.1E1,3.2E1,5.7E1,2.18E2,7E0,1.1E1,2.2E1,6E0,5E1,4E0,7E0,2.7E1,5E0,4E0,5.3E1,1.76E2,4.2E1,3E0,8E0,1.3E1,9E0,3E0,3E0,2.9E1,2.1E1],"tree_param":{"num_deleted":"0","num_feature":"8","num_nodes":"39","size_leaf_vector":"1"}},{"base_weights":[9.13349E-3,-3.8993713E-2,1.4909092E-1,-8.660714E-2,7.263158E-2,-6.551724E-2,2.2439024E-1,-3.105263E-1,-6.5048546E-2,-2.4285714E-1,1.2682927E-1,1.9E-2,-1.56E-1,1.8611111E-1,2.2272727E-2,3.3333332E-3,-2.2857143E-2,-1.0965517E-1,3.8709678E-2,-3.5454544E-1,5.0000004E-3,6.901409E-2,2.2499999E-2,-2E-1,5.0000004E-3,-9.000001E-3,2.1176471E-1,-2.6106196E-3,-1.5000001E-2,-1.0625E-2,6.276596E-3,-5.0000004E-3,-2.125E-2,1.4615385E-3,2.0714287E-2,-3.4615386E-3,-1.7E-2,-2E-3,1.2627119E-2],"categories":[],"categories_nodes":[],"categories_segments":[],"categories_sizes":[],"default_left":[0,0,0,0,0,0,0,0,0,0,0,0,0,0,0,0,0,0,0,0,0,0,0,0,0,0,0,0,0,0,0,0,0,0,0,0,0,0,0],"id":19,"left_children":[1,3,5,7,9,11,13,15,17,19,21,-1,23,25,-1,-1,-1,27,29,31,-1,33,-1,35,-1,-1,37,-1,-1,-1,-1,-1,-1,-1,-1,-1,-1,-1,-1],"loss_changes":[2.892992E0,1.6978145E0,1.8081722E0,1.0235773E0,1.6435808E0,1.2059172E0,5.478358E-1,1.1202756E0,9.647701E-1,5.9701294E-1,1.4491447E0,0E0,3.116001E-1,7.1752286E-1,0E0,0E0,0E0,1.5345358E0,1.3702351E0,1.0227275E-1,0E0,9.1879797E-1,0E0,3.3830768E-1,0E0,0E0,7.2946954E-1,0E0,0E0,0E0,0E0,0E0,0E0,0E0,0E0,0E0,0E0,0E0,0E0],"parents":[2147483647,0,0,1,1,2,2,3,3,4,4,5,5,6,6,7,7,8,8,9,9,10,10,12,12,13,13,17,17,18,18,19,19,21,21,23,23,26,26],"right_children":[2,4,6,8,10,12,14,16,18,20,22,-1,24,26,-1,-1,-1,28,30,32,-1,34,-1,36,-1,-1,38,-1,-1,-1,-1,-1,-1,-1,-1,-1,-1,-1,-1],"split_conditions":[6.93E1,2.058E1,6.61E1,9.43E1,9.02E1,9.41E1,2.454E1,9.31E1,9.92E1,1.234E2,2.707E1,2.7337074E-1,9.94E1,9.04E1,3.9535752E-1,3.717804E-2,-5.1597065E-1,9.84E1,1.485E1,6.76E1,4.4702148E-1,6.91E1,2.1859895E-1,9.67E1,3.380356E-2,-3.891907E-2,9.45E1,-8.800774E-2,-2.2040597E-1,-2.8632736E-1,6.0800172E-2,-4.5643693E-1,-3.1044465E-1,1.5627671E-2,1.2240677E-1,-1.03637315E-1,-2.2846909E-1,-7.084656E-3,1.3360023E-1],"split_indices":[6,1,7,5,4,4,1,4,4,3,1,0,5,4,0,0,0,4,1,7,0,6,0,5,0,0,5,0,0,0,0,0,0,0,0,0,0,0,0],"split_type":[0,0,0,0,0,0,0,0,0,0,0,0,0,0,0,0,0,0,0,0,0,0,0,0,0,0,0,0,0,0,0,0,0,0,0,0,0,0,0],"sum_hessian":[4.26E2,3.17E2,1.09E2,2.23E2,9.4E1,2.8E1,8.1E1,1.8E1,2.05E2,1.3E1,8.1E1,4E0,2.4E1,7.1E1,1E1,5E0,1.3E1,1.44E2,6.1E1,1E1,3E0,7E1,1.1E1,2.1E1,3E0,4E0,6.7E1,1.12E2,3.2E1,1.5E1,4.6E1,3E0,7E0,6.4E1,6E0,1.2E1,9E0,9E0,5.8E1],"tree_param":{"num_deleted":"0","num_feature":"8","num_nodes":"39","size_leaf_vector":"1"}},{"base_weights":[-1.2442396E-2,-5.7020057E-2,1.6744186E-1,-2.6969698E-1,-3.4384858E-2,7.435898E-2,2.375E-1,-1.3333334E-1,-2.0000001E-2,-6.96E-2,9.411765E-2,1.2941177E-1,-1.1666667E-2,3.4347826E-1,1.3076924E-1,-1.6111111E-2,4E-2,-8.32636E-2,2E-1,1.7E-2,4.9152542E-2,-9.000001E-3,1.8E-1,2.2307692E-1,2.2272727E-2,-2.1111111E-1,3E-1,-3.3333332E-3,9.000001E-3,-5.8187135E-3,-0E0,-5.0000004E-3,1.6111111E-2,-9.574468E-4,1.5000001E-2,1.8846154E-2,1.1111111E-3,2.0714287E-2,-0E0,5.0000004E-3,-2.0000001E-2,6.428571E-3,1.8333334E-2],"categories":[],"categories_nodes":[],"categories_segments":[],"categories_sizes":[],"default_left":[0,0,0,0,0,0,0,0,0,0,0,0,0,0,0,0,0,0,0,0,0,0,0,0,0,0,0,0,0,0,0,0,0,0,0,0,0,0,0,0,0,0,0],"id":20,"left_children":[1,3,5,7,9,11,13,15,-1,17,19,21,-1,23,25,-1,27,29,31,-1,33,-1,35,37,-1,39,41,-1,-1,-1,-1,-1,-1,-1,-1,-1,-1,-1,-1,-1,-1,-1,-1],"loss_changes":[3.4786732E0,1.6403986E0,5.119784E-1,4.79697E-1,1.4385979E0,6.8043745E-1,4.5059347E-1,6.304444E-1,0E0,9.259057E-1,6.9618946E-1,5.645883E-1,0E0,1.16172075E-1,1.5764956E0,0E0,1.7266667E-1,6.589024E-1,4.9444443E-1,0E0,1.0446917E0,0E0,8.8381195E-1,5.5450547E-1,0E0,5.988889E-1,1.0904765E-1,0E0,0E0,0E0,0E0,0E0,0E0,0E0,0E0,0E0,0E0,0E0,0E0,0E0,0E0,0E0,0E0],"parents":[2147483647,0,0,1,1,2,2,3,3,4,4,5,5,6,6,7,7,9,9,10,10,11,11,13,13,14,14,16,16,17,17,18,18,20,20,22,22,23,23,25,25,26,26],"right_children":[2,4,6,8,10,12,14,16,-1,18,20,22,-1,24,26,-1,28,30,32,-1,34,-1,36,38,-1,40,42,-1,-1,-1,-1,-1,-1,-1,-1,-1,-1,-1,-1,-1,-1,-1,-1],"split_conditions":[1.208E2,1.464E1,6.65E1,1.501E1,6.95E1,9.97E1,2.324E1,1.464E1,-2.6234588E-1,1.021E2,6.97E1,9.08E1,-7.54776E-2,2.273E1,2.366E1,-3.1741714E-1,1.399E1,2.033E1,1.541E1,5.967865E-2,2.273E1,-1.5536538E-1,9.55E1,2.002E1,4.2490235E-1,2.345E1,9.08E1,-7.774811E-2,2.4228783E-1,-1.04198836E-1,3.3992769E-3,-2.6743698E-1,2.8726998E-1,-4.4010162E-2,2.7526972E-1,2.5002787E-1,2.2598267E-2,5.7751274E-1,5.961571E-2,1.1762466E-1,-2.8137818E-1,1.07213214E-1,3.482544E-1],"split_indices":[2,1,6,0,6,5,1,0,0,5,6,5,0,1,1,0,1,0,1,0,0,0,4,1,0,1,5,0,0,0,0,0,0,0,0,0,0,0,0,0,0,0,0],"split_type":[0,0,0,0,0,0,0,0,0,0,0,0,0,0,0,0,0,0,0,0,0,0,0,0,0,0,0,0,0,0,0,0,0,0,0,0,0,0,0,0,0,0,0],"sum_hessian":[4.33E2,3.48E2,8.5E1,3.2E1,3.16E2,3.8E1,4.7E1,1.7E1,1.5E1,2.49E2,6.7E1,3.3E1,5E0,2.2E1,2.5E1,8E0,9E0,2.38E2,1.1E1,9E0,5.8E1,4E0,2.9E1,1.2E1,1E1,8E0,1.7E1,5E0,4E0,1.7E2,6.8E1,3E0,8E0,4.6E1,1.2E1,1.2E1,1.7E1,6E0,6E0,3E0,5E0,6E0,1.1E1],"tree_param":{"num_deleted":"0","num_feature":"8","num_nodes":"43","size_leaf_vector":"1"}},{"base_weights":[-8.883826E-3,-7.18213E-2,1.1342282E-1,-1.3404255E-1,-1.2582782E-2,5.5172414E-2,3.0588236E-1,-1.5692307E-1,1.1666667E-1,1.6896552E-1,-5.609756E-2,1.7E-2,2.7102804E-2,-0E0,3.7142858E-1,-1.8333334E-2,-1.3361345E-1,1.3571429E-2,-3.3333332E-3,8.260869E-2,2.0714287E-2,-7.606838E-2,1.3571429E-2,-2E-1,8.604651E-2,8.75E-3,4.2380953E-1,-3.1967212E-3,-1.0084746E-2,-9.000001E-3,7.631579E-3,-5.0000004E-3,1.0555556E-2,-1.4411765E-2,3.3333332E-3,5.6329113E-3,-8.75E-3,5.0000004E-3,2.3333333E-2],"categories":[],"categories_nodes":[],"categories_segments":[],"categories_sizes":[],"default_left":[0,0,0,0,0,0,0,0,0,0,0,0,0,0,0,0,0,0,0,0,0,0,0,0,0,0,0,0,0,0,0,0,0,0,0,0,0,0,0],"id":21,"left_children":[1,3,5,7,9,11,13,15,17,19,21,-1,23,-1,25,-1,27,-1,-1,29,-1,31,-1,33,35,-1,37,-1,-1,-1,-1,-1,-1,-1,-1,-1,-1,-1,-1],"loss_changes":[3.3832638E0,1.056246E0,1.6174345E0,8.3116007E-1,1.1910969E0,8.8149476E-1,6.816807E-1,5.365565E-1,3.7904757E-1,5.3045404E-1,8.0564964E-1,0E0,1.438146E0,0E0,1.5404749E-1,0E0,5.250602E-1,0E0,0E0,4.4767502E-1,0E0,8.1410265E-1,0E0,5.590195E-1,6.109141E-1,0E0,1.880951E-1,0E0,0E0,0E0,0E0,0E0,0E0,0E0,0E0,0E0,0E0,0E0,0E0],"parents":[2147483647,0,0,1,1,2,2,3,3,4,4,5,5,6,6,7,7,8,8,9,9,10,10,12,12,14,14,16,16,19,19,21,21,23,23,24,24,26,26],"right_children":[2,4,6,8,10,12,14,16,18,20,22,-1,24,-1,26,-1,28,-1,-1,30,-1,32,-1,34,36,-1,38,-1,-1,-1,-1,-1,-1,-1,-1,-1,-1,-1,-1],"split_conditions":[1.178E2,6.75E1,2.635E1,1.173E2,6.82E1,1.181E2,6.41E1,1.454E1,6.62E1,1.155E2,2.357E1,4.0193328E-1,1.908E1,1.9158211E-1,9.08E1,-3.0378875E-1,1.74E1,2.9501876E-1,-3.4957352E-1,1.453E1,1.6082077E-1,7.27E1,3.1354293E-1,1.192E2,2.536E1,1.0533142E-2,2.647E1,-1.4856529E-1,-1.4817123E-1,-2.7145654E-1,9.992867E-2,-7.428513E-2,2.3274727E-1,-1.04407504E-1,3.5632706E-1,1.5150757E-1,-5.0320435E-2,1.2836304E-1,2.9380187E-1],"split_indices":[3,6,1,3,6,3,6,1,6,3,1,0,1,0,5,0,0,0,0,1,0,6,0,2,1,0,1,0,0,0,0,0,0,0,0,0,0,0,0],"split_type":[0,0,0,0,0,0,0,0,0,0,0,0,0,0,0,0,0,0,0,0,0,0,0,0,0,0,0,0,0,0,0,0,0,0,0,0,0,0,0],"sum_hessian":[4.38E2,2.9E2,1.48E2,1.4E2,1.5E2,1.15E2,3.3E1,1.29E2,1.1E1,2.8E1,1.22E2,9E0,1.06E2,6E0,2.7E1,1.1E1,1.18E2,6E0,5E0,2.2E1,6E0,1.16E2,6E0,2.1E1,8.5E1,7E0,2E1,6E1,5.8E1,4E0,1.8E1,1.08E2,8E0,1.6E1,5E0,7.8E1,7E0,3E0,1.7E1],"tree_param":{"num_deleted":"0","num_feature":"8","num_nodes":"39","size_leaf_vector":"1"}},{"base_weights":[1.1529412E-2,-3.0461539E-2,1.4752476E-1,-3.6666667E-1,-1.7197452E-2,-1.5384615E-2,2.0263158E-1,-5.0000004E-3,-2.1666666E-2,-4.8305083E-2,7.468355E-2,2.0714287E-2,-1.7E-1,1.3214286E-1,3.7619048E-1,-1.48E-1,-2.0855615E-2,-1.0909091E-1,1.4482759E-1,-1.8333334E-2,1E-1,1.9777778E-1,-1.1666667E-1,1.75E-1,2.2857143E-2,-1.0853658E-2,7E-3,4.5714285E-3,-4.4067795E-3,5.0000004E-3,-1.2142858E-2,1.1E-2,-5.0000004E-3,-1.75E-2,2.0000001E-2,-3E-3,1.5967742E-2,1.1666667E-2,-2.0714287E-2,-0E0,1.75E-2],"categories":[],"categories_nodes":[],"categories_segments":[],"categories_sizes":[],"default_left":[0,0,0,0,0,0,0,0,0,0,0,0,0,0,0,0,0,0,0,0,0,0,0,0,0,0,0,0,0,0,0,0,0,0,0,0,0,0,0,0,0],"id":22,"left_children":[1,3,5,7,9,11,13,-1,-1,15,17,-1,19,21,23,25,27,29,31,-1,33,35,37,39,-1,-1,-1,-1,-1,-1,-1,-1,-1,-1,-1,-1,-1,-1,-1,-1,-1],"loss_changes":[2.443194E0,1.4046304E0,9.2856145E-1,1.16666675E-1,8.984447E-1,1.7732747E0,8.2923555E-1,0E0,0E0,6.258588E-1,1.0377369E0,0E0,1.1253333E0,9.456984E-1,1.9880962E-1,1.0327512E0,1.4204162E0,6.538961E-1,1.1014484E0,0E0,1.36E0,1.4553907E0,1.364762E0,2.45E-1,0E0,0E0,0E0,0E0,0E0,0E0,0E0,0E0,0E0,0E0,0E0,0E0,0E0,0E0,0E0,0E0,0E0],"parents":[2147483647,0,0,1,1,2,2,3,3,4,4,5,5,6,6,9,9,10,10,12,12,13,13,14,14,15,15,16,16,17,17,18,18,20,20,21,21,22,22,23,23],"right_children":[2,4,6,8,10,12,14,-1,-1,16,18,-1,20,22,24,26,28,30,32,-1,34,36,38,40,-1,-1,-1,-1,-1,-1,-1,-1,-1,-1,-1,-1,-1,-1,-1,-1,-1],"split_conditions":[1.189E2,6.16E1,6.6E1,1.69E1,6.93E1,1.192E2,2.848E1,-4.5012283E-1,-3.596863E-1,1.604E1,6.61E1,3.1163254E-1,6.96E1,1.244E2,1.209E2,6.88E1,1.74E1,6.48E1,1.168E2,-3.0467224E-1,1.198E2,9.35E1,1.216E2,6.73E1,3.1615144E-1,-2.1127014E-1,2.1992798E-1,3.6377717E-2,-7.6135255E-2,3.1394157E-1,-1.9904251E-1,1.2502365E-1,-2.114563E-2,-3.2288057E-1,6.5167314E-1,-1.4163971E-2,3.41449E-1,5.394325E-1,-1.4507179E-1,8.7673955E-2,3.28994E-1],"split_indices":[3,7,6,0,6,3,0,0,0,0,7,0,7,3,3,7,0,7,3,0,3,4,2,6,0,0,0,0,0,0,0,0,0,0,0,0,0,0,0,0,0],"split_type":[0,0,0,0,0,0,0,0,0,0,0,0,0,0,0,0,0,0,0,0,0,0,0,0,0,0,0,0,0,0,0,0,0,0,0,0,0,0,0,0,0],"sum_hessian":[4.24E2,3.24E2,1E2,1.1E1,3.13E2,2.5E1,7.5E1,3E0,8E0,2.35E2,7.8E1,6E0,1.9E1,5.5E1,2E1,4.9E1,1.86E2,2.1E1,5.7E1,1.1E1,8E0,4.4E1,1.1E1,7E0,1.3E1,4E1,9E0,6.9E1,1.17E2,8E0,1.3E1,4.4E1,1.3E1,3E0,5E0,1.4E1,3E1,5E0,6E0,4E0,3E0],"tree_param":{"num_deleted":"0","num_feature":"8","num_nodes":"41","size_leaf_vector":"1"}},{"base_weights":[-2.0181406E-2,-6.169014E-2,1.4827587E-1,-1.7446809E-1,-2.0610686E-2,-7E-2,2.1176471E-1,-2.2857143E-2,-1.2222222E-1,-6.648045E-2,7.619048E-2,8.181818E-2,-2.4E-1,5.8333334E-2,2.8666666E-1,-1E-2,-2.2380953E-1,-1.4E-1,-0E0,7.4074073E-3,1.9032258E-1,-1.1666667E-2,2.0000001E-2,5.0000004E-3,-2.0714287E-2,1.7058824E-1,-1.75E-1,4.1333333E-1,2.5E-2,4E-3,-1.3181818E-2,-1.472973E-2,1.1666667E-2,-2.2E-2,-4.8684212E-3,9.666666E-3,-1.7901234E-3,5.0000004E-3,-6.9047622E-3,1.1428571E-2,-5.0000004E-3,-2.5000002E-3,1.7E-2,-0E0,-1.75E-2,2.357143E-2,1.2E-2,1.75E-2,-3.4615386E-3],"categories":[],"categories_nodes":[],"categories_segments":[],"categories_sizes":[],"default_left":[0,0,0,0,0,0,0,0,0,0,0,0,0,0,0,0,0,0,0,0,0,0,0,0,0,0,0,0,0,0,0,0,0,0,0,0,0,0,0,0,0,0,0,0,0,0,0,0,0],"id":23,"left_children":[1,3,5,7,9,11,13,-1,15,17,19,21,23,25,27,29,31,33,35,37,39,-1,-1,-1,-1,41,43,45,47,-1,-1,-1,-1,-1,-1,-1,-1,-1,-1,-1,-1,-1,-1,-1,-1,-1,-1,-1,-1],"loss_changes":[3.0841582E0,1.62156E0,1.2346531E0,1.2744381E0,1.1674386E0,5.516364E-1,7.302551E-1,0E0,8.978095E-1,8.748827E-1,6.3824713E-1,1.2130303E0,6.6542846E-1,6.580393E-1,1.4373333E0,9.5254546E-1,1.433938E0,9.905263E-1,6.6449386E-1,7.3751324E-1,3.7995386E-1,0E0,0E0,0E0,0E0,6.812941E-1,2.45E-1,1.1780977E-1,5.4230773E-1,0E0,0E0,0E0,0E0,0E0,0E0,0E0,0E0,0E0,0E0,0E0,0E0,0E0,0E0,0E0,0E0,0E0,0E0,0E0,0E0],"parents":[2147483647,0,0,1,1,2,2,3,3,4,4,5,5,6,6,8,8,9,9,10,10,11,11,12,12,13,13,14,14,15,15,16,16,17,17,18,18,19,19,20,20,25,25,26,26,27,27,28,28],"right_children":[2,4,6,8,10,12,14,-1,16,18,20,22,24,26,28,30,32,34,36,38,40,-1,-1,-1,-1,42,44,46,48,-1,-1,-1,-1,-1,-1,-1,-1,-1,-1,-1,-1,-1,-1,-1,-1,-1,-1,-1,-1],"split_conditions":[1.209E2,6.6E1,6.56E1,6.42E1,1.941E1,6.47E1,9.37E1,-4.276169E-1,1.15E2,6.74E1,9.77E1,6.7E1,6.59E1,9.31E1,9.97E1,9.89E1,7.01E1,9.46E1,9.57E1,9.51E1,9.84E1,-3.0535278E-1,4.1038972E-1,1.052475E-2,-2.0661317E-1,6.76E1,9.55E1,9.88E1,1.216E2,5.8520507E-2,-5.177574E-1,-2.8647956E-1,3.8233718E-1,-2.5612336E-1,-7.118835E-2,2.5702402E-1,-1.7720032E-2,1.1435318E-1,-6.292534E-2,3.5648194E-1,-3.3025438E-1,-2.1800308E-1,3.9990386E-1,7.0796967E-3,-2.0414506E-1,2.965435E-1,3.3956835E-1,1.6614686E-1,-1.844864E-2],"split_indices":[2,6,7,7,1,7,5,0,2,7,5,6,6,5,5,5,7,5,5,5,4,0,0,0,0,7,4,5,2,0,0,0,0,0,0,0,0,0,0,0,0,0,0,0,0,0,0,0,0],"split_type":[0,0,0,0,0,0,0,0,0,0,0,0,0,0,0,0,0,0,0,0,0,0,0,0,0,0,0,0,0,0,0,0,0,0,0,0,0,0,0,0,0,0,0,0,0,0,0,0,0],"sum_hessian":[4.4E2,3.54E2,8.6E1,9.3E1,2.61E2,1.9E1,6.7E1,1.3E1,8E1,1.78E2,8.3E1,1E1,9E0,2.3E1,4.4E1,3.9E1,4.1E1,8.4E1,9.4E1,5.3E1,3E1,5E0,5E0,3E0,6E0,1.6E1,7E0,2.9E1,1.5E1,2.9E1,1E1,3.6E1,5E0,9E0,7.5E1,1.4E1,8E1,3.3E1,2E1,2.7E1,3E0,7E0,9E0,4E0,3E0,2E1,9E0,3E0,1.2E1],"tree_param":{"num_deleted":"0","num_feature":"8","num_nodes":"49","size_leaf_vector":"1"}},{"base_weights":[-1.3439636E-2,-1.5263158E-1,3.4969326E-2,-2.5555557E-1,2.0930232E-2,-3.4220533E-3,1.9375E-1,-3.7272727E-1,-6.551724E-2,1.6956522E-1,-1.3809524E-1,-5.1485147E-2,1.5161291E-1,2.529412E-1,-2.8571429E-2,-4.3333334E-1,3.3333332E-3,-2.0000001E-2,1.6666666E-2,3.5454544E-1,-0E0,8.181818E-2,-3.5454544E-1,-5.9798993E-2,1.75E-2,2.1666666E-2,1E-1,8.260869E-2,3.7586206E-1,4E-2,-9.000001E-3,-1.0555556E-2,-2.4032257E-2,9.666666E-3,-1.2E-2,2.125E-2,5.0000004E-3,-9.000001E-3,5.0000004E-3,-2.5000002E-3,1.75E-2,-2.125E-2,-5.0000004E-3,-1.7455621E-3,-9.516129E-3,-1.75E-2,6.764706E-3,2.0000001E-2,-1.1111111E-3,1.0000001E-2,2.3333333E-2,-5.0000004E-3,6.428571E-3],"categories":[],"categories_nodes":[],"categories_segments":[],"categories_sizes":[],"default_left":[0,0,0,0,0,0,0,0,0,0,0,0,0,0,0,0,0,0,0,0,0,0,0,0,0,0,0,0,0,0,0,0,0,0,0,0,0,0,0,0,0,0,0,0,0,0,0,0,0,0,0,0,0],"id":24,"left_children":[1,3,5,7,9,11,13,15,17,19,21,23,25,27,29,31,-1,-1,33,35,37,39,41,43,-1,-1,45,47,49,51,-1,-1,-1,-1,-1,-1,-1,-1,-1,-1,-1,-1,-1,-1,-1,-1,-1,-1,-1,-1,-1,-1,-1],"loss_changes":[2.975146E0,2.0652697E0,2.0069294E0,1.5349874E0,1.0429434E0,1.9575269E0,8.7187004E-1,1.2372723E0,8.4218395E-1,7.214229E-1,1.0558875E0,6.661625E-1,8.048388E-1,9.9091196E-1,1.6657144E-1,2.3939085E-1,0E0,0E0,1.1300001E0,1.0227275E-1,2.52E-1,4.3636364E-1,1.0227275E-1,6.1727154E-1,0E0,0E0,8.8352937E-1,8.1193244E-1,3.0310297E-1,1.3971429E-1,0E0,0E0,0E0,0E0,0E0,0E0,0E0,0E0,0E0,0E0,0E0,0E0,0E0,0E0,0E0,0E0,0E0,0E0,0E0,0E0,0E0,0E0,0E0],"parents":[2147483647,0,0,1,1,2,2,3,3,4,4,5,5,6,6,7,7,8,8,9,9,10,10,11,11,12,12,13,13,14,14,15,15,18,18,19,19,20,20,21,21,22,22,23,23,26,26,27,27,28,28,29,29],"right_children":[2,4,6,8,10,12,14,16,18,20,22,24,26,28,30,32,-1,-1,34,36,38,40,42,44,-1,-1,46,48,50,52,-1,-1,-1,-1,-1,-1,-1,-1,-1,-1,-1,-1,-1,-1,-1,-1,-1,-1,-1,-1,-1,-1,-1],"split_conditions":[6.6E1,1.158E2,1.209E2,1.165E2,6.76E1,6.93E1,9.97E1,6.98E1,6.59E1,1.173E2,9.63E1,1.244E2,6.68E1,9.37E1,9.93E1,6.42E1,1.8458863E-1,-4.648018E-1,9.67E1,9.79E1,1.183E2,1.005E2,7.15E1,1.191E2,5.9997255E-1,1.953888E-1,6.7E1,9.14E1,6.62E1,9.55E1,-3.0659867E-2,-2.992508E-1,-4.2209473E-1,2.1387863E-1,-1.8670349E-1,2.466774E-1,7.70958E-2,-5.5096626E-1,9.631348E-3,-2.1985626E-2,2.1176301E-1,-3.2339785E-1,-8.109742E-2,-3.836746E-2,-1.0151177E-1,-2.8641206E-1,9.918747E-2,4.715645E-1,-4.627762E-2,1.751091E-1,3.640854E-1,-1.21276855E-1,3.556221E-1],"split_indices":[7,3,2,2,6,6,5,6,6,2,4,3,7,5,4,6,0,0,5,4,3,5,6,3,0,0,7,4,6,4,0,0,0,0,0,0,0,0,0,0,0,0,0,0,0,0,0,0,0,0,0,0,0],"split_type":[0,0,0,0,0,0,0,0,0,0,0,0,0,0,0,0,0,0,0,0,0,0,0,0,0,0,0,0,0,0,0,0,0,0,0,0,0,0,0,0,0,0,0,0,0,0,0,0,0,0,0,0,0],"sum_hessian":[4.38E2,1.13E2,3.25E2,7.1E1,4.2E1,2.62E2,6.3E1,4.3E1,2.8E1,2.2E1,2E1,2.01E2,6.1E1,5E1,1.3E1,3.8E1,5E0,5E0,2.3E1,1E1,1.2E1,1E1,1E1,1.98E2,3E0,8E0,5.3E1,2.2E1,2.8E1,9E0,4E0,8E0,3E1,1.4E1,9E0,7E0,3E0,4E0,8E0,7E0,3E0,7E0,3E0,1.68E2,3E1,3E0,5E1,5E0,1.7E1,1.1E1,1.7E1,3E0,6E0],"tree_param":{"num_deleted":"0","num_feature":"8","num_nodes":"53","size_leaf_vector":"1"}},{"base_weights":[-2.4716554E-2,-5.8713138E-2,1.5797101E-1,-1.522388E-1,-5.8333334E-3,3.0434782E-2,3.9166668E-1,-2.52E-1,-2.3333333E-2,-1.6E-1,2.437811E-2,1.3333334E-1,-3.1034483E-2,1.75E-1,2.3235295E-2,-2.3333333E-2,-1.7931035E-1,1.2142858E-2,-1.0425532E-1,2.8571429E-2,-2.5555557E-1,2.1363637E-1,-2.7848102E-2,-5E-2,2.6363635E-1,-2E-1,7.777778E-2,1.75E-2,-0E0,-1.5517242E-3,-1.5666667E-2,-8.4146345E-3,1.3571429E-2,-1.75E-2,8.636364E-3,-3.3333332E-3,-1.4545455E-2,1.2692309E-2,-3.3333332E-3,-1.9032259E-3,1.75E-2,5.0000004E-3,-9.000001E-3,-0E0,2.0714287E-2,-2.0714287E-2,3.3333332E-3,8.571429E-3,-9.000001E-3],"categories":[],"categories_nodes":[],"categories_segments":[],"categories_sizes":[],"default_left":[0,0,0,0,0,0,0,0,0,0,0,0,0,0,0,0,0,0,0,0,0,0,0,0,0,0,0,0,0,0,0,0,0,0,0,0,0,0,0,0,0,0,0,0,0,0,0,0,0],"id":25,"left_children":[1,3,5,7,9,11,13,15,17,19,21,23,25,27,-1,-1,29,-1,31,33,35,37,39,41,43,45,47,-1,-1,-1,-1,-1,-1,-1,-1,-1,-1,-1,-1,-1,-1,-1,-1,-1,-1,-1,-1,-1,-1],"loss_changes":[2.7382913E0,1.8280206E0,2.0023913E0,1.6897948E0,1.135286E0,3.0532235E-1,2.345097E-1,1.0220275E0,1.3038987E0,7.50762E-1,2.0112607E0,4.645454E-1,5.6095785E-1,2.45E-1,0E0,0E0,1.1084366E0,0E0,1.1660826E0,8.067532E-1,1.2515152E-1,5.3156185E-1,5.92049E-1,1.82E-1,4.368831E-1,7.4809515E-1,4.6453974E-1,0E0,0E0,0E0,0E0,0E0,0E0,0E0,0E0,0E0,0E0,0E0,0E0,0E0,0E0,0E0,0E0,0E0,0E0,0E0,0E0,0E0,0E0],"parents":[2147483647,0,0,1,1,2,2,3,3,4,4,5,5,6,6,7,7,8,8,9,9,10,10,11,11,12,12,13,13,16,16,18,18,19,19,20,20,21,21,22,22,23,23,24,24,25,25,26,26],"right_children":[2,4,6,8,10,12,14,16,18,20,22,24,26,28,-1,-1,30,-1,32,34,36,38,40,42,44,46,48,-1,-1,-1,-1,-1,-1,-1,-1,-1,-1,-1,-1,-1,-1,-1,-1,-1,-1,-1,-1,-1,-1],"split_conditions":[1.202E2,6.66E1,1.252E2,1.159E2,1.513E1,1.192E2,1.222E2,6.49E1,6.65E1,1.125E2,1.689E1,1.169E2,6.81E1,1.254E2,3.3505747E-1,-3.8513184E-1,6.57E1,7.0776366E-2,6.62E1,1.37E1,1.108E2,7E1,1.198E2,2.238E1,6.51E1,1.208E2,1.009E2,2.9634324E-1,-4.118729E-3,-2.4270478E-1,-1.8909454E-1,-1.8079452E-1,3.1452408E-1,-2.4799271E-1,1.6764604E-1,-7.5454713E-4,-3.067566E-1,1.1377106E-1,-8.422547E-2,-1.1352921E-2,8.9009553E-1,2.6126176E-1,-6.311341E-2,-1.3055496E-1,4.12138E-1,-2.671383E-1,9.5227055E-2,5.209778E-1,-1.1231041E-1],"split_indices":[3,6,2,3,1,2,3,7,7,2,1,2,7,2,0,0,6,0,6,1,3,7,3,1,6,2,5,0,0,0,0,0,0,0,0,0,0,0,0,0,0,0,0,0,0,0,0,0,0],"split_type":[0,0,0,0,0,0,0,0,0,0,0,0,0,0,0,0,0,0,0,0,0,0,0,0,0,0,0,0,0,0,0,0,0,0,0,0,0,0,0,0,0,0,0,0,0,0,0,0,0],"sum_hessian":[4.4E2,3.72E2,6.8E1,1.33E2,2.39E2,4.5E1,2.3E1,7.4E1,5.9E1,3.9E1,2E2,1.7E1,2.8E1,7E0,1.6E1,1.7E1,5.7E1,1.3E1,4.6E1,1.3E1,2.6E1,4.3E1,1.57E2,7E0,1E1,1.1E1,1.7E1,3E0,4E0,2.8E1,2.9E1,4E1,6E0,3E0,1E1,5E0,2.1E1,3.8E1,5E0,1.54E2,3E0,3E0,4E0,4E0,6E0,6E0,5E0,1.3E1,4E0],"tree_param":{"num_deleted":"0","num_feature":"8","num_nodes":"49","size_leaf_vector":"1"}},{"base_weights":[-1.3882353E-2,-3.2682925E-2,2.3125E-2,-1.0756757E-1,2.8318584E-2,-2.0571429E-1,-4.6551723E-2,2.0408162E-3,1.9032258E-1,-2.40625E-1,1.2857142E-1,-2.0714287E-2,-2.1818181E-2,-4.1025642E-2,1.6829269E-1,-9.000001E-3,2.5555557E-1,-2.0294119E-2,-8.75E-3,1.75E-2,-5.0000004E-3,1.8354431E-3,-8.4375E-3,2.2972974E-3,-5.9638554E-3,-9.000001E-3,1.0675675E-2,-3.3333332E-3,1.6818183E-2],"categories":[],"categories_nodes":[],"categories_segments":[],"categories_sizes":[],"default_left":[0,0,0,0,0,0,0,0,0,0,0,0,0,0,0,0,0,0,0,0,0,0,0,0,0,0,0,0,0],"id":26,"left_children":[1,3,-1,5,7,9,11,13,15,17,19,-1,21,23,25,-1,27,-1,-1,-1,-1,-1,-1,-1,-1,-1,-1,-1,-1],"loss_changes":[3.7785454E0,1.8838824E0,0E0,1.0730703E0,9.424806E-1,8.590536E-1,1.0024128E0,1.4229672E0,8.0243003E-1,5.6496334E-1,4.1428575E-1,0E0,9.6534204E-1,1.0744956E0,6.875373E-1,0E0,7.5242424E-1,0E0,0E0,0E0,0E0,0E0,0E0,0E0,0E0,0E0,0E0,0E0,0E0],"parents":[2147483647,0,0,1,1,3,3,4,4,5,5,6,6,7,7,8,8,9,9,10,10,12,12,13,13,14,14,16,16],"right_children":[2,4,-1,6,8,10,12,14,16,18,20,-1,22,24,26,-1,28,-1,-1,-1,-1,-1,-1,-1,-1,-1,-1,-1,-1],"split_conditions":[3.643E1,1.152E2,2.933304E-1,6.66E1,1.224E2,6.97E1,6.19E1,9.93E1,2.422E1,6.49E1,1.13E2,-3.986225E-1,1.144E2,9.89E1,1.159E2,-1.1313591E-1,9.04E1,-4.9175033E-1,-1.7085877E-1,3.0032426E-1,-2.2172776E-1,5.9959795E-2,-7.1452335E-2,3.4008026E-2,-7.932396E-2,-2.2029762E-1,2.474144E-1,-4.339218E-2,2.4978486E-1],"split_indices":[0,3,0,6,3,7,7,4,0,7,3,0,3,5,3,0,4,0,0,0,0,0,0,0,0,0,0,0,0],"split_type":[0,0,0,0,0,0,0,0,0,0,0,0,0,0,0,0,0,0,0,0,0,0,0,0,0,0,0,0,0],"sum_hessian":[4.24E2,4.09E2,1.5E1,1.84E2,2.25E2,6.9E1,1.15E2,1.95E2,3E1,6.3E1,6E0,6E0,1.09E2,1.55E2,4E1,4E0,2.6E1,1.6E1,4.7E1,3E0,3E0,7.8E1,3.1E1,7.3E1,8.2E1,4E0,3.6E1,5E0,2.1E1],"tree_param":{"num_deleted":"0","num_feature":"8","num_nodes":"29","size_leaf_vector":"1"}},{"base_weights":[-1.5436241E-2,-3.1308413E-2,3.2E-1,-1.6E-2,-1.6870415E-2,-0E0,2.2857143E-2,-2.7877238E-2,2.0526315E-1,1.75E-2,-1.75E-2,-4.3636363E-2,5.483871E-2,2.125E-2,3.333333E-2,-6.538462E-3,-5E-4,2.1666666E-2,-3.7037037E-4,-1.3571429E-2,2.0000001E-2],"categories":[],"categories_nodes":[],"categories_segments":[],"categories_sizes":[],"default_left":[0,0,0,0,0,0,0,0,0,0,0,0,0,0,0,0,0,0,0,0,0],"id":27,"left_children":[1,3,5,-1,7,9,-1,11,13,-1,-1,15,17,-1,19,-1,-1,-1,-1,-1,-1],"loss_changes":[2.3610225E0,1.744873E0,8.777144E-1,0E0,9.879824E-1,9.8E-1,0E0,5.109533E-1,6.5780705E-1,0E0,0E0,9.5179033E-1,1.5065114E0,0E0,1.462381E0,0E0,0E0,0E0,0E0,0E0,0E0],"parents":[2147483647,0,0,1,1,2,2,4,4,5,5,7,7,8,8,11,11,12,12,14,14],"right_children":[2,4,6,-1,8,10,-1,12,14,-1,-1,16,18,-1,20,-1,-1,-1,-1,-1,-1],"split_conditions":[1.247E2,1.415E1,2.665E1,-1.7109756E-1,7.25E1,2.635E1,5.4609454E-1,9.96E1,9.88E1,1.8302003E-1,-1.220871E-1,1.14E2,1.121E2,2.982811E-1,1.175E2,-1.3847123E-1,-4.5806887E-3,1.4683571E-1,-3.452301E-3,-9.01577E-2,5.2422106E-1],"split_indices":[3,1,0,0,6,0,0,4,5,0,0,3,3,0,3,0,0,0,0,0,0],"split_type":[0,0,0,0,0,0,0,0,0,0,0,0,0,0,0,0,0,0,0,0,0],"sum_hessian":[4.46E2,4.27E2,1.9E1,1.9E1,4.08E2,6E0,1.3E1,3.9E2,1.8E1,3E0,3E0,3.29E2,6.1E1,7E0,1.1E1,9E1,2.39E2,8E0,5.3E1,6E0,5E0],"tree_param":{"num_deleted":"0","num_feature":"8","num_nodes":"21","size_leaf_vector":"1"}},{"base_weights":[-8.095238E-3,-6.4444445E-2,9.205298E-2,-2.3939393E-1,-3.94958E-2,5.8518518E-2,3.4705883E-1,-2.724138E-1,-0E0,-3.2666665E-1,-1.9642858E-2,4.4444446E-3,1.6086957E-1,2.2272727E-2,1.2857142E-1,-1.7777778E-2,-1.1666667E-1,-2.2E-2,-3.3333332E-3,4.495413E-2,-8.103448E-2,1.2580645E-1,-5.6666665E-2,2.2E-2,7.837838E-2,-5.0000004E-3,1.75E-2,5.0000004E-3,-1.0555556E-2,3.4158416E-3,-1.0555556E-2,2.2093025E-3,-7.702703E-3,1.4411765E-2,-3E-3,-5.869565E-3,6.3333334E-3,9.8E-3,-7.307693E-3],"categories":[],"categories_nodes":[],"categories_segments":[],"categories_sizes":[],"default_left":[0,0,0,0,0,0,0,0,0,0,0,0,0,0,0,0,0,0,0,0,0,0,0,0,0,0,0,0,0,0,0,0,0,0,0,0,0,0,0],"id":28,"left_children":[1,3,5,7,9,11,13,15,-1,17,19,21,23,-1,25,-1,27,-1,-1,29,31,33,35,-1,37,-1,-1,-1,-1,-1,-1,-1,-1,-1,-1,-1,-1,-1,-1],"loss_changes":[2.373346E0,1.1411393E0,1.230407E0,2.6085675E-1,1.3158346E0,7.2991616E-1,2.507944E-1,2.8682017E-1,0E0,3.620001E-1,8.9557076E-1,6.8153405E-1,9.728627E-1,0E0,4.1428575E-1,0E0,2.7777773E-1,0E0,0E0,6.52222E-1,1.0784457E0,9.7570777E-1,6.81913E-1,0E0,1.010795E0,0E0,0E0,0E0,0E0,0E0,0E0,0E0,0E0,0E0,0E0,0E0,0E0,0E0,0E0],"parents":[2147483647,0,0,1,1,2,2,3,3,4,4,5,5,6,6,7,7,9,9,10,10,11,11,12,12,14,14,16,16,19,19,20,20,21,21,22,22,24,24],"right_children":[2,4,6,8,10,12,14,16,-1,18,20,22,24,-1,26,-1,28,-1,-1,30,32,34,36,-1,38,-1,-1,-1,-1,-1,-1,-1,-1,-1,-1,-1,-1,-1,-1],"split_conditions":[1.175E2,1.464E1,7.18E1,6.87E1,6.19E1,1.209E2,1.197E2,1.135E2,4.3955613E-2,1.168E2,9.67E1,1.168E2,1.224E2,6.028225E-1,2.661E1,-2.601532E-1,1.144E2,-3.783104E-1,-7.362976E-2,7.03E1,1.597E1,1.182E2,6.96E1,4.735222E-1,9.76E1,-1.1599121E-1,7.420334E-1,3.5172805E-1,-1.8599816E-1,3.9360046E-2,-8.070107E-2,9.9864965E-3,-1.2898254E-1,3.317688E-1,-1.2090836E-1,-3.60939E-2,3.2299653E-1,2.8558502E-1,-5.871544E-2],"split_indices":[3,1,7,7,7,2,2,3,0,2,5,2,2,0,0,0,2,0,0,7,1,3,7,0,5,0,0,0,0,0,0,0,0,0,0,0,0,0,0],"split_type":[0,0,0,0,0,0,0,0,0,0,0,0,0,0,0,0,0,0,0,0,0,0,0,0,0,0,0,0,0,0,0,0,0,0,0,0,0,0,0],"sum_hessian":[4.19E2,2.69E2,1.5E2,3.2E1,2.37E2,1.34E2,1.6E1,2.8E1,4E0,1.4E1,2.23E2,8.9E1,4.5E1,1E1,6E0,1.7E1,1.1E1,9E0,5E0,1.08E2,1.15E2,3E1,5.9E1,9E0,3.6E1,3E0,3E0,3E0,8E0,1E2,8E0,4.2E1,7.3E1,1.6E1,1.4E1,4.5E1,1.4E1,2.4E1,1.2E1],"tree_param":{"num_deleted":"0","num_feature":"8","num_nodes":"39","size_leaf_vector":"1"}},{"base_weights":[-3.211009E-3,-6.930233E-2,6.036036E-2,-1.2142857E-1,1.125E-1,4.2E-2,2.1304348E-1,-1.7288135E-1,-0E0,-1.9E-2,1.6818182E-1,6.502732E-2,-1.8888889E-1,-0E0,2.5789472E-1,-1.1978022E-1,-3.3571428E-1,9.354839E-2,-1.3809524E-1,2.3125E-1,-0E0,-1.1176471E-1,8.3233535E-2,-2.0000001E-2,-6.923077E-2,3.5454544E-1,1E-1,-7.2093024E-3,1.1666667E-2,-1.909091E-2,-6.428571E-3,-6.3333334E-3,1.4411765E-2,-9.444444E-3,5.0000004E-3,1.8157896E-2,1.4285714E-3,-5.0000004E-3,9.000001E-3,2E-3,-1.5000001E-2,3.1756756E-3,1.1E-2,-1.9E-2,5.0000004E-3,2.125E-2,5.0000004E-3,-3.3333332E-3,1.75E-2],"categories":[],"categories_nodes":[],"categories_segments":[],"categories_sizes":[],"default_left":[0,0,0,0,0,0,0,0,0,0,0,0,0,0,0,0,0,0,0,0,0,0,0,0,0,0,0,0,0,0,0,0,0,0,0,0,0,0,0,0,0,0,0,0,0,0,0,0,0],"id":29,"left_children":[1,3,5,7,9,11,13,15,17,-1,19,21,23,-1,25,27,29,31,33,35,37,39,41,-1,43,45,47,-1,-1,-1,-1,-1,-1,-1,-1,-1,-1,-1,-1,-1,-1,-1,-1,-1,-1,-1,-1,-1,-1],"loss_changes":[1.836938E0,2.0520382E0,5.878842E-1,1.0496368E0,1.3590455E0,1.0632473E0,2.1977127E-1,9.3453884E-1,6.717665E-1,0E0,4.667045E-1,5.95474E-1,3.8008553E-1,0E0,2.0904303E-1,8.0896914E-1,1.6727257E-1,1.3817292E0,2.8174606E-1,8.0596817E-1,2.52E-1,5.2364707E-1,4.0808082E-1,0E0,7.496923E-1,1.0227275E-1,4.2666665E-1,0E0,0E0,0E0,0E0,0E0,0E0,0E0,0E0,0E0,0E0,0E0,0E0,0E0,0E0,0E0,0E0,0E0,0E0,0E0,0E0,0E0,0E0],"parents":[2147483647,0,0,1,1,2,2,3,3,4,4,5,5,6,6,7,7,8,8,10,10,11,11,12,12,14,14,15,15,16,16,17,17,18,18,19,19,20,20,21,21,22,22,24,24,25,25,26,26],"right_children":[2,4,6,8,10,12,14,16,18,-1,20,22,24,-1,26,28,30,32,34,36,38,40,42,-1,44,46,48,-1,-1,-1,-1,-1,-1,-1,-1,-1,-1,-1,-1,-1,-1,-1,-1,-1,-1,-1,-1,-1,-1],"split_conditions":[6.75E1,2.302E1,2.366E1,9.94E1,8.8E1,2.302E1,1.141E2,9.8E1,1.795E1,-3.743E-1,9.7E1,1.519E1,1.178E2,5.2480698E-2,2.657E1,9.76E1,1.001E2,1.541E1,2.345E1,2.657E1,2.606E1,1.501E1,7.25E1,-2.468872E-1,9.32E1,1.241E2,2.728E1,-1.3697891E-1,1.593033E-1,-3.7167817E-1,-1.155201E-1,-1.7915078E-1,7.429047E-2,-1.10191345E-1,5.452881E-2,3.241497E-1,1.9750213E-2,-9.4955064E-2,3.1817323E-1,1.784668E-2,-2.4714585E-1,6.497955E-2,6.342774E-2,-6.0115814E-2,8.505898E-2,3.782486E-1,2.7407303E-1,-5.2757263E-3,1.9430923E-1],"split_indices":[6,1,1,5,5,1,3,5,1,0,4,0,3,0,1,5,4,1,0,1,1,0,6,0,4,3,1,0,0,0,0,0,0,0,0,0,0,0,0,0,0,0,0,0,0,0,0,0,0],"split_type":[0,0,0,0,0,0,0,0,0,0,0,0,0,0,0,0,0,0,0,0,0,0,0,0,0,0,0,0,0,0,0,0,0,0,0,0,0,0,0,0,0,0,0,0,0,0,0,0,0],"sum_hessian":[4.35E2,2.14E2,2.21E2,1.67E2,4.7E1,1.99E2,2.2E1,1.17E2,5E1,4E0,4.3E1,1.82E2,1.7E1,4E0,1.8E1,9E1,2.7E1,3E1,2E1,3.1E1,1.2E1,1.6E1,1.66E2,5E0,1.2E1,1E1,8E0,8.5E1,5E0,2.1E1,6E0,1.4E1,1.6E1,1.7E1,3E0,1.8E1,1.3E1,8E0,4E0,9E0,7E0,1.47E2,1.9E1,4E0,8E0,7E0,3E0,5E0,3E0],"tree_param":{"num_deleted":"0","num_feature":"8","num_nodes":"49","size_leaf_vector":"1"}},{"base_weights":[-8.924485E-3,-9.0862945E-2,5.767635E-2,-1.0529101E-1,2.1111111E-1,2.0634921E-2,1.8679245E-1,-2.2E-1,-6.827586E-2,3.3333332E-3,1.75E-2,5.6E-2,-1.1E-1,-5E-2,2.2608696E-1,-2.6585367E-1,9.000001E-3,-2.4489796E-2,-1.5416667E-1,-2.345679E-2,1.4857143E-1,-2.1764706E-1,2.0714287E-2,9.000001E-3,-1.75E-2,-5E-2,2.794872E-1,3.3333332E-3,-1.5833333E-2,-4.0588235E-3,1.5714286E-2,1.0000001E-2,-1.3378379E-2,2.7358492E-3,-8.448276E-3,4.6551726E-3,1.8846154E-2,-1.7777778E-2,-2.6470588E-3,-9.000001E-3,5.0000004E-3,1.7800001E-2,6.3333334E-3],"categories":[],"categories_nodes":[],"categories_segments":[],"categories_sizes":[],"default_left":[0,0,0,0,0,0,0,0,0,0,0,0,0,0,0,0,0,0,0,0,0,0,0,0,0,0,0,0,0,0,0,0,0,0,0,0,0,0,0,0,0,0,0],"id":30,"left_children":[1,3,5,7,9,11,13,15,17,-1,-1,19,21,23,25,27,-1,29,31,33,35,37,-1,-1,-1,39,41,-1,-1,-1,-1,-1,-1,-1,-1,-1,-1,-1,-1,-1,-1,-1,-1],"loss_changes":[2.3933425E0,8.6995554E-1,1.1280203E0,7.586398E-1,1.15555555E-1,8.7392384E-1,5.220592E-1,8.818047E-1,5.2367777E-1,0E0,0E0,1.1193109E0,2.3280168E0,6.32E-1,7.1510553E-1,7.3886204E-1,0E0,1.8841993E0,1.9880856E0,9.420424E-1,8.0453897E-1,7.126144E-1,0E0,0E0,0E0,1.82E-1,3.626566E-1,0E0,0E0,0E0,0E0,0E0,0E0,0E0,0E0,0E0,0E0,0E0,0E0,0E0,0E0,0E0,0E0],"parents":[2147483647,0,0,1,1,2,2,3,3,4,4,5,5,6,6,7,7,8,8,11,11,12,12,13,13,14,14,15,15,17,17,18,18,19,19,20,20,21,21,25,25,26,26],"right_children":[2,4,6,8,10,12,14,16,18,-1,-1,20,22,24,26,28,-1,30,32,34,36,38,-1,-1,-1,40,42,-1,-1,-1,-1,-1,-1,-1,-1,-1,-1,-1,-1,-1,-1,-1,-1],"split_conditions":[1.152E2,1.222E2,6.97E1,6.59E1,9.38E1,6.86E1,6.57E1,7E1,1.175E2,3.7542877E-1,4.282944E-1,6.62E1,7.05E1,6.47E1,9.55E1,1.106E2,2.1229897E-1,1.168E2,6.55E1,6.58E1,1.216E2,1.169E2,6.750557E-1,2.2421609E-1,-1.5472718E-1,2.647E1,1.001E2,8.655777E-2,-3.0005494E-1,-5.610123E-2,1.7054215E-1,1.7415619E-1,-1.1458931E-1,4.088936E-2,-8.7984465E-2,7.116242E-2,2.2184372E-1,-1.3518906E-1,-8.621598E-3,-5.0328445E-2,6.852852E-1,2.3753281E-1,2.1951866E-1],"split_indices":[3,2,6,6,5,6,7,7,2,0,0,6,7,7,5,3,0,2,7,6,3,2,0,0,0,0,5,0,0,0,0,0,0,0,0,0,0,0,0,0,0,0,0],"split_type":[0,0,0,0,0,0,0,0,0,0,0,0,0,0,0,0,0,0,0,0,0,0,0,0,0,0,0,0,0,0,0,0,0,0,0,0,0,0,0,0,0,0,0],"sum_hessian":[4.36E2,1.96E2,2.4E2,1.88E2,8E0,1.88E2,5.2E1,4.4E1,1.44E2,5E0,3E0,1.49E2,3.9E1,7E0,4.5E1,4E1,4E0,9.7E1,4.7E1,8E1,6.9E1,3.3E1,6E0,4E0,3E0,7E0,3.8E1,5E0,3.5E1,8.4E1,1.3E1,1.1E1,3.6E1,5.2E1,2.8E1,5.7E1,1.2E1,1.7E1,1.6E1,4E0,3E0,2.4E1,1.4E1],"tree_param":{"num_deleted":"0","num_feature":"8","num_nodes":"43","size_leaf_vector":"1"}},{"base_weights":[-6.575964E-3,-2.2E-2,3.2407406E-3,-3.3333335E-2,9.8347105E-2,-2.5789472E-1,-1.8367346E-2,4.3820225E-2,2.3939393E-1,-1.4615385E-1,-2.0714287E-2,5.18797E-2,-7.654321E-2,-1.4166667E-1,1.1212121E-1,-9.000001E-3,3.0689654E-1,-1.5000001E-2,3.3333332E-3,-4.5454546E-4,1.1285714E-2,-1.3333335E-2,-2.1223023E-3,5.0000004E-3,-9.2857145E-3,5.2631577E-4,1.1896552E-2,-0E0,1.9347826E-2],"categories":[],"categories_nodes":[],"categories_segments":[],"categories_sizes":[],"default_left":[0,0,0,0,0,0,0,0,0,0,0,0,0,0,0,0,0,0,0,0,0,0,0,0,0,0,0,0,0],"id":31,"left_children":[1,-1,3,5,7,9,11,13,15,17,-1,19,21,23,25,-1,27,-1,-1,-1,-1,-1,-1,-1,-1,-1,-1,-1,-1],"loss_changes":[1.9214668E0,0E0,1.5124602E0,1.0162013E0,8.917804E-1,2.1543658E-1,1.2079221E0,1.1404648E0,1.0021671E0,4.6897438E-1,0E0,1.4333546E0,1.0079625E0,2.8261906E-1,8.162376E-1,0E0,7.125337E-1,0E0,0E0,0E0,0E0,0E0,0E0,0E0,0E0,0E0,0E0,0E0,0E0],"parents":[2147483647,0,0,2,2,3,3,4,4,5,5,6,6,7,7,8,8,9,9,11,11,12,12,13,13,14,14,16,16],"right_children":[2,-1,4,6,8,10,12,14,16,18,-1,20,22,24,26,-1,28,-1,-1,-1,-1,-1,-1,-1,-1,-1,-1,-1,-1],"split_conditions":[6.16E1,-3.4675294E-1,1.189E2,1.415E1,1.246E2,1.501E1,1.704E1,6.62E1,6.52E1,1.355E1,-1.5485382E-1,1.153E2,1.851E1,1.719E1,6.89E1,-7.1079256E-3,1.199E2,-2.1511689E-1,1.0849762E-2,-2.3405839E-2,4.8767474E-2,-2.2013168E-1,-1.6505051E-2,1.4792633E-2,-6.676598E-2,1.3354492E-2,4.3282852E-1,7.960663E-2,3.2025224E-1],"split_indices":[7,0,3,1,2,0,1,6,7,1,0,3,0,0,7,0,3,0,0,0,0,0,0,0,0,0,0,0,0],"split_type":[0,0,0,0,0,0,0,0,0,0,0,0,0,0,0,0,0,0,0,0,0,0,0,0,0,0,0,0,0],"sum_hessian":[4.4E2,9E0,4.31E2,3.11E2,1.2E2,1.8E1,2.93E2,8.8E1,3.2E1,1.2E1,6E0,1.32E2,1.61E2,2.3E1,6.5E1,4E0,2.8E1,7E0,5E0,9.8E1,3.4E1,2.3E1,1.38E2,3E0,2E1,3.7E1,2.8E1,6E0,2.2E1],"tree_param":{"num_deleted":"0","num_feature":"8","num_nodes":"29","size_leaf_vector":"1"}},{"base_weights":[-2.045977E-2,-2.794872E-1,4.7858944E-3,-4.2380953E-1,-1E-1,-1.5340909E-2,1.6086957E-1,-5.0000004E-3,-2.3333333E-2,1E-1,-2.6363635E-1,1.3809524E-1,-2.5301205E-2,-2E-2,2.9259259E-1,1.75E-2,-3.3333332E-3,-2.125E-2,5.0000004E-3,-1.75E-1,1.5714286E-2,-3.3956386E-2,2E-1,1.9E-2,-1.5E-1,-0E0,1.7173914E-2,5.0000004E-3,-1.9E-2,-3.3962266E-3,1.5454546E-3,2.5000002E-3,1.9E-2,-2.0000001E-2,-0E0],"categories":[],"categories_nodes":[],"categories_segments":[],"categories_sizes":[],"default_left":[0,0,0,0,0,0,0,0,0,0,0,0,0,0,0,0,0,0,0,0,0,0,0,0,0,0,0,0,0,0,0,0,0,0,0],"id":32,"left_children":[1,3,5,7,9,11,13,-1,-1,15,17,19,21,23,25,-1,-1,-1,-1,27,-1,29,31,-1,33,-1,-1,-1,-1,-1,-1,-1,-1,-1,-1],"loss_changes":[2.8734114E0,9.154947E-1,1.2641824E0,1.880951E-1,6.645455E-1,5.301654E-1,1.1290467E0,0E0,0E0,4.2666665E-1,7.204546E-1,1.227381E0,6.3759446E-1,1.074E0,4.0199685E-1,0E0,0E0,0E0,0E0,5.17E-1,0E0,7.130796E-1,2.6199996E-1,0E0,6E-1,0E0,0E0,0E0,0E0,0E0,0E0,0E0,0E0,0E0,0E0],"parents":[2147483647,0,0,1,1,2,2,3,3,4,4,5,5,6,6,9,9,10,10,11,11,12,12,13,13,14,14,19,19,21,21,22,22,24,24],"right_children":[2,4,6,8,10,12,14,-1,-1,16,18,20,22,24,26,-1,-1,-1,-1,28,-1,30,32,-1,34,-1,-1,-1,-1,-1,-1,-1,-1,-1,-1],"split_conditions":[1.114E2,6.53E1,2.792E1,1.109E2,1.126E2,1.123E2,1.199E2,-6.997986E-2,-3.166878E-1,6.63E1,1.165E2,1.553E1,1.029E2,1.153E2,9.02E1,8.339997E-2,-1.2615433E-1,-2.297844E-1,5.437393E-2,1.501E1,1.666191E-1,9.94E1,6.81E1,6.3172534E-2,6.82E1,1.2627946E-1,2.3881875E-1,1.8180695E-1,-1.9672394E-1,-3.774948E-2,1.66893E-2,1.67659E-1,2.2851562E-1,-2.7609253E-1,3.2896426E-2],"split_indices":[3,7,0,2,2,3,3,0,0,7,2,0,4,3,4,0,0,0,0,0,0,5,7,0,7,0,0,0,0,0,0,0,0,0,0],"split_type":[0,0,0,0,0,0,0,0,0,0,0,0,0,0,0,0,0,0,0,0,0,0,0,0,0,0,0,0,0,0,0,0,0,0,0],"sum_hessian":[4.34E2,3.8E1,3.96E2,2E1,1.8E1,3.51E2,4.5E1,3E0,1.7E1,8E0,1E1,2E1,3.31E2,1.9E1,2.6E1,3E0,5E0,7E0,3E0,7E0,1.3E1,3.2E2,1.1E1,4E0,1.5E1,4E0,2.2E1,3E0,4E0,2.11E2,1.09E2,7E0,4E0,5E0,1E1],"tree_param":{"num_deleted":"0","num_feature":"8","num_nodes":"35","size_leaf_vector":"1"}},{"base_weights":[-2.3636363E-2,-5.3591162E-2,1.12658225E-1,-2.3333333E-1,-3.3333335E-2,-1.5E-1,1.78125E-1,-5.2941177E-2,-3.7E-1,7.090909E-2,-5.4578755E-2,-2.8333333E-1,9.000001E-3,2.4285714E-1,-2.5E-2,-1.3571429E-2,8.181818E-2,-2.0294119E-2,-5.0000004E-3,-1.2666667E-1,1.4390244E-1,-6.6923074E-2,1.7142858E-1,-2.125E-2,-0E0,1.4166667E-1,3.2307693E-1,-1.75E-2,6.923077E-2,-3.3333332E-3,1.1666667E-2,-1.7E-2,1.1666667E-2,1.2826087E-2,-0E0,-2.5903615E-3,-1.8333334E-2,-0E0,1.2E-2,1.4166667E-2,-0E0,1.8809525E-2,3.3333332E-3,1.75E-2,-2E-3],"categories":[],"categories_nodes":[],"categories_segments":[],"categories_sizes":[],"default_left":[0,0,0,0,0,0,0,0,0,0,0,0,0,0,0,0,0,0,0,0,0,0,0,0,0,0,0,0,0,0,0,0,0,0,0,0,0,0,0,0,0,0,0,0,0],"id":33,"left_children":[1,3,5,7,9,11,13,15,17,19,21,23,-1,25,27,-1,29,-1,-1,31,33,35,37,-1,-1,39,41,-1,43,-1,-1,-1,-1,-1,-1,-1,-1,-1,-1,-1,-1,-1,-1,-1,-1],"loss_changes":[1.7965086E0,1.2836648E0,1.3879668E0,8.25647E-1,7.2643554E-1,7.653333E-1,8.69375E-1,5.417036E-1,1.02588415E-1,8.131456E-1,7.6266676E-1,4.8166668E-1,0E0,3.0551267E-1,5.4230773E-1,0E0,2.79697E-1,0E0,0E0,1.2420001E0,6.6445386E-1,1.1171851E0,1.6457143E-1,0E0,0E0,4.8166668E-1,2.8472543E-1,0E0,4.436923E-1,0E0,0E0,0E0,0E0,0E0,0E0,0E0,0E0,0E0,0E0,0E0,0E0,0E0,0E0,0E0,0E0],"parents":[2147483647,0,0,1,1,2,2,3,3,4,4,5,5,6,6,7,7,8,8,9,9,10,10,11,11,13,13,14,14,16,16,19,19,20,20,21,21,22,22,25,25,26,26,28,28],"right_children":[2,4,6,8,10,12,14,16,18,20,22,24,-1,26,28,-1,30,-1,-1,32,34,36,38,-1,-1,40,42,-1,44,-1,-1,-1,-1,-1,-1,-1,-1,-1,-1,-1,-1,-1,-1,-1,-1],"split_conditions":[1.209E2,1.113E2,6.56E1,1.641E1,6.52E1,1.008E2,7.06E1,6.53E1,1.825E1,1.637E1,1.234E2,1.244E2,2.7174836E-1,1.19E2,1.198E2,-4.7048378E-1,1.519E1,-2.0974655E-1,-2.3255844E-1,1.005E2,1.174E2,1.2E2,1.185E2,-2.3664704E-1,-5.8204653E-3,1.244E2,9.76E1,-9.080201E-2,1.207E2,-1.1763611E-1,9.046402E-2,-4.498665E-1,1.6203614E-1,1.5947723E-1,-1.13233946E-1,-3.631134E-2,-1.8191834E-1,-3.2304384E-2,3.0726853E-1,3.4220812E-1,7.376061E-2,4.370888E-1,1.4574433E-2,6.5721285E-1,-3.586197E-2],"split_indices":[2,3,7,0,7,4,7,7,0,1,3,2,0,3,3,0,0,0,0,4,3,2,2,0,0,2,4,0,3,0,0,0,0,0,0,0,0,0,0,0,0,0,0,0,0],"split_type":[0,0,0,0,0,0,0,0,0,0,0,0,0,0,0,0,0,0,0,0,0,0,0,0,0,0,0,0,0,0,0,0,0,0,0,0,0,0,0,0,0,0,0,0,0],"sum_hessian":[4.39E2,3.61E2,7.8E1,3.5E1,3.26E2,1.5E1,6.3E1,1.6E1,1.9E1,5.4E1,2.72E2,1.1E1,4E0,4.8E1,1.5E1,6E0,1E1,1.6E1,3E0,1.4E1,4E1,2.59E2,1.3E1,7E0,4E0,2.3E1,2.5E1,3E0,1.2E1,5E0,5E0,9E0,5E0,2.2E1,1.8E1,2.48E2,1.1E1,4E0,9E0,1.1E1,1.2E1,2E1,5E0,3E0,9E0],"tree_param":{"num_deleted":"0","num_feature":"8","num_nodes":"45","size_leaf_vector":"1"}},{"base_weights":[-9.569378E-4,-2.2E-2,9.535452E-3,-2.25E-1,2.435233E-2,-2.809524E-1,5.0000004E-3,-3.030303E-3,1.15555555E-1,-1.7142858E-1,-2.125E-2,3.1343285E-2,-1.5666667E-2,8.313253E-2,2.125E-2,-2.125E-2,6.428571E-3,5.1282055E-4,8.428572E-3,-5.0000004E-3,6.8461536E-3],"categories":[],"categories_nodes":[],"categories_segments":[],"categories_sizes":[],"default_left":[0,0,0,0,0,0,0,0,0,0,0,0,0,0,0,0,0,0,0,0,0],"id":34,"left_children":[1,-1,3,5,7,9,-1,11,13,15,-1,17,-1,19,-1,-1,-1,-1,-1,-1,-1],"loss_changes":[1.9728056E0,0E0,1.4067236E0,4.8261905E-1,9.7559315E-1,1.988095E-1,0E0,3.2058895E0,8.168367E-1,1.1492858E0,0E0,7.5590324E-1,0E0,8.350009E-1,0E0,0E0,0E0,0E0,0E0,0E0,0E0],"parents":[2147483647,0,0,2,2,3,3,4,4,5,5,7,7,8,8,9,9,11,11,13,13],"right_children":[2,-1,4,6,8,10,-1,12,14,16,-1,18,-1,20,-1,-1,-1,-1,-1,-1,-1],"split_conditions":[6.17E1,-3.0503464E-1,1.415E1,6.97E1,9.92E1,1.501E1,4.2704772E-2,9.88E1,7.1E1,1.355E1,-1.7282258E-1,2.848E1,-1.8257523E-1,1.512E1,6.0439074E-1,-2.3091507E-1,8.025894E-2,8.6044315E-3,7.246323E-2,-1.6064225E-1,6.588402E-2],"split_indices":[7,0,1,6,4,0,0,4,7,1,0,0,0,1,0,0,0,0,0,0,0],"split_type":[0,0,0,0,0,0,0,0,0,0,0,0,0,0,0,0,0,0,0,0,0],"sum_hessian":[4.17E2,9E0,4.08E2,2.3E1,3.85E2,2E1,3E0,2.96E2,8.9E1,1.3E1,7E0,2.67E2,2.9E1,8.2E1,7E0,7E0,6E0,2.33E2,3.4E1,1.8E1,6.4E1],"tree_param":{"num_deleted":"0","num_feature":"8","num_nodes":"21","size_leaf_vector":"1"}},{"base_weights":[-1.4349775E-2,-2.0181406E-2,2.0000001E-2,-1.9032258E-1,-7.055961E-3,-2.0714287E-2,-1.16E-1,-2.6E-1,2.2670026E-3,2.8571429E-2,-2.8333333E-1,-1.8333334E-2,5.0000004E-3,8.717949E-3,-1.5000001E-2,-1.75E-2,8.636364E-3,-2.125E-2,-0E0,-5.347594E-5,1.1470589E-2],"categories":[],"categories_nodes":[],"categories_segments":[],"categories_sizes":[],"default_left":[0,0,0,0,0,0,0,0,0,0,0,0,0,0,0,0,0,0,0,0,0],"id":35,"left_children":[1,3,-1,5,7,-1,9,11,13,15,17,-1,-1,19,-1,-1,-1,-1,-1,-1,-1],"loss_changes":[1.047776E0,9.6375096E-1,0E0,4.1492534E-1,9.9557805E-1,0E0,6.3836193E-1,6.3933325E-1,7.4760073E-1,8.067532E-1,4.8166668E-1,0E0,0E0,8.6549264E-1,0E0,0E0,0E0,0E0,0E0,0E0,0E0],"parents":[2147483647,0,0,1,1,3,3,4,4,6,6,7,7,8,8,9,9,10,10,13,13],"right_children":[2,4,-1,6,8,-1,10,12,14,16,18,-1,-1,20,-1,-1,-1,-1,-1,-1,-1],"split_conditions":[3.117E1,1.464E1,5.950562E-1,9.73E1,6.19E1,-2.2087288E-1,1.001E2,9.77E1,2.848E1,6.37E1,6.82E1,-2.9260865E-1,4.7721863E-3,2.661E1,-4.5839693E-2,-6.050438E-1,2.604477E-1,-1.5286866E-1,-9.941902E-2,-1.853943E-4,1.3264008E-1],"split_indices":[1,1,0,4,7,0,4,4,1,7,7,0,0,1,0,0,0,0,0,0,0],"split_type":[0,0,0,0,0,0,0,0,0,0,0,0,0,0,0,0,0,0,0,0,0],"sum_hessian":[4.45E2,4.4E2,5E0,3E1,4.1E2,6E0,2.4E1,1.4E1,3.96E2,1.3E1,1.1E1,1.1E1,3E0,3.89E2,7E0,3E0,1E1,7E0,4E0,3.73E2,1.6E1],"tree_param":{"num_deleted":"0","num_feature":"8","num_nodes":"21","size_leaf_vector":"1"}},{"base_weights":[5.529954E-3,-7.294118E-2,5.6226414E-2,-2.724138E-1,-3.0985916E-2,3.3333335E-2,2.3793103E-1,-0E0,-3.16E-1,-7.979798E-2,7.727273E-2,1.15555555E-1,-1.6216217E-2,2.846154E-1,-5.0000004E-3,-2.2272727E-2,-1.9333333E-1,2.3076924E-2,-1.4590164E-1,-0E0,2.8333333E-1,8.313253E-2,2.125E-2,-1.4081633E-1,4.4E-2,5E-2,1.8157896E-2,-1.6111111E-2,-0E0,-1.3571429E-2,4.3939394E-3,-2.7142856E-3,-1.2777778E-2,5.4545454E-3,-1.0000001E-2,2.1666666E-2,-5.0000004E-3,5.6329113E-3,-1.9E-2,-1.38E-2,-0E0,1.5000001E-2,2.2727273E-4,1.9E-2,-1.75E-2],"categories":[],"categories_nodes":[],"categories_segments":[],"categories_sizes":[],"default_left":[0,0,0,0,0,0,0,0,0,0,0,0,0,0,0,0,0,0,0,0,0,0,0,0,0,0,0,0,0,0,0,0,0,0,0,0,0,0,0,0,0,0,0,0,0],"id":36,"left_children":[1,3,5,7,9,11,13,-1,15,17,19,21,23,25,-1,-1,27,29,31,33,35,37,-1,39,41,43,-1,-1,-1,-1,-1,-1,-1,-1,-1,-1,-1,-1,-1,-1,-1,-1,-1,-1,-1],"loss_changes":[1.7289722E0,1.3839363E0,1.0672839E0,3.4433103E-1,7.567934E-1,9.7736347E-1,5.044296E-1,0E0,2.4699402E-1,6.888898E-1,7.006061E-1,8.168367E-1,1.1263137E0,4.1963577E-1,0E0,0E0,3.7377775E-1,7.497935E-1,5.6795156E-1,7.418182E-1,7.6666665E-1,1.1510438E0,0E0,9.3276733E-1,9.7821814E-1,1.192E0,0E0,0E0,0E0,0E0,0E0,0E0,0E0,0E0,0E0,0E0,0E0,0E0,0E0,0E0,0E0,0E0,0E0,0E0,0E0],"parents":[2147483647,0,0,1,1,2,2,3,3,4,4,5,5,6,6,8,8,9,9,10,10,11,11,12,12,13,13,16,16,17,17,18,18,19,19,20,20,21,21,23,23,24,24,25,25],"right_children":[2,4,6,8,10,12,14,-1,16,18,20,22,24,26,-1,-1,28,30,32,34,36,38,-1,40,42,44,-1,-1,-1,-1,-1,-1,-1,-1,-1,-1,-1,-1,-1,-1,-1,-1,-1,-1,-1],"split_conditions":[6.66E1,1.122E2,7.15E1,6.16E1,6.93E1,9.67E1,7.06E1,-3.569706E-1,9.43E1,6.67E1,2.635E1,1.198E2,6.66E1,6.57E1,-1.314415E-1,-3.6960337E-1,1.689E1,9.38E1,9.75E1,2.345E1,7.06E1,3.062E1,6.207382E-1,1.78E1,6.73E1,6.47E1,1.4996834E-1,-4.4036064E-1,8.163452E-4,-3.2228854E-2,5.512352E-2,-2.6374435E-2,-1.11974716E-1,8.438339E-2,-1.6615906E-1,3.6029893E-1,-3.540039E-2,9.288216E-2,-1.9649468E-1,-1.920147E-1,2.6657104E-3,2.1346474E-1,6.868744E-3,3.2800293E-1,-5.0229646E-2],"split_indices":[6,3,6,6,7,5,7,0,5,7,1,3,7,7,0,0,0,5,5,0,7,0,0,0,6,7,0,0,0,0,0,0,0,0,0,0,0,0,0,0,0,0,0,0,0],"split_type":[0,0,0,0,0,0,0,0,0,0,0,0,0,0,0,0,0,0,0,0,0,0,0,0,0,0,0,0,0,0,0,0,0,0,0,0,0,0,0,0,0,0,0,0,0],"sum_hessian":[4.33E2,1.69E2,2.64E2,2.8E1,1.41E2,2.36E2,2.8E1,4E0,2.4E1,9.8E1,4.3E1,8.9E1,1.47E2,2.5E1,3E0,1E1,1.4E1,3.8E1,6E1,3.2E1,1.1E1,8.2E1,7E0,4.8E1,9.9E1,7E0,1.8E1,8E0,6E0,6E0,3.2E1,3.4E1,2.6E1,2.1E1,1.1E1,8E0,3E0,7.8E1,4E0,2.4E1,2.4E1,1.2E1,8.7E1,4E0,3E0],"tree_param":{"num_deleted":"0","num_feature":"8","num_nodes":"45","size_leaf_vector":"1"}},{"base_weights":[-0E0,-2.303207E-2,8.876404E-2,-3.5454544E-1,-1.1711712E-2,-6.551724E-2,1.6229509E-1,-2.125E-2,-5.0000004E-3,-7.124183E-2,3.8121548E-2,-2E-1,1.5000001E-2,2.2272727E-2,9.607843E-2,1.7948719E-2,-1.631579E-1,2.4285714E-1,2.0238096E-2,-0E0,-2.75E-1,2.1666666E-2,2.0930232E-2,-6.9047622E-3,3.7931036E-3,-4.8039216E-3,-1.423077E-2,3.3333332E-3,1.6111111E-2,4.268293E-4,1.9E-2,5.0000004E-3,-1.8846154E-2,-7.631579E-3,7.8000003E-3],"categories":[],"categories_nodes":[],"categories_segments":[],"categories_sizes":[],"default_left":[0,0,0,0,0,0,0,0,0,0,0,0,0,0,0,0,0,0,0,0,0,0,0,0,0,0,0,0,0,0,0,0,0,0,0],"id":37,"left_children":[1,3,5,7,9,11,13,-1,-1,15,17,19,-1,-1,21,23,25,27,29,-1,31,-1,33,-1,-1,-1,-1,-1,-1,-1,-1,-1,-1,-1,-1],"loss_changes":[8.831893E-1,1.2464496E0,1.0299683E0,1.0227275E-1,9.938989E-1,1.4755174E0,1.0467901E0,0E0,0E0,1.27175E0,6.314851E-1,3.2999998E-1,0E0,0E0,1.238053E0,7.091411E-1,5.537803E-1,1.3539678E-1,6.651417E-1,0E0,6.7692304E-1,0E0,1.0321944E0,0E0,0E0,0E0,0E0,0E0,0E0,0E0,0E0,0E0,0E0,0E0,0E0],"parents":[2147483647,0,0,1,1,2,2,3,3,4,4,5,5,6,6,9,9,10,10,11,11,14,14,15,15,16,16,17,17,18,18,20,20,22,22],"right_children":[2,4,6,8,10,12,14,-1,-1,16,18,20,-1,-1,22,24,26,28,30,-1,32,-1,34,-1,-1,-1,-1,-1,-1,-1,-1,-1,-1,-1,-1],"split_conditions":[9.93E1,6.19E1,1.512E1,1.178E2,1.825E1,6.87E1,1.577E1,-2.804207E-1,-3.75473E-2,1.647E1,1.903E1,6.4E1,2.4947052E-1,1.1251869E-1,6.47E1,6.53E1,9.83E1,9.64E1,3.505E1,-3.52314E-2,1.005E2,1.3419381E-1,6.72E1,-1.7577668E-1,3.1183625E-2,-1.16701126E-1,-1.3354187E-1,8.0164336E-2,1.5949936E-1,3.5087585E-3,5.51857E-1,2.6108552E-2,-3.0179748E-1,-8.5810855E-2,1.8576394E-1],"split_indices":[4,7,1,2,1,7,1,0,0,1,1,7,0,0,7,7,4,4,1,0,4,0,7,0,0,0,0,0,0,0,0,0,0,0,0],"split_type":[0,0,0,0,0,0,0,0,0,0,0,0,0,0,0,0,0,0,0,0,0,0,0,0,0,0,0,0,0,0,0,0,0,0,0],"sum_hessian":[4.3E2,3.42E2,8.8E1,1E1,3.32E2,2.8E1,6E1,7E0,3E0,1.52E2,1.8E2,2.1E1,7E0,1E1,5E1,7.7E1,7.5E1,1.3E1,1.67E2,6E0,1.5E1,8E0,4.2E1,2E1,5.7E1,5E1,2.5E1,5E0,8E0,1.63E2,4E0,3E0,1.2E1,1.8E1,2.4E1],"tree_param":{"num_deleted":"0","num_feature":"8","num_nodes":"35","size_leaf_vector":"1"}},{"base_weights":[-2.2863742E-2,-5.19774E-2,1.05E-1,-9.467681E-2,6.9565214E-2,1.85E-1,2.1951219E-2,-2.809524E-1,-7.777778E-2,2.0714287E-2,3.9534885E-2,-0E0,3.0833334E-1,-1.6111111E-2,1.1818182E-1,-2.0714287E-2,-1.9333333E-1,-0E0,-1.2516557E-1,-1.0909091E-1,9.076923E-2,2.1111111E-1,-2.1111111E-1,3.3333332E-3,1.8157896E-2,1.7E-2,1.6666666E-2,-1.9E-2,-4.090909E-3,-4.68254E-3,9.516129E-3,-1.1875E-2,-3.5576925E-3,6.428571E-3,-1.0625E-2,-3.888889E-3,7.7083334E-3,-5.0000004E-3,2.0000001E-2,-1.9E-2,-0E0,-8.636364E-3,8.571429E-3],"categories":[],"categories_nodes":[],"categories_segments":[],"categories_sizes":[],"default_left":[0,0,0,0,0,0,0,0,0,0,0,0,0,0,0,0,0,0,0,0,0,0,0,0,0,0,0,0,0,0,0,0,0,0,0,0,0,0,0,0,0,0,0],"id":38,"left_children":[1,3,5,7,9,11,13,15,17,-1,19,21,23,-1,25,-1,27,29,31,33,35,37,39,-1,-1,-1,41,-1,-1,-1,-1,-1,-1,-1,-1,-1,-1,-1,-1,-1,-1,-1,-1],"loss_changes":[1.6120331E0,1.8462856E0,5.0675607E-1,7.7016664E-1,8.9062977E-1,9.1266656E-1,1.3755975E0,1.04476094E-1,8.956293E-1,0E0,6.629381E-1,8.022222E-1,2.5078964E-1,0E0,7.0175755E-1,0E0,2.3496968E-1,1.6754429E0,8.684094E-1,5.763961E-1,7.141836E-1,5.988889E-1,3.208889E-1,0E0,0E0,0E0,7.329438E-1,0E0,0E0,0E0,0E0,0E0,0E0,0E0,0E0,0E0,0E0,0E0,0E0,0E0,0E0,0E0,0E0],"parents":[2147483647,0,0,1,1,2,2,3,3,4,4,5,5,6,6,7,7,8,8,10,10,11,11,12,12,14,14,16,16,17,17,18,18,19,19,20,20,21,21,22,22,26,26],"right_children":[2,4,6,8,10,12,14,16,18,-1,20,22,24,-1,26,-1,28,30,32,34,36,38,40,-1,-1,-1,42,-1,-1,-1,-1,-1,-1,-1,-1,-1,-1,-1,-1,-1,-1,-1,-1],"split_conditions":[6.98E1,1.189E2,1.168E2,1.453E1,1.19E2,9.64E1,1.175E2,1.355E1,1.669E1,2.0460854E-1,1.175E2,1.778E1,1.542E1,-1.0397606E-1,1.185E2,-1.8468133E-1,1.123E2,1.149E2,1.761E1,6.57E1,1.199E2,1.704E1,2.058E1,2.0623017E-2,3.031231E-1,3.7711716E-1,1.198E2,-1.6283531E-1,-1.7215195E-1,-5.7745744E-2,6.43837E-2,-2.4158631E-1,-4.5193482E-2,9.313698E-2,-1.4818345E-1,-1.8746186E-2,1.7565536E-1,-4.188309E-2,2.3347473E-1,-4.487072E-1,-4.027176E-2,-6.719513E-2,1.829071E-1],"split_indices":[6,3,3,1,3,4,3,1,1,0,2,1,1,0,2,0,2,3,1,6,3,1,1,0,0,0,2,0,0,0,0,0,0,0,0,0,0,0,0,0,0,0,0],"split_type":[0,0,0,0,0,0,0,0,0,0,0,0,0,0,0,0,0,0,0,0,0,0,0,0,0,0,0,0,0,0,0,0,0,0,0,0,0,0,0,0,0,0,0],"sum_hessian":[4.32E2,3.53E2,7.9E1,2.62E2,9.1E1,3.9E1,4E1,2E1,2.42E2,6E0,8.5E1,1.6E1,2.3E1,8E0,3.2E1,6E0,1.4E1,9.2E1,1.5E2,2.1E1,6.4E1,8E0,8E0,5E0,1.8E1,9E0,2.3E1,4E0,1E1,6.2E1,3E1,4.7E1,1.03E2,6E0,1.5E1,1.7E1,4.7E1,3E0,5E0,4E0,4E0,1E1,1.3E1],"tree_param":{"num_deleted":"0","num_feature":"8","num_nodes":"43","size_leaf_vector":"1"}},{"base_weights":[-5.8536585E-3,-8.7692305E-2,3.1672597E-2,-1.5161291E-1,-2.7536232E-2,-1.8348624E-3,1.46875E-1,-9.607843E-2,-3.6666667E-1,1.9333333E-1,-8.9090906E-2,8.222222E-2,-6.124031E-2,2.9090908E-1,6.744186E-2,-1.6046512E-1,2.1111111E-1,-5.0000004E-3,-2.1666666E-2,-0E0,2.0714287E-2,-1E-2,-2.75E-1,2.8333333E-1,4.936709E-2,8E-2,-1.04E-1,2.2692308E-2,4E-2,-1E-1,1.4666666E-1,-1.0882353E-2,2E-3,1.9E-2,-0E0,9.000001E-3,-9.000001E-3,-7.0833336E-3,8.529413E-3,-3.3333332E-3,-1.7727273E-2,-5.0000004E-3,2.1666666E-2,-3.448276E-4,1.0000001E-2,8.461539E-3,-1.9E-2,-8.857143E-3,3.0645162E-3,-3.3333332E-3,9.000001E-3,6.428571E-3,-1.5000001E-2,-5.0000004E-3,1.2272728E-2],"categories":[],"categories_nodes":[],"categories_segments":[],"categories_sizes":[],"default_left":[0,0,0,0,0,0,0,0,0,0,0,0,0,0,0,0,0,0,0,0,0,0,0,0,0,0,0,0,0,0,0,0,0,0,0,0,0,0,0,0,0,0,0,0,0,0,0,0,0,0,0,0,0,0,0],"id":39,"left_children":[1,3,5,7,9,11,13,15,17,19,21,23,25,27,29,31,33,-1,-1,35,-1,37,39,41,43,45,47,-1,49,51,53,-1,-1,-1,-1,-1,-1,-1,-1,-1,-1,-1,-1,-1,-1,-1,-1,-1,-1,-1,-1,-1,-1,-1,-1],"loss_changes":[1.2675297E0,4.7778767E-1,1.0994729E0,6.589564E-1,9.4489336E-1,1.091509E0,6.767745E-1,1.0375361E0,1.16666675E-1,6.4076185E-1,7.774545E-1,5.474205E-1,7.8980166E-1,8.3187425E-1,5.8975196E-1,5.193789E-1,3.208889E-1,0E0,0E0,3.24E-1,0E0,9.723726E-1,1.9939387E-1,7.6666665E-1,6.9022703E-1,1.2746154E0,1.2314228E0,0E0,1.7266667E-1,6.9571435E-1,7.701213E-1,0E0,0E0,0E0,0E0,0E0,0E0,0E0,0E0,0E0,0E0,0E0,0E0,0E0,0E0,0E0,0E0,0E0,0E0,0E0,0E0,0E0,0E0,0E0,0E0],"parents":[2147483647,0,0,1,1,2,2,3,3,4,4,5,5,6,6,7,7,8,8,9,9,10,10,11,11,12,12,13,13,14,14,15,15,16,16,19,19,21,21,22,22,23,23,24,24,25,25,26,26,28,28,29,29,30,30],"right_children":[2,4,6,8,10,12,14,16,18,20,22,24,26,28,30,32,34,-1,-1,36,-1,38,40,42,44,46,48,-1,50,52,54,-1,-1,-1,-1,-1,-1,-1,-1,-1,-1,-1,-1,-1,-1,-1,-1,-1,-1,-1,-1,-1,-1,-1,-1],"split_conditions":[6.62E1,1.78E1,1.2E2,1.689E1,1.755E1,1.151E2,2.345E1,1.158E2,1.719E1,1.851E1,1.209E2,1.114E2,6.75E1,1.224E2,1.244E2,1.168E2,1.172E2,-2.2950669E-1,-3.697056E-1,1.703E1,2.0831299E-1,2.324E1,2.422E1,9.5E1,1.78E1,1.183E2,1.196E2,3.6023256E-1,2.238E1,9.3E1,6.81E1,-1.8842164E-1,3.1705476E-2,1.4671516E-1,-2.3921661E-1,1.2028732E-1,-3.45525E-1,-3.3409882E-2,1.583046E-1,-3.2577515E-4,-1.8433534E-1,-1.0498352E-1,2.481678E-1,-1.3619232E-2,1.593544E-1,2.4941711E-1,-2.6276705E-1,-5.868988E-2,4.4191744E-2,-9.704056E-2,4.7595903E-1,3.0120966E-1,-1.261345E-1,-2.8318787E-2,3.8760072E-1],"split_indices":[7,0,2,1,1,3,1,3,0,0,2,2,7,2,2,2,3,0,0,1,0,0,0,5,1,3,3,0,1,5,7,0,0,0,0,0,0,0,0,0,0,0,0,0,0,0,0,0,0,0,0,0,0,0,0],"split_type":[0,0,0,0,0,0,0,0,0,0,0,0,0,0,0,0,0,0,0,0,0,0,0,0,0,0,0,0,0,0,0,0,0,0,0,0,0,0,0,0,0,0,0,0,0,0,0,0,0,0,0,0,0,0,0],"sum_hessian":[4.09E2,1.29E2,2.8E2,6.1E1,6.8E1,2.17E2,6.3E1,5E1,1.1E1,1.4E1,5.4E1,8.9E1,1.28E2,2.1E1,4.2E1,4.2E1,8E0,3E0,8E0,8E0,6E0,3.9E1,1.5E1,1.1E1,7.8E1,2.9E1,9.9E1,1.2E1,9E0,1.3E1,2.9E1,3.3E1,9E0,4E0,4E0,4E0,4E0,2.3E1,1.6E1,5E0,1E1,3E0,8E0,5.7E1,2.1E1,2.5E1,4E0,6.9E1,3E1,5E0,4E0,6E0,7E0,8E0,2.1E1],"tree_param":{"num_deleted":"0","num_feature":"8","num_nodes":"55","size_leaf_vector":"1"}},{"base_weights":[-2.7738927E-2,-6.627451E-2,2.8E-2,-9.7E-2,4.2857144E-2,1.6959064E-2,1.9E-2,-2.125E-2,-8.238342E-2,8.461539E-2,-1.9E-2,-8.7878786E-2,4.2446043E-2,-1.2517482E-1,3.7254903E-2,-1.1666667E-2,1.2553191E-1,-0E0,-2.2307692E-1,8.648649E-2,-6.060606E-3,-4.8373984E-3,-1.404762E-2,9.166667E-3,-4.2857146E-3,1.4545455E-2,-7.6923077E-4,-5.5882353E-3,1.9E-2,-2.125E-2,3.3333332E-3,-7.6923077E-4,7.040817E-3,-3.2222222E-3,5.4545454E-3],"categories":[],"categories_nodes":[],"categories_segments":[],"categories_sizes":[],"default_left":[0,0,0,0,0,0,0,0,0,0,0,0,0,0,0,0,0,0,0,0,0,0,0,0,0,0,0,0,0,0,0,0,0,0,0],"id":40,"left_children":[1,3,5,7,9,11,-1,-1,13,15,-1,17,19,21,23,-1,25,27,29,31,33,-1,-1,-1,-1,-1,-1,-1,-1,-1,-1,-1,-1,-1,-1],"loss_changes":[9.2714584E-1,8.6461794E-1,6.339813E-1,8.7309647E-1,9.914505E-1,4.5609885E-1,0E0,0E0,1.0015174E0,6.9499725E-1,0E0,3.9207458E-1,3.055061E-1,5.682905E-1,9.415966E-1,0E0,1.1273336E0,9.3435293E-1,8.247436E-1,4.2427295E-1,