{"learner":{"attributes":{"best_iteration":"52","best_score":"1.5618345580995083"},"feature_names":["home_adj_em","away_adj_em","home_off_eff","away_off_eff","home_def_eff","away_def_eff","home_tempo","away_tempo"],"feature_types":["float","float","float","float","float","float","float","float"],"gradient_booster":{"model":{"cats":{"enc":[],"feature_segments":[],"sorted_idx":[]},"gbtree_model_param":{"num_parallel_tree":"1","num_trees":"83"},"iteration_indptr":[0,1,2,3,4,5,6,7,8,9,10,11,12,13,14,15,16,17,18,19,20,21,22,23,24,25,26,27,28,29,30,31,32,33,34,35,36,37,38,39,40,41,42,43,44,45,46,47,48,49,50,51,52,53,54,55,56,57,58,59,60,61,62,63,64,65,66,67,68,69,70,71,72,73,74,75,76,77,78,79,80,81,82,83],"tree_info":[0,0,0,0,0,0,0,0,0,0,0,0,0,0,0,0,0,0,0,0,0,0,0,0,0,0,0,0,0,0,0,0,0,0,0,0,0,0,0,0,0,0,0,0,0,0,0,0,0,0,0,0,0,0,0,0,0,0,0,0,0,0,0,0,0,0,0,0,0,0,0,0,0,0,0,0,0,0,0,0,0,0,0],"trees":[{"base_weights":[2.3148186E-3,-2.72549E-1,3.926702E-2,-4.7692305E-1,-5.384615E-2,-4.0624995E-2,7.9607844E-2,-5.923077E-1,-3.285714E-1,-1.8571427E-1,4.2307694E-3,-1.2727273E-1,4.920635E-2,-8.181818E-2,8.6938776E-2,-3.785714E-2,-3.285714E-1,-3.3333332E-3,-4.5555553E-1,-2E-2,3.5714288E-3,-3.090909E-1,-3.3333328E-2,7.818182E-2,-1.22222215E-1,3.3333336E-3,-1.1666666E-2,-3.3333328E-2,4.74026E-3,2.5000002E-3,-3.25E-2,-3.25E-2,-1.1666666E-2,-3.3333332E-3,-2.681818E-2,-0E0,-1.5E-2,-5E-3,4.8039216E-3,-1.5E-2,3.0000003E-3,3.5714288E-3,-6.111111E-3],"categories":[],"categories_nodes":[],"categories_segments":[],"categories_sizes":[],"default_left":[0,0,0,0,0,0,0,0,0,0,0,0,0,0,0,0,0,0,0,0,0,0,0,0,0,0,0,0,0,0,0,0,0,0,0,0,0,0,0,0,0,0,0],"id":0,"left_children":[1,3,5,7,9,11,13,15,17,19,-1,21,23,25,27,-1,29,-1,31,-1,-1,33,35,37,39,-1,-1,41,-1,-1,-1,-1,-1,-1,-1,-1,-1,-1,-1,-1,-1,-1,-1],"loss_changes":[4.3751216E0,2.2007995E0,1.2382839E0,1.5835142E-1,5.005494E-1,1.0103805E0,3.0939317E-1,2.078023E-1,3.8301587E-1,8.3285713E-1,0E0,1.0827273E0,3.1808662E-1,2.7969694E-1,2.4110448E-1,0E0,9.442857E-1,0E0,1.4888895E-1,0E0,0E0,1.1160605E0,3.9999998E-1,1.8460247E-1,3.3355552E-1,0E0,0E0,1.5349205E-1,0E0,0E0,0E0,0E0,0E0,0E0,0E0,0E0,0E0,0E0,0E0,0E0,0E0,0E0,0E0],"parents":[2147483647,0,0,1,1,2,2,3,3,4,4,5,5,6,6,7,7,8,8,9,9,11,11,12,12,13,13,14,14,16,16,18,18,21,21,22,22,23,23,24,24,27,27],"right_children":[2,4,6,8,10,12,14,16,18,20,-1,22,24,26,28,-1,30,-1,32,-1,-1,34,36,38,40,-1,-1,42,-1,-1,-1,-1,-1,-1,-1,-1,-1,-1,-1,-1,-1,-1,-1],"split_conditions":[1.121E2,6.64E1,1.719E1,6.48E1,9.46E1,6.72E1,6.36E1,1.69E1,1.099E2,1.641E1,1.5520509E-1,6.64E1,1.778E1,9.66E1,6.43E1,-9.3559456E-1,1.641E1,-8.952332E-3,1.689E1,-3.398697E-1,2.3556137E-1,6.57E1,1.718E1,6.42E1,1.143E2,2.512253E-1,-7.979355E-2,2.324E1,2.6663482E-1,1.476593E-2,-4.452904E-1,-3.459343E-1,-4.0939102E-1,-3.4106034E-1,-5.805092E-1,-3.360542E-2,-5.3753663E-2,-8.7229155E-2,1.588694E-1,-1.3679047E-1,7.610695E-1,1.6287613E-1,-2.3764038E-1],"split_indices":[3,6,1,7,5,7,6,0,3,1,0,6,0,5,7,0,1,0,0,0,0,6,1,6,3,0,0,0,0,0,0,0,0,0,0,0,0,0,0,0,0,0,0],"split_type":[0,0,0,0,0,0,0,0,0,0,0,0,0,0,0,0,0,0,0,0,0,0,0,0,0,0,0,0,0,0,0,0,0,0,0,0,0,0,0,0,0,0,0],"sum_hessian":[4.31E2,5E1,3.81E2,2.5E1,2.5E1,1.27E2,2.54E2,1.2E1,1.3E1,1.3E1,1.2E1,6.5E1,6.2E1,1E1,2.44E2,6E0,6E0,5E0,8E0,7E0,6E0,2.1E1,4.4E1,5.4E1,8E0,5E0,5E0,1.4E1,2.3E2,3E0,3E0,3E0,5E0,1.1E1,1E1,4E1,4E0,4E0,5E1,4E0,4E0,6E0,8E0],"tree_param":{"num_deleted":"0","num_feature":"8","num_nodes":"43","size_leaf_vector":"1"}},{"base_weights":[1.18483445E-2,-1.6086955E-1,6.0120847E-2,-2.5937498E-1,5.862069E-2,-2E-2,6.585366E-2,-4.2857137E-2,-3.5454544E-1,-2.1428568E-3,4.5652175E-3,5.2631614E-3,8.3399214E-2,-1.1666666E-2,2.5000002E-2,-2.5E-2,-1.4999999E-1,-9.444444E-2,4.7560977E-3,4.0845074E-2,4.9453555E-3,-5E-3,4.166667E-3,-1.1666666E-2,-5.5555534E-4,-1.4516128E-3,-2E-2,-9.285714E-3,3.3076925E-3],"categories":[],"categories_nodes":[],"categories_segments":[],"categories_sizes":[],"default_left":[0,0,0,0,0,0,0,0,0,0,0,0,0,0,0,0,0,0,0,0,0,0,0,0,0,0,0,0,0],"id":1,"left_children":[1,3,5,7,9,-1,11,13,15,-1,-1,17,19,-1,21,-1,23,25,-1,27,-1,-1,-1,-1,-1,-1,-1,-1,-1],"loss_changes":[3.5180326E0,2.0244102E0,8.6603403E-1,1.2638555E0,1.0494111E-1,0E0,3.3938956E-1,2.980952E-1,1.1690907E0,0E0,0E0,6.899814E-1,1.4894605E-1,0E0,1.2333332E-1,0E0,2.0444438E-1,6.650179E-1,0E0,4.074394E-1,0E0,0E0,0E0,0E0,0E0,0E0,0E0,0E0,0E0],"parents":[2147483647,0,0,1,1,2,2,3,3,4,4,6,6,7,7,8,8,11,11,12,12,14,14,16,16,17,17,19,19],"right_children":[2,4,6,8,10,-1,12,14,16,-1,-1,18,20,-1,22,-1,24,26,-1,28,-1,-1,-1,-1,-1,-1,-1,-1,-1],"split_conditions":[1.143E2,9.88E1,1.326E1,1.503E1,6.57E1,-2.896126E-1,6.6E1,1.072E2,1.669E1,-4.8236847E-2,1.16402745E-1,1.178E2,1.73E1,-3.2287598E-1,1.11E2,-4.3426973E-1,1.129E2,6.57E1,3.2192215E-1,9.7E1,2.6267228E-1,-5.6805575E-1,1.176059E-1,-3.6248583E-1,-3.1831437E-1,-4.4383924E-2,-2.7733842E-1,-3.0027008E-2,1.4121895E-1],"split_indices":[2,5,1,1,7,0,7,3,1,0,0,2,1,0,2,0,2,7,0,4,0,0,0,0,0,0,0,0,0],"split_type":[0,0,0,0,0,0,0,0,0,0,0,0,0,0,0,0,0,0,0,0,0,0,0,0,0,0,0,0,0],"sum_hessian":[4.21E2,9.1E1,3.3E2,6.3E1,2.8E1,3E0,3.27E2,2E1,4.3E1,6E0,2.2E1,7.5E1,2.52E2,5E0,1.5E1,2.4E1,1.9E1,3.5E1,4E1,7E1,1.82E2,4E0,1.1E1,1.1E1,8E0,3E1,5E0,6E0,6.4E1],"tree_param":{"num_deleted":"0","num_feature":"8","num_nodes":"29","size_leaf_vector":"1"}},{"base_weights":[1.46226445E-2,-1.4509803E-1,6.532508E-2,-2.0555554E-1,-0E0,-1.6428571E-2,7.4132495E-2,-4.333333E-1,-1.413793E-1,-6.666666E-2,4.2857146E-3,-2.9411726E-3,4.7600004E-3,-3.0714286E-2,-2.3333332E-1,3.3866276E-9,-2.2432432E-1,7.6923105E-3,-1.1666666E-2,-1.9999999E-1,7.5510204E-2,-3.3333332E-3,-2E-2,-4.090909E-3,4.166667E-3,-1.2499997E-3,-1.7727273E-2,4E-3,-7.5E-3,-2.5E-2,-4.3749996E-3,-1.2499997E-3,4.761905E-3],"categories":[],"categories_nodes":[],"categories_segments":[],"categories_sizes":[],"default_left":[0,0,0,0,0,0,0,0,0,0,0,0,0,0,0,0,0,0,0,0,0,0,0,0,0,0,0,0,0,0,0,0,0],"id":2,"left_children":[1,3,5,7,9,-1,11,13,15,17,-1,19,-1,-1,21,23,25,27,-1,29,31,-1,-1,-1,-1,-1,-1,-1,-1,-1,-1,-1,-1],"loss_changes":[3.4351494E0,8.9477134E-1,1.1194686E0,9.3375444E-1,1.8285714E-1,0E0,5.2423453E-1,3.1476212E-1,7.025814E-1,2.4743587E-1,0E0,1.0787995E0,0E0,0E0,1.7666665E-1,1.569697E-1,9.1356266E-1,1.5323076E-1,0E0,5.724999E-1,1.0656461E-1,0E0,0E0,0E0,0E0,0E0,0E0,0E0,0E0,0E0,0E0,0E0,0E0],"parents":[2147483647,0,0,1,1,2,2,3,3,4,4,6,6,7,7,8,8,9,9,11,11,14,14,15,15,16,16,17,17,19,19,20,20],"right_children":[2,4,6,8,10,-1,12,14,16,18,-1,20,-1,-1,22,24,26,28,-1,30,32,-1,-1,-1,-1,-1,-1,-1,-1,-1,-1,-1,-1],"split_conditions":[1.143E2,1.149E2,1.464E1,6.44E1,1.172E2,-2.75132E-1,6.6E1,1.702E1,1.511E1,1.78E1,5.441147E-2,1.168E2,2.3975448E-1,-8.6710167E-1,1.109E2,1.122E2,6.64E1,1.135E2,-5.767975E-2,1.719E1,1.175E2,-6.9578516E-1,-3.6057815E-1,-5.028048E-1,3.7289843E-1,-2.2347243E-1,-3.68665E-1,1.3118749E-2,-7.952118E-2,-4.2080614E-1,-2.4757493E-1,-4.8846435E-2,2.5763747E-1],"split_indices":[2,3,0,7,3,0,7,0,1,0,0,2,0,0,3,3,7,2,0,0,2,0,0,0,0,0,0,0,0,0,0,0,0],"split_type":[0,0,0,0,0,0,0,0,0,0,0,0,0,0,0,0,0,0,0,0,0,0,0,0,0,0,0,0,0,0,0,0,0],"sum_hessian":[4.23E2,1.01E2,3.22E2,7.1E1,3E1,6E0,3.16E2,1.4E1,5.7E1,1.7E1,1.3E1,6.7E1,2.49E2,6E0,8E0,2.1E1,3.6E1,1.2E1,5E0,1.9E1,4.8E1,5E0,3E0,1E1,1.1E1,1.5E1,2.1E1,9E0,3E0,4E0,1.5E1,7E0,4.1E1],"tree_param":{"num_deleted":"0","num_feature":"8","num_nodes":"33","size_leaf_vector":"1"}},{"base_weights":[4.608332E-4,-9.125683E-2,6.746032E-2,-2.3333332E-1,3.6587673E-9,-1.0833333E-1,8.60262E-2,-3.2592592E-1,1.8421054E-3,-3.285714E-1,2.2641513E-2,-1.9411764E-1,3.7500001E-3,-5.7894733E-2,4.9526067E-3,-4.8823527E-1,-2.4210526E-1,-3.25E-2,2.5000002E-3,3.8000003E-2,-1.8571427E-1,3.0000003E-3,-1.4230768E-2,4.166667E-3,-2.7499998E-1,-3.25E-2,-1.5E-2,-3.3333332E-3,-1.8809523E-2,-2.1428568E-3,3.0000003E-3,-2E-2,2.5000002E-3,-2.5E-2,2.5000002E-3],"categories":[],"categories_nodes":[],"categories_segments":[],"categories_sizes":[],"default_left":[0,0,0,0,0,0,0,0,0,0,0,0,0,0,0,0,0,0,0,0,0,0,0,0,0,0,0,0,0,0,0,0,0,0,0],"id":3,"left_children":[1,3,5,7,9,11,13,15,-1,17,19,21,-1,23,-1,25,27,-1,-1,29,31,-1,-1,-1,33,-1,-1,-1,-1,-1,-1,-1,-1,-1,-1],"loss_changes":[2.6707222E0,2.3960109E0,8.295573E-1,1.8420851E0,8.100539E-1,4.039216E-1,4.3915772E-1,5.4342556E-1,0E0,9.442857E-1,3.314889E-1,4.3048865E-1,0E0,6.2464905E-1,0E0,2.2764683E-1,8.245363E-1,0E0,0E0,1.821714E-1,4.0857142E-1,0E0,0E0,0E0,6.549999E-1,0E0,0E0,0E0,0E0,0E0,0E0,0E0,0E0,0E0,0E0],"parents":[2147483647,0,0,1,1,2,2,3,3,4,4,5,5,6,6,7,7,9,9,10,10,11,11,13,13,15,15,16,16,19,19,20,20,24,24],"right_children":[2,4,6,8,10,12,14,16,-1,18,20,22,-1,24,-1,26,28,-1,-1,30,32,-1,-1,-1,34,-1,-1,-1,-1,-1,-1,-1,-1,-1,-1],"split_conditions":[1.73E1,6.64E1,6.46E1,9.91E1,1.399E1,2.101E1,6.43E1,6.49E1,3.6618828E-3,6.4E1,1.718E1,1.825E1,5.1535036E-2,6.88E1,2.7477264E-1,1.678E1,1.585E1,-2.633774E-1,1.1597595E-1,9.56E1,1.799E1,8.190384E-2,-1.9918151E-1,1.664168E-1,9.51E1,-5.1451266E-1,-8.2374686E-1,-2.792195E-1,-3.0645645E-1,-1.0645568E-1,8.064117E-2,-4.640427E-2,3.4394303E-1,-2.2459869E-1,3.1171724E-1],"split_indices":[1,6,6,5,1,1,7,7,0,7,1,0,0,6,0,0,1,0,0,4,0,0,0,0,4,0,0,0,0,0,0,0,0,0,0],"split_type":[0,0,0,0,0,0,0,0,0,0,0,0,0,0,0,0,0,0,0,0,0,0,0,0,0,0,0,0,0,0,0,0,0,0,0],"sum_hessian":[4.33E2,1.82E2,2.51E2,7.1E1,1.11E2,2.3E1,2.28E2,5.3E1,1.8E1,6E0,1.05E2,1.6E1,7E0,1.8E1,2.1E2,1.6E1,3.7E1,3E0,3E0,9.9E1,6E0,4E0,1.2E1,1.1E1,7E0,7E0,9E0,1.7E1,2E1,2E1,7.9E1,3E0,3E0,4E0,3E0],"tree_param":{"num_deleted":"0","num_feature":"8","num_nodes":"35","size_leaf_vector":"1"}},{"base_weights":[7.623322E-3,-1.368421E-1,5.735736E-2,-3.5E-1,-1.9999996E-2,8.965521E-3,4.68254E-3,3.0000003E-3,-3.9999998E-1,-1.6086955E-1,3.9622646E-2,-3.68421E-2,4.8039216E-3,-5.6666666E-1,-1.4999999E-1,-5.7894733E-2,-2.5E-2,-1.22222215E-1,3.666667E-3,-1.0338982E-1,6.756757E-2,-3.590909E-2,-1.7727273E-2,3.3333336E-3,-1.3181818E-2,-2E-2,4.2857146E-3,3.3333336E-3,-2E-2,1.8421054E-3,-8.414634E-3,4.7058826E-3,-7.5E-3],"categories":[],"categories_nodes":[],"categories_segments":[],"categories_sizes":[],"default_left":[0,0,0,0,0,0,0,0,0,0,0,0,0,0,0,0,0,0,0,0,0,0,0,0,0,0,0,0,0,0,0,0,0],"id":4,"left_children":[1,3,5,7,9,11,-1,-1,13,15,17,19,-1,21,23,25,-1,27,-1,29,31,-1,-1,-1,-1,-1,-1,-1,-1,-1,-1,-1,-1],"loss_changes":[3.204343E0,2.7952633E0,5.737487E-1,8.7800026E-1,6.484249E-1,5.880765E-1,0E0,0E0,1.3433332E0,7.1846676E-1,2.932369E-1,6.7064947E-1,0E0,3.1303024E-1,4.3121213E-1,9.991729E-1,0E0,5.322222E-1,0E0,5.563311E-1,2.2225752E-1,0E0,0E0,0E0,0E0,0E0,0E0,0E0,0E0,0E0,0E0,0E0,0E0],"parents":[2147483647,0,0,1,1,2,2,3,3,4,4,5,5,8,8,9,9,10,10,11,11,13,13,14,14,15,15,17,17,19,19,20,20],"right_children":[2,4,6,8,10,12,-1,-1,14,16,18,20,-1,22,24,26,-1,28,-1,30,32,-1,-1,-1,-1,-1,-1,-1,-1,-1,-1,-1,-1],"split_conditions":[1.136E2,6.6E1,1.175E2,1.072E2,1.125E2,6.91E1,2.9518777E-1,3.834305E-2,1.122E2,1.125E2,9.51E1,1.172E2,2.612749E-1,1.69E1,1.126E2,1.106E2,-3.4822997E-1,1.114E2,5.7683565E-2,1.647E1,2.273E1,-7.5318235E-1,-5.9368557E-1,1.18040465E-1,-3.3622298E-1,-4.0758973E-1,9.123642E-2,2.497673E-1,-2.13369E-1,6.0095306E-2,-9.555199E-2,8.813141E-2,-8.111573E-3],"split_indices":[3,6,2,3,2,6,0,0,3,3,4,3,0,0,3,3,0,3,0,0,1,0,0,0,0,0,0,0,0,0,0,0,0],"split_type":[0,0,0,0,0,0,0,0,0,0,0,0,0,0,0,0,0,0,0,0,0,0,0,0,0,0,0,0,0,0,0,0,0],"sum_hessian":[4.45E2,1.13E2,3.32E2,3.9E1,7.4E1,1.44E2,1.88E2,4E0,3.5E1,2.2E1,5.2E1,9.4E1,5E1,2E1,1.5E1,1.8E1,4E0,8E0,4.4E1,5.8E1,3.6E1,1E1,1E1,5E0,1E1,5E0,1.3E1,5E0,3E0,1.8E1,4E1,3.3E1,3E0],"tree_param":{"num_deleted":"0","num_feature":"8","num_nodes":"33","size_leaf_vector":"1"}},{"base_weights":[1.2304254E-2,-1.047244E-1,5.8878507E-2,-2.3333332E-1,-8.108105E-3,-1.1428571E-1,6.688312E-2,-3.8275862E-1,-5.384615E-2,-1.4999999E-1,4.1818183E-2,-0E0,-1.5E-2,1.320755E-2,4.704434E-3,-8.181818E-2,-5.3157896E-1,-2.5E-2,4.5454547E-2,-4.2857137E-2,-1.6428571E-2,-8.181818E-2,3.666667E-3,3.5714288E-3,-7.5E-3,-5.9999995E-2,7.894737E-2,-2E-2,3.7500001E-3,-9.285714E-3,-3.3461537E-2,-5E-3,4.4444446E-3,-2E-2,4.0909094E-3,3.3333336E-3,-1.1666666E-2,-1.521739E-3,-1.5E-2,-1.2499997E-3,4.8E-3],"categories":[],"categories_nodes":[],"categories_segments":[],"categories_sizes":[],"default_left":[0,0,0,0,0,0,0,0,0,0,0,0,0,0,0,0,0,0,0,0,0,0,0,0,0,0,0,0,0,0,0,0,0,0,0,0,0,0,0,0,0],"id":5,"left_children":[1,3,5,7,9,11,13,15,17,19,21,23,-1,25,-1,27,29,-1,31,33,-1,35,-1,-1,-1,37,39,-1,-1,-1,-1,-1,-1,-1,-1,-1,-1,-1,-1,-1,-1],"loss_changes":[2.437965E0,1.5520302E0,4.4784558E-1,1.3840053E0,5.413169E-1,2.6714283E-1,4.3779194E-1,1.193963E0,1.2200698E0,3.3142856E-1,2.1945454E-1,1.2571427E-1,0E0,5.1677257E-1,0E0,6.1136365E-1,6.9478846E-1,0E0,1.4676768E-1,6.8792206E-1,0E0,2.7969694E-1,0E0,0E0,0E0,3.1260866E-1,1.1053687E-1,0E0,0E0,0E0,0E0,0E0,0E0,0E0,0E0,0E0,0E0,0E0,0E0,0E0,0E0],"parents":[2147483647,0,0,1,1,2,2,3,3,4,4,5,5,6,6,7,7,8,8,9,9,10,10,11,11,13,13,15,15,16,16,18,18,19,19,21,21,25,25,26,26],"right_children":[2,4,6,8,10,12,14,16,18,20,22,24,-1,26,-1,28,30,-1,32,34,-1,36,-1,-1,-1,38,40,-1,-1,-1,-1,-1,-1,-1,-1,-1,-1,-1,-1,-1,-1],"split_conditions":[1.139E2,6.64E1,6.37E1,6.63E1,1.125E2,6.85E1,6.68E1,6.42E1,6.37E1,1.125E2,6.43E1,1.175E2,-4.00589E-2,1.178E2,2.2127692E-1,6.16E1,6.4E1,-2.957924E-1,6.67E1,1.072E2,-2.0725937E-1,1.794E1,4.4487763E-2,1.7057037E-2,-2.5393678E-2,6.67E1,1.146E2,-7.4490017E-1,1.450798E-1,-3.2889405E-1,-5.484252E-1,-3.1982347E-1,9.126892E-2,-2.2982864E-1,7.720459E-2,1.5341187E-2,-2.0270081E-1,-2.0346068E-2,-7.095032E-2,-3.0984497E-2,2.7193832E-1],"split_indices":[3,6,6,7,2,7,7,6,6,3,7,3,0,2,0,7,7,0,7,3,0,0,0,0,0,7,3,0,0,0,0,0,0,0,0,0,0,0,0,0,0],"split_type":[0,0,0,0,0,0,0,0,0,0,0,0,0,0,0,0,0,0,0,0,0,0,0,0,0,0,0,0,0,0,0,0,0,0,0,0,0,0,0,0,0],"sum_hessian":[4.46E2,1.26E2,3.2E2,5.3E1,7.3E1,1.3E1,3.07E2,2.8E1,2.5E1,1.9E1,5.4E1,9E0,4E0,1.05E2,2.02E2,1E1,1.8E1,4E0,2.1E1,1.3E1,6E0,1E1,4.4E1,6E0,3E0,4.9E1,5.6E1,3E0,7E0,6E0,1.2E1,4E0,1.7E1,3E0,1E1,5E0,5E0,4.5E1,4E0,7E0,4.9E1],"tree_param":{"num_deleted":"0","num_feature":"8","num_nodes":"41","size_leaf_vector":"1"}},{"base_weights":[2.119816E-2,-1.1505376E-1,5.8479536E-2,-2.4374999E-1,-4.5161285E-2,-7.391304E-2,7.912458E-2,3.0000003E-3,-2.9285714E-1,4.782609E-2,-9.9999994E-2,-2.0434782E-1,5E-2,3.4042556E-2,4.9509807E-3,-3.3999997E-1,2.5000002E-3,4.5000003E-3,-7.5E-3,-3.1666666E-1,-3.4482721E-3,-3.9999998E-1,-4.2857137E-2,-7.5E-3,4.5238095E-3,-7.241379E-2,8.1818186E-2,-7.5E-3,-2.3571428E-2,-2E-2,-5E-3,2.5000002E-3,-1.1666666E-2,-5E-3,-2.8333334E-2,-1.1666666E-2,3.888889E-3,4.2857146E-3,-1.0625E-2,4.84127E-3,-7.5E-3],"categories":[],"categories_nodes":[],"categories_segments":[],"categories_sizes":[],"default_left":[0,0,0,0,0,0,0,0,0,0,0,0,0,0,0,0,0,0,0,0,0,0,0,0,0,0,0,0,0,0,0,0,0,0,0,0,0,0,0,0,0],"id":6,"left_children":[1,3,5,7,9,11,13,-1,15,17,19,21,23,25,-1,27,-1,-1,-1,29,31,33,35,-1,-1,37,39,-1,-1,-1,-1,-1,-1,-1,-1,-1,-1,-1,-1,-1,-1],"loss_changes":[2.2056427E0,7.966262E-1,9.411411E-1,5.1817846E-1,3.2615706E-1,7.691304E-1,2.4970472E-1,0E0,4.9857116E-1,1.9939128E-1,8.0367815E-1,6.6527945E-1,2.0190477E-1,4.8495096E-1,0E0,4.9142885E-1,0E0,0E0,0E0,1.2666667E-1,3.863218E-1,3.7666667E-1,3.553968E-1,0E0,0E0,6.732882E-1,2.3881671E-1,0E0,0E0,0E0,0E0,0E0,0E0,0E0,0E0,0E0,0E0,0E0,0E0,0E0,0E0],"parents":[2147483647,0,0,1,1,2,2,3,3,4,4,5,5,6,6,8,8,9,9,10,10,11,11,12,12,13,13,15,15,19,19,20,20,21,21,22,22,25,25,26,26],"right_children":[2,4,6,8,10,12,14,-1,16,18,20,22,24,26,-1,28,-1,-1,-1,30,32,34,36,-1,-1,38,40,-1,-1,-1,-1,-1,-1,-1,-1,-1,-1,-1,-1,-1,-1],"split_conditions":[1.142E2,9.58E1,6.48E1,1.109E2,9.78E1,1.173E2,6.7E1,1.7864685E-1,6.97E1,1.799E1,9.88E1,9.59E1,9.46E1,1.173E2,2.2595505E-1,1.59E1,3.5793304E-2,1.6199188E-1,-2.7492905E-1,9.52E1,9.57E1,1.165E2,1.157E2,-2.0574188E-1,8.9650266E-2,1.157E2,1.008E2,-3.3149827E-1,-6.49674E-1,-3.1482697E-1,-1.2899934E-1,1.6355438E-2,-1.9689636E-1,-3.9665224E-3,-3.1244966E-1,-3.5044557E-1,7.295837E-2,4.6705324E-2,-1.9082825E-1,2.2923172E-1,-5.544281E-3],"split_indices":[2,5,7,2,5,2,7,0,7,0,5,5,4,2,0,1,0,0,0,4,4,2,2,0,0,2,5,0,0,0,0,0,0,0,0,0,0,0,0,0,0],"split_type":[0,0,0,0,0,0,0,0,0,0,0,0,0,0,0,0,0,0,0,0,0,0,0,0,0,0,0,0,0,0,0,0,0,0,0,0,0,0,0,0,0],"sum_hessian":[4.33E2,9.2E1,3.41E2,3.1E1,6.1E1,4.5E1,2.96E2,4E0,2.7E1,2.2E1,3.9E1,2.2E1,2.3E1,9.3E1,2.03E2,2.4E1,3E0,1.9E1,3E0,1.1E1,2.8E1,9E0,1.3E1,3E0,2E1,2.8E1,6.5E1,1.1E1,1.3E1,7E0,4E0,2.3E1,5E0,4E0,5E0,5E0,8E0,1.3E1,1.5E1,6.2E1,3E0],"tree_param":{"num_deleted":"0","num_feature":"8","num_nodes":"41","size_leaf_vector":"1"}},{"base_weights":[1.697248E-2,-8.749999E-2,5.323077E-2,-2.1249999E-1,4.6153883E-3,-1.6666666E-1,6.398714E-2,-4.6249998E-1,-8.181818E-2,5.2173916E-2,-9.9999994E-2,3.0000003E-3,-2.6363635E-1,2.38806E-2,4.662921E-3,-5E-3,-5.6666666E-1,-2E-2,-3.3333328E-2,-5E-3,3.5714288E-3,-2E-2,-1.7647054E-2,-2E-2,2.5000002E-3,-5.9090905E-2,6.483517E-2,-1.1666666E-2,-3.785714E-2,-1.3749999E-2,2.3913046E-3,-7.5E-3,4E-3,-5.9374995E-3,4.2307694E-3,4.818182E-3,6.7567587E-4],"categories":[],"categories_nodes":[],"categories_segments":[],"categories_sizes":[],"default_left":[0,0,0,0,0,0,0,0,0,0,0,0,0,0,0,0,0,0,0,0,0,0,0,0,0,0,0,0,0,0,0,0,0,0,0,0,0],"id":7,"left_children":[1,3,5,7,9,11,13,15,17,19,21,-1,23,25,-1,-1,27,-1,29,-1,-1,-1,31,-1,-1,33,35,-1,-1,-1,-1,-1,-1,-1,-1,-1,-1],"loss_changes":[1.6527959E0,1.3113847E0,7.6911837E-1,1.4759092E0,3.2383275E-1,3.6587882E-1,3.5116363E-1,4.808333E-1,4.5242423E-1,1.390683E-1,4.4529414E-1,0E0,5.254545E-1,4.5974588E-1,0E0,0E0,4.8619056E-1,0E0,6.242754E-1,0E0,0E0,0E0,2.3870587E-1,0E0,0E0,3.9069057E-1,1.3495657E-1,0E0,0E0,0E0,0E0,0E0,0E0,0E0,0E0,0E0,0E0],"parents":[2147483647,0,0,1,1,2,2,3,3,4,4,5,5,6,6,7,7,8,8,9,9,10,10,12,12,13,13,16,16,18,18,22,22,25,25,26,26],"right_children":[2,4,6,8,10,12,14,16,18,20,22,-1,24,26,-1,-1,28,-1,30,-1,-1,-1,32,-1,-1,34,36,-1,-1,-1,-1,-1,-1,-1,-1,-1,-1],"split_conditions":[1.136E2,6.64E1,6.37E1,6.49E1,1.131E2,9.66E1,1.168E2,6.42E1,1.469E1,1.072E2,6.43E1,3.060402E-1,1.005E2,6.7E1,2.2800522E-1,-2.4336472E-1,6.4E1,-1.7279206E-1,6.37E1,-1.0161667E-1,3.247818E-2,-1.870514E-1,1.671E1,-2.7346346E-1,1.5764618E-2,1.944E1,1.153E2,-2.9682693E-1,-5.302189E-1,-2.4851914E-1,5.167847E-3,-9.812088E-2,1.4967728E-1,-5.59964E-2,7.807388E-2,2.0260277E-1,8.5411005E-2],"split_indices":[3,6,6,7,3,5,3,6,1,3,7,0,5,6,0,0,7,0,6,0,0,0,0,0,0,1,3,0,0,0,0,0,0,0,0,0,0],"split_type":[0,0,0,0,0,0,0,0,0,0,0,0,0,0,0,0,0,0,0,0,0,0,0,0,0,0,0,0,0,0,0,0,0,0,0,0,0],"sum_hessian":[4.35E2,1.11E2,3.24E2,4.7E1,6.4E1,1.4E1,3.1E2,1.5E1,3.2E1,4.5E1,1.9E1,4E0,1E1,1.33E2,1.77E2,4E0,1.1E1,3E0,2.9E1,4E0,4.1E1,3E0,1.6E1,7E0,3E0,4.3E1,9E1,5E0,6E0,7E0,2.2E1,7E0,9E0,3.1E1,1.2E1,5.4E1,3.6E1],"tree_param":{"num_deleted":"0","num_feature":"8","num_nodes":"37","size_leaf_vector":"1"}},{"base_weights":[1.7913835E-2,-4.795918E-2,7.073171E-2,-1.6760562E-1,1.9047622E-2,-1.22222215E-1,8.60262E-2,-7.4999996E-2,-2.7499998E-1,-1.7647054E-2,4.761905E-3,-1.6428571E-2,3.1044085E-9,-5E-3,4.5111114E-3,-1.9166666E-1,4.411765E-3,-3.7826085E-1,-0E0,-7.391304E-2,4.5E-2,3.888889E-3,-7.5E-3,-2.2777777E-2,-1.2499997E-3,-3.3333332E-3,-2.2777777E-2,3.5714288E-3,-7.5E-3,-1.0789474E-2,1.0714288E-3,-7.5E-3,3.3783787E-3],"categories":[],"categories_nodes":[],"categories_segments":[],"categories_sizes":[],"default_left":[0,0,0,0,0,0,0,0,0,0,0,0,0,0,0,0,0,0,0,0,0,0,0,0,0,0,0,0,0,0,0,0,0],"id":8,"left_children":[1,3,5,7,9,11,13,15,17,19,-1,-1,21,-1,-1,23,-1,25,27,29,31,-1,-1,-1,-1,-1,-1,-1,-1,-1,-1,-1,-1],"loss_changes":[1.5400287E0,1.589405E0,7.328733E-1,6.504929E-1,3.6170864E-1,4.8682538E-1,1.86795E-1,7.890195E-1,8.708694E-1,3.0583376E-1,0E0,0E0,1.4444444E-1,0E0,0E0,9.961111E-1,0E0,4.7135282E-1,1.2571427E-1,6.4628965E-1,1.7791894E-1,0E0,0E0,0E0,0E0,0E0,0E0,0E0,0E0,0E0,0E0,0E0,0E0],"parents":[2147483647,0,0,1,1,2,2,3,3,4,4,5,5,6,6,7,7,8,8,9,9,12,12,15,15,17,17,18,18,19,19,20,20],"right_children":[2,4,6,8,10,12,14,16,18,20,-1,-1,22,-1,-1,24,-1,26,28,30,32,-1,-1,-1,-1,-1,-1,-1,-1,-1,-1,-1,-1],"split_conditions":[1.755E1,6.64E1,6.43E1,1.622E1,6.77E1,1.146E2,6.17E1,6.68E1,1.151E2,6.86E1,1.6046265E-1,-1.8061371E-1,6.82E1,-8.641052E-3,1.8877488E-1,1.59E1,6.3286596E-3,9.11E1,6.57E1,9.83E1,9.45E1,2.840027E-1,-2.4665834E-3,-4.052948E-1,-7.355469E-2,-2.311966E-1,-5.355672E-1,7.3503874E-2,-3.9974976E-2,-1.3718162E-1,4.8184365E-2,-2.9434968E-2,6.3803785E-2],"split_indices":[1,6,7,1,7,3,6,7,3,6,0,0,6,0,0,0,0,4,6,4,4,0,0,0,0,0,0,0,0,0,0,0,0],"split_type":[0,0,0,0,0,0,0,0,0,0,0,0,0,0,0,0,0,0,0,0,0,0,0,0,0,0,0,0,0,0,0,0,0],"sum_hessian":[4.4E2,1.95E2,2.45E2,7E1,1.25E2,1.7E1,2.28E2,3.9E1,3.1E1,8.4E1,4.1E1,6E0,1.1E1,4E0,2.24E2,2.3E1,1.6E1,2.2E1,9E0,4.5E1,3.9E1,8E0,3E0,8E0,1.5E1,5E0,1.7E1,6E0,3E0,1.8E1,2.7E1,3E0,3.6E1],"tree_param":{"num_deleted":"0","num_feature":"8","num_nodes":"33","size_leaf_vector":"1"}},{"base_weights":[1.9817771E-2,-9.626167E-2,5.735736E-2,-3.285714E-1,-1.24999955E-2,2.3270443E-2,8.742857E-2,-8.181818E-2,-4.5555553E-1,-1.7272727E-1,4.5762714E-2,-1.363636E-2,6.944445E-2,-2.4999995E-2,4.6428572E-3,3.5714288E-3,-1.5E-2,-3.1666666E-1,-3.0714286E-2,-2.4999995E-2,-4.7142854E-1,-5.7894733E-2,4.7560977E-3,3.5294152E-3,-2E-2,-7.5E-3,8.26087E-2,3.0000003E-3,-7.5E-3,-2.2777777E-2,2.5000002E-3,-1.1666666E-2,4.0909094E-3,-3.25E-2,-7.5E-3,1.2500001E-3,-2E-2,-1.5573768E-3,4.6E-3,4.83871E-3,-1.2499997E-3],"categories":[],"categories_nodes":[],"categories_segments":[],"categories_sizes":[],"default_left":[0,0,0,0,0,0,0,0,0,0,0,0,0,0,0,0,0,0,0,0,0,0,0,0,0,0,0,0,0,0,0,0,0,0,0,0,0,0,0,0,0],"id":9,"left_children":[1,3,5,7,9,11,13,15,17,19,21,23,25,27,-1,-1,-1,29,-1,31,33,35,-1,37,-1,-1,39,-1,-1,-1,-1,-1,-1,-1,-1,-1,-1,-1,-1,-1,-1],"loss_changes":[1.9146062E0,2.0438619E0,3.282323E-1,7.8633475E-1,7.674229E-1,2.774852E-1,1.15914345E-1,4.120779E-1,1.0920644E-1,9.093507E-1,3.1110048E-1,6.246952E-1,2.1364734E-1,1.0299999E-1,0E0,0E0,0E0,6.7444444E-1,0E0,3.90303E-1,2.2428572E-1,5.8631575E-1,0E0,2.697215E-1,0E0,0E0,1.1477554E-1,0E0,0E0,0E0,0E0,0E0,0E0,0E0,0E0,0E0,0E0,0E0,0E0,0E0,0E0],"parents":[2147483647,0,0,1,1,2,2,3,3,4,4,5,5,6,6,7,7,8,8,9,9,10,10,11,11,12,12,13,13,17,17,19,19,20,20,21,21,23,23,26,26],"right_children":[2,4,6,8,10,12,14,16,18,20,22,24,26,28,-1,-1,-1,30,-1,32,34,36,-1,38,-1,-1,40,-1,-1,-1,-1,-1,-1,-1,-1,-1,-1,-1,-1,-1,-1],"split_conditions":[1.135E2,6.58E1,1.178E2,1.604E1,1.125E2,1.168E2,9.02E1,9.75E1,1.137E2,1.125E2,9.43E1,1.165E2,9.46E1,2.707E1,2.5184417E-1,1.5517807E-1,-3.8503036E-1,1.122E2,-2.5520706E-1,1.072E2,6.81E1,1.008E2,3.789963E-2,6.86E1,-6.0945895E-2,-2.342987E-3,1.177E2,9.307099E-3,-9.001923E-3,-4.7692987E-1,2.2718278E-1,-1.8982239E-1,9.925354E-2,-2.7907944E-1,-2.7963256E-2,-6.403824E-2,-1.438881E-1,-3.79509E-2,1.8374138E-1,1.21164404E-1,-2.6107026E-2],"split_indices":[3,6,2,1,2,3,4,5,2,3,5,3,5,1,0,0,0,3,0,3,6,4,0,6,0,0,2,0,0,0,0,0,0,0,0,0,0,0,0,0,0],"split_type":[0,0,0,0,0,0,0,0,0,0,0,0,0,0,0,0,0,0,0,0,0,0,0,0,0,0,0,0,0,0,0,0,0,0,0,0,0,0,0,0,0],"sum_hessian":[4.38E2,1.06E2,3.32E2,2.7E1,7.9E1,1.58E2,1.74E2,1E1,1.7E1,2.1E1,5.8E1,8.7E1,7.1E1,7E0,1.67E2,6E0,4E0,1.1E1,6E0,1.5E1,6E0,1.8E1,4E1,8.4E1,3E0,3E0,6.8E1,4E0,3E0,8E0,3E0,5E0,1E1,3E0,3E0,1.5E1,3E0,6E1,2.4E1,6.1E1,7E0],"tree_param":{"num_deleted":"0","num_feature":"8","num_nodes":"41","size_leaf_vector":"1"}},{"base_weights":[2.1428574E-2,-8.749999E-2,5.127479E-2,-2.3333332E-1,-2.8571425E-2,8.988768E-3,9.318182E-2,-3.3333328E-2,-4.384615E-1,-2.3333332E-1,2.5000002E-2,-3.9999995E-2,7.21519E-2,-2.4999995E-2,4.9408283E-3,4.0909094E-3,-1.5E-2,-2.3333332E-1,-3.5E-2,2.5000002E-3,-3.1666666E-1,4.72973E-3,-9.9999994E-2,3.6051195E-9,-1.051282E-1,-5E-3,8.4E-2,3.0000003E-3,-7.5E-3,-2E-2,2.5000002E-3,-3.3333332E-3,-2.3571428E-2,-1.6428571E-2,7.142859E-4,-2.6923076E-3,2.027027E-3,-7.5E-3,3.7500001E-3,-2.1428568E-3,4.8550726E-3],"categories":[],"categories_nodes":[],"categories_segments":[],"categories_sizes":[],"default_left":[0,0,0,0,0,0,0,0,0,0,0,0,0,0,0,0,0,0,0,0,0,0,0,0,0,0,0,0,0,0,0,0,0,0,0,0,0,0,0,0,0],"id":10,"left_children":[1,3,5,7,9,11,13,15,17,19,21,23,25,27,-1,-1,-1,29,-1,-1,31,-1,33,35,37,-1,39,-1,-1,-1,-1,-1,-1,-1,-1,-1,-1,-1,-1,-1,-1],"loss_changes":[1.4573593E0,7.9214287E-1,6.1449015E-1,1.0458974E0,7.945238E-1,5.568838E-1,1.2705481E-1,5.069697E-1,4.407692E-1,3.9666665E-1,4.9608108E-1,2.710256E-1,1.6793418E-1,1.0299999E-1,0E0,0E0,0E0,4.8E-1,0E0,0E0,3.7904763E-1,0E0,5.585714E-1,1.3619542E-1,3.3397436E-1,0E0,1.3423687E-1,0E0,0E0,0E0,0E0,0E0,0E0,0E0,0E0,0E0,0E0,0E0,0E0,0E0,0E0],"parents":[2147483647,0,0,1,1,2,2,3,3,4,4,5,5,6,6,7,7,8,8,9,9,10,10,11,11,12,12,13,13,17,17,20,20,22,22,23,23,24,24,26,26],"right_children":[2,4,6,8,10,12,14,16,18,20,22,24,26,28,-1,-1,-1,30,-1,-1,32,-1,34,36,38,-1,40,-1,-1,-1,-1,-1,-1,-1,-1,-1,-1,-1,-1,-1,-1],"split_conditions":[1.134E2,9.49E1,6.81E1,1.114E2,1.098E2,1.178E2,1.129E2,9.45E1,1.718E1,9.52E1,9.92E1,1.162E2,9.08E1,1.671E1,2.3795243E-1,1.7356647E-2,-6.123783E-1,6.76E1,-1.6633378E-1,3.2819977E-1,1.485E1,8.735955E-2,1.168E2,1.15E2,6.7E1,-8.5517885E-3,6.32E1,2.782692E-1,-1.42677305E-2,-3.6577913E-1,1.4741898E-1,-1.3669358E-1,-4.5308343E-1,-2.424469E-1,2.3433996E-2,-2.4110763E-1,1.7899629E-2,-4.4216156E-2,3.236122E-1,-3.467865E-2,2.1049857E-1],"split_indices":[3,4,7,3,3,2,2,5,0,4,4,2,4,0,0,0,0,7,0,0,0,0,2,3,7,0,7,0,0,0,0,0,0,0,0,0,0,0,0,0,0],"split_type":[0,0,0,0,0,0,0,0,0,0,0,0,0,0,0,0,0,0,0,0,0,0,0,0,0,0,0,0,0,0,0,0,0,0,0,0,0,0,0,0,0],"sum_hessian":[4.47E2,9.5E1,3.52E2,2.6E1,6.9E1,1.77E2,1.75E2,1.4E1,1.2E1,1.4E1,5.5E1,9.9E1,7.8E1,7E0,1.68E2,1E1,4E0,8E0,4E0,3E0,1.1E1,3.6E1,1.9E1,6.1E1,3.8E1,4E0,7.4E1,4E0,3E0,5E0,3E0,5E0,6E0,6E0,1.3E1,2.5E1,3.6E1,3.1E1,7E0,6E0,6.8E1],"tree_param":{"num_deleted":"0","num_feature":"8","num_nodes":"41","size_leaf_vector":"1"}},{"base_weights":[2.7053144E-2,-1.2077922E-1,6.0946748E-2,-2.7499998E-1,-8.695648E-3,-6.279069E-2,7.905406E-2,-4.7142854E-1,-1.1052631E-1,4.3589745E-2,-2.7499998E-1,5E-2,-1.9999999E-1,-7.5E-3,8.225256E-2,-3.0714286E-2,-2.7499998E-1,1.4285717E-2,-2E-2,-3.3333328E-2,4.6E-3,-2.5E-2,2.5000002E-3,-3.3333332E-3,4.4736844E-3,-3.9999998E-1,-5.384615E-2,5.1851854E-2,4.946237E-3,2.5000002E-3,-2.5E-2,-7.5E-3,4.0909094E-3,3.7500001E-3,-7.5E-3,-5E-3,-3.25E-2,-7.5E-3,3.3333336E-3,3.4158416E-3,-7.5E-3],"categories":[],"categories_nodes":[],"categories_segments":[],"categories_sizes":[],"default_left":[0,0,0,0,0,0,0,0,0,0,0,0,0,0,0,0,0,0,0,0,0,0,0,0,0,0,0,0,0,0,0,0,0,0,0,0,0,0,0,0,0],"id":11,"left_children":[1,3,5,7,9,11,13,15,17,19,21,23,25,-1,27,-1,29,31,-1,33,-1,-1,-1,-1,-1,35,37,39,-1,-1,-1,-1,-1,-1,-1,-1,-1,-1,-1,-1,-1],"loss_changes":[2.0757546E0,1.3002315E0,7.638966E-1,9.235339E-1,6.756243E-1,6.904651E-1,2.2242177E-1,1.3499999E-1,7.307519E-1,1.541641E-1,6.549999E-1,1.1877194E-1,5.176923E-1,0E0,1.2829876E-1,0E0,6.549999E-1,1.6077921E-1,0E0,2.0833331E-1,0E0,0E0,0E0,0E0,0E0,4.5999992E-1,1.6897434E-1,3.6101574E-1,0E0,0E0,0E0,0E0,0E0,0E0,0E0,0E0,0E0,0E0,0E0,0E0,0E0],"parents":[2147483647,0,0,1,1,2,2,3,3,4,4,5,5,6,6,7,7,8,8,9,9,10,10,11,11,12,12,14,14,16,16,17,17,19,19,25,25,26,26,27,27],"right_children":[2,4,6,8,10,12,14,16,18,20,22,24,26,-1,28,-1,30,32,-1,34,-1,-1,-1,-1,-1,36,38,40,-1,-1,-1,-1,-1,-1,-1,-1,-1,-1,-1,-1,-1],"split_conditions":[6.49E1,6.66E1,1.129E2,1.129E2,2.422E1,1.641E1,1.098E2,9.52E1,6.44E1,1.137E2,2.536E1,6.67E1,1.135E2,-1.2985916E-1,1.908E1,-5.817593E-1,6.16E1,1.689E1,-2.0057069E-1,1.122E2,4.5191955E-2,-1.5801696E-1,3.7728348E-1,-2.3054504E-1,2.4808641E-1,9.43E1,6.37E1,1.877E1,2.2187577E-1,5.7340242E-2,-4.3042946E-1,-3.1857988E-1,1.1975403E-2,9.3601994E-2,-1.4483033E-1,-1.2912293E-1,-1.0689545E-1,-2.4615403E-1,2.3811188E-1,4.364815E-2,-3.3615876E-2],"split_indices":[7,6,2,3,0,0,3,4,7,2,0,7,3,0,0,0,7,0,0,3,0,0,0,0,0,4,6,0,0,0,0,0,0,0,0,0,0,0,0,0,0],"split_type":[0,0,0,0,0,0,0,0,0,0,0,0,0,0,0,0,0,0,0,0,0,0,0,0,0,0,0,0,0,0,0,0,0,0,0,0,0,0,0,0,0],"sum_hessian":[4.13E2,7.6E1,3.37E2,3.1E1,4.5E1,4.2E1,2.95E2,1.3E1,1.8E1,3.8E1,7E0,2.3E1,1.9E1,3E0,2.92E2,6E0,7E0,1.3E1,5E0,1.4E1,2.4E1,4E0,3E0,5E0,1.8E1,7E0,1.2E1,1.07E2,1.85E2,3E0,4E0,3E0,1E1,7E0,7E0,4E0,3E0,7E0,5E0,1E2,7E0],"tree_param":{"num_deleted":"0","num_feature":"8","num_nodes":"41","size_leaf_vector":"1"}},{"base_weights":[1.1368913E-2,-1.9411764E-1,3.9107613E-2,-3.9999998E-1,-7.647058E-2,-2.7272724E-2,4.4930875E-3,2.5000002E-3,-5E-1,-1.3999999E-1,4E-3,-2.8333334E-2,-6.249996E-3,-2.8333334E-2,-7.5E-3,-4.2857137E-2,-2.5E-2,-7.241379E-2,7.027027E-2,-7.5E-3,4E-3,8.0000015E-4,-9.473684E-3,-5E-3,4.1428576E-3],"categories":[],"categories_nodes":[],"categories_segments":[],"categories_sizes":[],"default_left":[0,0,0,0,0,0,0,0,0,0,0,0,0,0,0,0,0,0,0,0,0,0,0,0,0],"id":12,"left_children":[1,3,5,7,9,11,-1,-1,13,15,-1,-1,17,-1,-1,19,-1,21,23,-1,-1,-1,-1,-1,-1],"loss_changes":[2.4487603E0,1.1570587E0,1.292328E0,8.799999E-1,3.5517645E-1,1.8101894E0,0E0,0E0,1.9333339E-1,7.985714E-1,0E0,0E0,8.153623E-1,0E0,0E0,2.9542857E-1,0E0,9.2080367E-1,1.6516605E-1,0E0,0E0,0E0,0E0,0E0,0E0],"parents":[2147483647,0,0,1,1,2,2,3,3,4,4,5,5,8,8,9,9,12,12,15,15,17,17,18,18],"right_children":[2,4,6,8,10,12,-1,-1,14,16,-1,-1,18,-1,-1,20,-1,22,24,-1,-1,-1,-1,-1,-1],"split_conditions":[6.46E1,9.56E1,6.72E1,1.574E1,1.996E1,1.11E2,1.5747079E-1,1.907074E-1,6.96E1,1.795E1,7.08009E-4,-3.184021E-1,1.175E2,-3.606401E-1,-1.2266693E-1,9.86E1,-3.368454E-2,1.151E2,1.51E1,-2.3104386E-1,1.1101532E-2,2.6996613E-2,-1.5259781E-1,-1.0087433E-1,2.0426941E-1],"split_indices":[6,5,7,1,1,2,0,0,7,1,0,0,2,0,0,5,0,2,1,0,0,0,0,0,0],"split_type":[0,0,0,0,0,0,0,0,0,0,0,0,0,0,0,0,0,0,0,0,0,0,0,0,0],"sum_hessian":[4.3E2,5E1,3.8E2,1.7E1,3.3E1,1.64E2,2.16E2,3E0,1.4E1,2.4E1,9E0,5E0,1.59E2,1.1E1,3E0,2E1,4E0,8.6E1,7.3E1,1.1E1,9E0,4.9E1,3.7E1,4E0,6.9E1],"tree_param":{"num_deleted":"0","num_feature":"8","num_nodes":"25","size_leaf_vector":"1"}},{"base_weights":[1.18483445E-2,-1.3636363E-1,3.4239132E-2,-2.1578947E-1,3.3333335E-2,-5.9090905E-2,6.370107E-2,-2.8709677E-1,3.7500001E-3,4.2857146E-3,-5E-3,-1.3404255E-1,2.3809526E-2,-2.4999995E-2,7.52E-2,-1.1428571E-1,-3.9999998E-1,2.0000003E-2,-2.0303029E-1,-8.181818E-2,6.25E-2,2E-3,-1.3076922E-1,5E-2,4.92126E-3,-2E-2,3.888889E-3,-8.636364E-3,-3.25E-2,-7.5E-3,4.166667E-3,-3.695652E-3,-2.2272727E-2,-1.1666666E-2,3.3333336E-3,4.6153846E-3,-2.1428568E-3,3.888889E-3,-2.5E-2,3.9108912E-3,-3.3333332E-3],"categories":[],"categories_nodes":[],"categories_segments":[],"categories_sizes":[],"default_left":[0,0,0,0,0,0,0,0,0,0,0,0,0,0,0,0,0,0,0,0,0,0,0,0,0,0,0,0,0,0,0,0,0,0,0,0,0,0,0,0,0],"id":13,"left_children":[1,3,5,7,9,11,13,15,-1,-1,-1,17,19,21,23,25,27,29,31,33,35,-1,37,39,-1,-1,-1,-1,-1,-1,-1,-1,-1,-1,-1,-1,-1,-1,-1,-1,-1],"loss_changes":[1.3948987E0,7.667464E-1,1.0161088E0,8.306874E-1,1.3285714E-1,5.610049E-1,2.935109E-1,5.076959E-1,0E0,0E0,0E0,5.2183497E-1,1.7482683E-1,2.3430769E-1,1.2655485E-1,8.315873E-1,8.2818174E-1,1.6733332E-1,9.4807625E-1,2.7969694E-1,1.0939559E-1,0E0,1.0821366E0,4.145874E-1,0E0,0E0,0E0,0E0,0E0,0E0,0E0,0E0,0E0,0E0,0E0,0E0,0E0,0E0,0E0,0E0,0E0],"parents":[2147483647,0,0,1,1,2,2,3,3,4,4,5,5,6,6,7,7,11,11,12,12,13,13,14,14,15,15,16,16,17,17,18,18,19,19,20,20,22,22,23,23],"right_children":[2,4,6,8,10,12,14,16,-1,-1,-1,18,20,22,24,26,28,30,32,34,36,-1,38,40,-1,-1,-1,-1,-1,-1,-1,-1,-1,-1,-1,-1,-1,-1,-1,-1,-1],"split_conditions":[1.125E2,6.81E1,6.6E1,1.144E2,1.677E1,1.163E2,1.512E1,1.503E1,2.284317E-2,7.7568054E-2,-2.077713E-2,1.623E1,9.51E1,1.484E1,1.169E2,1.464E1,9.43E1,1.142E2,9.66E1,1.252E2,1.016E2,4.795151E-2,1.005E2,9.88E1,2.4074638E-1,-3.0248186E-1,1.1977005E-1,-4.9612918E-1,-2.6076126E-1,-5.361023E-2,1.5543825E-2,-1.1258934E-1,-2.0535247E-1,-6.8603517E-3,5.517624E-1,3.7513736E-3,-3.199997E-2,3.831787E-2,-9.583054E-2,1.0433487E-1,-3.2915037E-2],"split_indices":[2,6,6,3,1,3,1,1,0,0,0,1,5,1,3,1,4,2,5,2,5,0,4,5,0,0,0,0,0,0,0,0,0,0,0,0,0,0,0,0,0],"split_type":[0,0,0,0,0,0,0,0,0,0,0,0,0,0,0,0,0,0,0,0,0,0,0,0,0,0,0,0,0,0,0,0,0,0,0,0,0,0,0,0,0],"sum_hessian":[4.21E2,5.4E1,3.67E2,3.7E1,1.7E1,8.7E1,2.8E2,3E1,7E0,1.3E1,4E0,4.6E1,4.1E1,3.1E1,2.49E2,1.3E1,1.7E1,1.4E1,3.2E1,1E1,3.1E1,1.9E1,1.2E1,1.23E2,1.26E2,5E0,8E0,1E1,7E0,3E0,1.1E1,2.2E1,1E1,5E0,5E0,2.5E1,6E0,8E0,4E0,1E2,2.3E1],"tree_param":{"num_deleted":"0","num_feature":"8","num_nodes":"41","size_leaf_vector":"1"}},{"base_weights":[2.3515442E-2,-1.07547164E-1,4.2547427E-2,-2E-2,-6.666666E-2,-1.1904724E-3,7.920792E-2,-1.2857142E-1,4.2857146E-3,-1.4999999E-1,1.3725493E-2,3.3866276E-9,4.3922653E-3,4E-3,-2.076923E-1,3.7500001E-3,-3.4444442E-1,4.1463416E-2,-9.354838E-2,4.3333336E-3,-1.4999999E-1,2.5000002E-3,-1.2391305E-2,-2.5E-2,-5E-3,-6.111111E-3,2.7391305E-3,-8.636364E-3,4E-3,-2E-2,3.0000003E-3],"categories":[],"categories_nodes":[],"categories_segments":[],"categories_sizes":[],"default_left":[0,0,0,0,0,0,0,0,0,0,0,0,0,0,0,0,0,0,0,0,0,0,0,0,0,0,0,0,0,0,0],"id":14,"left_children":[1,3,5,-1,7,9,11,13,-1,15,17,19,-1,-1,21,-1,23,25,27,-1,29,-1,-1,-1,-1,-1,-1,-1,-1,-1,-1],"loss_changes":[1.0482106E0,5.603145E-1,5.995701E-1,0E0,4.6809524E-1,3.8858542E-1,1.2941372E-1,6.0696703E-1,0E0,7.5277776E-1,4.5393017E-1,2.9266664E-1,0E0,0E0,3.010702E-1,0E0,2.3222208E-1,2.681114E-1,4.4907328E-1,0E0,4.7800002E-1,0E0,0E0,0E0,0E0,0E0,0E0,0E0,0E0,0E0,0E0],"parents":[2147483647,0,0,1,1,2,2,4,4,5,5,6,6,7,7,9,9,10,10,11,11,14,14,16,16,17,17,18,18,20,20],"right_children":[2,4,6,-1,8,10,12,14,-1,16,18,20,-1,-1,22,-1,24,26,28,-1,30,-1,-1,-1,-1,-1,-1,-1,-1,-1,-1],"split_conditions":[6.46E1,6.17E1,1.778E1,-5.0983316E-1,1.996E1,9.43E1,6.47E1,1.59E1,1.9815066E-3,9.72E1,1.718E1,9.64E1,1.7721795E-1,2.9888153E-2,9.11E1,1.17520146E-1,6.81E1,9.45E1,6.93E1,1.4178467E-2,6.7E1,2.0827103E-1,-1.8922637E-1,-1.4858322E-1,-9.173737E-2,-1.7829132E-1,5.935631E-2,-4.5613553E-2,2.7787933E-1,-4.0473938E-2,2.0438766E-1],"split_indices":[6,7,1,0,1,5,7,1,0,4,1,4,0,0,4,0,6,4,6,0,6,0,0,0,0,0,0,0,0,0,0],"split_type":[0,0,0,0,0,0,0,0,0,0,0,0,0,0,0,0,0,0,0,0,0,0,0,0,0,0,0,0,0,0,0],"sum_hessian":[4.2E2,5.2E1,3.68E2,5E0,4.7E1,1.67E2,2.01E2,3.4E1,1.3E1,1.5E1,1.52E2,2.1E1,1.8E2,9E0,2.5E1,7E0,8E0,1.22E2,3E1,1.4E1,7E0,3E0,2.2E1,4E0,4E0,8E0,1.14E2,2.1E1,9E0,3E0,4E0],"tree_param":{"num_deleted":"0","num_feature":"8","num_nodes":"31","size_leaf_vector":"1"}},{"base_weights":[1.2183911E-2,-4.0562246E-2,8.28877E-2,-7.877094E-2,5.492958E-2,-5.263154E-3,4.644971E-3,-9.9999994E-2,4.5000003E-3,-3.4482721E-3,4.7674417E-3,-1.8571427E-1,4.2307694E-3,-1.4742267E-1,-2.4999995E-2,-9.9999994E-2,2E-3,2.5000002E-3,-2E-2,-1.3918919E-2,-3.1967212E-3,-3.695652E-3,4.4736844E-3,3.3333336E-3,-1.5E-2],"categories":[],"categories_nodes":[],"categories_segments":[],"categories_sizes":[],"default_left":[0,0,0,0,0,0,0,0,0,0,0,0,0,0,0,0,0,0,0,0,0,0,0,0,0],"id":15,"left_children":[1,3,5,7,9,11,-1,13,-1,15,-1,17,-1,19,21,23,-1,-1,-1,-1,-1,-1,-1,-1,-1],"loss_changes":[1.6298633E0,9.15217E-1,1.7428768E-1,6.5132964E-1,1.7704971E-1,3.3397916E-1,0E0,5.481442E-1,0E0,1.3165517E-1,0E0,4.0857142E-1,0E0,1.008497E0,3.634096E-1,3.7666664E-1,0E0,0E0,0E0,0E0,0E0,0E0,0E0,0E0,0E0],"parents":[2147483647,0,0,1,1,2,2,3,3,4,4,5,5,7,7,9,9,11,11,13,13,14,14,15,15],"right_children":[2,4,6,8,10,12,-1,14,-1,16,-1,18,-1,20,22,24,-1,-1,-1,-1,-1,-1,-1,-1,-1],"split_conditions":[1.169E2,6.91E1,6.46E1,6.97E1,9.57E1,6.76E1,2.0152688E-1,1.146E2,3.1162268E-2,6.57E1,1.5138398E-1,2.285E1,3.013962E-2,9.7E1,1.877E1,6.42E1,9.00467E-2,3.8604738E-4,-2.0938873E-2,-2.0944901E-1,-8.112068E-2,-3.9230652E-2,2.3589484E-1,1.27182E-1,-5.8399964E-2],"split_indices":[3,6,6,7,4,7,0,3,0,7,0,0,0,4,1,7,0,0,0,0,0,0,0,0,0],"split_type":[0,0,0,0,0,0,0,0,0,0,0,0,0,0,0,0,0,0,0,0,0,0,0,0,0],"sum_hessian":[4.34E2,2.48E2,1.86E2,1.78E2,7E1,1.8E1,1.68E2,1.59E2,1.9E1,2.8E1,4.2E1,6E0,1.2E1,9.6E1,6.3E1,9E0,1.9E1,3E0,3E0,3.6E1,6E1,4.5E1,1.8E1,5E0,4E0],"tree_param":{"num_deleted":"0","num_feature":"8","num_nodes":"25","size_leaf_vector":"1"}},{"base_weights":[1.4355235E-2,-1.5454544E-1,4.0616248E-2,-2.3333332E-1,4.2857146E-3,-2.4999995E-2,4.2523365E-3,-2.9999998E-1,-5.384615E-2,-7.241379E-2,4.4827588E-2,-1.9999999E-1,-4.4545454E-1,3.888889E-3,-1.5E-2,-4.9999997E-2,-1.3749999E-2,-3.3333328E-2,7.272728E-2,-1.7222222E-2,-3.3333332E-3,-3.0714286E-2,-5E-3,-4.322034E-3,2.2727274E-3,-6.111111E-3,3.5714288E-3,4.72973E-3,-1.2499997E-3],"categories":[],"categories_nodes":[],"categories_segments":[],"categories_sizes":[],"default_left":[0,0,0,0,0,0,0,0,0,0,0,0,0,0,0,0,0,0,0,0,0,0,0,0,0,0,0,0,0],"id":16,"left_children":[1,3,5,7,-1,9,-1,11,13,15,17,19,21,-1,-1,23,-1,25,27,-1,-1,-1,-1,-1,-1,-1,-1,-1,-1],"loss_changes":[1.817876E0,1.0758873E0,1.0489149E0,4.5102572E-1,0E0,4.8275858E-1,0E0,2.8272724E-1,4.667521E-1,3.4879312E-1,1.3284221E-1,3.2111108E-1,5.087013E-1,0E0,0E0,2.86302E-1,0E0,1.5349205E-1,1.033538E-1,0E0,0E0,0E0,0E0,0E0,0E0,0E0,0E0,0E0,0E0],"parents":[2147483647,0,0,1,1,2,2,3,3,5,5,7,7,8,8,9,9,10,10,11,11,12,12,15,15,17,17,18,18],"right_children":[2,4,6,8,-1,10,-1,12,14,16,18,20,22,-1,-1,24,-1,26,28,-1,-1,-1,-1,-1,-1,-1,-1,-1,-1],"split_conditions":[1.125E2,1.144E2,6.7E1,6.77E1,2.3149414E-2,1.182E2,8.834702E-2,1.125E2,1.671E1,1.177E2,1.146E2,6.49E1,1.671E1,1.3316803E-1,-1.8932267E-1,1.168E2,-8.995133E-2,9.93E1,9.92E1,-4.738697E-1,-7.658523E-2,-2.2150345E-1,-1.5325928E-2,-6.0435023E-2,1.9435122E-3,-2.7978515E-2,3.10997E-1,1.5164529E-1,-1.4569092E-2],"split_indices":[2,3,7,7,0,2,0,3,0,2,3,7,0,0,0,3,0,4,4,0,0,0,0,0,0,0,0,0,0],"split_type":[0,0,0,0,0,0,0,0,0,0,0,0,0,0,0,0,0,0,0,0,0,0,0,0,0,0,0,0,0],"sum_hessian":[4.1E2,5.4E1,3.56E2,4.1E1,1.3E1,1.43E2,2.13E2,2.9E1,1.2E1,8.6E1,5.7E1,1.9E1,1E1,8E0,4E0,7.9E1,7E0,1.4E1,4.3E1,8E0,1.1E1,6E0,4E0,5.8E1,2.1E1,8E0,6E0,3.6E1,7E0],"tree_param":{"num_deleted":"0","num_feature":"8","num_nodes":"29","size_leaf_vector":"1"}},{"base_weights":[1.1638958E-2,-7.8571424E-2,5.673759E-2,-3.9999998E-1,-5.267175E-2,-3.4482721E-3,8.367347E-2,-5E-3,-2.8333334E-2,-1.22222215E-1,1.0144931E-2,4.7540985E-2,-1.22222215E-1,-8.181818E-2,4.6774196E-3,-2.2142856E-1,-3.8888883E-2,-1.3529411E-1,5.8490567E-2,-1.9999996E-2,4.72973E-3,-1.6428571E-2,-4.2857137E-2,-2E-2,3.7500001E-3,-1.4565217E-2,3.3333336E-3,2.6E-3,-1.1666666E-2,3.5714288E-3,-1.3181818E-2,4.7674417E-3,-4.090909E-3,-1.1666666E-2,2E-3,4E-3,-7.5E-3],"categories":[],"categories_nodes":[],"categories_segments":[],"categories_sizes":[],"default_left":[0,0,0,0,0,0,0,0,0,0,0,0,0,0,0,0,0,0,0,0,0,0,0,0,0,0,0,0,0,0,0,0,0,0,0,0,0],"id":17,"left_children":[1,3,5,7,9,11,13,-1,-1,15,17,19,21,23,-1,25,27,29,31,33,-1,-1,35,-1,-1,-1,-1,-1,-1,-1,-1,-1,-1,-1,-1,-1,-1],"loss_changes":[1.7150562E0,1.0991493E0,4.6547794E-1,3.7666667E-1,5.847775E-1,5.401676E-1,3.291334E-1,0E0,0E0,4.861905E-1,4.8539576E-1,2.0321222E-1,3.9095238E-1,6.1136365E-1,0E0,6.055485E-1,6.664888E-1,4.8908326E-1,2.8324586E-1,3.4866664E-1,0E0,0E0,2.9542857E-1,0E0,0E0,0E0,0E0,0E0,0E0,0E0,0E0,0E0,0E0,0E0,0E0,0E0,0E0],"parents":[2147483647,0,0,1,1,2,2,3,3,4,4,5,5,6,6,9,9,10,10,11,11,12,12,13,13,15,15,16,16,17,17,18,18,19,19,22,22],"right_children":[2,4,6,8,10,12,14,-1,-1,16,18,20,22,24,-1,26,28,30,32,34,-1,-1,36,-1,-1,-1,-1,-1,-1,-1,-1,-1,-1,-1,-1,-1,-1],"split_conditions":[1.146E2,6.37E1,1.929E1,9.45E1,6.76E1,1.703E1,9.02E1,-9.538803E-2,-4.5017585E-1,9.52E1,9.51E1,6.66E1,1.73E1,9.35E1,2.1973391E-1,2.661E1,9.76E1,1.114E2,9.81E1,1.151E2,1.7880334E-1,-5.2458193E-2,1.877E1,-4.3128966E-3,2.7158052E-1,-1.6460502E-1,1.0564499E-1,5.6091696E-2,-1.9790879E-1,1.4451675E-1,-1.2306328E-1,1.21020354E-1,-1.0903183E-1,-2.954033E-1,8.152771E-3,6.390839E-2,-1.6427461E-2],"split_indices":[3,6,0,5,6,1,4,0,0,5,4,6,1,5,0,0,5,3,5,3,0,0,0,0,0,0,0,0,0,0,0,0,0,0,0,0,0],"split_type":[0,0,0,0,0,0,0,0,0,0,0,0,0,0,0,0,0,0,0,0,0,0,0,0,0,0,0,0,0,0,0,0,0,0,0,0,0],"sum_hessian":[4.2E2,1.39E2,2.81E2,9E0,1.3E2,8.6E1,1.95E2,4E0,5E0,6.2E1,6.8E1,6E1,2.6E1,1E1,1.85E2,2.7E1,3.5E1,1.6E1,5.2E1,2.4E1,3.6E1,6E0,2E1,3E0,7E0,2.2E1,5E0,2.4E1,1.1E1,6E0,1E1,4.2E1,1E1,5E0,1.9E1,9E0,1.1E1],"tree_param":{"num_deleted":"0","num_feature":"8","num_nodes":"37","size_leaf_vector":"1"}},{"base_weights":[-2.0408125E-3,-1.9629629E-1,2.4742272E-2,4E-3,-2.5555554E-1,-4.0243898E-2,7.244445E-2,-3.102564E-1,3.5714288E-3,-2.5E-2,-2.4999995E-2,1.886796E-3,4.6531796E-3,-3.5454544E-1,-2.1428568E-3,-2E-2,-9.677416E-3,3.4693882E-2,-1.5E-2,-2.4411764E-2,-9.705882E-3,-7.5E-3,7.575759E-4,-3.3333332E-3,4.6875E-3],"categories":[],"categories_nodes":[],"categories_segments":[],"categories_sizes":[],"default_left":[0,0,0,0,0,0,0,0,0,0,0,0,0,0,0,0,0,0,0,0,0,0,0,0,0],"id":18,"left_children":[1,3,5,-1,7,9,11,13,-1,-1,15,17,-1,19,-1,-1,21,23,-1,-1,-1,-1,-1,-1,-1],"loss_changes":[2.3164299E0,9.2214775E-1,1.2089282E0,0E0,8.5092807E-1,1.0843902E0,3.1766808E-1,4.0693617E-1,0E0,0E0,8.745161E-1,5.0879085E-1,0E0,5.4475975E-1,0E0,0E0,5.557869E-1,3.0227038E-1,0E0,0E0,0E0,0E0,0E0,0E0,0E0],"parents":[2147483647,0,0,1,1,2,2,4,4,5,5,6,6,7,7,10,10,11,11,13,13,16,16,17,17],"right_children":[2,4,6,-1,8,10,12,14,-1,-1,16,18,-1,20,-1,-1,22,24,-1,-1,-1,-1,-1,-1,-1],"split_conditions":[6.46E1,1.59E1,6.7E1,2.8790284E-2,1.216E2,1.11E2,1.151E2,6.97E1,2.5800171E-1,-2.4708176E-1,1.399E1,1.15E2,2.103586E-1,1.144E2,-8.319092E-3,-1.1945496E-1,6.6E1,1.126E2,-4.531708E-2,-3.7614205E-1,-1.5415649E-2,-1.0572189E-1,2.1758882E-2,-2.5241394E-2,1.299881E-1],"split_indices":[6,1,7,0,3,2,2,7,0,0,1,2,0,3,0,0,6,3,0,0,0,0,0,0,0],"split_type":[0,0,0,0,0,0,0,0,0,0,0,0,0,0,0,0,0,0,0,0,0,0,0,0,0],"sum_hessian":[4.4E2,5.3E1,3.87E2,9E0,4.4E1,1.63E2,2.24E2,3.8E1,6E0,4E0,1.59E2,5.2E1,1.72E2,3.2E1,6E0,5E0,1.54E2,4.8E1,4E0,1.6E1,1.6E1,2.3E1,1.31E2,1.7E1,3.1E1],"tree_param":{"num_deleted":"0","num_feature":"8","num_nodes":"25","size_leaf_vector":"1"}},{"base_weights":[1.1709639E-3,-5.4205604E-2,5.7009347E-2,-1.0833333E-1,5.492958E-2,-4.634146E-2,4.08046E-3,-1.7692307E-1,-4.9999997E-2,-7.5E-3,3.382353E-3,-1.4999999E-1,1.5384618E-2,-1.22222215E-1,-3.9999998E-1,4.411765E-3,-8.749999E-2,3.3333336E-3,-2.6363635E-1,4.411765E-3,-9.9999994E-2,4.0909094E-3,-8.636364E-3,-3.25E-2,-1.1666666E-2,-1.521739E-3,-1.0789474E-2,-2E-2,-3.3333332E-3,2.5000002E-3,-9.285714E-3],"categories":[],"categories_nodes":[],"categories_segments":[],"categories_sizes":[],"default_left":[0,0,0,0,0,0,0,0,0,0,0,0,0,0,0,0,0,0,0,0,0,0,0,0,0,0,0,0,0,0,0],"id":19,"left_children":[1,3,5,7,9,11,-1,13,15,-1,-1,17,19,21,23,-1,25,-1,27,-1,29,-1,-1,-1,-1,-1,-1,-1,-1,-1,-1],"loss_changes":[1.3237137E0,1.2754402E0,5.513854E-1,5.4461527E-1,1.8695115E-1,2.7810505E-1,0E0,6.920514E-1,4.2235294E-1,0E0,0E0,4.3121213E-1,2.2619909E-1,5.7969695E-1,2.5999987E-1,0E0,4.3734556E-1,0E0,2.2212118E-1,0E0,1.5142855E-1,0E0,0E0,0E0,0E0,0E0,0E0,0E0,0E0,0E0,0E0],"parents":[2147483647,0,0,1,1,2,2,3,3,4,4,5,5,7,7,8,8,11,11,12,12,13,13,14,14,16,16,18,18,20,20],"right_children":[2,4,6,8,10,12,-1,14,16,-1,-1,18,20,22,24,-1,26,-1,28,-1,30,-1,-1,-1,-1,-1,-1,-1,-1,-1,-1],"split_conditions":[6.76E1,6.89E1,1.13E2,1.15E2,1.122E2,9.45E1,1.3076769E-1,9.76E1,6.46E1,-7.1811676E-2,2.4475388E-1,9.1E1,1.125E2,9.18E1,9.52E1,9.36554E-3,9.93E1,1.8767548E-1,6.91E1,1.1421547E-1,6.67E1,1.1185684E-1,-1.372934E-1,-1.8817902E-1,-2.8172073E-1,-4.50592E-3,-2.9792938E-2,-1.298523E-1,-8.960724E-3,1.9213868E-2,-7.144928E-3],"split_indices":[6,7,3,3,3,5,0,5,7,0,0,5,3,4,4,0,5,0,6,0,7,0,0,0,0,0,0,0,0,0,0],"split_type":[0,0,0,0,0,0,0,0,0,0,0,0,0,0,0,0,0,0,0,0,0,0,0,0,0,0,0,0,0,0,0],"sum_hessian":[4.26E2,2.13E2,2.13E2,1.43E2,7E1,4E1,1.73E2,6.4E1,7.9E1,3E0,6.7E1,1.5E1,2.5E1,5.3E1,1.1E1,1.6E1,6.3E1,5E0,1E1,1.6E1,9E0,1E1,4.3E1,3E0,8E0,4.5E1,1.8E1,5E0,5E0,3E0,6E0],"tree_param":{"num_deleted":"0","num_feature":"8","num_nodes":"31","size_leaf_vector":"1"}},{"base_weights":[1.4285718E-2,-2.734082E-2,8.095238E-2,-1.3188405E-1,8.542717E-3,-2.1428568E-3,4.320988E-3,-1.5862069E-1,3.1044085E-9,-1.1428571E-1,2.906977E-2,-5.9999995E-2,-2.235294E-1,3.888889E-3,-7.5E-3,-2.9999998E-3,-2E-2,-1.22222215E-1,4.7096778E-2,-1.0384615E-2,4.2307694E-3,-1.6052632E-2,-4.3749996E-3,3.0000003E-3,-9.285714E-3,2.9194632E-3,-9.285714E-3],"categories":[],"categories_nodes":[],"categories_segments":[],"categories_sizes":[],"default_left":[0,0,0,0,0,0,0,0,0,0,0,0,0,0,0,0,0,0,0,0,0,0,0,0,0,0,0],"id":20,"left_children":[1,3,5,7,9,-1,-1,11,13,15,17,19,21,-1,-1,-1,-1,23,25,-1,-1,-1,-1,-1,-1,-1,-1],"loss_changes":[1.2119689E0,1.0150795E0,1.2178147E-1,2.591654E-1,4.965405E-1,0E0,0E0,3.295132E-1,1.4444444E-1,3.642857E-1,4.6734646E-1,5.638462E-1,3.820976E-1,0E0,0E0,0E0,0E0,2.319682E-1,4.0560868E-1,0E0,0E0,0E0,0E0,0E0,0E0,0E0,0E0],"parents":[2147483647,0,0,1,1,2,2,3,3,4,4,7,7,8,8,9,9,10,10,11,11,12,12,17,17,18,18],"right_children":[2,4,6,8,10,-1,-1,12,14,16,18,20,22,-1,-1,-1,-1,24,26,-1,-1,-1,-1,-1,-1,-1,-1],"split_conditions":[1.182E2,6.59E1,9.02E1,1.005E2,9.45E1,-3.1013489E-3,1.7415452E-1,9.68E1,1.825E1,9.84E1,1.122E2,9.5E1,9.87E1,1.25633245E-2,-2.412033E-2,-4.303741E-2,-8.093796E-2,1.503E1,1.021E2,-2.811868E-1,3.1720582E-2,-1.6769959E-1,-3.242203E-2,3.71653E-1,-1.3767166E-1,8.1294864E-2,-8.762818E-2],"split_indices":[2,6,4,5,5,0,0,5,0,4,2,5,5,0,0,0,0,1,4,0,0,0,0,0,0,0,0],"split_type":[0,0,0,0,0,0,0,0,0,0,0,0,0,0,0,0,0,0,0,0,0,0,0,0,0,0,0],"sum_hessian":[4.33E2,2.66E2,1.67E2,6.8E1,1.98E2,6E0,1.61E2,5.7E1,1.1E1,2.7E1,1.71E2,2.4E1,3.3E1,8E0,3E0,2.4E1,3E0,1.7E1,1.54E2,1.2E1,1.2E1,1.8E1,1.5E1,4E0,1.3E1,1.48E2,6E0],"tree_param":{"num_deleted":"0","num_feature":"8","num_nodes":"27","size_leaf_vector":"1"}},{"base_weights":[1.2984058E-2,-1.22222215E-1,3.2124355E-2,-3.9999998E-1,-3.9534878E-2,-5.527634E-3,7.234043E-2,-5E-3,-5.25E-1,-1.7777777E-1,2.6923078E-3,-1.1621621E-1,1.9018408E-2,-5E-3,7.717392E-2,-3.5E-2,-7.5E-3,3.3333336E-3,-2.8461537E-1,-1.6428571E-2,-6.1290316E-2,-3.1745995E-3,4.736842E-3,3.3866276E-9,4.3251533E-3,2.5000002E-3,-2E-2,1.6666668E-3,-9.285714E-3,4.6428572E-3,-1.5656563E-3,-5E-3,4.2307694E-3],"categories":[],"categories_nodes":[],"categories_segments":[],"categories_sizes":[],"default_left":[0,0,0,0,0,0,0,0,0,0,0,0,0,0,0,0,0,0,0,0,0,0,0,0,0,0,0,0,0,0,0,0,0],"id":21,"left_children":[1,3,5,7,9,11,13,-1,15,17,-1,19,21,-1,23,-1,-1,-1,25,-1,27,29,-1,31,-1,-1,-1,-1,-1,-1,-1,-1,-1],"loss_changes":[1.1309994E0,1.1805427E0,5.915681E-1,3.3499992E-1,5.7706416E-1,5.5260634E-1,1.6203982E-1,0E0,3.349998E-1,5.1085466E-1,0E0,3.7243614E-1,2.833654E-1,0E0,1.2382364E-1,0E0,0E0,0E0,5.5692303E-1,0E0,3.864055E-1,3.3722943E-1,0E0,1.9307691E-1,0E0,0E0,0E0,0E0,0E0,0E0,0E0,0E0,0E0],"parents":[2147483647,0,0,1,1,2,2,3,3,4,4,5,5,6,6,8,8,9,9,11,11,12,12,14,14,18,18,20,20,21,21,23,23],"right_children":[2,4,6,8,10,12,14,-1,16,18,-1,20,22,-1,24,-1,-1,-1,26,-1,28,30,-1,32,-1,-1,-1,-1,-1,-1,-1,-1,-1],"split_conditions":[6.46E1,9.43E1,1.175E2,9.1E1,1.144E2,9.49E1,8.77E1,-2.9464723E-3,1.129E2,1.59E1,1.1045839E-2,6.61E1,6.93E1,-5.088806E-3,6.55E1,-3.143284E-1,-4.310608E-4,1.04315184E-1,1.109E2,-1.5699159E-1,1.12E2,9.68E1,2.0724519E-1,2.324E1,1.9220535E-1,2.2789001E-1,-1.5124588E-1,1.0867772E-2,-8.475708E-2,7.9244845E-2,-2.6716996E-2,-2.8022766E-2,3.8929567E-1],"split_indices":[6,5,2,5,3,5,5,0,3,1,0,6,6,0,6,0,0,0,2,0,3,5,0,1,0,0,0,0,0,0,0,0,0],"split_type":[0,0,0,0,0,0,0,0,0,0,0,0,0,0,0,0,0,0,0,0,0,0,0,0,0,0,0,0,0,0,0,0,0],"sum_hessian":[4.38E2,5.3E1,3.85E2,1.1E1,4.2E1,1.98E2,1.87E2,4E0,7E0,1.7E1,2.5E1,3.6E1,1.62E2,4E0,1.83E2,4E0,3E0,5E0,1.2E1,6E0,3E1,1.25E2,3.7E1,2.1E1,1.62E2,3E0,9E0,1.7E1,1.3E1,2.7E1,9.8E1,9E0,1.2E1],"tree_param":{"num_deleted":"0","num_feature":"8","num_nodes":"33","size_leaf_vector":"1"}},{"base_weights":[5.4117683E-3,-4.9999997E-2,5.486726E-2,-4.5555553E-1,-3.0208329E-2,-9.230769E-2,7.412936E-2,-2.8333334E-2,-7.5E-3,-7.123287E-2,4.787234E-3,3.3333336E-3,-1.3809523E-1,-1.1111107E-2,4.130435E-3,-9.379844E-2,4.4444446E-3,-2.3333332E-1,-0E0,-1.8571427E-1,4.166667E-3,-2.6086955E-3,-9.473684E-3,-6.111111E-3,-2E-2,2.5000002E-3,-2E-2],"categories":[],"categories_nodes":[],"categories_segments":[],"categories_sizes":[],"default_left":[0,0,0,0,0,0,0,0,0,0,0,0,0,0,0,0,0,0,0,0,0,0,0,0,0,0,0],"id":22,"left_children":[1,3,5,7,9,11,13,-1,-1,15,-1,-1,17,19,-1,21,-1,23,-1,25,-1,-1,-1,-1,-1,-1,-1],"loss_changes":[1.1679068E0,1.542986E0,6.457118E-1,1.4888895E-1,9.9646455E-1,2.0560436E-1,1.5334702E-1,0E0,0E0,5.363615E-1,0E0,0E0,2.5285712E-1,3.2253966E-1,0E0,4.796841E-1,0E0,1.21111155E-1,0E0,4.0857142E-1,0E0,0E0,0E0,0E0,0E0,0E0,0E0],"parents":[2147483647,0,0,1,1,2,2,3,3,4,4,5,5,6,6,9,9,12,12,13,13,15,15,17,17,19,19],"right_children":[2,4,6,8,10,12,14,-1,-1,16,-1,-1,18,20,-1,22,-1,24,-1,26,-1,-1,-1,-1,-1,-1,-1],"split_conditions":[6.73E1,1.11E2,6.46E1,1.59E1,6.93E1,1.718E1,1.122E2,-2.3059998E-1,-1.3853455E-2,2.661E1,1.3875557E-1,7.439423E-3,1.189E2,9.73E1,1.3203721E-1,1.162E2,1.4424957E-1,2.285E1,-4.0969774E-4,6.77E1,8.6432956E-2,-6.879425E-2,-2.718689E-2,-1.4368363E-1,-1.2308503E-2,3.1191406E-1,-7.595368E-2],"split_indices":[7,2,6,0,6,0,3,0,0,0,0,0,3,4,0,3,0,0,0,6,0,0,0,0,0,0,0],"split_type":[0,0,0,0,0,0,0,0,0,0,0,0,0,0,0,0,0,0,0,0,0,0,0,0,0,0,0],"sum_hessian":[4.24E2,1.99E2,2.25E2,8E0,1.91E2,2.5E1,2E2,5E0,3E0,1.45E2,4.6E1,5E0,2E1,1.7E1,1.83E2,1.28E2,1.7E1,1.1E1,9E0,6E0,1.1E1,9.1E1,3.7E1,8E0,3E0,3E0,3E0],"tree_param":{"num_deleted":"0","num_feature":"8","num_nodes":"27","size_leaf_vector":"1"}},{"base_weights":[4.3083937E-3,-1.0353982E-1,4.164134E-2,-2.7499998E-1,-5.5555552E-2,3.571432E-3,8.024692E-2,-3.9999998E-1,3.5714288E-3,-9.178082E-2,4.4444446E-3,-5.6626502E-2,6.27907E-2,-5E-3,4.3037976E-3,-7.5E-3,-2.681818E-2,-3.285714E-1,-3.3333328E-2,-1.1999999E-1,3.529412E-2,3.4924597E-9,4.818182E-3,-2.1428568E-3,-2.625E-2,2.027027E-3,-7.5E-3,-3.108108E-3,-1.2857142E-2,3.0000003E-3,-5E-3,4.166667E-3,-2.1428568E-3],"categories":[],"categories_nodes":[],"categories_segments":[],"categories_sizes":[],"default_left":[0,0,0,0,0,0,0,0,0,0,0,0,0,0,0,0,0,0,0,0,0,0,0,0,0,0,0,0,0,0,0,0,0],"id":23,"left_children":[1,3,5,7,9,11,13,15,-1,17,-1,19,21,-1,-1,-1,-1,23,25,27,29,31,-1,-1,-1,-1,-1,-1,-1,-1,-1,-1,-1],"loss_changes":[1.7737161E0,8.8136196E-1,4.7486657E-1,1.1007143E0,4.7937596E-1,6.030715E-1,1.7742288E-1,4.645455E-1,0E0,9.631636E-1,0E0,4.9620828E-1,1.716575E-1,0E0,0E0,0E0,0E0,7.0642865E-1,5.341441E-1,3.486873E-1,1.1564706E-1,1.2190476E-1,0E0,0E0,0E0,0E0,0E0,0E0,0E0,0E0,0E0,0E0,0E0],"parents":[2147483647,0,0,1,1,2,2,3,3,4,4,5,5,6,6,7,7,9,9,11,11,12,12,17,17,18,18,19,19,20,20,21,21],"right_children":[2,4,6,8,10,12,14,16,-1,18,-1,20,22,-1,-1,-1,-1,24,26,28,30,32,-1,-1,-1,-1,-1,-1,-1,-1,-1,-1,-1],"split_conditions":[6.6E1,6.49E1,6.77E1,6.58E1,1.208E2,1.175E2,8.97E1,9.45E1,9.047013E-2,9.5E1,4.0593386E-1,6.91E1,6.74E1,-5.869293E-3,1.8135193E-1,-2.951725E-1,-3.6114657E-1,9.31E1,6.56E1,1.732E1,6.73E1,9.49E1,1.4246254E-1,-2.1835328E-3,-6.560135E-2,8.289033E-3,-8.0525056E-2,-8.109154E-2,-8.7310635E-2,5.3482093E-3,-1.6868591E-2,1.7536698E-1,-2.0846633E-2],"split_indices":[6,7,7,6,2,2,5,5,0,5,0,6,6,0,0,0,0,5,6,1,7,4,0,0,0,0,0,0,0,0,0,0,0],"split_type":[0,0,0,0,0,0,0,0,0,0,0,0,0,0,0,0,0,0,0,0,0,0,0,0,0,0,0,0,0,0,0,0,0],"sum_hessian":[4.4E2,1.12E2,3.28E2,2.3E1,8.9E1,1.67E2,1.61E2,1.7E1,6E0,7.2E1,1.7E1,8.2E1,8.5E1,4E0,1.57E2,7E0,1E1,1.3E1,5.9E1,4.9E1,3.3E1,3.1E1,5.4E1,6E0,7E0,3.6E1,2.3E1,3.6E1,1.3E1,2.9E1,4E0,1.1E1,2E1],"tree_param":{"num_deleted":"0","num_feature":"8","num_nodes":"33","size_leaf_vector":"1"}},{"base_weights":[3.872441E-3,-6.8749994E-2,4.571429E-2,-1.9729729E-1,-2.9032255E-2,1.0059175E-2,4.9107145E-3,-4.2857137E-2,-2.7499998E-1,-1.19512185E-1,1.4285717E-2,-8.181818E-2,6.923077E-2,4.0909094E-3,-2E-2,-1.7777777E-1,-4.7142854E-1,-3.285714E-1,-7.1428535E-3,3.9130438E-2,-8.749999E-2,-5.8730155E-2,-2E-2,1.5789477E-2,4.8507466E-3,-1.4230768E-2,3.3333336E-3,-3.25E-2,-7.5E-3,-2.1428568E-3,-2.625E-2,4.5000003E-3,-1.1666666E-2,3.636364E-3,-7.692306E-4,-1E-2,3.5714288E-3,2.5000002E-3,-6.2499996E-3,-2.5E-3,4.4736844E-3],"categories":[],"categories_nodes":[],"categories_segments":[],"categories_sizes":[],"default_left":[0,0,0,0,0,0,0,0,0,0,0,0,0,0,0,0,0,0,0,0,0,0,0,0,0,0,0,0,0,0,0,0,0,0,0,0,0,0,0,0,0],"id":24,"left_children":[1,3,5,7,9,11,-1,13,15,17,19,21,23,-1,-1,25,27,29,31,33,35,37,-1,39,-1,-1,-1,-1,-1,-1,-1,-1,-1,-1,-1,-1,-1,-1,-1,-1,-1],"loss_changes":[1.3348095E0,7.885364E-1,5.1231486E-1,4.0044403E-1,4.9823654E-1,9.231791E-1,0E0,6.8792206E-1,3.096031E-1,9.2724735E-1,2.1100932E-1,4.1548342E-1,1.416091E-1,0E0,0E0,5.1085466E-1,2.2428572E-1,7.0642865E-1,6.505714E-1,1.3322893E-1,3.132143E-1,4.676984E-1,0E0,1.9263157E-1,0E0,0E0,0E0,0E0,0E0,0E0,0E0,0E0,0E0,0E0,0E0,0E0,0E0,0E0,0E0,0E0,0E0],"parents":[2147483647,0,0,1,1,2,2,3,3,4,4,5,5,7,7,8,8,9,9,10,10,11,11,12,12,15,15,16,16,17,17,18,18,19,19,20,20,21,21,23,23],"right_children":[2,4,6,8,10,12,-1,14,16,18,20,22,24,-1,-1,26,28,30,32,34,36,38,-1,40,-1,-1,-1,-1,-1,-1,-1,-1,-1,-1,-1,-1,-1,-1,-1,-1,-1],"split_conditions":[1.145E2,6.58E1,1.189E2,9.11E1,1.137E2,6.75E1,2.2459017E-1,9.75E1,6.77E1,9.58E1,1.016E2,7.03E1,6.68E1,1.408974E-2,-2.0101242E-1,6.63E1,6.96E1,6.42E1,9.76E1,1.136E2,6.86E1,9.57E1,-1.2107086E-2,1.175E2,1.47202E-1,-3.3533722E-1,6.652832E-3,-1.3691406E-1,-2.7981568E-2,-9.788742E-2,-1.7188263E-1,1.0039139E-1,-1.5496598E-1,3.1097108E-2,-2.289398E-2,-9.653931E-2,6.756592E-3,1.6481323E-2,-2.196579E-2,-2.0117188E-2,1.4109482E-1],"split_indices":[3,6,3,4,2,6,0,5,7,5,4,7,7,0,0,7,7,7,5,3,7,4,0,2,0,0,0,0,0,0,0,0,0,0,0,0,0,0,0,0,0],"split_type":[0,0,0,0,0,0,0,0,0,0,0,0,0,0,0,0,0,0,0,0,0,0,0,0,0,0,0,0,0,0,0,0,0,0,0,0,0,0,0,0,0],"sum_hessian":[4.38E2,1.59E2,2.79E2,3.6E1,1.23E2,1.68E2,1.11E2,1.3E1,2.3E1,4E1,8.3E1,6.5E1,1.03E2,1E1,3E0,1.7E1,6E0,1.3E1,2.7E1,6.8E1,1.5E1,6.2E1,3E0,3.7E1,6.6E1,1.2E1,5E0,3E0,3E0,6E0,7E0,1.9E1,8E0,4.3E1,2.5E1,9E0,6E0,2.3E1,3.9E1,1.9E1,1.8E1],"tree_param":{"num_deleted":"0","num_feature":"8","num_nodes":"41","size_leaf_vector":"1"}},{"base_weights":[8.843541E-3,-2.8205125E-2,6.923077E-2,-8.518518E-2,2.6618708E-2,-1.4999999E-1,8.024692E-2,-3.9999998E-1,-6.40625E-2,3.8805973E-2,-1.1666666E-2,-2E-2,3.0000003E-3,8.333337E-3,4.5683454E-3,-3.25E-2,-5E-3,-2.7450977E-2,-1.9629629E-1,-4.5833327E-2,4.310345E-3,4.411765E-3,-1.4999999E-1,-6.428571E-3,1.1764708E-3,-1.3181818E-2,3.3333336E-3,2.5000002E-3,-6.9999993E-3,-2E-2,3.0000003E-3],"categories":[],"categories_nodes":[],"categories_segments":[],"categories_sizes":[],"default_left":[0,0,0,0,0,0,0,0,0,0,0,0,0,0,0,0,0,0,0,0,0,0,0,0,0,0,0,0,0,0,0],"id":25,"left_children":[1,3,5,7,9,11,13,15,17,19,-1,-1,-1,21,-1,-1,-1,23,25,27,-1,-1,29,-1,-1,-1,-1,-1,-1,-1,-1],"loss_changes":[9.9268967E-1,8.609394E-1,4.1320992E-1,8.256829E-1,4.2996848E-1,4.7800002E-1,1.18816376E-1,4.5999992E-1,5.919206E-1,5.45594E-1,0E0,0E0,0E0,3.1068626E-1,0E0,0E0,0E0,5.3935575E-1,5.153872E-1,4.4916663E-1,0E0,0E0,4.7800002E-1,0E0,0E0,0E0,0E0,0E0,0E0,0E0,0E0],"parents":[2147483647,0,0,1,1,2,2,3,3,4,4,5,5,6,6,7,7,8,8,9,9,13,13,17,17,18,18,19,19,22,22],"right_children":[2,4,6,8,10,12,14,16,18,20,-1,-1,-1,22,-1,-1,-1,24,26,28,-1,-1,30,-1,-1,-1,-1,-1,-1,-1,-1],"split_conditions":[1.182E2,6.74E1,6.41E1,1.11E2,1.178E2,1.199E2,6.55E1,1.519E1,6.67E1,6.62E1,-5.556183E-2,-8.338928E-3,2.3330612E-1,6.51E1,1.4129792E-1,-1.9096147E-1,-1.6328888E-1,6.43E1,6.93E1,1.702E1,1.0338875E-1,1.7180261E-1,2.357E1,-1.8632393E-1,3.4748844E-3,-5.057205E-2,3.5255433E-3,2.6036075E-3,-4.0195465E-2,-1.619568E-2,3.0990145E-1],"split_indices":[2,7,6,2,2,3,6,1,7,6,0,0,0,6,0,0,0,7,6,1,0,0,1,0,0,0,0,0,0,0,0],"split_type":[0,0,0,0,0,0,0,0,0,0,0,0,0,0,0,0,0,0,0,0,0,0,0,0,0,0,0,0,0,0,0],"sum_hessian":[4.4E2,2.72E2,1.68E2,1.34E2,1.38E2,7E0,1.61E2,7E0,1.27E2,1.33E2,5E0,3E0,4E0,2.3E1,1.38E2,3E0,4E0,1.01E2,2.6E1,4.7E1,8.6E1,1.6E1,7E0,3.4E1,6.7E1,2.1E1,5E0,2.3E1,2.4E1,3E0,4E0],"tree_param":{"num_deleted":"0","num_feature":"8","num_nodes":"31","size_leaf_vector":"1"}},{"base_weights":[-3.529408E-3,-9.298245E-2,2.8846158E-2,-1.2105262E-1,2E-3,-1.3076922E-1,5.182482E-2,-2.2E-1,-8.309858E-2,-4.7142854E-1,-5.1515147E-2,7.43802E-3,8.571429E-2,3.5714288E-3,-3.210526E-1,4.5238095E-3,-1.5490195E-1,-3.25E-2,-7.5E-3,4.2857144E-2,-2.076923E-1,3.8000003E-3,-3.8888883E-2,-7.5E-3,9.205298E-2,-4.090909E-3,-2.8333334E-2,-9.772727E-3,3.7500001E-3,-7.5E-3,4.4444446E-3,-2.5E-2,-5.5555534E-4,-1.0789474E-2,1.1111113E-3,-2.1428568E-3,4.9310345E-3],"categories":[],"categories_nodes":[],"categories_segments":[],"categories_sizes":[],"default_left":[0,0,0,0,0,0,0,0,0,0,0,0,0,0,0,0,0,0,0,0,0,0,0,0,0,0,0,0,0,0,0,0,0,0,0,0,0],"id":26,"left_children":[1,3,5,7,-1,9,11,13,15,17,19,21,23,-1,25,-1,27,-1,-1,29,31,-1,33,-1,35,-1,-1,-1,-1,-1,-1,-1,-1,-1,-1,-1,-1],"loss_changes":[1.2399352E0,4.3849128E-1,1.14322E0,3.081764E-1,0E0,9.7636706E-1,4.0221035E-1,7.8413534E-1,9.0534866E-1,2.2428572E-1,5.117649E-1,3.9099464E-1,2.3810792E-1,0E0,1.0052152E0,0E0,5.0218344E-1,0E0,0E0,1.9365078E-1,6.9034183E-1,0E0,8.025147E-1,0E0,1.4359665E-1,0E0,0E0,0E0,0E0,0E0,0E0,0E0,0E0,0E0,0E0,0E0,0E0],"parents":[2147483647,0,0,1,1,2,2,3,3,5,5,6,6,7,7,8,8,9,9,10,10,11,11,12,12,14,14,16,16,19,19,20,20,22,22,24,24],"right_children":[2,4,6,8,-1,10,12,14,16,18,20,22,24,-1,26,-1,28,-1,-1,30,32,-1,34,-1,36,-1,-1,-1,-1,-1,-1,-1,-1,-1,-1,-1,-1],"split_conditions":[6.6E1,6.97E1,1.59E1,9.51E1,4.0528115E-2,6.45E1,6.73E1,6.32E1,9.68E1,9.76E1,1.553E1,1.794E1,8.97E1,9.057618E-3,9.4E1,5.407715E-2,9.96E1,-1.5512466E-1,-2.5245437E-1,1.072E2,6.74E1,3.0779267E-2,1.929E1,-2.960968E-3,1.126E2,-7.378235E-3,-1.0156097E-1,-9.4464876E-2,6.288147E-3,-6.467743E-2,8.13826E-2,-1.3766937E-1,-1.6957855E-2,-3.0965498E-2,3.5459753E-2,-1.26014715E-2,1.8192749E-1],"split_indices":[6,7,0,5,0,7,7,7,5,4,0,0,5,0,5,0,4,0,0,3,7,0,0,0,3,0,0,0,0,0,0,0,0,0,0,0,0],"split_type":[0,0,0,0,0,0,0,0,0,0,0,0,0,0,0,0,0,0,0,0,0,0,0,0,0,0,0,0,0,0,0,0,0,0,0,0,0],"sum_hessian":[4.24E2,1.13E2,3.11E2,9.4E1,1.9E1,3.8E1,2.73E2,2.4E1,7E1,6E0,3.2E1,1.2E2,1.53E2,6E0,1.8E1,2E1,5E1,3E0,3E0,2E1,1.2E1,4.9E1,7.1E1,3E0,1.5E2,1E1,8E0,4.3E1,7E0,3E0,1.7E1,4E0,8E0,1.8E1,5.3E1,6E0,1.44E2],"tree_param":{"num_deleted":"0","num_feature":"8","num_nodes":"37","size_leaf_vector":"1"}},{"base_weights":[7.829981E-3,-2.2186492E-2,3.8321167E-3,-5.2838422E-2,6.1445784E-2,-6.746411E-2,4.5238095E-3,-4.2857137E-2,4.84127E-3,-1.75E-1,-4.1176464E-2,-1.1666666E-2,2.5000002E-2,-5.6060604E-3,-2E-2,4.5000003E-3,-2.9470196E-3,-7.5E-3,4.2307694E-3],"categories":[],"categories_nodes":[],"categories_segments":[],"categories_sizes":[],"default_left":[0,0,0,0,0,0,0,0,0,0,0,0,0,0,0,0,0,0,0],"id":27,"left_children":[1,3,-1,5,7,9,-1,11,-1,13,15,-1,17,-1,-1,-1,-1,-1,-1],"loss_changes":[9.304264E-1,7.996316E-1,0E0,4.838038E-1,3.1583285E-1,5.619912E-1,0E0,2.980952E-1,0E0,4.698485E-1,3.9833423E-1,0E0,1.7307691E-1,0E0,0E0,0E0,0E0,0E0,0E0],"parents":[2147483647,0,0,1,1,3,3,4,4,5,5,7,7,9,9,10,10,12,12],"right_children":[2,4,-1,6,8,10,-1,12,-1,14,16,-1,18,-1,-1,-1,-1,-1,-1],"split_conditions":[6.91E1,1.186E2,1.3663088E-1,1.008E2,6.51E1,1.59E1,2.3350144E-2,2.033E1,1.98424E-1,1.503E1,1.574E1,-2.9201508E-2,9.35E1,-7.2458796E-2,-1.4736862E-1,9.2702486E-2,-1.629875E-2,-7.5531006E-3,6.9425896E-2],"split_indices":[6,3,0,5,6,0,0,1,0,1,1,0,5,0,0,0,0,0,0],"split_type":[0,0,0,0,0,0,0,0,0,0,0,0,0,0,0,0,0,0,0],"sum_hessian":[4.46E2,3.1E2,1.36E2,2.28E2,8.2E1,2.08E2,2E1,2E1,6.2E1,3.9E1,1.69E2,5E0,1.5E1,3.2E1,7E0,1.9E1,1.5E2,3E0,1.2E1],"tree_param":{"num_deleted":"0","num_feature":"8","num_nodes":"19","size_leaf_vector":"1"}},{"base_weights":[-2.3809485E-3,-5.508021E-2,3.931624E-2,-2.2E-1,-2.8834352E-2,-3.461538E-2,6.065574E-2,-2.8095236E-1,3.0000003E-3,-7.1717165E-2,3.5384618E-2,-9.9999994E-2,4.4444446E-3,7.1428604E-3,4.1406252E-3,-1.4999999E-1,-2.8333334E-2,-0E0,-2.3333332E-1,4.83871E-2,-7.5E-3,-7.1428535E-3,-3.9999998E-1,-7.391304E-2,6.4705886E-2,-1.1666666E-2,3.0000003E-3,4.3333336E-3,-1.2499997E-3,2.5000002E-3,-1.3518519E-2,-5E-3,3.1034485E-3,-5.7142857E-3,4.3333336E-3,-3.25E-2,-5E-3,4E-3,-9.285714E-3,4.6774196E-3,-7.5E-3],"categories":[],"categories_nodes":[],"categories_segments":[],"categories_sizes":[],"default_left":[0,0,0,0,0,0,0,0,0,0,0,0,0,0,0,0,0,0,0,0,0,0,0,0,0,0,0,0,0,0,0,0,0,0,0,0,0,0,0,0,0],"id":28,"left_children":[1,3,5,7,9,11,13,15,-1,17,19,21,-1,23,-1,25,-1,27,29,31,-1,33,35,37,39,-1,-1,-1,-1,-1,-1,-1,-1,-1,-1,-1,-1,-1,-1,-1,-1],"loss_changes":[9.2665464E-1,7.781952E-1,3.7387693E-1,4.6561897E-1,4.55055E-1,4.2991447E-1,2.0739096E-1,6.2904775E-1,0E0,1.1241415E0,1.5377666E-1,9.314287E-1,0E0,2.6514795E-1,0E0,3.113333E-1,0E0,1.4766666E-1,3.503704E-1,1.2828699E-1,0E0,2.9409522E-1,4.5999992E-1,4.212049E-1,2.189374E-1,0E0,0E0,0E0,0E0,0E0,0E0,0E0,0E0,0E0,0E0,0E0,0E0,0E0,0E0,0E0,0E0],"parents":[2147483647,0,0,1,1,2,2,3,3,4,4,5,5,6,6,7,7,9,9,10,10,11,11,13,13,15,15,17,17,18,18,19,19,21,21,22,22,23,23,24,24],"right_children":[2,4,6,8,10,12,14,16,-1,18,20,22,-1,24,-1,26,-1,28,30,32,-1,34,36,38,40,-1,-1,-1,-1,-1,-1,-1,-1,-1,-1,-1,-1,-1,-1,-1,-1],"split_conditions":[6.73E1,1.59E1,9.52E1,1.15E2,1.175E2,1.209E2,1.151E2,1.553E1,1.4473191E-1,1.718E1,1.005E2,1.151E2,3.683046E-1,6.81E1,1.1073624E-1,1.453E1,-1.7306672E-1,1.539E1,9.08E1,8.77E1,-1.1833191E-3,1.995E1,1.189E2,1.671E1,1.15E2,-2.0367797E-1,7.629853E-2,1.51638035E-2,-5.835083E-2,5.757904E-1,-4.7792662E-2,-7.23114E-3,4.7629397E-2,-5.9767455E-2,1.8837166E-1,-6.1798096E-3,-7.1754456E-3,3.330185E-1,-1.1419952E-1,2.9829865E-2,-8.14972E-3],"split_indices":[7,0,5,3,2,2,2,0,0,1,5,3,0,7,0,1,0,1,5,5,0,0,3,0,2,0,0,0,0,0,0,0,0,0,0,0,0,0,0,0,0],"split_type":[0,0,0,0,0,0,0,0,0,0,0,0,0,0,0,0,0,0,0,0,0,0,0,0,0,0,0,0,0,0,0,0,0,0,0,0,0,0,0,0,0],"sum_hessian":[4.19E2,1.86E2,2.33E2,2.4E1,1.62E2,5.1E1,1.82E2,2E1,4E0,9.8E1,6.4E1,3.4E1,1.7E1,5.5E1,1.27E2,1.5E1,5E0,6.9E1,2.9E1,6.1E1,3E0,2.7E1,7E0,2.2E1,3.3E1,1.1E1,4E0,1.4E1,5.5E1,3E0,2.6E1,4E0,5.7E1,1.3E1,1.4E1,3E0,4E0,9E0,1.3E1,3E1,3E0],"tree_param":{"num_deleted":"0","num_feature":"8","num_nodes":"41","size_leaf_vector":"1"}},{"base_weights":[9.1743487E-4,-6.666666E-2,2.6813883E-2,-8.181818E-2,4.0909094E-3,-9.004735E-3,4.906542E-3,-4.7368415E-2,-2.7499998E-1,-3.2947972E-2,4.74359E-3,1.3513517E-2,-8.6440675E-2,-3.9999998E-1,3.0000003E-3,-7.8947365E-2,2.151899E-2,3.0000003E-3,-7.5E-3,-7.5E-3,2E-3,2.5000002E-3,-2.8333334E-2,7.6923094E-4,-5.7142857E-3,3.5714288E-3,-1.5789472E-3],"categories":[],"categories_nodes":[],"categories_segments":[],"categories_sizes":[],"default_left":[0,0,0,0,0,0,0,0,0,0,0,0,0,0,0,0,0,0,0,0,0,0,0,0,0,0,0],"id":29,"left_children":[1,3,5,7,-1,9,-1,11,13,15,-1,17,19,21,-1,23,25,-1,-1,-1,-1,-1,-1,-1,-1,-1,-1],"loss_changes":[7.608843E-1,2.766667E-1,8.195648E-1,6.867942E-1,0E0,5.217201E-1,0E0,2.344463E-1,7.2800004E-1,4.4088408E-1,0E0,2.8124323E-1,4.9115252E-1,9.799999E-1,0E0,3.283342E-1,2.1559817E-1,0E0,0E0,0E0,0E0,0E0,0E0,0E0,0E0,0E0,0E0],"parents":[2147483647,0,0,1,1,2,2,3,3,5,5,7,7,8,8,9,9,11,11,12,12,13,13,15,15,16,16],"right_children":[2,4,6,8,-1,10,-1,12,14,16,-1,18,20,22,-1,24,26,-1,-1,-1,-1,-1,-1,-1,-1,-1,-1],"split_conditions":[6.6E1,1.219E2,1.178E2,2.324E1,2.166282E-1,7.03E1,1.7663132E-1,9.65E1,3.643E1,9.83E1,2.1394761E-1,9.93E1,9.93E1,1.147E2,7.773804E-1,1.559E1,9.8E1,8.876801E-3,-9.275055E-2,-9.60083E-2,4.060364E-3,4.864502E-2,-3.261719E-2,9.175146E-4,-1.5460968E-2,6.707718E-2,-2.2746429E-2],"split_indices":[6,3,3,0,0,6,0,5,0,4,0,4,4,3,0,1,5,0,0,0,0,0,0,0,0,0,0],"split_type":[0,0,0,0,0,0,0,0,0,0,0,0,0,0,0,0,0,0,0,0,0,0,0,0,0,0,0],"sum_hessian":[4.35E2,1.19E2,3.16E2,1.09E2,1E1,2.1E2,1.06E2,9.4E1,1.5E1,1.72E2,3.8E1,3.6E1,5.8E1,1.1E1,4E0,9.4E1,7.8E1,2.9E1,7E0,3.9E1,1.9E1,3E0,8E0,2.5E1,6.9E1,4.1E1,3.7E1],"tree_param":{"num_deleted":"0","num_feature":"8","num_nodes":"27","size_leaf_vector":"1"}},{"base_weights":[5.7208273E-3,-3.2841325E-2,6.8862274E-2,-8.3823524E-2,1.7647061E-2,3.2467537E-2,4.89011E-3,-2.4615383E-1,-4.414414E-2,-2.1621617E-2,6.507937E-2,-3.1578943E-2,4.75E-3,-7.647058E-2,-5E-1,-0E0,-1.1428571E-1,8.823533E-3,-1.6428571E-2,-3.3333328E-2,4.7959187E-3,-9.9999994E-2,4.2857146E-3,-2E-2,7.142859E-4,-3.785714E-2,2.5000002E-3,-1.8627448E-3,4.5000003E-3,-1.6666664E-3,-1.4230768E-2,-7.5E-3,1.5573772E-3,4.0909094E-3,-1.5E-2,-0E0,-2E-2],"categories":[],"categories_nodes":[],"categories_segments":[],"categories_sizes":[],"default_left":[0,0,0,0,0,0,0,0,0,0,0,0,0,0,0,0,0,0,0,0,0,0,0,0,0,0,0,0,0,0,0,0,0,0,0,0,0],"id":30,"left_children":[1,3,5,7,9,11,-1,13,15,17,19,21,-1,23,25,27,29,31,-1,33,-1,35,-1,-1,-1,-1,-1,-1,-1,-1,-1,-1,-1,-1,-1,-1,-1],"loss_changes":[1.0699018E0,7.056533E-1,1.5969211E-1,8.3610255E-1,2.5906703E-1,3.177259E-1,0E0,1.0240271E0,3.3226508E-1,7.264138E-1,2.0065758E-1,3.149624E-1,0E0,5.4344535E-1,1.5228574E0,2.327843E-1,5.378388E-1,2.3388618E-1,0E0,5.069697E-1,0E0,7.1000004E-1,0E0,0E0,0E0,0E0,0E0,0E0,0E0,0E0,0E0,0E0,0E0,0E0,0E0,0E0,0E0],"parents":[2147483647,0,0,1,1,2,2,3,3,4,4,5,5,7,7,8,8,9,9,10,10,11,11,13,13,14,14,15,15,16,16,17,17,19,19,21,21],"right_children":[2,4,6,8,10,12,-1,14,16,18,20,22,-1,24,26,28,30,32,-1,34,-1,36,-1,-1,-1,-1,-1,-1,-1,-1,-1,-1,-1,-1,-1,-1,-1],"split_conditions":[1.182E2,6.74E1,6.74E1,1.59E1,9.87E1,1.191E2,2.2814529E-1,1.539E1,1.794E1,9.81E1,6.59E1,2.661E1,2.660904E-1,1.081E2,1.149E2,9.94E1,9.93E1,9.2E1,-9.1207884E-2,6.58E1,1.2793694E-1,2.432E1,5.4029237E-2,-6.215973E-2,-1.3336484E-2,-1.5961304E-1,8.6126786E-1,-4.4392012E-2,4.1584015E-2,-1.4688111E-2,-5.0086897E-2,-5.487747E-2,1.1970217E-2,3.3372726E-2,-4.105301E-2,-9.487915E-3,-3.0986024E-2],"split_indices":[2,7,6,0,5,3,0,0,0,5,6,0,0,3,3,5,5,5,0,6,0,0,0,0,0,0,0,0,0,0,0,0,0,0,0,0,0],"split_type":[0,0,0,0,0,0,0,0,0,0,0,0,0,0,0,0,0,0,0,0,0,0,0,0,0,0,0,0,0,0,0,0,0,0,0,0,0],"sum_hessian":[4.36E2,2.7E2,1.66E2,1.35E2,1.35E2,7.6E1,9E1,2.5E1,1.1E2,7.3E1,6.2E1,3.7E1,3.9E1,1.6E1,9E0,6.9E1,4.1E1,6.7E1,6E0,1.4E1,4.8E1,2.4E1,1.3E1,3E0,1.3E1,6E0,3E0,5E1,1.9E1,2.9E1,1.2E1,7E0,6E1,1E1,4E0,1.9E1,5E0],"tree_param":{"num_deleted":"0","num_feature":"8","num_nodes":"37","size_leaf_vector":"1"}},{"base_weights":[8.843541E-3,-8.518518E-2,2.2164952E-2,-1.6428571E-2,-4.5833327E-2,7.0769265E-3,4.8437505E-3,5E-2,-1.3999999E-1,-1.1111107E-2,4.0769232E-3,-7.5E-3,4.5238095E-3,-2E-2,-1.1111107E-2,-3.636363E-2,3.9534885E-2,-7.5E-3,4.0909094E-3,-0E0,-4.210526E-3,-2.1428568E-3,3.983051E-3],"categories":[],"categories_nodes":[],"categories_segments":[],"categories_sizes":[],"default_left":[0,0,0,0,0,0,0,0,0,0,0,0,0,0,0,0,0,0,0,0,0,0,0],"id":31,"left_children":[1,3,5,-1,7,9,-1,11,13,15,-1,-1,-1,-1,17,19,21,-1,-1,-1,-1,-1,-1],"loss_changes":[5.479806E-1,4.6469572E-1,4.2628336E-1,0E0,4.4916663E-1,4.4809917E-1,0E0,2.0190477E-1,7.922222E-1,3.3492362E-1,0E0,0E0,0E0,0E0,2.5141412E-1,3.0622005E-1,2.914167E-1,0E0,0E0,0E0,0E0,0E0,0E0],"parents":[2147483647,0,0,1,1,2,2,4,4,5,5,7,7,8,8,9,9,14,14,15,15,16,16],"right_children":[2,4,6,-1,8,10,-1,12,14,16,-1,-1,-1,-1,18,20,22,-1,-1,-1,-1,-1,-1],"split_conditions":[6.45E1,1.59E1,7.01E1,-2.2422028E-1,1.78E1,6.97E1,1.7912231E-1,6.16E1,1.168E2,1.175E2,2.1298027E-1,-3.277378E-1,1.5302964E-2,-2.4993859E-1,2.033E1,1.703E1,6.59E1,-3.4465026E-2,6.390686E-2,-1.8541709E-3,-2.7459105E-2,-1.0908813E-2,2.9541627E-2],"split_indices":[7,0,6,0,0,7,0,6,2,3,0,0,0,0,1,1,6,0,0,0,0,0,0],"split_type":[0,0,0,0,0,0,0,0,0,0,0,0,0,0,0,0,0,0,0,0,0,0,0],"sum_hessian":[4.4E2,5.3E1,3.87E2,6E0,4.7E1,3.24E2,6.3E1,2.3E1,2.4E1,2.6E2,6.4E1,3E0,2E1,7E0,1.7E1,1.75E2,8.5E1,7E0,1E1,1E2,7.5E1,2.7E1,5.8E1],"tree_param":{"num_deleted":"0","num_feature":"8","num_nodes":"23","size_leaf_vector":"1"}},{"base_weights":[6.8965886E-4,-3.8888883E-2,5.5434786E-2,-8.045112E-2,6.66667E-3,-8.181818E-2,6.4367816E-2,-2.3333332E-1,-6.393442E-2,2.4074078E-2,-1.3076922E-1,-2E-2,3.7500001E-3,3.4736846E-2,4.875E-3,3.3333336E-3,-4.7142854E-1,1.5789477E-2,-9.9999994E-2,4.5833334E-2,-1.3076922E-1,-1.6428571E-2,3.5714288E-3,5.4347828E-2,-2E-2,-7.5E-3,-3.25E-2,-3.8235292E-3,4.545455E-3,-1.1666666E-2,-3.7837836E-3,6.6666683E-4,4.72973E-3,3.5714288E-3,-1.6428571E-2,9.615386E-4,4.7560977E-3],"categories":[],"categories_nodes":[],"categories_segments":[],"categories_sizes":[],"default_left":[0,0,0,0,0,0,0,0,0,0,0,0,0,0,0,0,0,0,0,0,0,0,0,0,0,0,0,0,0,0,0,0,0,0,0,0,0],"id":32,"left_children":[1,3,5,7,9,11,13,15,17,19,21,-1,-1,23,-1,-1,25,27,29,31,33,-1,-1,35,-1,-1,-1,-1,-1,-1,-1,-1,-1,-1,-1,-1,-1],"loss_changes":[9.4633895E-1,4.8504925E-1,2.2912115E-1,2.9119474E-1,2.7956694E-1,6.1136365E-1,1.54212E-1,9.2904764E-1,3.6078516E-1,3.6138177E-1,5.691208E-1,0E0,0E0,7.971075E-1,0E0,0E0,2.2428572E-1,2.7175626E-1,2.2711706E-1,1.4008106E-1,5.691208E-1,0E0,0E0,1.1846724E-1,0E0,0E0,0E0,0E0,0E0,0E0,0E0,0E0,0E0,0E0,0E0,0E0,0E0],"parents":[2147483647,0,0,1,1,2,2,3,3,4,4,5,5,6,6,7,7,8,8,9,9,10,10,13,13,16,16,17,17,18,18,19,19,20,20,23,23],"right_children":[2,4,6,8,10,12,14,16,18,20,22,-1,-1,24,-1,-1,26,28,30,32,34,-1,-1,36,-1,-1,-1,-1,-1,-1,-1,-1,-1,-1,-1,-1,-1],"split_conditions":[1.169E2,1.162E2,9.02E1,1.09E2,1.165E2,9.35E1,2.345E1,1.122E2,1.125E2,1.209E2,1.209E2,-1.79451E-2,1.8633881E-1,2.324E1,3.054535E-1,3.1404725E-1,1.066E2,9.46E1,6.49E1,1.182E2,2.422E1,-2.4964904E-2,2.4244384E-1,1.005E2,-2.3001099E-2,-4.784012E-2,-2.3744164E-1,-1.7137332E-1,5.3440552E-2,-1.8335022E-1,-3.3365935E-2,3.0639651E-3,9.993187E-2,4.1524202E-1,-3.2741547E-2,2.363282E-3,6.238022E-2],"split_indices":[3,2,4,3,3,5,0,2,3,2,2,0,0,0,0,0,3,5,7,2,0,0,0,5,0,0,0,0,0,0,0,0,0,0,0,0,0],"split_type":[0,0,0,0,0,0,0,0,0,0,0,0,0,0,0,0,0,0,0,0,0,0,0,0,0,0,0,0,0,0,0,0,0,0,0,0,0],"sum_hessian":[4.34E2,2.51E2,1.83E2,1.32E2,1.19E2,1E1,1.73E2,1.1E1,1.21E2,1.07E2,1.2E1,3E0,7E0,9.4E1,7.9E1,5E0,6E0,3.7E1,8.4E1,9.5E1,1.2E1,6E0,6E0,9.1E1,3E0,3E0,3E0,1.6E1,2.1E1,1.1E1,7.3E1,5.9E1,3.6E1,6E0,6E0,5.1E1,4E1],"tree_param":{"num_deleted":"0","num_feature":"8","num_nodes":"37","size_leaf_vector":"1"}},{"base_weights":[-4.5454507E-3,-8.446601E-2,1.952663E-2,-1.7777777E-1,-3.2352936E-2,1.8726628E-3,4.166667E-3,-3.705882E-1,-0E0,2.6923078E-3,-8.604651E-2,1.0769234E-2,-2.7499998E-1,-1.4999999E-1,-3.6666665E-2,-1.413793E-1,2.0000003E-2,-4.9999997E-2,4.9068324E-2,-2.5E-2,2.5000002E-3,-2E-2,-5.5555534E-4,3.0000003E-3,-9E-3,4.166667E-3,-7.5E-3,4.0909094E-3,-3.3333332E-3,9.803923E-4,4.8333337E-3],"categories":[],"categories_nodes":[],"categories_segments":[],"categories_sizes":[],"default_left":[0,0,0,0,0,0,0,0,0,0,0,0,0,0,0,0,0,0,0,0,0,0,0,0,0,0,0,0,0,0,0],"id":33,"left_children":[1,3,5,7,9,11,-1,13,-1,-1,15,17,19,21,-1,23,25,27,29,-1,-1,-1,-1,-1,-1,-1,-1,-1,-1,-1,-1],"loss_changes":[8.546391E-1,4.7409987E-1,3.7206054E-1,1.1969281E0,3.2258022E-1,6.342175E-1,0E0,1.1619606E0,0E0,0E0,2.6728302E-1,6.074859E-1,6.549999E-1,3.711111E-1,0E0,2.4834484E-1,1.6733332E-1,2.2363636E-1,2.1224257E-1,0E0,0E0,0E0,0E0,0E0,0E0,0E0,0E0,0E0,0E0,0E0,0E0],"parents":[2147483647,0,0,1,1,2,2,3,3,4,4,5,5,7,7,10,10,11,11,12,12,13,13,15,15,16,16,17,17,18,18],"right_children":[2,4,6,8,10,12,-1,14,-1,-1,16,18,20,22,-1,24,26,28,30,-1,-1,-1,-1,-1,-1,-1,-1,-1,-1,-1,-1],"split_conditions":[1.135E2,1.59E1,1.216E2,6.7E1,1.637E1,2.661E1,2.3201981E-1,1.553E1,-1.2386319E-2,4.3177796E-3,1.168E2,6.72E1,1.199E2,6.4E1,-1.5421143E-1,9.11E1,1.192E2,9.21E1,1.996E1,-1.7047882E-2,6.961609E-1,-4.5448303E-2,-1.907196E-2,2.1915436E-2,-1.5619107E-1,2.2642517E-2,-1.0375977E-4,3.4733053E-2,-2.1851348E-2,1.1544342E-2,2.046074E-1],"split_indices":[3,0,2,7,1,1,0,0,0,0,2,7,3,7,0,4,2,4,1,0,0,0,0,0,0,0,0,0,0,0,0],"split_type":[0,0,0,0,0,0,0,0,0,0,0,0,0,0,0,0,0,0,0,0,0,0,0,0,0,0,0,0,0,0,0],"sum_hessian":[4.39E2,1.02E2,3.37E2,3.5E1,6.7E1,2.66E2,7.1E1,1.6E1,1.9E1,2.5E1,4.2E1,2.59E2,7E0,1.1E1,5E0,2.8E1,1.4E1,9.9E1,1.6E2,4E0,3E0,3E0,8E0,4E0,2.4E1,1.1E1,3E0,1E1,8.9E1,1.01E2,5.9E1],"tree_param":{"num_deleted":"0","num_feature":"8","num_nodes":"31","size_leaf_vector":"1"}},{"base_weights":[1.1004788E-2,-4.20765E-2,5.2542374E-2,-1.9629629E-1,-1.4649677E-2,-2.8205125E-2,6.868687E-2,-3.4444442E-1,4E-3,-3.5338342E-2,4.6E-3,-1.17391296E-1,4.411765E-3,2.1212125E-2,4.5488724E-3,-5E-3,-3.9999998E-1,3.1147543E-2,-9.178082E-2,3.0000003E-3,-1.6315788E-1,5.8490567E-2,-1.1428571E-1,-2.625E-2,-9.285714E-3,2.8000001E-3,-3.3333332E-3,-7.2807013E-3,4.411765E-3,-1.6428571E-2,-2.6923076E-3,-4.090909E-3,4.7674417E-3,3.5714288E-3,-1.3749999E-2],"categories":[],"categories_nodes":[],"categories_segments":[],"categories_sizes":[],"default_left":[0,0,0,0,0,0,0,0,0,0,0,0,0,0,0,0,0,0,0,0,0,0,0,0,0,0,0,0,0,0,0,0,0,0,0],"id":34,"left_children":[1,3,5,7,9,11,13,15,-1,17,-1,19,-1,21,-1,-1,23,25,27,-1,29,31,33,-1,-1,-1,-1,-1,-1,-1,-1,-1,-1,-1,-1],"loss_changes":[9.2489237E-1,7.500756E-1,3.1364167E-1,1.159185E0,3.4399596E-1,4.1828382E-1,1.9638258E-1,1.5444446E-1,0E0,5.080216E-1,0E0,2.0683292E-1,0E0,3.344809E-1,0E0,0E0,2.0642853E-1,1.5095301E-1,7.2601783E-1,0E0,2.8761715E-1,2.8324586E-1,4.578571E-1,0E0,0E0,0E0,0E0,0E0,0E0,0E0,0E0,0E0,0E0,0E0,0E0],"parents":[2147483647,0,0,1,1,2,2,3,3,4,4,5,5,6,6,7,7,9,9,11,11,13,13,16,16,17,17,18,18,20,20,21,21,22,22],"right_children":[2,4,6,8,10,12,14,16,-1,18,-1,20,-1,22,-1,-1,24,26,28,-1,30,32,34,-1,-1,-1,-1,-1,-1,-1,-1,-1,-1,-1,-1],"split_conditions":[6.73E1,1.59E1,6.56E1,6.85E1,1.219E2,6.94E1,1.157E2,1.464E1,5.1779177E-2,1.703E1,1.6100655E-1,6.78E1,1.24831395E-2,1.795E1,1.1451387E-1,-1.8118287E-2,6.49E1,6.67E1,6.93E1,3.061119E-1,1.943E1,6.77E1,6.86E1,-2.0274964E-1,-9.735794E-2,1.7435456E-2,-1.9545441E-2,-2.3534698E-2,5.733765E-2,-1.1014404E-1,-3.147774E-2,-3.592903E-2,2.7357409E-2,8.2286835E-2,-6.301117E-3],"split_indices":[7,0,6,6,2,7,2,0,0,1,0,7,0,1,0,0,7,7,6,0,1,7,7,0,0,0,0,0,0,0,0,0,0,0,0],"split_type":[0,0,0,0,0,0,0,0,0,0,0,0,0,0,0,0,0,0,0,0,0,0,0,0,0,0,0,0,0,0,0,0,0,0,0],"sum_hessian":[4.17E2,1.82E2,2.35E2,2.6E1,1.56E2,3.8E1,1.97E2,1.7E1,9E0,1.32E2,2.4E1,2.2E1,1.6E1,6.5E1,1.32E2,4E0,1.3E1,6E1,7.2E1,4E0,1.8E1,5.2E1,1.3E1,7E0,6E0,4.9E1,1.1E1,5.6E1,1.6E1,6E0,1.2E1,1E1,4.2E1,6E0,7E0],"tree_param":{"num_deleted":"0","num_feature":"8","num_nodes":"35","size_leaf_vector":"1"}},{"base_weights":[3.1390171E-3,-1.3076922E-1,2.1012662E-2,-2.6E-1,-7.1428535E-3,1.7421639E-3,7.06422E-2,-7.647058E-2,-5.6666666E-1,-6.666666E-2,4.0909094E-3,-3.2450326E-2,4.014599E-2,-6.666666E-2,4.3877554E-3,-2E-2,1.4285717E-2,-3.6666665E-2,-7.5E-3,-1.3076922E-1,3.3333336E-3,4.6511665E-3,-8.181818E-2,-5.384615E-2,7.777778E-2,3.3333336E-3,-9.285714E-3,-7.5E-3,4.0909094E-3,-1E-2,2.5000002E-3,1.2195123E-3,-1.5E-2,2E-3,-6.7021274E-3,-5.7142857E-3,4.166667E-3,4.8795184E-3,-8.823527E-4],"categories":[],"categories_nodes":[],"categories_segments":[],"categories_sizes":[],"default_left":[0,0,0,0,0,0,0,0,0,0,0,0,0,0,0,0,0,0,0,0,0,0,0,0,0,0,0,0,0,0,0,0,0,0,0,0,0,0,0],"id":35,"left_children":[1,3,5,7,9,11,13,15,17,19,-1,21,23,25,-1,-1,27,-1,-1,29,-1,31,33,35,37,-1,-1,-1,-1,-1,-1,-1,-1,-1,-1,-1,-1,-1,-1],"loss_changes":[1.0592412E0,8.0219775E-1,3.7041098E-1,1.2994118E0,1.5220778E-1,3.7893844E-1,2.640822E-1,5.4344535E-1,4.266665E-1,1.6897434E-1,0E0,2.8467202E-1,4.911629E-1,2.1476187E-1,0E0,0E0,1.6077921E-1,0E0,0E0,1.876923E-1,0E0,4.9692E-1,4.3464988E-1,3.359707E-1,1.9688714E-1,0E0,0E0,0E0,0E0,0E0,0E0,0E0,0E0,0E0,0E0,0E0,0E0,0E0,0E0],"parents":[2147483647,0,0,1,1,2,2,3,3,4,4,5,5,6,6,7,7,8,8,9,9,11,11,12,12,13,13,16,16,19,19,21,21,22,22,23,23,24,24],"right_children":[2,4,6,8,10,12,14,16,18,20,-1,22,24,26,-1,-1,28,-1,-1,30,-1,32,34,36,38,-1,-1,-1,-1,-1,-1,-1,-1,-1,-1,-1,-1,-1,-1],"split_conditions":[1.59E1,6.74E1,1.191E2,1.553E1,1.485E1,9.73E1,6.47E1,1.081E2,1.519E1,1.13E2,9.098115E-2,9.52E1,6.61E1,9.32E1,2.4230348E-1,-3.303833E-2,6.48E1,-1.3636398E-1,-8.496704E-2,1.029E2,1.05285645E-1,7.03E1,1.136E2,1.004E2,1.941E1,1.1439514E-2,-8.75473E-3,-1.9261245E-1,5.3005982E-2,-3.7752535E-2,4.1527405E-1,8.738711E-3,-2.0750428E-2,9.82895E-3,-3.0280685E-2,-3.7712704E-2,3.3821873E-2,1.0878799E-1,-1.3495713E-2],"split_indices":[0,7,3,0,1,4,7,3,1,3,0,4,7,4,0,0,7,0,0,4,0,7,3,4,1,0,0,0,0,0,0,0,0,0,0,0,0,0,0],"split_type":[0,0,0,0,0,0,0,0,0,0,0,0,0,0,0,0,0,0,0,0,0,0,0,0,0,0,0,0,0,0,0,0,0,0,0,0,0,0,0],"sum_hessian":[4.45E2,5.1E1,3.94E2,2.4E1,2.7E1,2.86E2,1.08E2,1.6E1,8E0,1.7E1,1E1,1.5E2,1.36E2,1.1E1,9.7E1,3E0,1.3E1,5E0,3E0,1.2E1,5E0,8.5E1,6.5E1,3.8E1,9.8E1,5E0,6E0,3E0,1E1,9E0,3E0,8.1E1,4E0,1.9E1,4.6E1,2.7E1,1.1E1,8.2E1,1.6E1],"tree_param":{"num_deleted":"0","num_feature":"8","num_nodes":"39","size_leaf_vector":"1"}},{"base_weights":[-3.686632E-3,-3.915857E-2,8.2539685E-2,-1.1052631E-1,2.04082E-3,-5.263154E-3,4.907408E-3,-2.548387E-1,-5.47619E-2,-1.8749995E-2,4.72973E-3,4.2857146E-3,-1.1666666E-2,-3.3999997E-1,3.5714288E-3,-2.9999998E-1,-1.9999996E-2,-8.280251E-3,-2E-2,-2E-2,-3.3333332E-3,-5E-3,-2E-2,1.3157896E-3,-8.157894E-3,2.9245284E-3,-2.1428568E-3],"categories":[],"categories_nodes":[],"categories_segments":[],"categories_sizes":[],"default_left":[0,0,0,0,0,0,0,0,0,0,0,0,0,0,0,0,0,0,0,0,0,0,0,0,0,0,0],"id":36,"left_children":[1,3,5,7,9,11,-1,13,15,17,-1,-1,-1,19,-1,21,23,25,-1,-1,-1,-1,-1,-1,-1,-1,-1],"loss_changes":[1.3263328E0,9.196291E-1,1.8248391E-1,8.724991E-1,3.8651475E-1,4.2899746E-1,0E0,9.124882E-1,6.7809516E-1,5.945143E-1,0E0,0E0,0E0,3.3666682E-1,0E0,1.10000074E-1,5.1526314E-1,3.6341354E-1,0E0,0E0,0E0,0E0,0E0,0E0,0E0,0E0,0E0],"parents":[2147483647,0,0,1,1,2,2,3,3,4,4,5,5,7,7,8,8,9,9,13,13,15,15,16,16,17,17],"right_children":[2,4,6,8,10,12,-1,14,16,18,-1,-1,-1,20,-1,22,24,26,-1,-1,-1,-1,-1,-1,-1,-1,-1],"split_conditions":[6.91E1,1.146E2,1.126E2,1.59E1,1.216E2,1.641E1,1.0698532E-1,6.87E1,6.37E1,1.213E2,3.31065E-1,6.0610812E-2,-1.9874573E-3,6.85E1,1.2886505E-1,1.623E1,1.819E1,1.703E1,-3.1697847E-2,-8.5672E-2,-3.586502E-2,-8.0393985E-2,-2.962818E-1,6.5757E-3,-7.305451E-2,4.9401857E-3,-5.8429716E-3],"split_indices":[6,3,3,0,3,1,0,7,6,3,0,0,0,6,0,1,1,1,0,0,0,0,0,0,0,0,0],"split_type":[0,0,0,0,0,0,0,0,0,0,0,0,0,0,0,0,0,0,0,0,0,0,0,0,0,0,0],"sum_hessian":[4.33E2,3.08E2,1.25E2,1.13E2,1.95E2,1.8E1,1.07E2,3E1,8.3E1,1.59E2,3.6E1,1.3E1,5E0,2.4E1,6E0,9E0,7.4E1,1.56E2,3E0,1.9E1,5E0,4E0,5E0,5.6E1,1.8E1,5.2E1,1.04E2],"tree_param":{"num_deleted":"0","num_feature":"8","num_nodes":"27","size_leaf_vector":"1"}},{"base_weights":[4.4083563E-3,-3.77551E-2,3.983051E-2,-3.4444442E-1,-2.234042E-2,-1.7272727E-1,5.044248E-2,-3.25E-2,-3.3333332E-3,4.3478296E-3,-9.6078426E-2,3.5714288E-3,-2.5E-2,-7.692304E-3,3.7037039E-3,-1.22222215E-1,2.3966946E-2,-0E0,-2.181818E-1,-4.2857137E-2,4.411765E-3,1.5522043E-10,-1.6428571E-2,-2.3529408E-3,2.6136364E-3,-1.5E-2,2.6923078E-3,-1.5588234E-2,3.3333336E-3,-5.5555534E-4,-1.5E-2],"categories":[],"categories_nodes":[],"categories_segments":[],"categories_sizes":[],"default_left":[0,0,0,0,0,0,0,0,0,0,0,0,0,0,0,0,0,0,0,0,0,0,0,0,0,0,0,0,0,0,0],"id":37,"left_children":[1,3,5,7,9,11,13,-1,-1,15,17,-1,-1,19,-1,21,23,25,27,29,-1,-1,-1,-1,-1,-1,-1,-1,-1,-1,-1],"loss_changes":[6.4541864E-1,8.822198E-1,5.288192E-1,6.488888E-1,3.7956318E-1,9.575324E-1,3.1769085E-1,0E0,0E0,3.3578432E-1,5.7648844E-1,0E0,0E0,2.1850677E-1,0E0,4.8682538E-1,2.4624452E-1,5.253846E-1,6.3174677E-1,3.6555552E-1,0E0,0E0,0E0,0E0,0E0,0E0,0E0,0E0,0E0,0E0,0E0],"parents":[2147483647,0,0,1,1,2,2,3,3,4,4,5,5,6,6,9,9,10,10,13,13,15,15,16,16,17,17,18,18,19,19],"right_children":[2,4,6,8,10,12,14,-1,-1,16,18,-1,-1,20,-1,22,24,26,28,30,-1,-1,-1,-1,-1,-1,-1,-1,-1,-1,-1],"split_conditions":[6.73E1,1.11E2,9.02E1,1.519E1,9.93E1,2.661E1,1.145E2,-1.252617E-1,-7.643509E-2,1.512E1,1.703E1,1.3969651E-1,-2.6445007E-2,6.98E1,5.963959E-2,1.489E1,6.49E1,1.15E2,1.185E2,1.143E2,3.1258217E-1,-1.2980193E-2,-3.354111E-2,-2.7950136E-2,4.1398626E-2,-1.8322907E-1,3.2872166E-2,-3.800186E-2,7.0359804E-2,-1.5895844E-3,-7.6374054E-2],"split_indices":[7,2,4,1,5,1,3,0,0,1,1,0,0,7,0,1,7,3,2,3,0,0,0,0,0,0,0,0,0,0,0],"split_type":[0,0,0,0,0,0,0,0,0,0,0,0,0,0,0,0,0,0,0,0,0,0,0,0,0,0,0,0,0,0,0],"sum_hessian":[4.3E2,1.95E2,2.35E2,8E0,1.87E2,1E1,2.25E2,3E0,5E0,1.37E2,5E1,6E0,4E0,6.4E1,1.61E2,1.7E1,1.2E2,2.9E1,2.1E1,4.8E1,1.6E1,1.1E1,6E0,3.3E1,8.7E1,4E0,2.5E1,1.6E1,5E0,4.4E1,4E0],"tree_param":{"num_deleted":"0","num_feature":"8","num_nodes":"31","size_leaf_vector":"1"}},{"base_weights":[-1.0854499E-2,-4.333333E-2,6.1194032E-2,-7.021276E-2,5.1515155E-2,1.886796E-3,4.8780493E-3,-2.9999998E-1,-5.929203E-2,-7.647058E-2,4.8E-3,-2.8205125E-2,4.3333336E-3,-2E-2,-5E-3,3.1914897E-2,-8.333333E-2,-1.5E-2,7.6923105E-3,-6.666666E-2,4E-3,-4.3749996E-3,4.6875E-3,-1.0384615E-2,-3.0645158E-3,3.888889E-3,-5E-3,1.6933138E-10,-1.1666666E-2],"categories":[],"categories_nodes":[],"categories_segments":[],"categories_sizes":[],"default_left":[0,0,0,0,0,0,0,0,0,0,0,0,0,0,0,0,0,0,0,0,0,0,0,0,0,0,0,0,0],"id":38,"left_children":[1,3,5,7,9,11,-1,13,15,17,-1,19,-1,-1,-1,21,23,-1,25,27,-1,-1,-1,-1,-1,-1,-1,-1,-1],"loss_changes":[1.0141082E0,7.7032894E-1,2.7888542E-1,5.360025E-1,3.8506025E-1,1.4350364E-1,0E0,1.10000074E-1,5.033591E-1,3.5135743E-1,0E0,1.6630767E-1,0E0,0E0,0E0,3.5587764E-1,4.537965E-1,0E0,1.0367522E-1,3.5666668E-1,0E0,0E0,0E0,0E0,0E0,0E0,0E0,0E0,0E0],"parents":[2147483647,0,0,1,1,2,2,3,3,4,4,5,5,7,7,8,8,9,9,11,11,15,15,16,16,18,18,19,19],"right_children":[2,4,6,8,10,12,-1,14,16,18,-1,20,-1,-1,-1,22,24,-1,26,28,-1,-1,-1,-1,-1,-1,-1,-1,-1],"split_conditions":[6.91E1,1.192E2,1.15E2,1.09E2,6.51E1,7.03E1,8.1447E-2,1.519E1,1.126E2,2.033E1,1.9238816E-1,1.78E1,3.1596908E-1,-3.3992767E-2,-2.1600609E-1,6.58E1,1.135E2,-2.8213501E-2,2.657E1,1.718E1,1.5480052E-3,-1.8342727E-1,4.6987154E-2,-6.121567E-2,-8.992386E-3,2.4337768E-4,-2.5122834E-2,2.9362494E-2,-5.4508973E-2],"split_indices":[6,3,2,3,6,6,0,0,3,1,0,1,0,0,0,6,3,0,1,1,0,0,0,0,0,0,0,0,0],"split_type":[0,0,0,0,0,0,0,0,0,0,0,0,0,0,0,0,0,0,0,0,0,0,0,0,0,0,0,0,0],"sum_hessian":[4.32E2,2.99E2,1.33E2,2.34E2,6.5E1,5.2E1,8.1E1,9E0,2.25E2,1.6E1,4.9E1,3.8E1,1.4E1,5E0,4E0,4.6E1,1.79E2,4E0,1.2E1,2.9E1,9E0,1.5E1,3.1E1,2.5E1,1.54E2,8E0,4E0,2.1E1,8E0],"tree_param":{"num_deleted":"0","num_feature":"8","num_nodes":"29","size_leaf_vector":"1"}},{"base_weights":[1.9512231E-3,-8.918919E-2,2.2255195E-2,-2.181818E-1,-3.207547E-2,8.391612E-3,4.8076925E-3,3.3333336E-3,-3.117647E-1,3.714286E-2,-1.6315788E-1,3.7423316E-2,-2.9032255E-2,-3.5E-2,-1.3076922E-1,-7.5E-3,3.125E-3,-2.8461537E-1,3.5714288E-3,5.602837E-2,-7.391304E-2,-8.333329E-3,-2.5E-2,-1.3749999E-2,3.3333336E-3,-5E-3,-3.25E-2,-0E0,3.9108912E-3,-1.6428571E-2,1.4705884E-3,-1.3749999E-2,4.8672585E-4],"categories":[],"categories_nodes":[],"categories_segments":[],"categories_sizes":[],"default_left":[0,0,0,0,0,0,0,0,0,0,0,0,0,0,0,0,0,0,0,0,0,0,0,0,0,0,0,0,0,0,0,0,0],"id":39,"left_children":[1,3,5,7,9,11,-1,-1,13,15,17,19,21,-1,23,-1,-1,25,-1,27,29,31,-1,-1,-1,-1,-1,-1,-1,-1,-1,-1,-1],"loss_changes":[7.5400156E-1,5.1315236E-1,3.339951E-1,6.3174677E-1,4.9954683E-1,3.1265846E-1,0E0,0E0,1.0199547E0,1.6671428E-1,5.8300173E-1,3.3999404E-1,1.153817E0,0E0,4.0935892E-1,0E0,0E0,7.369231E-1,0E0,1.7529666E-1,6.44768E-1,6.073746E-1,0E0,0E0,0E0,0E0,0E0,0E0,0E0,0E0,0E0,0E0,0E0],"parents":[2147483647,0,0,1,1,2,2,3,3,4,4,5,5,8,8,9,9,10,10,11,11,12,12,14,14,17,17,19,19,20,20,21,21],"right_children":[2,4,6,8,10,12,-1,-1,14,16,18,20,22,-1,24,-1,-1,26,-1,28,30,32,-1,-1,-1,-1,-1,-1,-1,-1,-1,-1,-1],"split_conditions":[6.49E1,1.647E1,1.216E2,1.485E1,2.101E1,9.81E1,3.2230347E-1,2.8360749E-2,9.7E1,1.09E2,2.619E1,2.432E1,2.322E1,-7.4962616E-2,1.574E1,-2.0520592E-1,2.0041505E-2,2.443E1,2.40477E-1,1.143E2,6.89E1,1.132E2,-2.6802827E-2,-1.7361832E-1,3.299492E-1,-2.1559907E-2,-6.946106E-2,-1.844711E-3,1.1426934E-1,-2.3867035E-2,1.8333107E-1,-2.8803254E-2,7.200625E-4],"split_indices":[7,0,3,0,0,5,0,0,5,3,0,1,0,0,0,0,0,0,0,2,7,3,0,0,0,0,0,0,0,0,0,0,0],"split_type":[0,0,0,0,0,0,0,0,0,0,0,0,0,0,0,0,0,0,0,0,0,0,0,0,0,0,0,0,0,0,0,0,0],"sum_hessian":[4.09E2,7.3E1,3.36E2,2.1E1,5.2E1,2.85E2,5.1E1,5E0,1.6E1,3.4E1,1.8E1,1.62E2,1.23E2,4E0,1.2E1,3E0,3.1E1,1.2E1,6E0,1.4E2,2.2E1,1.19E2,4E0,7E0,5E0,9E0,3E0,4E1,1E2,6E0,1.6E1,7E0,1.12E2],"tree_param":{"num_deleted":"0","num_feature":"8","num_nodes":"33","size_leaf_vector":"1"}},{"base_weights":[-1.421911E-2,-4.7058817E-2,6.6129036E-2,-7.6229505E-2,6.507937E-2,3.4375004E-2,4.8360657E-3,-2.9999998E-1,-6.595744E-2,-7.5E-3,4E-3,7.1428575E-2,-3.0434778E-2,-5E-3,-2E-2,-8.686868E-2,4.2105265E-2,4.736842E-3,-5E-3,-2E-2,4.0000003E-2,-5.0543477E-3,4.3333336E-3,4.69697E-3,-1.1666666E-2,-7.5E-3,4.411765E-3],"categories":[],"categories_nodes":[],"categories_segments":[],"categories_sizes":[],"default_left":[0,0,0,0,0,0,0,0,0,0,0,0,0,0,0,0,0,0,0,0,0,0,0,0,0,0,0],"id":40,"left_children":[1,3,5,7,9,11,-1,13,15,-1,-1,17,19,-1,-1,21,23,-1,-1,-1,25,-1,-1,-1,-1,-1,-1],"loss_changes":[1.1331685E0,1.0070472E0,1.0402268E-1,5.044714E-1,2.0717457E-1,1.5996507E-1,0E0,1.10000074E-1,5.391693E-1,0E0,0E0,1.7676687E-1,6.506956E-1,0E0,0E0,4.987427E-1,5.5051035E-1,0E0,0E0,0E0,1.9035293E-1,0E0,0E0,0E0,0E0,0E0,0E0],"parents":[2147483647,0,0,1,1,2,2,3,3,4,4,5,5,7,7,8,8,11,11,12,12,15,15,16,16,20,20],"right_children":[2,4,6,8,10,12,-1,14,16,-1,-1,18,20,-1,-1,22,24,-1,-1,-1,26,-1,-1,-1,-1,-1,-1],"split_conditions":[6.91E1,6.96E1,6.77E1,1.09E2,8.97E1,6.67E1,2.9572526E-1,9.72E1,1.001E2,-1.2051391E-2,1.3477173E-1,1.224E2,1.137E2,-1.9494592E-1,-3.2200623E-2,1.219E2,1.021E2,1.1089249E-1,-1.9004822E-3,-3.1845092E-3,1.585E1,-2.298874E-2,1.6711731E-1,1.3669053E-1,-2.7362823E-2,-9.038544E-3,4.8991244E-2],"split_indices":[6,7,7,3,4,7,0,4,4,0,0,2,2,0,0,3,4,0,0,0,1,0,0,0,0,0,0],"split_type":[0,0,0,0,0,0,0,0,0,0,0,0,0,0,0,0,0,0,0,0,0,0,0,0,0,0,0],"sum_hessian":[4.28E2,3.05E2,1.23E2,2.43E2,6.2E1,6.3E1,6E1,9E0,2.34E2,3E0,5.9E1,4.1E1,2.2E1,4E0,5E0,1.97E2,3.7E1,3.7E1,4E0,3E0,1.9E1,1.83E2,1.4E1,3.2E1,5E0,3E0,1.6E1],"tree_param":{"num_deleted":"0","num_feature":"8","num_nodes":"27","size_leaf_vector":"1"}},{"base_weights":[-1.0854499E-2,-3.9610386E-2,5.8730163E-2,-5.69343E-2,4.714286E-3,-6.382975E-3,4.875E-3,-7.142857E-2,3.0000003E-3,-1.9999999E-1,2.1052633E-3,-5.7446804E-2,-3.5454544E-1,3.3333336E-3,-2.5E-2,-2.4561402E-3,-1.3749999E-2,-5E-3,-2.3571428E-2],"categories":[],"categories_nodes":[],"categories_segments":[],"categories_sizes":[],"default_left":[0,0,0,0,0,0,0,0,0,0,0,0,0,0,0,0,0,0,0],"id":41,"left_children":[1,3,5,7,-1,9,-1,11,-1,13,-1,15,17,-1,-1,-1,-1,-1,-1],"loss_changes":[8.6683375E-1,7.1607125E-1,3.2781172E-1,4.698249E-1,0E0,4.6545354E-1,0E0,9.0825903E-1,0E0,8.7666655E-1,0E0,3.7964344E-1,2.2298706E-1,0E0,0E0,0E0,0E0,0E0,0E0],"parents":[2147483647,0,0,1,1,2,2,3,3,5,5,7,7,9,9,11,11,12,12],"right_children":[2,4,6,8,-1,10,-1,12,-1,14,-1,16,18,-1,-1,-1,-1,-1,-1],"split_conditions":[6.91E1,1.219E2,1.15E2,1.216E2,1.6780587E-1,9.58E1,1.0153047E-1,1.2E2,1.7492294E-1,1.111E2,1.4428698E-1,1.202E2,9.19E1,1.5064164E-1,-1.3180542E-2,-1.3039856E-2,-2.4312591E-2,-1.1536407E-2,-2.1524047E-2],"split_indices":[6,3,2,2,0,5,0,2,0,3,0,3,5,0,0,0,0,0,0],"split_type":[0,0,0,0,0,0,0,0,0,0,0,0,0,0,0,0,0,0,0],"sum_hessian":[4.32E2,3.07E2,1.25E2,2.73E2,3.4E1,4.6E1,7.9E1,2.44E2,2.9E1,9E0,3.7E1,2.34E2,1E1,5E0,4E0,2.27E2,7E0,4E0,6E0],"tree_param":{"num_deleted":"0","num_feature":"8","num_nodes":"19","size_leaf_vector":"1"}},{"base_weights":[-1.3163968E-2,-5.8974355E-2,2.3849376E-2,-2.4482758E-1,-2.5748499E-2,-1.7272727E-1,3.3624455E-2,-4.2941174E-1,7.6923105E-3,-4.5833327E-2,4.5833336E-3,3.5714288E-3,-2.5E-2,-1.22222215E-1,4.0271495E-2,-9.9999994E-2,-3.875E-2,-7.5E-3,4E-3,3.1578983E-3,-1.3999999E-1,2.5000002E-3,-1.1666666E-2,2.7472531E-2,4.75E-3,-2E-2,3.5714288E-3,-2.6923076E-3,1.2857144E-3,-1.7222222E-2,-4.5238095E-3,-1.4018673E-4,3.5526317E-3],"categories":[],"categories_nodes":[],"categories_segments":[],"categories_sizes":[],"default_left":[0,0,0,0,0,0,0,0,0,0,0,0,0,0,0,0,0,0,0,0,0,0,0,0,0,0,0,0,0,0,0,0,0],"id":42,"left_children":[1,3,5,7,9,11,13,15,17,19,-1,-1,-1,21,23,25,-1,-1,-1,27,29,-1,-1,31,-1,-1,-1,-1,-1,-1,-1,-1,-1],"loss_changes":[7.391119E-1,1.1707892E0,4.511487E-1,1.3971992E0,3.9344808E-1,9.575324E-1,2.3395246E-1,1.770294E0,1.5323076E-1,6.7844737E-1,0E0,0E0,0E0,2.0222218E-1,1.3994631E-1,5.757143E-1,0E0,0E0,0E0,1.2072296E-1,4.3158734E-1,0E0,0E0,2.4716268E-1,0E0,0E0,0E0,0E0,0E0,0E0,0E0,0E0,0E0],"parents":[2147483647,0,0,1,1,2,2,3,3,4,4,5,5,6,6,7,7,8,8,9,9,13,13,14,14,15,15,19,19,20,20,23,23],"right_children":[2,4,6,8,10,12,14,16,18,20,-1,-1,-1,22,24,26,-1,-1,-1,28,30,-1,-1,32,-1,-1,-1,-1,-1,-1,-1,-1,-1],"split_conditions":[6.73E1,1.622E1,9.02E1,1.132E2,2.661E1,2.661E1,1.519E1,1.553E1,6.34E1,2.006E1,1.4505021E-1,1.0110702E-1,-2.0447541E-2,1.37E1,9.93E1,1.098E2,-9.934463E-2,-1.6313553E-1,6.655124E-3,1.69E1,1.944E1,2.0171356E-1,-2.9938508E-2,2.034E1,9.900742E-2,-1.8743133E-2,1.4183807E-2,-4.1838687E-2,4.9530044E-3,-3.7379455E-2,-1.7457124E-2,-1.9264218E-4,2.1803041E-1],"split_indices":[7,0,4,3,0,1,0,0,7,0,0,0,0,1,4,3,0,0,0,0,1,0,0,1,0,0,0,0,0,0,0,0,0],"split_type":[0,0,0,0,0,0,0,0,0,0,0,0,0,0,0,0,0,0,0,0,0,0,0,0,0,0,0,0,0,0,0,0,0],"sum_hessian":[4.32E2,1.94E2,2.38E2,2.8E1,1.66E2,1E1,2.28E2,1.6E1,1.2E1,1.43E2,2.3E1,6E0,4E0,8E0,2.2E2,9E0,7E0,3E0,9E0,9.4E1,4.9E1,3E0,5E0,1.81E2,3.9E1,3E0,6E0,2.5E1,6.9E1,8E0,4.1E1,1.06E2,7.5E1],"tree_param":{"num_deleted":"0","num_feature":"8","num_nodes":"33","size_leaf_vector":"1"}},{"base_weights":[-4.895101E-3,-3.0841118E-2,7.06422E-2,-4.9999997E-2,4.761905E-3,1.5789477E-2,4.8611113E-3,-2.9999998E-1,-4.0221397E-2,3.2352943E-3,-1.5E-2,-5E-3,-2E-2,4.5652175E-3,-5.261044E-2,-4.032258E-3,-2.631577E-4],"categories":[],"categories_nodes":[],"categories_segments":[],"categories_sizes":[],"default_left":[0,0,0,0,0,0,0,0,0,0,0,0,0,0,0,0,0],"id":43,"left_children":[1,3,5,7,-1,9,-1,11,13,-1,-1,-1,-1,-1,15,-1,-1],"loss_changes":[8.389923E-1,7.756252E-1,1.4608425E-1,6.3841325E-1,0E0,5.828792E-1,0E0,1.10000074E-1,4.425226E-1,0E0,0E0,0E0,0E0,0E0,3.214993E-1,0E0,0E0],"parents":[2147483647,0,0,1,1,2,2,3,3,5,5,7,7,8,8,14,14],"right_children":[2,4,6,8,-1,10,-1,12,14,-1,-1,-1,-1,-1,16,-1,-1],"split_conditions":[6.93E1,1.219E2,9.58E1,1.09E2,1.997606E-1,9.55E1,1.7125534E-1,1.066E2,1.12E2,1.551622E-1,-4.663849E-3,-1.7806245E-2,-1.8479423E-1,2.3225633E-2,6.74E1,-1.9338226E-2,-2.5501247E-3],"split_indices":[6,3,5,3,0,5,0,3,3,0,0,0,0,0,6,0,0],"split_type":[0,0,0,0,0,0,0,0,0,0,0,0,0,0,0,0,0],"sum_hessian":[4.28E2,3.2E2,1.08E2,2.79E2,4.1E1,3.7E1,7.1E1,9E0,2.7E2,3.3E1,4E0,4E0,5E0,2.2E1,2.48E2,1.54E2,9.4E1],"tree_param":{"num_deleted":"0","num_feature":"8","num_nodes":"17","size_leaf_vector":"1"}},{"base_weights":[-1.2345641E-3,-4.5631062E-2,4.4000003E-2,-8.064516E-2,5.769231E-2,-1.22222215E-1,6.065574E-2,-1.0833333E-1,1.1111114E-2,-5.263154E-3,4.7058826E-3,3.888889E-3,-2.9999998E-1,-8.108105E-3,3.911565E-3,-8.518518E-2,-2.8461537E-1,4.545455E-3,-9.9999994E-2,4.3333336E-3,-1.5E-2,-4.7142854E-1,2.5000002E-3,-1.1666666E-2,3.1250004E-2,-5.989011E-3,4.4444446E-3,3.0000003E-3,-2.2777777E-2,-1.3749999E-2,3.7500001E-3,-7.5E-3,-3.25E-2,-1.1666666E-2,4.62963E-3],"categories":[],"categories_nodes":[],"categories_segments":[],"categories_sizes":[],"default_left":[0,0,0,0,0,0,0,0,0,0,0,0,0,0,0,0,0,0,0,0,0,0,0,0,0,0,0,0,0,0,0,0,0,0,0],"id":44,"left_children":[1,3,5,7,9,11,13,15,17,19,-1,-1,21,23,-1,25,27,-1,29,-1,-1,31,-1,-1,33,-1,-1,-1,-1,-1,-1,-1,-1,-1,-1],"loss_changes":[8.155148E-1,7.522094E-1,5.549676E-1,4.0471327E-1,1.2862585E-1,6.8555546E-1,2.2881353E-1,4.2844737E-1,3.273737E-1,5.6214035E-1,0E0,0E0,6.657143E-1,3.554842E-1,0E0,6.64123E-1,8.3270085E-1,0E0,5E-1,0E0,0E0,2.2428572E-1,0E0,0E0,5.268981E-1,0E0,0E0,0E0,0E0,0E0,0E0,0E0,0E0,0E0,0E0],"parents":[2147483647,0,0,1,1,2,2,3,3,4,4,5,5,6,6,7,7,8,8,9,9,12,12,13,13,15,15,16,16,18,18,21,21,24,24],"right_children":[2,4,6,8,10,12,14,16,18,20,-1,-1,22,24,-1,26,28,-1,30,-1,-1,32,-1,-1,34,-1,-1,-1,-1,-1,-1,-1,-1,-1,-1],"split_conditions":[1.16E2,6.92E1,6.46E1,6.87E1,9.51E1,1.182E2,6.59E1,1.016E2,1.141E2,9.5E1,5.36258E-2,2.9240418E-2,1.216E2,1.168E2,1.6147523E-1,1.001E2,6.48E1,1.4183824E-1,9.63E1,9.6228026E-2,-2.0269776E-2,1.192E2,8.6063385E-2,-6.469879E-2,6.55E1,-6.413071E-2,1.382988E-1,1.0608444E-1,-2.0247651E-2,-6.7566685E-2,1.2607574E-2,-2.5722504E-2,-2.1257782E-2,-3.1241609E-2,1.3725511E-2],"split_indices":[3,6,6,7,4,3,7,4,3,4,0,0,3,3,0,4,7,0,5,0,0,3,0,0,6,0,0,0,0,0,0,0,0,0,0],"split_type":[0,0,0,0,0,0,0,0,0,0,0,0,0,0,0,0,0,0,0,0,0,0,0,0,0,0,0,0,0,0,0,0,0,0,0],"sum_hessian":[4.04E2,2.05E2,1.99E2,1.54E2,5.1E1,1.7E1,1.82E2,1.19E2,3.5E1,1.8E1,3.3E1,8E0,9E0,3.6E1,1.46E2,1.07E2,1.2E1,2.1E1,1.4E1,1.4E1,4E0,6E0,3E0,5E0,3.1E1,9E1,1.7E1,4E0,8E0,7E0,7E0,3E0,3E0,5E0,2.6E1],"tree_param":{"num_deleted":"0","num_feature":"8","num_nodes":"35","size_leaf_vector":"1"}},{"base_weights":[-7.2261035E-3,-4.9532704E-2,3.4259263E-2,-6.4021155E-2,5.3846154E-2,-1.7272727E-1,4.563107E-2,-4.8571423E-2,-2.3333332E-1,4.5652175E-3,-7.5E-3,2.5000002E-3,-1.3749999E-2,-1.22222215E-1,5.3535357E-2,-1.7777777E-1,-3.2911386E-2,-2.8333334E-2,-0E0,2.5000002E-3,-1.1666666E-2,-3.636363E-2,3.2485877E-3,-1.4230768E-2,3.3333336E-3,-0E0,-4.4827587E-3,-7.5E-3,3.5714288E-3,3.888889E-3,-5.7142857E-3],"categories":[],"categories_nodes":[],"categories_segments":[],"categories_sizes":[],"default_left":[0,0,0,0,0,0,0,0,0,0,0,0,0,0,0,0,0,0,0,0,0,0,0,0,0,0,0,0,0,0,0],"id":45,"left_children":[1,3,5,7,9,11,13,15,17,-1,-1,-1,-1,19,21,23,25,-1,27,-1,-1,29,-1,-1,-1,-1,-1,-1,-1,-1,-1],"loss_changes":[7.5616425E-1,3.249939E-1,5.0359523E-1,4.5486772E-1,2.063545E-1,2.8681818E-1,2.7298713E-1,3.2717097E-1,1.11E0,0E0,0E0,0E0,0E0,2.0222218E-1,2.0879132E-1,5.1085466E-1,2.9506767E-1,0E0,1.2571427E-1,0E0,0E0,2.0821068E-1,0E0,0E0,0E0,0E0,0E0,0E0,0E0,0E0,0E0],"parents":[2147483647,0,0,1,1,2,2,3,3,4,4,5,5,6,6,7,7,8,8,13,13,14,14,15,15,16,16,18,18,21,21],"right_children":[2,4,6,8,10,12,14,16,18,-1,-1,-1,-1,20,22,24,26,-1,28,-1,-1,30,-1,-1,-1,-1,-1,-1,-1,-1,-1],"split_conditions":[6.76E1,2.661E1,1.122E2,2.443E1,6.71E1,1.126E2,6.37E1,1.098E2,6.51E1,2.2655182E-1,-7.6843263E-3,1.09001165E-2,-1.9256592E-2,9.83E1,9.31E1,6.91E1,9.87E1,-5.997925E-2,1.144E2,2.7778625E-2,-6.615677E-2,1.147E2,9.201485E-2,-1.2544185E-1,3.0929413E-1,-2.8341666E-3,-1.4848634E-2,-9.772492E-3,2.0259781E-1,1.6392441E-1,-5.0195314E-2],"split_indices":[7,0,3,0,7,2,6,3,7,0,0,0,0,5,5,6,5,0,3,0,0,3,0,0,0,0,0,0,0,0,0],"split_type":[0,0,0,0,0,0,0,0,0,0,0,0,0,0,0,0,0,0,0,0,0,0,0,0,0,0,0,0,0,0,0],"sum_hessian":[4.28E2,2.13E2,2.15E2,1.88E2,2.5E1,1E1,2.05E2,1.74E2,1.4E1,2.2E1,3E0,3E0,7E0,8E0,1.97E2,1.7E1,1.57E2,5E0,9E0,3E0,5E0,2.1E1,1.76E2,1.2E1,5E0,1E2,5.7E1,3E0,6E0,8E0,1.3E1],"tree_param":{"num_deleted":"0","num_feature":"8","num_nodes":"31","size_leaf_vector":"1"}},{"base_weights":[-8.597281E-3,-2.467532E-2,4.8275865E-3,-4.982578E-2,4.747475E-2,-6.666666E-2,3.3333335E-2,-1.5384612E-2,3.5135136E-3,-2.6363635E-1,-4.6118718E-2,-1.1428571E-1,4.714286E-3,-1.3076922E-1,4.2857146E-3,3.0000003E-3,-1.7222222E-2,1.4406781E-3,-3.695652E-3,-1.1666666E-2,3.3333336E-3,3.888889E-3,-2.5E-2],"categories":[],"categories_nodes":[],"categories_segments":[],"categories_sizes":[],"default_left":[0,0,0,0,0,0,0,0,0,0,0,0,0,0,0,0,0,0,0,0,0,0,0],"id":46,"left_children":[1,3,-1,5,7,9,11,13,-1,15,17,19,-1,21,-1,-1,-1,-1,-1,-1,-1,-1,-1],"loss_changes":[7.4243546E-1,7.012243E-1,0E0,4.0749133E-1,1.4842793E-1,9.282234E-1,4.4066665E-1,3.1901097E-1,0E0,6.244645E-1,4.6274915E-1,3.3380952E-1,0E0,1.0821366E0,0E0,0E0,0E0,0E0,0E0,0E0,0E0,0E0,0E0],"parents":[2147483647,0,0,1,1,3,3,4,4,5,5,6,6,7,7,9,9,10,10,11,11,13,13],"right_children":[2,4,-1,6,8,10,12,14,-1,16,18,20,-1,22,-1,-1,-1,-1,-1,-1,-1,-1,-1],"split_conditions":[1.219E2,6.93E1,2.159839E-1,1.001E2,1.137E2,6.42E1,1.132E2,1.136E2,1.2500794E-1,9.21E1,1.137E2,1.622E1,1.4183846E-1,1.641E1,1.6013505E-1,3.052147E-1,-1.8602425E-1,2.346344E-3,-1.4208374E-2,-1.9093323E-2,5.9572375E-1,2.3727417E-3,-1.8293763E-2],"split_indices":[3,6,0,4,2,7,3,3,0,4,3,0,0,0,0,0,0,0,0,0,0,0,0],"split_type":[0,0,0,0,0,0,0,0,0,0,0,0,0,0,0,0,0,0,0,0,0,0,0],"sum_hessian":[4.41E2,3.84E2,5.7E1,2.86E2,9.8E1,2.39E2,4.7E1,2.5E1,7.3E1,2.1E1,2.18E2,1.3E1,3.4E1,1.2E1,1.3E1,4E0,1.7E1,5.8E1,1.6E2,8E0,5E0,8E0,4E0],"tree_param":{"num_deleted":"0","num_feature":"8","num_nodes":"23","size_leaf_vector":"1"}},{"base_weights":[-7.865164E-3,-2.9120876E-2,8.5365854E-2,-6.0337547E-2,2.8125003E-2,-7.5E-3,4.873418E-3,-3.7614673E-2,-2.9999998E-1,-3.3333328E-2,8.26087E-2,-5.544041E-2,4.6153846E-3,-3.705882E-1,2.5000002E-3,-2E-2,-5.263154E-3,4.846154E-3,-5E-3,-3.695652E-3,1.6666668E-3,-2.8333334E-2,-1.1666666E-2,4.6774196E-3,-6.111111E-3],"categories":[],"categories_nodes":[],"categories_segments":[],"categories_sizes":[],"default_left":[0,0,0,0,0,0,0,0,0,0,0,0,0,0,0,0,0,0,0,0,0,0,0,0,0],"id":47,"left_children":[1,3,5,7,9,-1,-1,11,13,15,17,19,-1,21,-1,-1,23,-1,-1,-1,-1,-1,-1,-1,-1],"loss_changes":[8.787142E-1,6.553956E-1,2.4294531E-1,1.2456133E0,4.3628624E-1,0E0,0E0,5.063106E-1,5.44706E-1,5.7491225E-1,1.8974584E-1,3.2301944E-1,0E0,2.452941E-1,0E0,0E0,6.730447E-1,0E0,0E0,0E0,0E0,0E0,0E0,0E0,0E0],"parents":[2147483647,0,0,1,1,2,2,3,3,4,4,7,7,8,8,9,9,10,10,11,11,13,13,16,16],"right_children":[2,4,6,8,10,-1,-1,12,14,16,18,20,-1,22,-1,-1,24,-1,-1,-1,-1,-1,-1,-1,-1],"split_conditions":[6.98E1,2.124E1,8.97E1,1.181E2,9.51E1,-2.2087097E-3,1.5780143E-1,7.03E1,9.93E1,6.41E1,1.016E2,1.882E1,6.945603E-2,1.183E2,4.4459993E-1,-2.128601E-2,9.51E1,1.6987038E-1,-1.8742371E-2,-1.7369613E-2,1.0027544E-2,-1.4787293E-2,-1.8290406E-2,1.0872002E-1,-2.0185014E-2],"split_indices":[7,0,4,3,5,0,0,6,4,6,5,0,0,3,0,0,4,0,0,0,0,0,0,0,0],"split_type":[0,0,0,0,0,0,0,0,0,0,0,0,0,0,0,0,0,0,0,0,0,0,0,0,0],"sum_hessian":[4.44E2,3.63E2,8.1E1,2.36E2,1.27E2,3E0,7.8E1,2.17E2,1.9E1,5.9E1,6.8E1,1.92E2,2.5E1,1.6E1,3E0,3E0,5.6E1,6.4E1,4E0,1.6E2,3.2E1,5E0,1.1E1,3E1,2.6E1],"tree_param":{"num_deleted":"0","num_feature":"8","num_nodes":"25","size_leaf_vector":"1"}},{"base_weights":[-2.2931438E-2,-3.7566133E-2,4.782609E-3,-5.9999995E-2,2.1153849E-2,-4.2857137E-2,-2.3333332E-1,-7.241379E-2,5.789474E-2,-5.8371037E-2,6.25E-2,-2.4999995E-2,-2.8333334E-2,-1.9999996E-2,-1.5E-2,3.4507045E-3,-3.3333332E-3,-3.8541665E-3,3.0000003E-3,-7.5E-3,4.6551726E-3,-9.285714E-3,4E-3,4.166667E-3,-5.7142857E-3],"categories":[],"categories_nodes":[],"categories_segments":[],"categories_sizes":[],"default_left":[0,0,0,0,0,0,0,0,0,0,0,0,0,0,0,0,0,0,0,0,0,0,0,0,0],"id":48,"left_children":[1,3,-1,5,7,9,11,13,15,17,19,21,-1,23,-1,-1,-1,-1,-1,-1,-1,-1,-1,-1,-1],"loss_changes":[7.3187375E-1,5.030992E-1,0E0,7.7952373E-1,3.602673E-1,4.1512927E-1,1.5933334E0,3.07931E-1,1.1009887E-1,4.9584687E-1,2.1637927E-1,2.9542854E-1,0E0,2.5619048E-1,0E0,0E0,0E0,0E0,0E0,0E0,0E0,0E0,0E0,0E0,0E0],"parents":[2147483647,0,0,1,1,3,3,4,4,5,5,6,6,7,7,8,8,9,9,10,10,11,11,13,13],"right_children":[2,4,-1,6,8,10,12,14,16,18,20,22,-1,24,-1,-1,-1,-1,-1,-1,-1,-1,-1,-1,-1],"split_conditions":[1.224E2,6.9E1,1.9081177E-1,6.86E1,1.157E2,6.81E1,1.795E1,1.183E2,1.222E2,1.004E2,1.585E1,1.496E1,-5.382843E-2,1.825E1,-1.0208893E-2,1.5168045E-1,-5.139923E-3,-1.3850403E-2,8.023758E-2,-1.1309052E-2,3.0466994E-2,-6.1584474E-3,8.341446E-2,6.0919195E-2,-3.479477E-2],"split_indices":[3,7,0,7,2,7,1,3,3,4,0,1,0,0,0,0,0,0,0,0,0,0,0,0,0],"split_type":[0,0,0,0,0,0,0,0,0,0,0,0,0,0,0,0,0,0,0,0,0,0,0,0,0],"sum_hessian":[4.22E2,3.77E2,4.5E1,2.74E2,1.03E2,2.51E2,2.3E1,2.8E1,7.5E1,2.2E2,3.1E1,1.5E1,8E0,2.4E1,4E0,7E1,5E0,1.91E2,2.9E1,3E0,2.8E1,6E0,9E0,1.1E1,1.3E1],"tree_param":{"num_deleted":"0","num_feature":"8","num_nodes":"25","size_leaf_vector":"1"}},{"base_weights":[-1.16173085E-2,-2.4050629E-2,4.777778E-3,-3.793103E-2,3.7500001E-3,2.0312503E-2,-7.19457E-2,-4.2857137E-2,6.0000002E-2,-1.6760562E-1,-2.582781E-2,1.764706E-3,-1.0625E-2,3.5714288E-3,-7.5E-3,-5E-3,-1.5454546E-2,-2.2519082E-3,4.5238095E-3],"categories":[],"categories_nodes":[],"categories_segments":[],"categories_sizes":[],"default_left":[0,0,0,0,0,0,0,0,0,0,0,0,0,0,0,0,0,0,0],"id":49,"left_children":[1,3,-1,5,-1,7,9,11,13,15,17,-1,-1,-1,-1,-1,-1,-1,-1],"loss_changes":[5.801216E-1,5.422087E-1,0E0,6.960594E-1,0E0,3.2518747E-1,9.5129883E-1,6.748529E-1,1.9485715E-1,6.0731125E-1,3.3690146E-1,0E0,0E0,0E0,0E0,0E0,0E0,0E0,0E0],"parents":[2147483647,0,0,1,1,3,3,5,5,6,6,7,7,8,8,9,9,10,10],"right_children":[2,4,-1,6,-1,8,10,12,14,16,18,-1,-1,-1,-1,-1,-1,-1,-1],"split_conditions":[1.224E2,7.05E1,1.5515175E-1,1.671E1,7.643906E-2,1.59E1,1.941E1,1.574E1,1.038E2,9.9E1,9.93E1,1.4694215E-3,-5.999176E-2,2.6660997E-2,-9.698487E-3,-2.3471832E-2,-4.1162565E-2,-6.6728974E-3,1.7667603E-1],"split_indices":[3,6,0,1,0,0,0,0,5,5,4,0,0,0,0,0,0,0,0],"split_type":[0,0,0,0,0,0,0,0,0,0,0,0,0,0,0,0,0,0,0],"sum_hessian":[4.38E2,3.94E2,4.4E1,3.47E2,4.7E1,1.27E2,2.2E2,4.8E1,7.9E1,7E1,1.5E2,3.3E1,1.5E1,7.6E1,3E0,4.9E1,2.1E1,1.3E2,2E1],"tree_param":{"num_deleted":"0","num_feature":"8","num_nodes":"19","size_leaf_vector":"1"}},{"base_weights":[-6.235562E-3,-3.1578943E-2,5.2307695E-2,-4.336917E-2,4.6153846E-3,-1.9999996E-2,3.490566E-3,-5.444015E-2,4.5238095E-3,4.166667E-3,-1.1428571E-1,-1.8421048E-2,-1.037037E-1,3.7500001E-3,-1.6428571E-2,-4.4217668E-4,-1.1666666E-2,-2.5949364E-3,-1.1666666E-2],"categories":[],"categories_nodes":[],"categories_segments":[],"categories_sizes":[],"default_left":[0,0,0,0,0,0,0,0,0,0,0,0,0,0,0,0,0,0,0],"id":50,"left_children":[1,3,5,7,-1,9,-1,11,-1,-1,13,15,17,-1,-1,-1,-1,-1,-1],"loss_changes":[6.420142E-1,4.431476E-1,1.709114E-1,4.147439E-1,0E0,2.5619048E-1,0E0,4.4545418E-1,0E0,0E0,6.178571E-1,2.8658426E-1,6.846366E-1,0E0,0E0,0E0,0E0,0E0,0E0],"parents":[2147483647,0,0,1,1,2,2,3,3,5,5,7,7,10,10,11,11,12,12],"right_children":[2,4,6,8,-1,10,-1,12,-1,-1,14,16,18,-1,-1,-1,-1,-1,-1],"split_conditions":[6.91E1,1.224E2,1.132E2,1.016E2,1.6672745E-1,1.121E2,9.481552E-2,9.78E1,1.2181343E-1,1.2830094E-1,6.97E1,2.728E1,1.181E2,1.8854523E-2,-2.7957916E-2,-4.5249932E-3,-4.499054E-3,-1.4127426E-2,-2.044983E-2],"split_indices":[6,3,3,5,0,3,0,5,0,0,6,1,3,0,0,0,0,0,0],"split_type":[0,0,0,0,0,0,0,0,0,0,0,0,0,0,0,