{"learner":{"attributes":{"best_iteration":"31","best_score":"20.397022677629614"},"feature_names":["home_adj_em","home_off_eff","home_def_eff","home_tempo","home_rank","away_adj_em","away_off_eff","away_def_eff","away_tempo","away_rank","em_diff","tempo_diff","rank_diff","avg_tempo","geometric_tempo","home_off_vs_away_def","away_off_vs_home_def","total_off_eff","total_def_eff","avg_off_eff","avg_def_eff","tempo_x_off_eff","tempo_x_def_eff","home_eff_margin","away_eff_margin","total_eff_margin","expected_home_pts","expected_away_pts","expected_total_basic","expected_home_pts_adj","expected_away_pts_adj","expected_total_adj","fast_pace_game","slow_pace_game","high_scoring_offense","elite_defense","tempo_mismatch","rank_mismatch"],"feature_types":["float","float","float","float","int","float","float","float","float","int","float","float","int","float","float","float","float","float","float","float","float","float","float","float","float","float","float","float","float","float","float","float","int","int","int","int","int","int"],"gradient_booster":{"model":{"cats":{"enc":[],"feature_segments":[],"sorted_idx":[]},"gbtree_model_param":{"num_parallel_tree":"1","num_trees":"52"},"iteration_indptr":[0,1,2,3,4,5,6,7,8,9,10,11,12,13,14,15,16,17,18,19,20,21,22,23,24,25,26,27,28,29,30,31,32,33,34,35,36,37,38,39,40,41,42,43,44,45,46,47,48,49,50,51,52],"tree_info":[0,0,0,0,0,0,0,0,0,0,0,0,0,0,0,0,0,0,0,0,0,0,0,0,0,0,0,0,0,0,0,0,0,0,0,0,0,0,0,0,0,0,0,0,0,0,0,0,0,0,0,0],"trees":[{"base_weights":[-4.974375E-1,-8.837026E0,1.5208894E0,-7.4641986E0,-1.9394072E1,5.176796E-1,1.21427E1,-8.646756E0,4.304274E0,-2.420471E1,-1.1671897E1,-1.359673E0,4.6867404E0,9.834135E0,1.2154052E0,-9.599492E0,2.3442082E0,-5.1882905E-1,8.4980545E0,-1.3880566E0,-5.0632906E-1,-2.3750978E-2,-9.5203227E-1,-6.5493584E0,3.5492498E-1,1.0614588E1,1.690474E0,1.3046345E0,7.806108E0,-1.8699309E0,-1.1329915E1,1.5098193E1,-5.3651893E-1,-2.1589496E0,8.9776677E-1,-3.2908373E0,-1.3144555E1,4.5913086E0,-1.3405904E0,7.799416E0,3.285232E1,-2.2235249E1,3.5860717E0,1.0459054E1,-2.1213765E0,4.6761614E-1,-3.135168E-1,-5.2408344E-1,-1.393751E0,2.7867097E-1,1.041171E0,-3.0632904E-1,1.1617096E-1,-5.002924E-1,2.0877226E-1,-7.5634044E-1,2.96344E-2,-4.4219952E-2,6.648159E-1,5.0504852E-2,-1.858748E-1,8.988679E-1,1.5418763E-1,7.7867097E-1,2.004249E0,-3.8132903E-1,-1.3373839E0,-2.768299E-1,2.8770804E-1,-5.4723304E-2,6.60633E-1,-7.313291E-1,1.8305448E-1],"categories":[],"categories_nodes":[],"categories_segments":[],"categories_sizes":[],"default_left":[0,0,0,0,0,0,0,0,0,0,0,0,0,0,0,0,0,0,0,0,0,0,0,0,0,0,0,0,0,0,0,0,0,0,0,0,0,0,0,0,0,0,0,0,0,0,0,0,0,0,0,0,0,0,0,0,0,0,0,0,0,0,0,0,0,0,0,0,0,0,0,0,0],"id":0,"left_children":[1,3,5,7,9,11,13,15,17,19,21,23,25,27,-1,29,31,-1,33,-1,-1,-1,-1,35,37,39,41,-1,43,45,47,49,-1,51,-1,53,55,57,59,61,63,65,67,69,71,-1,-1,-1,-1,-1,-1,-1,-1,-1,-1,-1,-1,-1,-1,-1,-1,-1,-1,-1,-1,-1,-1,-1,-1,-1,-1,-1,-1],"loss_changes":[1.6240233E4,2.5772363E3,8.272085E3,2.3756914E3,4.9401807E2,5.5715576E3,1.639206E3,1.6253672E3,1.0730854E3,3.1589893E2,8.140735E2,4.371972E3,3.9060981E3,1.7053491E3,0E0,1.8634268E3,2.3302363E3,0E0,1.3505659E3,0E0,0E0,0E0,0E0,2.5769517E3,2.6641357E3,4.37233E3,6.790197E3,0E0,1.4188862E3,1.3916603E3,1.3179375E3,2.6302295E2,0E0,1.3910564E2,0E0,4.203663E3,1.099647E3,5.0656055E3,1.4846765E3,3.1581711E3,3.6995312E2,5.176958E2,2.7613494E3,1.351854E3,9.223768E2,0E0,0E0,0E0,0E0,0E0,0E0,0E0,0E0,0E0,0E0,0E0,0E0,0E0,0E0,0E0,0E0,0E0,0E0,0E0,0E0,0E0,0E0,0E0,0E0,0E0,0E0,0E0,0E0],"parents":[2147483647,0,0,1,1,2,2,3,3,4,4,5,5,6,6,7,7,8,8,9,9,10,10,11,11,12,12,13,13,15,15,16,16,18,18,23,23,24,24,25,25,26,26,28,28,29,29,30,30,31,31,33,33,35,35,36,36,37,37,38,38,39,39,40,40,41,41,42,42,43,43,44,44],"right_children":[2,4,6,8,10,12,14,16,18,20,22,24,26,28,-1,30,32,-1,34,-1,-1,-1,-1,36,38,40,42,-1,44,46,48,50,-1,52,-1,54,56,58,60,62,64,66,68,70,72,-1,-1,-1,-1,-1,-1,-1,-1,-1,-1,-1,-1,-1,-1,-1,-1,-1,-1,-1,-1,-1,-1,-1,-1,-1,-1,-1,-1],"split_conditions":[1.3728174E2,1E0,7.983652E1,6.9E1,9.99E1,6.9E1,2.19E1,3.1E0,1.92E2,6.7E0,6.1422424E1,-4E-1,-6.62E0,2.233E2,1.2154052E0,6.48E1,-1.232E1,-5.1882905E-1,6.53527E1,-1.3880566E0,-5.0632906E-1,-2.3750978E-2,-9.5203227E-1,7.195644E1,1.043E2,7E-1,6.4204185E1,1.3046345E0,7.09E1,1E0,2.9E0,-7.98E0,-5.3651893E-1,-1.6E1,8.9776677E-1,1.3475328E2,7.703465E3,6.9182495E1,2E0,6.899884E1,7.05E1,6.098692E1,6.637871E1,-3.5E0,2.7E0,4.6761614E-1,-3.135168E-1,-5.2408344E-1,-1.393751E0,2.7867097E-1,1.041171E0,-3.0632904E-1,1.1617096E-1,-5.002924E-1,2.0877226E-1,-7.5634044E-1,2.96344E-2,-4.4219952E-2,6.648159E-1,5.0504852E-2,-1.858748E-1,8.988679E-1,1.5418763E-1,7.7867097E-1,2.004249E0,-3.8132903E-1,-1.3373839E0,-2.768299E-1,2.8770804E-1,-5.4723304E-2,6.60633E-1,-7.313291E-1,1.8305448E-1],"split_indices":[28,36,27,8,6,8,0,11,17,11,29,11,5,17,0,3,0,0,27,0,0,0,0,30,6,11,30,0,3,37,5,5,0,16,0,31,21,27,11,14,8,30,29,11,11,0,0,0,0,0,0,0,0,0,0,0,0,0,0,0,0,0,0,0,0,0,0,0,0,0,0,0,0],"split_type":[0,0,0,0,0,0,0,0,0,0,0,0,0,0,0,0,0,0,0,0,0,0,0,0,0,0,0,0,0,0,0,0,0,0,0,0,0,0,0,0,0,0,0,0,0,0,0,0,0,0,0,0,0,0,0,0,0,0,0,0,0,0,0,0,0,0,0,0,0,0,0,0,0],"sum_hessian":[9.63E2,1.87E2,7.76E2,1.67E2,2E1,7.1E2,6.6E1,1.52E2,1.5E1,1.1E1,9E0,4.9E2,2.2E2,5.7E1,9E0,1.4E2,1.2E1,3E0,1.2E1,8E0,3E0,4E0,5E0,1.21E2,3.69E2,7.3E1,1.47E2,5E0,5.2E1,2.6E1,1.14E2,6E0,6E0,6E0,6E0,8.2E1,3.9E1,1.05E2,2.64E2,6.6E1,7E0,1E1,1.37E2,4.1E1,1.1E1,7E0,1.9E1,1.1E2,4E0,3E0,3E0,3E0,3E0,4.3E1,3.9E1,3.4E1,5E0,6.5E1,4E1,1.33E2,1.31E2,2E1,4.6E1,3E0,4E0,3E0,7E0,2.6E1,1.11E2,8E0,3.3E1,3E0,8E0],"tree_param":{"num_deleted":"0","num_feature":"38","num_nodes":"73","size_leaf_vector":"1"}},{"base_weights":[-3.0416575E-1,-8.79287E0,1.7765576E0,-7.7434034E0,-2.0303862E1,3.9628527E-1,8.817497E0,-1.1237725E1,-4.686072E0,-2.5602325E1,-2.2832344E-1,-3.4111947E-1,1.1162362E1,6.793477E0,2.7302559E1,-1.2770076E1,6.5525107E0,-6.716043E-1,-1.0327716E1,-5.89281E-1,-1.4648943E0,6.9664663E-1,-5.405496E0,-1.6532482E0,2.2310081E1,1.1211225E1,9.1253614E-1,1.7387583E0,1.8192795E-1,-1.1608046E0,-1.0964995E1,-3.2071956E-2,6.066667E-1,2.3895502E0,-9.20473E0,-1.2437411E1,5.608239E-1,1.5549643E0,-6.6930585E0,3.8075657E0,-8.774299E0,8.462406E0,-1.789703E1,2.6862316E1,7.200094E-2,1.3991034E1,3.1699977E0,-4.132014E0,1.559564E1,-6.108343E-1,1.6813767E-1,-1.5168346E-1,4.2558876E-1,-7.891109E-2,-1.0182394E0,1.1157677E-1,-7.439291E-1,4.0866244E-3,2.7170977E-1,-1.3265072E-1,-7.805547E-1,4.05886E-1,-2.3762417E-1,-1.0115426E0,-2.905817E-1,1.1648765E0,8.360584E-2,-6.2376674E-2,-1.3808612E0,8.640051E-1,2.1565032E0,-1.7687744E-2,7.652709E-1,-4.3911885E-2,5.7147545E-1,2.5099546E-2,-5.63881E-1,5.3374153E-2,1.2264901E0],"categories":[],"categories_nodes":[],"categories_segments":[],"categories_sizes":[],"default_left":[0,0,0,0,0,0,0,0,0,0,0,0,0,0,0,0,0,0,0,0,0,0,0,0,0,0,0,0,0,0,0,0,0,0,0,0,0,0,0,0,0,0,0,0,0,0,0,0,0,0,0,0,0,0,0,0,0,0,0,0,0,0,0,0,0,0,0,0,0,0,0,0,0,0,0,0,0,0,0],"id":1,"left_children":[1,3,5,7,9,11,13,15,17,19,-1,21,23,25,27,29,31,33,35,-1,-1,37,39,41,43,45,47,-1,-1,-1,49,-1,-1,51,53,55,-1,57,59,61,63,65,67,69,-1,71,73,75,77,-1,-1,-1,-1,-1,-1,-1,-1,-1,-1,-1,-1,-1,-1,-1,-1,-1,-1,-1,-1,-1,-1,-1,-1,-1,-1,-1,-1,-1,-1],"loss_changes":[1.6778172E4,2.0990088E3,7.4107334E3,1.793958E3,1.1308306E3,5.077883E3,4.487877E3,2.265168E3,2.1208943E3,2.1226318E2,0E0,3.152364E3,5.896408E3,2.9503354E3,1.9916074E3,1.1373545E3,2.89969E2,1.4854647E3,1.9122422E3,0E0,0E0,3.1685654E3,3.1996782E3,3.4387253E3,2.0486064E3,1.4068828E3,3.7690703E3,0E0,0E0,0E0,1.2076719E3,0E0,0E0,1.4208606E3,1.2423496E3,1.3236045E3,0E0,2.5536123E3,1.8302786E3,1.0719795E3,2.4254658E3,1.2680989E3,1.2573503E3,2.0545264E3,0E0,9.119287E2,6.129489E2,1.2650242E3,1.658615E3,0E0,0E0,0E0,0E0,0E0,0E0,0E0,0E0,0E0,0E0,0E0,0E0,0E0,0E0,0E0,0E0,0E0,0E0,0E0,0E0,0E0,0E0,0E0,0E0,0E0,0E0,0E0,0E0,0E0,0E0],"parents":[2147483647,0,0,1,1,2,2,3,3,4,4,5,5,6,6,7,7,8,8,9,9,11,11,12,12,13,13,14,14,15,15,16,16,17,17,18,18,21,21,22,22,23,23,24,24,25,25,26,26,30,30,33,33,34,34,35,35,37,37,38,38,39,39,40,40,41,41,42,42,43,43,45,45,46,46,47,47,48,48],"right_children":[2,4,6,8,10,12,14,16,18,20,-1,22,24,26,28,30,32,34,36,-1,-1,38,40,42,44,46,48,-1,-1,-1,50,-1,-1,52,54,56,-1,58,60,62,64,66,68,70,-1,72,74,76,78,-1,-1,-1,-1,-1,-1,-1,-1,-1,-1,-1,-1,-1,-1,-1,-1,-1,-1,-1,-1,-1,-1,-1,-1,-1,-1,-1,-1,-1,-1],"split_conditions":[1.3728174E2,4.5E0,7.7883423E3,7.2765E3,7.6E0,7.7515625E3,7.095E1,2.104E2,7.5808374E3,6.79E1,-2.2832344E-1,2.193E2,2.064E2,8.122424E1,7.28E1,6.90004E3,-2.4E0,6.795E1,7.8391074E3,-5.89281E-1,-1.4648943E0,2.75E1,-2.7E1,2.045E2,7.776449E1,2.4E0,8.34606E3,1.7387583E0,1.8192795E-1,-1.1608046E0,6.508693E1,-3.2071956E-2,6.066667E-1,1.69E0,-1E-1,-3.6E0,5.608239E-1,6.88E1,1.969E2,6.785E1,2.201E2,6.935E1,-8.28E0,6.99E1,7.200094E-2,-6.1E0,2.354E2,2.347E2,-1.41E0,-6.108343E-1,1.6813767E-1,-1.5168346E-1,4.2558876E-1,-7.891109E-2,-1.0182394E0,1.1157677E-1,-7.439291E-1,4.0866244E-3,2.7170977E-1,-1.3265072E-1,-7.805547E-1,4.05886E-1,-2.3762417E-1,-1.0115426E0,-2.905817E-1,1.1648765E0,8.360584E-2,-6.2376674E-2,-1.3808612E0,8.640051E-1,2.1565032E0,-1.7687744E-2,7.652709E-1,-4.3911885E-2,5.7147545E-1,2.5099546E-2,-5.63881E-1,5.3374153E-2,1.2264901E0],"split_indices":[28,11,21,22,11,22,13,17,22,3,0,18,17,26,3,22,11,13,22,0,0,25,12,17,26,11,21,0,0,0,29,0,0,10,11,11,0,3,18,13,18,13,5,3,0,11,17,17,10,0,0,0,0,0,0,0,0,0,0,0,0,0,0,0,0,0,0,0,0,0,0,0,0,0,0,0,0,0,0],"split_type":[0,0,0,0,0,0,0,0,0,0,0,0,0,0,0,0,0,0,0,0,0,0,0,0,0,0,0,0,0,0,0,0,0,0,0,0,0,0,0,0,0,0,0,0,0,0,0,0,0,0,0,0,0,0,0,0,0,0,0,0,0,0,0,0,0,0,0,0,0,0,0,0,0,0,0,0,0,0,0],"sum_hessian":[9.48E2,1.86E2,7.62E2,1.72E2,1.4E1,6.38E2,1.24E2,7.9E1,9.3E1,1E1,4E0,5.98E2,4E1,1.13E2,1.1E1,7.3E1,6E0,5.5E1,3.8E1,3E0,7E0,4.97E2,1.01E2,1.9E1,2.1E1,6.4E1,4.9E1,8E0,3E0,9E0,6.4E1,3E0,3E0,4.1E1,1.4E1,3.5E1,3E0,4.46E2,5.1E1,2.7E1,7.4E1,1.2E1,7E0,1.7E1,4E0,4.7E1,1.7E1,3.7E1,1.2E1,5.9E1,5E0,2.2E1,1.9E1,9E0,5E0,5E0,3E1,3.24E2,1.22E2,3.6E1,1.5E1,1.8E1,9E0,1.4E1,6E1,3E0,9E0,3E0,4E0,1.2E1,5E0,4E0,4.3E1,1.2E1,5E0,2.3E1,1.4E1,5E0,7E0],"tree_param":{"num_deleted":"0","num_feature":"38","num_nodes":"79","size_leaf_vector":"1"}},{"base_weights":[5.1543377E-2,-7.226923E0,1.842643E0,-8.437471E0,2.2861872E0,9.2760724E-1,1.2561936E1,-7.238219E0,-1.7392794E1,-4.197383E-1,5.927336E0,-6.8681633E-1,6.0926805E0,2.2770838E1,9.533236E0,-1.2225608E1,-5.598883E0,-2.2392395E1,-7.706794E0,-4.975671E-1,1.0047863E1,-1.6059082E1,-3.947379E-1,1.0352244E0,1.1641691E1,6.357878E-1,1.4779328E0,3.311725E0,1.6730852E1,-9.236087E0,-1.9064753E1,7.896053E0,-6.6928034E0,-1.3294799E0,-3.662797E-1,5.20593E-1,-1.0340179E0,7.443725E-2,1.4626401E1,-5.4119628E-2,-1.292324E0,-1.1040484E0,-1.8726003E-1,2.07292E0,-1.075452E0,1.2839274E1,-7.148601E-1,7.454249E0,-6.206409E-1,2.0260439E1,-2.0961998E-1,-6.0987854E-3,-8.256289E-1,-3.1725043E-1,-1.3235208E0,-2.3190525E-1,7.476408E-1,-7.8133E-1,-2.2161546E-1,2.0551975E-1,9.591336E-1,-2.3286557E-2,5.404175E-1,2.7180225E-2,6.220781E-1,4.267098E-1,1.0993282E0,6.720453E-1,6.684796E-2,1.4968368E0,7.329569E-1],"categories":[],"categories_nodes":[],"categories_segments":[],"categories_sizes":[],"default_left":[0,0,0,0,0,0,0,0,0,0,0,0,0,0,0,0,0,0,0,0,0,0,0,0,0,0,0,0,0,0,0,0,0,0,0,0,0,0,0,0,0,0,0,0,0,0,0,0,0,0,0,0,0,0,0,0,0,0,0,0,0,0,0,0,0,0,0,0,0,0,0],"id":2,"left_children":[1,3,5,7,9,11,13,15,17,-1,19,21,23,25,27,29,31,33,35,-1,37,39,41,43,45,-1,-1,47,49,51,53,55,57,-1,-1,-1,-1,-1,59,-1,-1,-1,61,63,-1,65,-1,67,-1,69,-1,-1,-1,-1,-1,-1,-1,-1,-1,-1,-1,-1,-1,-1,-1,-1,-1,-1,-1,-1,-1],"loss_changes":[1.2410451E4,2.1849268E3,7.4807217E3,1.6651738E3,9.051127E2,5.883449E3,1.6348711E3,1.1479917E3,7.445132E2,0E0,1.2122842E3,2.4075857E3,4.7014116E3,5.0718896E2,2.0920298E3,5.571338E2,1.7356382E3,5.606846E2,2.0968555E3,0E0,5.25249E2,1.4351587E3,2.373828E3,2.1247163E3,2.668537E3,0E0,0E0,1.8507932E3,1.7112563E3,1.7869285E3,7.707451E2,8.664394E2,2.0693804E3,0E0,0E0,0E0,0E0,0E0,3.5004614E2,0E0,0E0,0E0,1.6115282E3,1.3556339E3,0E0,2.8415547E3,0E0,7.862389E2,0E0,5.864907E2,0E0,0E0,0E0,0E0,0E0,0E0,0E0,0E0,0E0,0E0,0E0,0E0,0E0,0E0,0E0,0E0,0E0,0E0,0E0,0E0,0E0],"parents":[2147483647,0,0,1,1,2,2,3,3,4,4,5,5,6,6,7,7,8,8,10,10,11,11,12,12,13,13,14,14,15,15,16,16,17,17,18,18,20,20,21,21,22,22,23,23,24,24,27,27,28,28,29,29,30,30,31,31,32,32,38,38,42,42,43,43,45,45,47,47,49,49],"right_children":[2,4,6,8,10,12,14,16,18,-1,20,22,24,26,28,30,32,34,36,-1,38,40,42,44,46,-1,-1,48,50,52,54,56,58,-1,-1,-1,-1,-1,60,-1,-1,-1,62,64,-1,66,-1,68,-1,70,-1,-1,-1,-1,-1,-1,-1,-1,-1,-1,-1,-1,-1,-1,-1,-1,-1,-1,-1,-1,-1],"split_conditions":[1.3728174E2,6.85E1,7.999128E1,1E0,6.725E1,2.52E2,-9.8E1,9.53E1,1.002E2,-4.197383E-1,1.92E2,6.22363E3,6.845E1,6.94E1,1.63E1,-9.3E0,1.935E2,7.6E0,1.998E2,-4.975671E-1,1.105E2,6.55E1,-1.17E1,7.54245E3,7.42E1,6.357878E-1,1.4779328E0,7.09E1,2.049E2,1.088E2,9.85E1,1.902E2,6.423885E1,-1.3294799E0,-3.662797E-1,5.20593E-1,-1.0340179E0,7.443725E-2,6.59E1,-5.4119628E-2,-1.292324E0,-1.1040484E0,1.142E2,7.3371377E3,-1.075452E0,9E-1,-7.148601E-1,2.87E1,-6.206409E-1,8.0672627E3,-2.0961998E-1,-6.0987854E-3,-8.256289E-1,-3.1725043E-1,-1.3235208E0,-2.3190525E-1,7.476408E-1,-7.8133E-1,-2.2161546E-1,2.0551975E-1,9.591336E-1,-2.3286557E-2,5.404175E-1,2.7180225E-2,6.220781E-1,4.267098E-1,1.0993282E0,6.720453E-1,6.684796E-2,1.4968368E0,7.329569E-1],"split_indices":[28,8,27,36,13,9,12,6,6,0,17,22,13,8,15,16,17,11,17,0,2,13,16,21,3,0,0,3,18,2,2,17,26,0,0,0,0,0,3,0,0,0,2,21,0,11,0,25,0,21,0,0,0,0,0,0,0,0,0,0,0,0,0,0,0,0,0,0,0,0,0],"split_type":[0,0,0,0,0,0,0,0,0,0,0,0,0,0,0,0,0,0,0,0,0,0,0,0,0,0,0,0,0,0,0,0,0,0,0,0,0,0,0,0,0,0,0,0,0,0,0,0,0,0,0,0,0,0,0,0,0,0,0,0,0,0,0,0,0,0,0,0,0,0,0],"sum_hessian":[9.5E2,1.87E2,7.63E2,1.66E2,2.1E1,7.04E2,5.9E1,1.48E2,1.8E1,5E0,1.6E1,5.37E2,1.67E2,1.2E1,4.7E1,3.5E1,1.13E2,1.1E1,7E0,3E0,1.3E1,9E0,5.28E2,8.8E1,7.9E1,6E0,6E0,2.6E1,2.1E1,2.6E1,9E0,8E0,1.05E2,8E0,3E0,3E0,4E0,5E0,8E0,4E0,5E0,4E0,5.24E2,8.5E1,3E0,7.6E1,3E0,2.1E1,5E0,1.8E1,3E0,1.2E1,1.4E1,4E0,5E0,3E0,5E0,2E1,8.5E1,3E0,5E0,5.12E2,1.2E1,7.5E1,1E1,5.3E1,2.3E1,1E1,1.1E1,5E0,1.3E1],"tree_param":{"num_deleted":"0","num_feature":"38","num_nodes":"71","size_leaf_vector":"1"}},{"base_weights":[-2.102351E-1,-3.4878016E0,3.2266018E0,-8.656372E0,-2.3077614E0,2.1682708E0,1.4972902E1,-1.5657534E1,-6.2308993E0,-7.4157705E0,-1.1841313E0,2.6795923E1,1.6451E0,-7.264372E-1,1.9741636E1,-8.709006E-2,-1.8490225E1,3.089506E0,-8.022661E0,-1.7039492E1,-3.9545624E0,3.028653E0,-3.1026452E0,8.046525E-1,1.8063126E0,6.2277615E-1,1.0119121E1,7.200594E0,2.466288E1,-1.0021538E1,-2.372913E1,-3.5108886E0,8.596509E-1,-1.5228663E1,-5.217691E0,-1.1866962E1,-1.2098559E0,-1.5147194E0,-8.1227297E-1,4.8841494E-1,9.993293E0,1.4236265E0,-5.5734615E0,-1.3821077E1,1.1678874E0,-5.054055E-1,1.2288573E1,-1.6360985E-1,6.833394E-1,2.6788324E-1,2.9455954E1,-7.9559517E-1,-1.0534324E-1,-5.848534E-1,-1.445965E0,1.3529609E-1,-4.5227605E-1,-9.1282225E-1,-7.7810556E-2,-5.5355966E-1,-3.6780264E-2,-8.6133426E-1,6.6965334E-3,9.1327316E-1,-1.6403826E-1,7.667685E-2,-6.145987E-1,9.4213915E-1,1.5764351E-1,-4.8503786E-1,1.8307824E-1,-8.6022216E-1,-2.26048E-1,-0E0,-8.7992805E-1,5.087038E-1,5.3056288E-3,8.5466826E-1,3.071818E-1,7.4606645E-1,1.8341354E0],"categories":[],"categories_nodes":[],"categories_segments":[],"categories_sizes":[],"default_left":[0,0,0,0,0,0,0,0,0,0,0,0,0,0,0,0,0,0,0,0,0,0,0,0,0,0,0,0,0,0,0,0,0,0,0,0,0,0,0,0,0,0,0,0,0,0,0,0,0,0,0,0,0,0,0,0,0,0,0,0,0,0,0,0,0,0,0,0,0,0,0,0,0,0,0,0,0,0,0,0,0],"id":3,"left_children":[1,3,5,7,9,11,13,15,17,19,21,23,25,-1,27,-1,29,31,33,35,37,39,41,-1,-1,43,45,47,49,51,53,55,-1,57,59,61,-1,63,-1,65,67,69,71,73,75,-1,77,-1,-1,-1,79,-1,-1,-1,-1,-1,-1,-1,-1,-1,-1,-1,-1,-1,-1,-1,-1,-1,-1,-1,-1,-1,-1,-1,-1,-1,-1,-1,-1,-1,-1],"loss_changes":[1.0937807E4,3.01019E3,5.858338E3,1.4625142E3,2.3206008E3,5.570703E3,5.774079E3,8.7240674E2,1.1942756E3,2.3621248E3,2.7088875E3,3.1214844E2,3.7004707E3,0E0,1.9176221E3,0E0,6.0178955E2,1.1787959E3,1.1110417E3,4.1268506E2,1.622949E3,1.8517144E3,2.5805742E3,0E0,0E0,3.0304292E3,2.1430054E3,7.9067E2,2.059455E3,3.842566E2,3.445996E2,3.3478027E2,0E0,6.319624E2,1.1450548E3,8.401953E2,0E0,1.7002633E3,0E0,1.0596255E3,1.6333508E3,2.0763623E3,1.7440493E3,7.324927E2,3.536034E3,0E0,1.1327173E3,0E0,0E0,0E0,1.443209E3,0E0,0E0,0E0,0E0,0E0,0E0,0E0,0E0,0E0,0E0,0E0,0E0,0E0,0E0,0E0,0E0,0E0,0E0,0E0,0E0,0E0,0E0,0E0,0E0,0E0,0E0,0E0,0E0,0E0,0E0],"parents":[2147483647,0,0,1,1,2,2,3,3,4,4,5,5,6,6,7,7,8,8,9,9,10,10,11,11,12,12,14,14,16,16,17,17,18,18,19,19,20,20,21,21,22,22,25,25,26,26,27,27,28,28,29,29,30,30,31,31,33,33,34,34,35,35,37,37,39,39,40,40,41,41,42,42,43,43,44,44,46,46,50,50],"right_children":[2,4,6,8,10,12,14,16,18,20,22,24,26,-1,28,-1,30,32,34,36,38,40,42,-1,-1,44,46,48,50,52,54,56,-1,58,60,62,-1,64,-1,66,68,70,72,74,76,-1,78,-1,-1,-1,80,-1,-1,-1,-1,-1,-1,-1,-1,-1,-1,-1,-1,-1,-1,-1,-1,-1,-1,-1,-1,-1,-1,-1,-1,-1,-1,-1,-1,-1,-1],"split_conditions":[1.4495515E2,6.67812E3,7.074914E1,1.072E2,1.042E2,-1.32E1,2.053E2,9.85E1,-2.7E0,6.3283695E1,1.086E2,7.01E1,1.196E2,-7.264372E-1,1.026E2,-8.709006E-2,-1.7E0,1.137E2,6.57E1,-8.5E0,7.156475E1,4.4E1,-1.241E1,8.046525E-1,1.8063126E0,-6.8E0,6.555E1,6.6E0,-7.83E0,-2.9E0,6.552075E3,1.122E2,8.596509E-1,6.60372E3,5.6548565E1,-1.05E1,-1.2098559E0,6.524735E3,-8.1227297E-1,8.4E0,9E-1,-2.242E1,5.9454414E1,6.83E1,1.067E2,-5.054055E-1,6.8E1,-1.6360985E-1,6.833394E-1,2.6788324E-1,7.11E1,-7.9559517E-1,-1.0534324E-1,-5.848534E-1,-1.445965E0,1.3529609E-1,-4.5227605E-1,-9.1282225E-1,-7.7810556E-2,-5.5355966E-1,-3.6780264E-2,-8.6133426E-1,6.6965334E-3,9.1327316E-1,-1.6403826E-1,7.667685E-2,-6.145987E-1,9.4213915E-1,1.5764351E-1,-4.8503786E-1,1.8307824E-1,-8.6022216E-1,-2.26048E-1,-0E0,-8.7992805E-1,5.087038E-1,5.3056288E-3,8.5466826E-1,3.071818E-1,7.4606645E-1,1.8341354E0],"split_indices":[28,21,14,2,7,25,17,2,11,30,7,3,6,0,2,0,11,2,3,16,30,12,5,0,0,25,13,15,10,11,21,2,0,21,30,16,0,22,0,25,15,5,30,3,1,0,3,0,0,0,13,0,0,0,0,0,0,0,0,0,0,0,0,0,0,0,0,0,0,0,0,0,0,0,0,0,0,0,0,0,0],"split_type":[0,0,0,0,0,0,0,0,0,0,0,0,0,0,0,0,0,0,0,0,0,0,0,0,0,0,0,0,0,0,0,0,0,0,0,0,0,0,0,0,0,0,0,0,0,0,0,0,0,0,0,0,0,0,0,0,0,0,0,0,0,0,0,0,0,0,0,0,0,0,0,0,0,0,0,0,0,0,0,0,0],"sum_hessian":[9.69E2,4.96E2,4.73E2,9.1E1,4.05E2,4.35E2,3.8E1,2.2E1,6.9E1,7.2E1,3.33E2,8E0,4.27E2,5E0,3.3E1,4E0,1.8E1,1.1E1,5.8E1,1.8E1,5.4E1,1.04E2,2.29E2,5E0,3E0,3.82E2,4.5E1,1E1,2.3E1,8E0,1E1,8E0,3E0,1.5E1,4.3E1,1.2E1,6E0,4.6E1,8E0,7.7E1,2.7E1,8.1E1,1.48E2,1.3E1,3.69E2,4E0,4.1E1,4E0,6E0,5E0,1.8E1,4E0,4E0,4E0,6E0,4E0,4E0,1.2E1,3E0,1.8E1,2.5E1,8E0,4E0,3E0,4.3E1,7.2E1,5E0,1.1E1,1.6E1,1.3E1,6.8E1,1.1E1,1.37E2,3E0,1E1,3.8E1,3.31E2,2.2E1,1.9E1,7E0,1.1E1],"tree_param":{"num_deleted":"0","num_feature":"38","num_nodes":"81","size_leaf_vector":"1"}},{"base_weights":[-1.5155145E-2,-2.0990877E0,5.4439507E0,-7.870295E0,-2.3747498E-1,2.2513125E0,1.0225717E1,-6.5902786E0,-1.6060846E1,-1.0915097E1,2.3167704E-1,6.33788E0,-1.4716691E0,7.877071E0,1.8723925E1,-9.898358E0,-2.0208013E0,-1.9803654E1,2.8538522E-1,-2.0541317E0,-1.8119724E1,-4.244941E-2,1.716375E0,8.695647E0,-3.8234177E0,5.256681E-1,-2.353176E1,6.2557077E0,1.7075607E1,7.387768E0,2.754674E1,-1.13506775E1,8.945748E-1,-1.02983265E1,1.7853649E0,-6.663673E-2,-2.3177406E1,-9.8563795E0,7.019448E-1,-6.870275E0,-1.4103731E0,-4.895422E0,7.3614955E-1,6.8559637E0,1.6816037E0,-7.9708624E-1,3.8199089E0,1.0729129E1,-2.2789207E0,-3.4737423E-1,-1.7104046E0,7.833482E0,-4.4576163E0,1.3487971E0,8.740947E0,1.2406064E0,-2.2353828E0,1.5951064E0,7.5243855E-1,-8.2745564E-1,-4.126273E-1,-1.8219684E-1,4.8864776E-1,3.3266172E-1,-6.843514E-1,2.987251E-1,-3.805482E-1,-1.5839425E0,-8.847677E-1,-7.474775E-1,-1.8952842E-1,-1.0238502E-1,-4.9751407E-1,2.2394796E-1,-4.4075742E-1,5.7345045E-1,3.6599885E-3,5.080792E-1,4.1503888E-2,-1.0641167E-1,5.106849E-1,1.2562229E-1,9.823171E-1,-7.4886775E-1,3.758351E-2,4.5078188E-1,-1.5331535E-1,-3.6560053E-1,-6.041016E-3,4.2987883E-2,8.1910986E-1,-5.449786E-1,2.5615224E-1],"categories":[],"categories_nodes":[],"categories_segments":[],"categories_sizes":[],"default_left":[0,0,0,0,0,0,0,0,0,0,0,0,0,0,0,0,0,0,0,0,0,0,0,0,0,0,0,0,0,0,0,0,0,0,0,0,0,0,0,0,0,0,0,0,0,0,0,0,0,0,0,0,0,0,0,0,0,0,0,0,0,0,0,0,0,0,0,0,0,0,0,0,0,0,0,0,0,0,0,0,0,0,0,0,0,0,0,0,0,0,0,0,0],"id":4,"left_children":[1,3,5,7,9,11,13,15,17,19,21,23,25,27,29,31,33,35,-1,37,39,41,-1,43,45,47,49,51,53,55,57,59,61,63,65,-1,67,69,-1,71,-1,73,75,77,-1,-1,79,81,83,-1,-1,85,87,-1,89,-1,91,-1,-1,-1,-1,-1,-1,-1,-1,-1,-1,-1,-1,-1,-1,-1,-1,-1,-1,-1,-1,-1,-1,-1,-1,-1,-1,-1,-1,-1,-1,-1,-1,-1,-1,-1,-1],"loss_changes":[1.0830057E4,7.3997666E3,3.9908066E3,1.653209E3,2.6185186E3,2.428874E3,1.9455752E3,2.2008867E3,1.9069038E3,1.3652412E3,4.687516E3,1.8545403E3,3.715831E3,1.1436367E3,1.9933672E3,1.3435557E3,2.0040927E3,1.150669E3,0E0,1.519134E3,1.1644766E3,1.8857225E3,0E0,2.6096304E3,1.4514707E3,2.257384E3,9.9763916E2,1.26919E3,7.508242E2,1.9021719E3,1.6841895E2,1.0688555E3,4.7946588E2,1.2406416E3,1.7772585E3,0E0,1.8017969E2,1.886123E2,0E0,8.23999E1,0E0,2.575322E3,3.0576055E3,1.1657036E3,0E0,0E0,4.0285733E2,1.1940122E3,2.3986738E3,0E0,0E0,8.5289526E2,1.22162506E2,0E0,4.6596814E2,0E0,5.6645514E2,0E0,0E0,0E0,0E0,0E0,0E0,0E0,0E0,0E0,0E0,0E0,0E0,0E0,0E0,0E0,0E0,0E0,0E0,0E0,0E0,0E0,0E0,0E0,0E0,0E0,0E0,0E0,0E0,0E0,0E0,0E0,0E0,0E0,0E0,0E0,0E0],"parents":[2147483647,0,0,1,1,2,2,3,3,4,4,5,5,6,6,7,7,8,8,9,9,10,10,11,11,12,12,13,13,14,14,15,15,16,16,17,17,19,19,20,20,21,21,23,23,24,24,25,25,26,26,27,27,28,28,29,29,30,30,31,31,32,32,33,33,34,34,36,36,37,37,39,39,41,41,42,42,43,43,46,46,47,47,48,48,51,51,52,52,54,54,56,56],"right_children":[2,4,6,8,10,12,14,16,18,20,22,24,26,28,30,32,34,36,-1,38,40,42,-1,44,46,48,50,52,54,56,58,60,62,64,66,-1,68,70,-1,72,-1,74,76,78,-1,-1,80,82,84,-1,-1,86,88,-1,90,-1,92,-1,-1,-1,-1,-1,-1,-1,-1,-1,-1,-1,-1,-1,-1,-1,-1,-1,-1,-1,-1,-1,-1,-1,-1,-1,-1,-1,-1,-1,-1,-1,-1,-1,-1,-1,-1],"split_conditions":[6.9E1,1.3728174E2,7.5449473E3,6.804469E1,5.9714996E1,-6.92E0,7.06E1,7.25724E3,6.93E1,5.9168E1,7.8774E3,1.152E2,7.67832E3,1.192E2,2.64E0,2.104E2,5.6548565E1,5.5741283E1,2.8538522E-1,7.0315E3,-1.094E1,-5.61E0,1.716375E0,6E-1,2.206E2,1.001E2,2.053E2,8.1679184E1,1.09E1,-6.6E1,7.165E1,6.56E1,8.09E0,-3.3E0,-1.89E1,-6.663673E-2,1.094E2,1.054E2,7.019448E-1,6.815E1,-1.4103731E0,-1.32E1,1.028E2,6.935E1,1.6816037E0,-7.9708624E-1,-3.2E0,-1.522E1,-4E0,-3.4737423E-1,-1.7104046E0,1.108E2,2.321E2,1.3487971E0,2.006E1,1.2406064E0,-7.83E0,1.5951064E0,7.5243855E-1,-8.2745564E-1,-4.126273E-1,-1.8219684E-1,4.8864776E-1,3.3266172E-1,-6.843514E-1,2.987251E-1,-3.805482E-1,-1.5839425E0,-8.847677E-1,-7.474775E-1,-1.8952842E-1,-1.0238502E-1,-4.9751407E-1,2.2394796E-1,-4.4075742E-1,5.7345045E-1,3.6599885E-3,5.080792E-1,4.1503888E-2,-1.0641167E-1,5.106849E-1,1.2562229E-1,9.823171E-1,-7.4886775E-1,3.758351E-2,4.5078188E-1,-1.5331535E-1,-3.6560053E-1,-6.041016E-3,4.2987883E-2,8.1910986E-1,-5.449786E-1,2.5615224E-1],"split_indices":[8,28,21,14,30,5,13,22,13,30,22,7,22,1,10,17,30,29,0,21,0,0,0,11,18,1,17,26,16,12,13,13,0,11,25,0,2,1,0,13,0,25,1,13,0,0,11,10,16,0,0,7,17,0,5,0,10,0,0,0,0,0,0,0,0,0,0,0,0,0,0,0,0,0,0,0,0,0,0,0,0,0,0,0,0,0,0,0,0,0,0,0,0],"split_type":[0,0,0,0,0,0,0,0,0,0,0,0,0,0,0,0,0,0,0,0,0,0,0,0,0,0,0,0,0,0,0,0,0,0,0,0,0,0,0,0,0,0,0,0,0,0,0,0,0,0,0,0,0,0,0,0,0,0,0,0,0,0,0,0,0,0,0,0,0,0,0,0,0,0,0,0,0,0,0,0,0,0,0,0,0,0,0,0,0,0,0,0,0],"sum_hessian":[9.5E2,6.88E2,2.62E2,1.67E2,5.21E2,1.58E2,1.04E2,1.46E2,2.1E1,2.1E1,5E2,7.5E1,8.3E1,8.3E1,2.1E1,8.4E1,6.2E1,1.8E1,3E0,1E1,1.1E1,4.97E2,3E0,6.1E1,1.4E1,7.7E1,6E0,7.2E1,1.1E1,1E1,1.1E1,7.4E1,1E1,1.9E1,4.3E1,3E0,1.5E1,7E0,3E0,6E0,5E0,6.8E1,4.29E2,5.8E1,3E0,5E0,9E0,1.6E1,6.1E1,3E0,3E0,6.3E1,9E0,4E0,7E0,3E0,7E0,7E0,4E0,2.6E1,4.8E1,7E0,3E0,3E0,1.6E1,3E1,1.3E1,4E0,1.1E1,3E0,4E0,3E0,3E0,2E1,4.8E1,2.4E1,4.05E2,3.7E1,2.1E1,5E0,4E0,9E0,7E0,1.1E1,5E1,5.7E1,6E0,5E0,4E0,4E0,3E0,3E0,4E0],"tree_param":{"num_deleted":"0","num_feature":"38","num_nodes":"93","size_leaf_vector":"1"}},{"base_weights":[2.4218197E-1,-2.630079E0,4.7371993E0,-4.456318E0,-2.3361337E-1,2.985471E0,1.4732456E1,-1.1057978E1,-3.147754E0,-2.0783515E0,5.979232E0,4.116322E0,-6.911193E0,1.226439E1,1.6825144E0,9.993248E-2,-1.2656045E1,-2.7249193E0,-9.798588E-1,1.4695193E1,-2.6673129E0,-1.6702046E-1,1.587829E1,3.551067E0,1.7142662E1,9.14747E0,-1.2207992E1,1.6779985E1,4.1954403E0,2.953164E-1,-3.5790223E-1,-9.048224E0,-1.7871119E1,-3.76077E0,3.40262E0,1.0325503E0,2.5202912E-1,-7.4913983E0,-1.2619073E0,2.338667E0,-1.1037515E0,1.3856013E0,1.1046029E1,-2.5247993E0,4.9242134E0,8.653989E0,1.5965756E0,1.1168904E0,-2.9261816E-1,1.4717245E-1,-1.5101137E1,2.3130981E1,1.3008638E1,-3.6594918E-1,8.52818E0,-5.857257E-1,-6.0895152E-2,-1.0553874E0,-2.283506E-1,-7.40198E-2,-3.8408196E-1,5.213003E-1,-5.2324396E-2,-6.071908E-1,-4.551417E-3,1.07170716E-1,-2.2400498E-1,2.6349613E-1,-5.062458E-1,3.6315268E-1,9.7045785E-1,-2.9117596E-1,8.3729696E-1,2.0313504E-1,9.558589E-1,7.640156E-1,-1.7119968E-1,-9.287986E-1,-2.4935341E-1,1.410703E0,3.5785416E-1,9.780162E-1,4.4567528E-1,2.521375E-1,7.235245E-1],"categories":[],"categories_nodes":[],"categories_segments":[],"categories_sizes":[],"default_left":[0,0,0,0,0,0,0,0,0,0,0,0,0,0,0,0,0,0,0,0,0,0,0,0,0,0,0,0,0,0,0,0,0,0,0,0,0,0,0,0,0,0,0,0,0,0,0,0,0,0,0,0,0,0,0,0,0,0,0,0,0,0,0,0,0,0,0,0,0,0,0,0,0,0,0,0,0,0,0,0,0,0,0,0,0],"id":5,"left_children":[1,3,5,7,9,11,13,15,17,19,21,23,25,27,-1,29,31,33,-1,35,37,39,41,43,45,47,49,51,53,-1,-1,55,57,59,61,-1,-1,63,65,67,-1,-1,69,71,73,75,-1,-1,-1,-1,77,79,81,-1,83,-1,-1,-1,-1,-1,-1,-1,-1,-1,-1,-1,-1,-1,-1,-1,-1,-1,-1,-1,-1,-1,-1,-1,-1,-1,-1,-1,-1,-1,-1],"loss_changes":[1.2716959E4,2.6287778E3,6.6776904E3,2.909566E3,3.0033767E3,3.6990317E3,2.2440635E3,1.001062E3,1.9336072E3,2.0335464E3,3.6547495E3,2.1092012E3,3.0040017E3,1.8221807E3,0E0,3.79294E2,7.5754395E2,1.7900527E3,0E0,2.958451E2,1.3185114E3,2.1395952E3,1.0052417E3,2.382099E3,1.2260593E3,1.9130535E3,1.1853838E3,4.8589258E2,1.0603186E3,0E0,0E0,6.3165454E2,7.191821E2,2.1335637E3,1.2930085E3,0E0,0E0,1.512574E3,1.6865603E3,1.33156E3,0E0,0E0,4.2583813E2,3.4655728E3,2.7567754E3,7.7379895E2,0E0,0E0,0E0,0E0,6.781875E2,6.876948E2,4.3989185E2,0E0,2.3575024E2,0E0,0E0,0E0,0E0,0E0,0E0,0E0,0E0,0E0,0E0,0E0,0E0,0E0,0E0,0E0,0E0,0E0,0E0,0E0,0E0,0E0,0E0,0E0,0E0,0E0,0E0,0E0,0E0,0E0,0E0],"parents":[2147483647,0,0,1,1,2,2,3,3,4,4,5,5,6,6,7,7,8,8,9,9,10,10,11,11,12,12,13,13,15,15,16,16,17,17,19,19,20,20,21,21,22,22,23,23,24,24,25,25,26,26,27,27,28,28,31,31,32,32,33,33,34,34,37,37,38,38,39,39,42,42,43,43,44,44,45,45,50,50,51,51,52,52,54,54],"right_children":[2,4,6,8,10,12,14,16,18,20,22,24,26,28,-1,30,32,34,-1,36,38,40,42,44,46,48,50,52,54,-1,-1,56,58,60,62,-1,-1,64,66,68,-1,-1,70,72,74,76,-1,-1,-1,-1,78,80,82,-1,84,-1,-1,-1,-1,-1,-1,-1,-1,-1,-1,-1,-1,-1,-1,-1,-1,-1,-1,-1,-1,-1,-1,-1,-1,-1,-1,-1,-1,-1,-1],"split_conditions":[6.81E1,2.149E2,7.950508E1,1.042E2,7.06944E3,4.4E0,8.661188E1,1E0,7.20336E3,6.602624E1,6.97632E1,2.28E2,1E0,1.218E1,1.6825144E0,1.2E0,1.029E2,1.3087637E2,-9.798588E-1,6.62E1,7.272311E1,1.145E2,4.7E0,-9E0,6.94E1,1.043E2,7.15E1,9.94E1,8.182406E1,2.953164E-1,-3.5790223E-1,1.018E2,6.8E1,6.2613125E1,1.034E2,1.0325503E0,2.5202912E-1,-5.81E0,7.671706E1,7.107369E1,-1.1037515E0,1.3856013E0,7.6859085E1,1.054E2,7.13E1,2.322E2,1.5965756E0,1.1168904E0,-2.9261816E-1,1.4717245E-1,1.397E1,1.72E1,6.8E1,-3.6594918E-1,2.64E0,-5.857257E-1,-6.0895152E-2,-1.0553874E0,-2.283506E-1,-7.40198E-2,-3.8408196E-1,5.213003E-1,-5.2324396E-2,-6.071908E-1,-4.551417E-3,1.07170716E-1,-2.2400498E-1,2.6349613E-1,-5.062458E-1,3.6315268E-1,9.7045785E-1,-2.9117596E-1,8.3729696E-1,2.0313504E-1,9.558589E-1,7.640156E-1,-1.7119968E-1,-9.287986E-1,-2.4935341E-1,1.410703E0,3.5785416E-1,9.780162E-1,4.4567528E-1,2.521375E-1,7.235245E-1],"split_indices":[13,17,27,7,22,11,26,37,21,27,29,18,37,0,0,15,7,31,0,13,26,1,25,15,3,1,3,7,30,0,0,7,3,29,6,0,0,10,26,30,0,0,27,6,13,18,0,0,0,0,10,15,3,0,10,0,0,0,0,0,0,0,0,0,0,0,0,0,0,0,0,0,0,0,0,0,0,0,0,0,0,0,0,0,0],"split_type":[0,0,0,0,0,0,0,0,0,0,0,0,0,0,0,0,0,0,0,0,0,0,0,0,0,0,0,0,0,0,0,0,0,0,0,0,0,0,0,0,0,0,0,0,0,0,0,0,0,0,0,0,0,0,0,0,0,0,0,0,0,0,0,0,0,0,0,0,0,0,0,0,0,0,0,0,0,0,0,0,0,0,0,0,0],"sum_hessian":[9.83E2,6E2,3.83E2,3.4E2,2.6E2,3.27E2,5.6E1,5.5E1,2.85E2,2.01E2,5.9E1,2.94E2,3.3E1,5.1E1,5E0,7E0,4.8E1,2.79E2,6E0,6E0,1.95E2,3.7E1,2.2E1,2.83E2,1.1E1,8E0,2.5E1,3.2E1,1.9E1,4E0,3E0,3E1,1.8E1,2.39E2,4E1,3E0,3E0,4.3E1,1.52E2,3.4E1,3E0,5E0,1.7E1,5.2E1,2.31E2,8E0,3E0,4E0,4E0,4E0,2.1E1,1E1,2.2E1,5E0,1.4E1,2.2E1,8E0,1.4E1,4E0,1.52E2,8.7E1,1.5E1,2.5E1,2.6E1,1.7E1,7.4E1,7.8E1,2.8E1,6E0,1.3E1,4E0,4.5E1,7E0,2.19E2,1.2E1,5E0,3E0,1.5E1,6E0,7E0,3E0,7E0,1.5E1,1E1,4E0],"tree_param":{"num_deleted":"0","num_feature":"38","num_nodes":"85","size_leaf_vector":"1"}},{"base_weights":[-4.5552066E-1,-8.133389E0,4.5658433E-1,-1.0367035E1,-2.9201963E0,-3.074011E-1,8.813027E0,-1.6822206E1,-8.18149E0,4.4598722E0,-7.003083E0,-1.2927512E0,3.5675526E0,7.1884923E0,1.2734084E0,-1.9293526E-1,-1.9317335E1,4.7649774E-1,-9.388496E0,-1.5778307E0,8.4773684E-1,-1.3746958E1,-1.7878563E0,-4.6064873E0,1.8444504E-1,-1.794301E1,4.969129E0,1.1893558E1,3.2821648E0,-2.2483404E1,-2.8781554E-1,-1.2050803E1,-1.2943196E0,2.0995271E-1,-4.9368507E-1,-2.4486263E-1,-8.669467E-1,-5.2466865E0,3.6405915E-1,2.9632165E0,-6.2341943E0,-9.119046E0,1.0194606E0,-1.2886602E0,1.1028938E-2,2.7724774E0,1.4516118E1,-2.2213142E-1,1.3876935E1,-4.688037E-1,4.637902E0,-1.2875243E0,-5.1516944E-1,-6.828314E-2,-6.6150427E-1,-6.958701E-1,1.7022334E-1,-4.1979652E-2,-4.7329307E-1,-2.5533363E-1,4.6379834E-1,-3.4127972E-1,6.7221624E-1,1.7511258E-1,-6.729781E-1,-5.9992958E-2,2.2566317E-1,4.1303587E-1,-7.196588E-2,1.5241011E0,4.3858448E-1,1.2018664E0,4.912285E-1,6.8021244E-1,9.534388E-2],"categories":[],"categories_nodes":[],"categories_segments":[],"categories_sizes":[],"default_left":[0,0,0,0,0,0,0,0,0,0,0,0,0,0,0,0,0,0,0,0,0,0,0,0,0,0,0,0,0,0,0,0,0,0,0,0,0,0,0,0,0,0,0,0,0,0,0,0,0,0,0,0,0,0,0,0,0,0,0,0,0,0,0,0,0,0,0,0,0,0,0,0,0,0,0],"id":6,"left_children":[1,3,5,7,9,11,13,15,17,19,21,23,25,27,-1,-1,29,-1,31,33,-1,35,37,39,41,43,45,47,49,51,-1,53,55,-1,-1,-1,-1,57,-1,59,61,63,65,-1,-1,67,69,-1,71,-1,73,-1,-1,-1,-1,-1,-1,-1,-1,-1,-1,-1,-1,-1,-1,-1,-1,-1,-1,-1,-1,-1,-1,-1,-1],"loss_changes":[6.7273833E3,1.1561284E3,5.4875884E3,8.615415E2,9.957108E2,3.0131147E3,1.761751E3,4.7301758E2,1.2652375E3,9.3357275E2,7.124564E2,3.0802705E3,4.9116562E3,1.1908738E3,0E0,0E0,4.6884717E2,0E0,1.1036255E3,4.7334628E2,0E0,1.9895471E2,4.4578607E2,2.409125E3,3.3955786E3,1.4304844E3,3.1247083E3,1.0346182E3,6.9513855E2,1.6880127E2,0E0,4.719038E2,8.7881696E2,0E0,0E0,0E0,0E0,1.7696497E2,0E0,1.8307983E3,1.9531636E3,2.0203206E3,3.1150464E3,0E0,0E0,2.8788745E3,2.2967153E3,0E0,8.72145E2,0E0,8.2956323E2,0E0,0E0,0E0,0E0,0E0,0E0,0E0,0E0,0E0,0E0,0E0,0E0,0E0,0E0,0E0,0E0,0E0,0E0,0E0,0E0,0E0,0E0,0E0,0E0],"parents":[2147483647,0,0,1,1,2,2,3,3,4,4,5,5,6,6,7,7,8,8,9,9,10,10,11,11,12,12,13,13,16,16,18,18,19,19,21,21,22,22,23,23,24,24,25,25,26,26,27,27,28,28,29,29,31,31,32,32,37,37,39,39,40,40,41,41,42,42,45,45,46,46,48,48,50,50],"right_children":[2,4,6,8,10,12,14,16,18,20,22,24,26,28,-1,-1,30,-1,32,34,-1,36,38,40,42,44,46,48,50,52,-1,54,56,-1,-1,-1,-1,58,-1,60,62,64,66,-1,-1,68,70,-1,72,-1,74,-1,-1,-1,-1,-1,-1,-1,-1,-1,-1,-1,-1,-1,-1,-1,-1,-1,-1,-1,-1,-1,-1,-1,-1],"split_conditions":[6.67515E1,6.78E1,7.983652E1,2.143E2,6.1339214E1,6.96E1,8.5185455E1,-1.54E1,-2.7E0,1.170967E2,-7.4E0,-4E-1,-1.217E1,7.611553E1,1.2734084E0,-1.9293526E-1,6.64E1,4.7649774E-1,2.8E0,1.13222916E2,8.4773684E-1,-1E1,1.122E2,-6.5E1,2.009E2,6.89E1,7.984398E1,6.37E1,2.244E2,1.294698E2,-2.8781554E-1,2.16E2,6.78E1,2.0995271E-1,-4.9368507E-1,-2.4486263E-1,-8.669467E-1,6.486515E1,3.6405915E-1,1.059E2,8.4268036E1,6.800283E1,6.7E1,-1.2886602E0,1.1028938E-2,6.781408E1,1.147E2,-2.2213142E-1,1.976E2,-4.688037E-1,1.33E1,-1.2875243E0,-5.1516944E-1,-6.828314E-2,-6.6150427E-1,-6.958701E-1,1.7022334E-1,-4.1979652E-2,-4.7329307E-1,-2.5533363E-1,4.6379834E-1,-3.4127972E-1,6.7221624E-1,1.7511258E-1,-6.729781E-1,-5.9992958E-2,2.2566317E-1,4.1303587E-1,-7.196588E-2,1.5241011E0,4.3858448E-1,1.2018664E0,4.912285E-1,6.8021244E-1,9.534388E-2],"split_indices":[26,8,27,18,30,8,26,25,11,31,16,11,10,26,0,0,13,0,11,31,0,16,2,12,17,3,26,3,17,31,0,18,3,0,0,0,0,26,0,1,26,26,8,0,0,30,1,0,18,0,16,0,0,0,0,0,0,0,0,0,0,0,0,0,0,0,0,0,0,0,0,0,0,0,0],"split_type":[0,0,0,0,0,0,0,0,0,0,0,0,0,0,0,0,0,0,0,0,0,0,0,0,0,0,0,0,0,0,0,0,0,0,0,0,0,0,0,0,0,0,0,0,0,0,0,0,0,0,0,0,0,0,0,0,0,0,0,0,0,0,0,0,0,0,0,0,0,0,0,0,0,0,0],"sum_hessian":[9.59E2,1.01E2,8.58E2,7E1,3.1E1,7.87E2,7.1E1,1.6E1,5.4E1,1.1E1,2E1,6.28E2,1.59E2,6.6E1,5E0,3E0,1.3E1,3E0,5.1E1,8E0,3E0,8E0,1.2E1,1.93E2,4.35E2,9E0,1.5E2,2.9E1,3.7E1,1E1,3E0,3.8E1,1.3E1,5E0,3E0,3E0,5E0,9E0,3E0,3.4E1,1.59E2,3.5E1,4E2,6E0,3E0,1.23E2,2.7E1,3E0,2.6E1,3E0,3.4E1,7E0,3E0,4E0,3.4E1,3E0,1E1,5E0,4E0,1.5E1,1.9E1,1.55E2,4E0,9E0,2.6E1,2.45E2,1.55E2,5.3E1,7E1,6E0,2.1E1,6E0,2E1,7E0,2.7E1],"tree_param":{"num_deleted":"0","num_feature":"38","num_nodes":"75","size_leaf_vector":"1"}},{"base_weights":[-6.723402E-2,-2.206157E0,5.0107236E0,-6.344759E0,-6.200526E-1,1.1936287E0,9.211244E0,-5.285855E0,-1.4970263E1,1.1971753E1,-1.0961208E0,-1.0914049E0,8.01995E0,6.412299E0,1.4915574E1,-3.490601E0,-9.147343E0,-1.9551167E1,-7.1879177E0,2.2931232E1,2.9037898E0,5.5580056E-1,-3.9317336E0,8.6559035E-2,-1.6722746E1,-4.0569234E-1,1.0713369E1,1.3406633E1,3.7837389E0,1.0692364E1,1.5070009E0,-7.776244E0,3.291071E0,-1.4223272E1,-7.305308E-1,-4.089038E-1,-1.1211205E0,-8.11243E-1,9.0146385E-4,1.5117986E0,6.2405986E-1,6.1170834E-1,-2.1118724E0,-2.3530736E0,3.6607907E0,-3.1308377E0,-1.6823433E1,-8.9117944E-1,8.355177E-1,-2.6900718E-1,-1.121614E0,3.3357055E0,1.4765572E1,1.6859266E1,3.9498794E0,-2.3278637E0,6.327819E0,1.8815737E1,4.6631374E0,-5.422529E-1,9.412798E-3,3.4783727E-1,-2.7886906E-1,-8.6861897E-1,1.4132188E-1,-3.1412718E-1,7.0899624E-1,-2.1694245E-2,-1.8281944E-1,-4.3430957E-1,6.396672E-2,-1.82702E-1,2.8326294E-1,-1.299492E-1,-9.85837E-1,-1.258072E0,-1.7165686E-1,6.809663E-2,-3.944621E-1,-1.3914217E-1,5.4772437E-1,3.859062E-1,1.0230802E0,4.3273875E-1,1.3010267E0,1.1630005E-2,3.7920043E-1,1.562666E-1,-5.7962364E-1,7.879335E-2,6.2919754E-1,1.2458626E0,-2.0838688E-1,5.0200784E-1,-4.1395345E-1],"categories":[],"categories_nodes":[],"categories_segments":[],"categories_sizes":[],"default_left":[0,0,0,0,0,0,0,0,0,0,0,0,0,0,0,0,0,0,0,0,0,0,0,0,0,0,0,0,0,0,0,0,0,0,0,0,0,0,0,0,0,0,0,0,0,0,0,0,0,0,0,0,0,0,0,0,0,0,0,0,0,0,0,0,0,0,0,0,0,0,0,0,0,0,0,0,0,0,0,0,0,0,0,0,0,0,0,0,0,0,0,0,0,0,0],"id":7,"left_children":[1,3,5,7,9,11,13,15,17,19,21,23,25,27,29,31,33,35,37,39,41,43,45,47,49,-1,51,53,55,57,-1,59,61,63,65,-1,-1,-1,-1,-1,-1,-1,67,69,71,73,75,77,-1,-1,-1,79,81,83,85,87,89,91,93,-1,-1,-1,-1,-1,-1,-1,-1,-1,-1,-1,-1,-1,-1,-1,-1,-1,-1,-1,-1,-1,-1,-1,-1,-1,-1,-1,-1,-1,-1,-1,-1,-1,-1,-1,-1],"loss_changes":[1.0481125E4,4.452499E3,4.5736265E3,1.6359565E3,2.9613582E3,2.3648E3,2.0736133E3,1.1383735E3,5.6979785E2,1.7196719E3,2.2275225E3,2.1022112E3,1.7384795E3,1.657362E3,2.5026748E3,3.4265083E3,2.252441E3,2.0542725E2,5.879906E2,2.2902539E2,5.4162744E2,2.7273845E3,1.7521919E3,1.7556224E3,3.9461743E2,0E0,9.354973E2,7.475947E2,1.0879702E3,1.6731069E3,0E0,1.7629004E3,1.5343457E3,1.8223711E3,1.8267401E3,0E0,0E0,0E0,0E0,0E0,0E0,0E0,1.8737957E1,3.6005498E3,2.1616042E3,1.4108572E3,1.0272415E3,1.6196741E3,0E0,0E0,0E0,6.373082E2,6.82249E2,1.1242739E3,1.05526886E2,1.0980332E3,1.4354667E3,2.2094336E3,1.61429E3,0E0,0E0,0E0,0E0,0E0,0E0,0E0,0E0,0E0,0E0,0E0,0E0,0E0,0E0,0E0,0E0,0E0,0E0,0E0,0E0,0E0,0E0,0E0,0E0,0E0,0E0,0E0,0E0,0E0,0E0,0E0,0E0,0E0,0E0,0E0,0E0],"parents":[2147483647,0,0,1,1,2,2,3,3,4,4,5,5,6,6,7,7,8,8,9,9,10,10,11,11,12,12,13,13,14,14,15,15,16,16,17,17,18,18,19,19,20,20,21,21,22,22,23,23,24,24,26,26,27,27,28,28,29,29,31,31,32,32,33,33,34,34,42,42,43,43,44,44,45,45,46,46,47,47,51,51,52,52,53,53,54,54,55,55,56,56,57,57,58,58],"right_children":[2,4,6,8,10,12,14,16,18,20,22,24,26,28,30,32,34,36,38,40,42,44,46,48,50,-1,52,54,56,58,-1,60,62,64,66,-1,-1,-1,-1,-1,-1,-1,68,70,72,74,76,78,-1,-1,-1,80,82,84,86,88,90,92,94,-1,-1,-1,-1,-1,-1,-1,-1,-1,-1,-1,-1,-1,-1,-1,-1,-1,-1,-1,-1,-1,-1,-1,-1,-1,-1,-1,-1,-1,-1,-1,-1,-1,-1,-1,-1],"split_conditions":[6.89E1,6.917175E3,1.4897507E2,1E0,6.602624E1,2.219E2,6.93E1,2.233E2,6.731098E1,1.15E2,1.04E1,1.13E2,9.7E1,9.93E1,7.2E1,2.174E2,1.144E2,6.18E1,-9.35E0,2.379E1,9.54E1,-1E-1,6.87E1,7.42E1,6.77E1,-4.0569234E-1,-1.53E1,1.436E1,6.68E1,7.561485E1,1.5070009E0,2.07E2,6.759213E1,6.9334274E1,1.998E2,-4.089038E-1,-1.1211205E0,-8.11243E-1,9.0146385E-4,1.5117986E0,6.2405986E-1,6.1170834E-1,9.4E0,6.68E1,2.035E2,2.157E2,9.86E1,7.133651E1,8.355177E-1,-2.6900718E-1,-1.121614E0,-7.2E0,-2.25E0,1.011E2,1.47E2,6.86E1,1.045E2,1.108E2,1.042E2,-5.422529E-1,9.412798E-3,3.4783727E-1,-2.7886906E-1,-8.6861897E-1,1.4132188E-1,-3.1412718E-1,7.0899624E-1,-2.1694245E-2,-1.8281944E-1,-4.3430957E-1,6.396672E-2,-1.82702E-1,2.8326294E-1,-1.299492E-1,-9.85837E-1,-1.258072E0,-1.7165686E-1,6.809663E-2,-3.944621E-1,-1.3914217E-1,5.4772437E-1,3.859062E-1,1.0230802E0,4.3273875E-1,1.3010267E0,1.1630005E-2,3.7920043E-1,1.562666E-1,-5.7962364E-1,7.879335E-2,6.2919754E-1,1.2458626E0,-2.0838688E-1,5.0200784E-1,-4.1395345E-1],"split_indices":[8,21,28,36,27,18,3,18,27,1,23,2,1,2,8,18,7,8,10,10,2,16,8,8,3,0,24,10,3,29,0,17,27,27,17,0,0,0,0,0,0,0,15,8,18,18,2,30,0,0,0,15,10,7,12,13,2,7,2,0,0,0,0,0,0,0,0,0,0,0,0,0,0,0,0,0,0,0,0,0,0,0,0,0,0,0,0,0,0,0,0,0,0,0,0],"split_type":[0,0,0,0,0,0,0,0,0,0,0,0,0,0,0,0,0,0,0,0,0,0,0,0,0,0,0,0,0,0,0,0,0,0,0,0,0,0,0,0,0,0,0,0,0,0,0,0,0,0,0,0,0,0,0,0,0,0,0,0,0,0,0,0,0,0,0,0,0,0,0,0,0,0,0,0,0,0,0,0,0,0,0,0,0,0,0,0,0,0,0,0,0,0,0],"sum_hessian":[9.63E2,6.78E2,2.85E2,1.87E2,4.91E2,1.5E2,1.35E2,1.68E2,1.9E1,1.7E1,4.74E2,1.13E2,3.7E1,9.2E1,4.3E1,1.16E2,5.2E1,1.1E1,8E0,7E0,1E1,3E2,1.74E2,1.06E2,7E0,5E0,3.2E1,2.4E1,6.8E1,3.5E1,8E0,7.1E1,4.5E1,3.2E1,2E1,3E0,8E0,3E0,5E0,3E0,4E0,3E0,7E0,1.55E2,1.45E2,1.65E2,9E0,1.01E2,5E0,3E0,4E0,1.2E1,2E1,1.7E1,7E0,2E1,4.8E1,1.4E1,2.1E1,5.1E1,2E1,3.2E1,1.3E1,2.7E1,5E0,1.5E1,5E0,4E0,3E0,5.6E1,9.9E1,3.1E1,1.14E2,1.61E2,4E0,5E0,4E0,7.7E1,2.4E1,7E0,5E0,1E1,1E1,1E1,7E0,4E0,3E0,1.3E1,7E0,2.8E1,2E1,1.1E1,3E0,1.5E1,6E0],"tree_param":{"num_deleted":"0","num_feature":"38","num_nodes":"95","size_leaf_vector":"1"}},{"base_weights":[-2.0546935E-1,-2.511871E0,3.7281263E0,-6.093579E0,-1.1566343E0,-6.1832867E0,5.38441E0,-5.2235146E0,-1.0291594E0,-1.4581798E0,1.0672285E1,-1.1714125E1,6.6413035E0,4.0523233E0,1.5465748E1,-3.1034815E0,-1.0595339E1,8.776745E0,-1.8001816E0,-1.0864264E-1,1.8337057E1,-4.4263315E0,-2.161528E1,8.844539E-1,-1.7462683E0,1.2507692E1,2.9382284E0,7.9053082E0,1.561675E0,-8.675804E0,-6.255467E-1,-1.5187225E1,-3.7487917E0,-1.5850892E-2,1.2455952E1,-1.7622154E1,-1.4852896E0,1.11058E0,4.9266252E-1,6.892862E-1,-8.032746E0,-6.646771E-1,-2.5674934E1,3.547017E-1,-3.2813442E-1,1.8365908E1,1.6933587E0,1.4285916E0,2.4908867E0,1.1611522E0,4.756388E0,1.5815656E-1,-6.770952E-1,-2.8535506E-1,6.39089E-2,1.5702084E-1,-8.859338E-1,-9.481975E-1,1.41523555E-2,3.0376223E-1,8.800805E-1,-2.0521247E-1,-1.2446024E0,-4.313912E-2,-3.6752397E-1,1.8561271E-1,-5.7094485E-1,-1.5272962E0,-5.9623593E-1,5.0566626E-1,1.4734058E0,3.4986213E-1,-5.31936E-1,1.9818011E-1,-2.899094E-1,2.616806E-3,7.407369E-1],"categories":[],"categories_nodes":[],"categories_segments":[],"categories_sizes":[],"default_left":[0,0,0,0,0,0,0,0,0,0,0,0,0,0,0,0,0,0,0,0,0,0,0,0,0,0,0,0,0,0,0,0,0,0,0,0,0,0,0,0,0,0,0,0,0,0,0,0,0,0,0,0,0,0,0,0,0,0,0,0,0,0,0,0,0,0,0,0,0,0,0,0,0,0,0,0,0],"id":8,"left_children":[1,3,5,7,9,11,13,15,-1,17,19,21,23,25,27,29,31,33,35,-1,37,39,41,-1,43,45,47,49,-1,51,53,55,57,-1,59,61,63,-1,-1,-1,65,-1,67,-1,-1,69,71,-1,73,-1,75,-1,-1,-1,-1,-1,-1,-1,-1,-1,-1,-1,-1,-1,-1,-1,-1,-1,-1,-1,-1,-1,-1,-1,-1,-1,-1],"loss_changes":[8.664361E3,2.914372E3,5.828101E3,1.9700405E3,1.576968E3,3.6957715E3,4.0044277E3,1.7537329E3,0E0,1.5132573E3,1.1244658E3,2.499392E3,1.515108E3,2.495708E3,3.9215645E3,1.5677382E3,1.3244697E3,4.7357227E2,2.0395342E3,0E0,8.032959E0,1.555127E3,1.6154297E2,0E0,4.7228888E2,1.9308276E3,2.6663328E3,1.0926024E3,0E0,2.0602031E3,7.816481E2,1.2633848E3,1.1727919E3,0E0,2.1902747E2,6.8112695E2,1.4824951E3,0E0,0E0,0E0,7.987969E2,0E0,2.342959E2,0E0,0E0,1.530459E3,8.589724E2,0E0,2.9037559E3,0E0,1.0386678E3,0E0,0E0,0E0,0E0,0E0,0E0,0E0,0E0,0E0,0E0,0E0,0E0,0E0,0E0,0E0,0E0,0E0,0E0,0E0,0E0,0E0,0E0,0E0,0E0,0E0,0E0],"parents":[2147483647,0,0,1,1,2,2,3,3,4,4,5,5,6,6,7,7,9,9,10,10,11,11,12,12,13,13,14,14,15,15,16,16,17,17,18,18,20,20,21,21,22,22,24,24,25,25,26,26,27,27,29,29,30,30,31,31,32,32,34,34,35,35,36,36,40,40,42,42,45,45,46,46,48,48,50,50],"right_children":[2,4,6,8,10,12,14,16,-1,18,20,22,24,26,28,30,32,34,36,-1,38,40,42,-1,44,46,48,50,-1,52,54,56,58,-1,60,62,64,-1,-1,-1,66,-1,68,-1,-1,70,72,-1,74,-1,76,-1,-1,-1,-1,-1,-1,-1,-1,-1,-1,-1,-1,-1,-1,-1,-1,-1,-1,-1,-1,-1,-1,-1,-1,-1,-1],"split_conditions":[6.825E1,1.3728174E2,-9.8E0,6.804469E1,1.142E2,1.154E2,7.18E1,6.3126E1,-1.0291594E0,-1.436E1,6.7946014E1,6.114506E1,1.162E2,1.021E2,6.91E1,6.423885E1,6.5643135E1,-6.4E0,5.9454414E1,-1.0864264E-1,6.745E1,-1.67E1,-1.12E1,8.844539E-1,1.01E2,6.99E1,-2.11E1,7.08875E3,1.561675E0,9.36E1,9.69E1,6.47E1,-6.09E0,-1.5850892E-2,1.143E2,1.086E2,1.127E2,1.11058E0,4.9266252E-1,6.892862E-1,6.71E1,-6.646771E-1,-1.14E1,3.547017E-1,-3.2813442E-1,-1E-1,2.82E2,1.4285916E0,2.177E2,1.1611522E0,4.8E0,1.5815656E-1,-6.770952E-1,-2.8535506E-1,6.39089E-2,1.5702084E-1,-8.859338E-1,-9.481975E-1,1.41523555E-2,3.0376223E-1,8.800805E-1,-2.0521247E-1,-1.2446024E0,-4.313912E-2,-3.6752397E-1,1.8561271E-1,-5.7094485E-1,-1.5272962E0,-5.9623593E-1,5.0566626E-1,1.4734058E0,3.4986213E-1,-5.31936E-1,1.9818011E-1,-2.899094E-1,2.616806E-3,7.407369E-1],"split_indices":[13,28,15,14,2,7,8,29,0,5,26,29,7,1,3,26,29,15,30,0,13,10,15,0,19,8,25,21,0,1,6,13,10,0,7,7,7,0,0,0,3,0,25,0,0,25,4,0,18,0,25,0,0,0,0,0,0,0,0,0,0,0,0,0,0,0,0,0,0,0,0,0,0,0,0,0,0],"split_type":[0,0,0,0,0,0,0,0,0,0,0,0,0,0,0,0,0,0,0,0,0,0,0,0,0,0,0,0,0,0,0,0,0,0,0,0,0,0,0,0,0,0,0,0,0,0,0,0,0,0,0,0,0,0,0,0,0,0,0,0,0,0,0,0,0,0,0,0,0,0,0,0,0,0,0,0,0],"sum_hessian":[9.53E2,6.01E2,3.52E2,1.64E2,4.37E2,5E1,3.02E2,1.56E2,8E0,4.27E2,1E1,3.5E1,1.5E1,2.68E2,3.4E1,1.13E2,4.3E1,1.3E1,4.14E2,4E0,6E0,2.1E1,1.4E1,6E0,9E0,3E1,2.38E2,2.4E1,1E1,3.4E1,7.9E1,2.5E1,1.8E1,4E0,9E0,7E0,4.07E2,3E0,3E0,3E0,1.8E1,6E0,8E0,3E0,6E0,1.9E1,1.1E1,3E0,2.35E2,3E0,2.1E1,1E1,2.4E1,2.1E1,5.8E1,3E0,2.2E1,3E0,1.5E1,5E0,4E0,3E0,4E0,3.69E2,3.8E1,4E0,1.4E1,5E0,3E0,1.2E1,7E0,8E0,3E0,2E2,3.5E1,1.5E1,6E0],"tree_param":{"num_deleted":"0","num_feature":"38","num_nodes":"77","size_leaf_vector":"1"}},{"base_weights":[-1.2219089E-1,-1.787156E0,4.350069E0,-2.0862281E0,1.40093975E1,-5.3958094E-1,8.046604E0,-1.3602831E0,-9.714659E0,5.2620444E0,1.6175215E0,4.199731E0,-7.432935E0,5.8317614E-1,1.1439025E1,-1.5296671E1,-1.0846345E0,-7.4268293E0,-1.1679361E0,6.627966E-1,-2.6815146E-1,6.2047033E0,-9.399505E0,-2.0151339E0,-1.5743119E1,7.421218E0,-5.7271495E0,9.461206E0,2.0649355E1,-9.752386E-2,-2.1713457E1,-3.7660189E0,3.2520804E-1,-1.2364579E1,1.0867991E0,4.2620425E0,1.3156518E0,1.2842643E-1,-7.914138E-1,7.8547674E-1,-6.3665037E0,-3.558001E-2,-2.358559E1,1.3840025E1,-8.3021045E-1,7.856183E0,-1.25873165E1,1.1453692E1,-4.9749484E0,1.7418659E-1,2.4071722E1,-1.3463111E0,-4.8720694E-1,-2.5988737E-1,2.0555575E-1,3.7100622E-1,-1.5409522E-2,-7.831029E-1,4.606858E-1,-4.5327002E-1,3.0462065E-1,7.1925424E-2,5.8444494E-1,-4.9784884E-1,1.8806778E-1,4.587058E-1,-4.6306905E-1,-1.4009702E0,-3.844058E-1,8.502272E-1,2.677944E-1,1.5407313E-1,-2.3100908E-1,7.0836955E-1,1.1613406E-1,-7.9202074E-1,9.601792E-2,4.6090356E-1,9.8874885E-1,1.3012055E-1,-4.07713E-1,1.6756458E0,6.394605E-1],"categories":[],"categories_nodes":[],"categories_segments":[],"categories_sizes":[],"default_left":[0,0,0,0,0,0,0,0,0,0,0,0,0,0,0,0,0,0,0,0,0,0,0,0,0,0,0,0,0,0,0,0,0,0,0,0,0,0,0,0,0,0,0,0,0,0,0,0,0,0,0,0,0,0,0,0,0,0,0,0,0,0,0,0,0,0,0,0,0,0,0,0,0,0,0,0,0,0,0,0,0,0,0],"id":9,"left_children":[1,3,5,7,9,11,13,15,17,19,-1,21,23,25,27,29,31,33,-1,-1,-1,35,37,39,41,43,45,47,49,-1,51,53,55,57,59,61,-1,-1,-1,-1,63,65,67,69,71,73,75,77,79,-1,81,-1,-1,-1,-1,-1,-1,-1,-1,-1,-1,-1,-1,-1,-1,-1,-1,-1,-1,-1,-1,-1,-1,-1,-1,-1,-1,-1,-1,-1,-1,-1,-1],"loss_changes":[7.081366E3,3.301979E3,4.668382E3,3.7569338E3,1.9116709E3,3.6905522E3,3.7140332E3,2.3750532E3,1.6651426E3,9.212377E2,0E0,1.8848301E3,2.0375544E3,2.0707344E3,1.6414746E3,9.82958E2,2.3151309E3,2.20055E3,0E0,0E0,0E0,2.1895522E3,7.3443915E2,2.3357515E3,2.2141455E3,1.2309707E3,2.42896E3,2.5025557E3,9.120845E2,0E0,2.3310596E2,2.4011174E3,1.8095494E3,2.4930322E3,1.0712926E3,1.1352219E3,0E0,0E0,0E0,0E0,9.108025E2,6.797414E2,6.268501E2,2.5571606E2,1.7746721E2,2.7975238E2,8.3412476E2,1.2100566E3,2.8677454E2,0E0,1.0580518E3,0E0,0E0,0E0,0E0,0E0,0E0,0E0,0E0,0E0,0E0,0E0,0E0,0E0,0E0,0E0,0E0,0E0,0E0,0E0,0E0,0E0,0E0,0E0,0E0,0E0,0E0,0E0,0E0,0E0,0E0,0E0,0E0],"parents":[2147483647,0,0,1,1,2,2,3,3,4,4,5,5,6,6,7,7,8,8,9,9,11,11,12,12,13,13,14,14,15,15,16,16,17,17,21,21,22,22,23,23,24,24,25,25,26,26,27,27,28,28,30,30,31,31,32,32,33,33,34,34,35,35,40,40,41,41,42,42,43,43,44,44,45,45,46,46,47,47,48,48,50,50],"right_children":[2,4,6,8,10,12,14,16,18,20,-1,22,24,26,28,30,32,34,-1,-1,-1,36,38,40,42,44,46,48,50,-1,52,54,56,58,60,62,-1,-1,-1,-1,64,66,68,70,72,74,76,78,80,-1,82,-1,-1,-1,-1,-1,-1,-1,-1,-1,-1,-1,-1,-1,-1,-1,-1,-1,-1,-1,-1,-1,-1,-1,-1,-1,-1,-1,-1,-1,-1,-1,-1],"split_conditions":[6.9E1,7.8391074E3,1.054E2,7.5597E3,-9.4E0,-7.41E0,6.68E1,9.505E1,6.5003685E1,6.87E1,1.6175215E0,7.0203766E1,1.0765E2,1.0335E2,7.084914E1,6.544265E1,1.059E2,2.026E2,-1.1679361E0,6.627966E-1,-2.6815146E-1,8.090468E1,6.77E1,6.63076E1,2.026E2,7.838869E1,-7E-1,7.05E1,6.94E1,-9.752386E-2,9.325E1,7.4232524E3,-7.1E1,7.05E1,1.125E2,1.1235E2,1.3156518E0,1.2842643E-1,-7.914138E-1,7.8547674E-1,1.049E2,-2.21E0,2.11E2,7.843134E1,7.980607E1,-1.263E1,7.2929535E1,6.92E1,7.0348206E1,1.7418659E-1,9.2E0,-1.3463111E0,-4.8720694E-1,-2.5988737E-1,2.0555575E-1,3.7100622E-1,-1.5409522E-2,-7.831029E-1,4.606858E-1,-4.5327002E-1,3.0462065E-1,7.1925424E-2,5.8444494E-1,-4.9784884E-1,1.8806778E-1,4.587058E-1,-4.6306905E-1,-1.4009702E0,-3.844058E-1,8.502272E-1,2.677944E-1,1.5407313E-1,-2.3100908E-1,7.0836955E-1,1.1613406E-1,-7.9202074E-1,9.601792E-2,4.6090356E-1,9.8874885E-1,1.3012055E-1,-4.07713E-1,1.6756458E0,6.394605E-1],"split_indices":[8,22,6,22,15,5,3,20,29,8,0,30,20,20,14,14,1,17,0,0,0,26,3,30,17,27,25,3,3,0,20,22,12,3,20,20,0,0,0,0,20,5,17,29,27,10,29,3,14,0,16,0,0,0,0,0,0,0,0,0,0,0,0,0,0,0,0,0,0,0,0,0,0,0,0,0,0,0,0,0,0,0,0],"split_type":[0,0,0,0,0,0,0,0,0,0,0,0,0,0,0,0,0,0,0,0,0,0,0,0,0,0,0,0,0,0,0,0,0,0,0,0,0,0,0,0,0,0,0,0,0,0,0,0,0,0,0,0,0,0,0,0,0,0,0,0,0,0,0,0,0,0,0,0,0,0,0,0,0,0,0,0,0,0,0,0,0,0,0],"sum_hessian":[9.49E2,6.92E2,2.57E2,6.8E2,1.2E1,1.11E2,1.46E2,6.22E2,5.8E1,9E0,3E0,6.6E1,4.5E1,4.6E1,1E2,1.1E1,6.11E2,5.1E1,7E0,5E0,4E0,5.8E1,8E0,2.8E1,1.7E1,2.2E1,2.4E1,8.4E1,1.6E1,4E0,7E0,2.1E2,4.01E2,3.2E1,1.9E1,5.4E1,4E0,3E0,5E0,5E0,2.3E1,6E0,1.1E1,1.2E1,1E1,8E0,1.6E1,7.4E1,1E1,3E0,1.3E1,4E0,3E0,1.78E2,3.2E1,3.2E1,3.69E2,2.8E1,4E0,6E0,1.3E1,4E1,1.4E1,1.7E1,6E0,3E0,3E0,8E0,3E0,8E0,4E0,5E0,5E0,3E0,5E0,1.3E1,3E0,6E1,1.4E1,3E0,7E0,6E0,7E0],"tree_param":{"num_deleted":"0","num_feature":"38","num_nodes":"83","size_leaf_vector":"1"}},{"base_weights":[7.640897E-2,-7.708904E-1,1.0573834E1,-5.255178E0,4.3394095E-1,4.801427E0,1.688119E1,-4.2482033E0,-1.5871328E1,-8.487501E0,8.99488E-1,6.2959337E0,-3.3002022E-1,1.32673435E1,1.5758955E0,-7.535425E0,-2.0153108E0,-1.9795113E1,-1.6299902E-1,-4.8436465E0,-2.0167553E1,3.5675056E0,-8.023225E-2,2.2683528E-1,9.448209E0,1.6590391E1,4.3913573E-1,-9.280498E0,3.8530586E0,1.3366667E0,-7.9631834E0,-4.1399488E-1,-1.135121E0,-9.644734E-1,-8.6023045E-1,-5.316362E-1,-1.1870954E0,1.4140232E0,1.08314085E1,1.1848539E0,-4.5784993E0,-3.557249E-1,5.716981E0,1.653928E1,5.3059106E0,6.5986204E0,1.9722862E1,3.1161734E-1,-2.7194297E-1,-6.4865464E-1,-1.0701507E-1,-2.5658485E-1,5.357422E-1,3.131895E-1,-1.4790265E-1,-4.8504803E-1,4.6040812E-1,-2.5707182E-1,4.8227936E-1,4.663027E-1,-1.1009421E-2,3.2985857E-1,1.3730245E0,7.210442E-3,3.1441313E-1,-4.3893662E-1,6.356763E-2,5.099305E-1,-6.446503E-2,9.685871E-1,4.419442E-1,5.951907E-1,6.0780365E-2,9.200352E-2,4.8412582E-1,1.1553653E0,3.4793708E-1],"categories":[],"categories_nodes":[],"categories_segments":[],"categories_sizes":[],"default_left":[0,0,0,0,0,0,0,0,0,0,0,0,0,0,0,0,0,0,0,0,0,0,0,0,0,0,0,0,0,0,0,0,0,0,0,0,0,0,0,0,0,0,0,0,0,0,0,0,0,0,0,0,0,0,0,0,0,0,0,0,0,0,0,0,0,0,0,0,0,0,0,0,0,0,0,0,0],"id":10,"left_children":[1,3,5,7,9,11,13,15,17,19,21,23,-1,25,-1,27,29,31,-1,33,35,37,39,41,43,45,47,49,51,53,55,-1,-1,-1,57,-1,-1,59,61,63,65,-1,67,69,71,73,75,-1,-1,-1,-1,-1,-1,-1,-1,-1,-1,-1,-1,-1,-1,-1,-1,-1,-1,-1,-1,-1,-1,-1,-1,-1,-1,-1,-1,-1,-1],"loss_changes":[8.574499E3,4.8220693E3,2.5381982E3,1.9510098E3,2.9308347E3,7.060896E2,1.3757881E3,1.2610212E3,7.2491016E2,1.3894287E3,1.7519551E3,6.6649084E2,0E0,1.2272456E3,0E0,1.4274612E3,2.1047063E3,2.1066699E2,0E0,1.592616E3,1.6768555E1,2.7991433E3,2.7998955E3,5.6449854E2,5.856465E2,5.870996E2,2.723435E2,1.57904E3,6.7205835E2,1.457781E3,1.2232959E3,0E0,0E0,0E0,1.0836256E3,0E0,0E0,1.8131547E3,2.7023027E3,2.0378113E3,2.6655518E3,0E0,2.6523645E2,4.428711E-1,4.1601654E2,8.375534E1,5.7058594E2,0E0,0E0,0E0,0E0,0E0,0E0,0E0,0E0,0E0,0E0,0E0,0E0,0E0,0E0,0E0,0E0,0E0,0E0,0E0,0E0,0E0,0E0,0E0,0E0,0E0,0E0,0E0,0E0,0E0,0E0],"parents":[2147483647,0,0,1,1,2,2,3,3,4,4,5,5,6,6,7,7,8,8,9,9,10,10,11,11,13,13,15,15,16,16,17,17,19,19,20,20,21,21,22,22,23,23,24,24,25,25,26,26,27,27,28,28,29,29,30,30,34,34,37,37,38,38,39,39,40,40,42,42,43,43,44,44,45,45,46,46],"right_children":[2,4,6,8,10,12,14,16,18,20,22,24,-1,26,-1,28,30,32,-1,34,36,38,40,42,44,46,48,50,52,54,56,-1,-1,-1,58,-1,-1,60,62,64,66,-1,68,70,72,74,76,-1,-1,-1,-1,-1,-1,-1,-1,-1,-1,-1,-1,-1,-1,-1,-1,-1,-1,-1,-1,-1,-1,-1,-1,-1,-1,-1,-1,-1,-1],"split_conditions":[7.999128E1,1.3728174E2,6.939741E1,4.5E0,9.66E1,6.936822E1,8.455091E1,7.16307E3,7.6E0,6.92E1,-6.25E0,9.47E1,-3.3002022E-1,7.13E1,1.5758955E0,2.104E2,7.5778774E3,6.79E1,-1.6299902E-1,6.22363E3,1.94E1,-7.98E0,2.167E2,2.08E1,6.77E1,1.37E1,9.94E1,6.59E1,2.059E2,-1.08E1,2.017E2,-4.1399488E-1,-1.135121E0,-9.644734E-1,1.794E1,-5.316362E-1,-1.1870954E0,6.549687E1,6.97E1,7.3020376E3,2.206E2,-3.557249E-1,2.73E1,7.586482E1,9.94E1,7.22764E3,8.20712E3,3.1161734E-1,-2.7194297E-1,-6.4865464E-1,-1.0701507E-1,-2.5658485E-1,5.357422E-1,3.131895E-1,-1.4790265E-1,-4.8504803E-1,4.6040812E-1,-2.5707182E-1,4.8227936E-1,4.663027E-1,-1.1009421E-2,3.2985857E-1,1.3730245E0,7.210442E-3,3.1441313E-1,-4.3893662E-1,6.356763E-2,5.099305E-1,-6.446503E-2,9.685871E-1,4.419442E-1,5.951907E-1,6.0780365E-2,9.200352E-2,4.8412582E-1,1.1553653E0,3.4793708E-1],"split_indices":[27,28,14,11,7,14,29,22,11,3,5,7,0,3,0,17,22,3,0,22,15,5,18,15,3,5,7,3,18,16,17,0,0,0,0,0,0,27,3,22,18,0,16,26,7,22,21,0,0,0,0,0,0,0,0,0,0,0,0,0,0,0,0,0,0,0,0,0,0,0,0,0,0,0,0,0,0],"split_type":[0,0,0,0,0,0,0,0,0,0,0,0,0,0,0,0,0,0,0,0,0,0,0,0,0,0,0,0,0,0,0,0,0,0,0,0,0,0,0,0,0,0,0,0,0,0,0,0,0,0,0,0,0,0,0,0,0,0,0,0,0,0,0,0,0,0,0,0,0,0,0,0,0,0,0,0,0],"sum_hessian":[9.62E2,8.91E2,7.1E1,1.88E2,7.03E2,3.8E1,3.3E1,1.73E2,1.5E1,3.4E1,6.69E2,3.4E1,4E0,2.8E1,5E0,6.9E1,1.04E2,1.1E1,4E0,2.7E1,7E0,1.79E2,4.9E2,1.2E1,2.2E1,2.2E1,6E0,6E1,9E0,6.7E1,3.7E1,3E0,8E0,5E0,2.2E1,3E0,4E0,1.39E2,4E1,3.83E2,1.07E2,5E0,7E0,7E0,1.5E1,6E0,1.6E1,3E0,3E0,3.9E1,2.1E1,4E0,5E0,3.1E1,3.6E1,3.4E1,3E0,1.6E1,6E0,2.3E1,1.16E2,3.3E1,7E0,3.19E2,6.4E1,6.2E1,4.5E1,4E0,3E0,4E0,3E0,5E0,1E1,3E0,3E0,1.2E1,4E0],"tree_param":{"num_deleted":"0","num_feature":"38","num_nodes":"77","size_leaf_vector":"1"}},{"base_weights":[-9.581348E-2,-5.4392533E0,1.2488877E0,-3.416907E0,-1.0215637E1,4.4240004E-1,8.776041E0,-7.70469E0,6.73244E-1,-1.1247457E1,2.9924437E-1,-9.3200624E-1,3.3590965E0,6.9330153E0,1.4092158E0,-9.861573E0,1.8396482E0,-4.6742315E0,3.391673E0,-8.08805E0,-1.6051077E1,1.1019441E1,-1.5223211E0,-1.8265809E-1,6.3929935E0,1.526176E1,4.2859793E0,5.7420105E-1,-1.1963711E1,-2.9785492E0,3.2046625E-1,1.12515E0,-1.291588E1,1.1678408E1,5.324374E-1,-9.542223E0,-1.1016353E0,-1.0657361E1,-2.279698E1,1.5190401E1,4.4852486E0,-8.3868873E-1,-8.801691E0,-1.33820505E1,1.5588294E0,1.1716451E1,2.5738165E0,1.6941214E1,2.981547E-1,5.934007E0,-4.7979537E-1,2.8026146E-1,-1.8486778E-1,-3.3446723E-1,-7.614249E-1,-1.7513162E-2,-2.418599E-1,-5.6180626E-1,3.325358E-1,-2.1688469E-1,-8.947528E-1,9.754767E-2,8.1428826E-1,2.1929596E-1,-6.745245E-1,-6.333689E-1,-2.752556E-1,-2.8282496E-1,1.8518189E-1,-6.995005E-1,1.56802E-2,-1.3805503E0,-5.5276024E-1,3.4909317E-1,9.717752E-1,-1.6245475E-1,5.09983E-1,-6.475937E-2,4.546577E-1,3.4843284E-1,-5.4324645E-1,-1.9468443E-1,-1.1102399E0,1.392584E-2,9.8167527E-1,4.5886707E-1,1.1784861E0,-4.089315E-1,2.8284115E-1,1.3338498E0,5.67139E-1,7.859118E-1,1.6352563E-1],"categories":[],"categories_nodes":[],"categories_segments":[],"categories_sizes":[],"default_left":[0,0,0,0,0,0,0,0,0,0,0,0,0,0,0,0,0,0,0,0,0,0,0,0,0,0,0,0,0,0,0,0,0,0,0,0,0,0,0,0,0,0,0,0,0,0,0,0,0,0,0,0,0,0,0,0,0,0,0,0,0,0,0,0,0,0,0,0,0,0,0,0,0,0,0,0,0,0,0,0,0,0,0,0,0,0,0,0,0,0,0,0,0],"id":11,"left_children":[1,3,5,7,9,11,13,15,17,19,-1,21,23,25,-1,27,29,31,33,35,37,39,41,43,45,47,49,51,53,55,-1,57,59,61,63,65,67,69,71,73,75,77,79,81,83,85,87,89,-1,91,-1,-1,-1,-1,-1,-1,-1,-1,-1,-1,-1,-1,-1,-1,-1,-1,-1,-1,-1,-1,-1,-1,-1,-1,-1,-1,-1,-1,-1,-1,-1,-1,-1,-1,-1,-1,-1,-1,-1,-1,-1,-1,-1],"loss_changes":[6.790163E3,1.7990361E3,4.5784653E3,2.373477E3,1.0039385E3,2.741333E3,2.412291E3,1.3776218E3,1.0332965E3,6.7212305E2,0E0,3.296455E3,2.3550142E3,1.4317952E3,0E0,1.1926294E3,3.056624E2,1.1628264E3,1.106166E3,3.3384497E2,4.814082E2,5.294844E2,2.2011816E3,2.3666736E3,2.3674995E3,1.465542E2,1.2690961E3,2.3581853E2,6.708257E2,3.1982384E1,0E0,1.0988153E3,3.472766E2,5.042179E2,2.003593E3,2.817124E2,1.7435648E2,4.8106592E2,1.4308984E2,3.1466138E2,4.7580692E2,1.856284E3,1.3125461E3,9.154927E2,2.098393E3,1.2551592E3,2.366503E3,4.0217383E2,0E0,1.197586E3,0E0,0E0,0E0,0E0,0E0,0E0,0E0,0E0,0E0,0E0,0E0,0E0,0E0,0E0,0E0,0E0,0E0,0E0,0E0,0E0,0E0,0E0,0E0,0E0,0E0,0E0,0E0,0E0,0E0,0E0,0E0,0E0,0E0,0E0,0E0,0E0,0E0,0E0,0E0,0E0,0E0,0E0,0E0],"parents":[2147483647,0,0,1,1,2,2,3,3,4,4,5,5,6,6,7,7,8,8,9,9,11,11,12,12,13,13,15,15,16,16,17,17,18,18,19,19,20,20,21,21,22,22,23,23,24,24,25,25,26,26,27,27,28,28,29,29,31,31,32,32,33,33,34,34,35,35,36,36,37,37,38,38,39,39,40,40,41,41,42,42,43,43,44,44,45,45,46,46,47,47,49,49],"right_children":[2,4,6,8,10,12,14,16,18,20,-1,22,24,26,-1,28,30,32,34,36,38,40,42,44,46,48,50,52,54,56,-1,58,60,62,64,66,68,70,72,74,76,78,80,82,84,86,88,90,-1,92,-1,-1,-1,-1,-1,-1,-1,-1,-1,-1,-1,-1,-1,-1,-1,-1,-1,-1,-1,-1,-1,-1,-1,-1,-1,-1,-1,-1,-1,-1,-1,-1,-1,-1,-1,-1,-1,-1,-1,-1,-1,-1,-1],"split_conditions":[6.868165E3,1.7E0,7.983652E1,2.172E2,6.93E1,6.88E1,8.661188E1,8E-1,5.673023E1,6.725E1,2.9924437E-1,6.602624E1,2.114E2,-9.8E1,1.4092158E0,1.006E2,2.008E2,6.3948055E1,6.5186134E1,6.89E1,-1.24E1,7.06353E3,1.131E2,-8.15E0,2.166E2,4E-1,7.22764E3,6.874054E1,-7.17E0,9E-1,3.2046625E-1,6.57E1,-1.766E1,6.5852373E3,6.872387E1,-7E0,6.404731E1,-1.36E1,1.068E2,6.9016074E3,1.1E2,1.117E2,6.9326123E3,6.88E1,7.06E1,8.034549E1,1.09E2,9.9E1,2.981547E-1,8.036131E1,-4.7979537E-1,2.8026146E-1,-1.8486778E-1,-3.3446723E-1,-7.614249E-1,-1.7513162E-2,-2.418599E-1,-5.6180626E-1,3.325358E-1,-2.1688469E-1,-8.947528E-1,9.754767E-2,8.1428826E-1,2.1929596E-1,-6.745245E-1,-6.333689E-1,-2.752556E-1,-2.8282496E-1,1.8518189E-1,-6.995005E-1,1.56802E-2,-1.3805503E0,-5.5276024E-1,3.4909317E-1,9.717752E-1,-1.6245475E-1,5.09983E-1,-6.475937E-2,4.546577E-1,3.4843284E-1,-5.4324645E-1,-1.9468443E-1,-1.1102399E0,1.392584E-2,9.8167527E-1,4.5886707E-1,1.1784861E0,-4.089315E-1,2.8284115E-1,1.3338498E0,5.67139E-1,7.859118E-1,1.6352563E-1],"split_indices":[21,11,27,18,13,3,26,11,30,13,0,27,18,12,0,2,17,27,27,3,15,21,2,5,18,11,22,26,0,11,0,8,5,21,26,15,27,15,1,21,7,2,21,13,8,26,7,7,0,30,0,0,0,0,0,0,0,0,0,0,0,0,0,0,0,0,0,0,0,0,0,0,0,0,0,0,0,0,0,0,0,0,0,0,0,0,0,0,0,0,0,0,0],"split_type":[0,0,0,0,0,0,0,0,0,0,0,0,0,0,0,0,0,0,0,0,0,0,0,0,0,0,0,0,0,0,0,0,0,0,0,0,0,0,0,0,0,0,0,0,0,0,0,0,0,0,0,0,0,0,0,0,0,0,0,0,0,0,0,0,0,0,0,0,0,0,0,0,0,0,0,0,0,0,0,0,0,0,0,0,0,0,0,0,0,0,0,0,0],"sum_hessian":[9.43E2,1.89E2,7.54E2,1.34E2,5.5E1,6.82E2,7.2E1,6.5E1,6.9E1,5.2E1,3E0,4.64E2,2.18E2,6.7E1,5E0,5.3E1,1.2E1,2.3E1,4.6E1,3.3E1,1.9E1,2.1E1,4.43E2,1.01E2,1.17E2,1.5E1,5.2E1,9E0,4.4E1,6E0,6E0,1.4E1,9E0,1.1E1,3.5E1,2.7E1,6E0,1.2E1,7E0,1.2E1,9E0,4.06E2,3.7E1,1.1E1,9E1,4.8E1,6.9E1,1.2E1,3E0,4.7E1,5E0,4E0,5E0,1.8E1,2.6E1,3E0,3E0,4E0,1E1,4E0,5E0,4E0,7E0,2.8E1,7E0,1.4E1,1.3E1,3E0,3E0,9E0,3E0,4E0,3E0,5E0,7E0,4E0,5E0,3.89E2,1.7E1,4E0,3.3E1,6E0,5E0,8.5E1,5E0,4.1E1,7E0,1.5E1,5.4E1,3E0,9E0,9E0,3.8E1],"tree_param":{"num_deleted":"0","num_feature":"38","num_nodes":"93","size_leaf_vector":"1"}},{"base_weights":[3.5264724E-1,-4.9449296E0,1.5984106E0,-4.3581023E0,-1.2472184E0,9.0304536E-1,9.474333E0,-1.0764769E1,-2.5544276E0,4.643125E-1,8.716114E0,7.486383E0,1.9251831E1,-6.891859E0,-1.889616E1,-3.3289235E0,7.7049416E-1,8.717945E-1,-5.293808E0,-5.4072547E0,1.9237984E1,9.1441765E0,-3.6416632E-1,1.1472075E0,5.475341E-1,-1.633115E1,-3.5706367E0,-3.5920966E-1,-1.192081E0,-1.977037E0,-8.2452965E0,2.1694126E0,-1.5684013E0,-9.247323E-1,-3.9081612E0,7.923209E-1,-1.3173494E1,2.2897001E1,2.8238863E-1,1.0564571E1,-1.38971E-1,-3.0391872E-1,-1.1238068E0,-4.6701574E-1,-8.82012E-2,-2.4575415E-1,2.1442306E-1,-7.07481E-1,-1.2787163E-1,2.4808443E-1,3.0947074E-2,-2.4798968E-1,9.1810994E-2,-4.7257486E-1,7.781516E-2,-8.4991515E-1,-1.4654999E-2,1.5000509E0,6.6188806E-1,3.0556807E-1,6.704332E-1],"categories":[],"categories_nodes":[],"categories_segments":[],"categories_sizes":[],"default_left":[0,0,0,0,0,0,0,0,0,0,0,0,0,0,0,0,0,0,0,0,0,0,0,0,0,0,0,0,0,0,0,0,0,0,0,0,0,0,0,0,0,0,0,0,0,0,0,0,0,0,0,0,0,0,0,0,0,0,0,0,0],"id":12,"left_children":[1,3,5,7,-1,9,11,13,15,17,19,21,23,25,27,29,-1,31,33,35,37,39,-1,-1,-1,41,43,-1,-1,45,47,49,51,-1,53,-1,55,57,-1,59,-1,-1,-1,-1,-1,-1,-1,-1,-1,-1,-1,-1,-1,-1,-1,-1,-1,-1,-1,-1,-1],"loss_changes":[6.3431157E3,2.0360869E3,4.2512344E3,2.039612E3,0E0,2.4493757E3,1.0777417E3,1.0953853E3,2.0118633E3,1.5973314E3,5.7523687E3,1.3889829E3,5.186133E1,8.174967E2,5.20667E2,8.8658386E2,0E0,2.0141534E3,7.486061E2,3.0145244E3,9.6181836E2,8.600171E2,0E0,0E0,0E0,3.0154834E2,2.1173166E2,0E0,0E0,2.0092395E3,9.3604944E2,1.7930483E3,2.5611753E3,0E0,1.2877361E3,0E0,6.337344E2,7.650596E2,0E0,4.7337793E2,0E0,0E0,0E0,0E0,0E0,0E0,0E0,0E0,0E0,0E0,0E0,0E0,0E0,0E0,0E0,0E0,0E0,0E0,0E0,0E0,0E0],"parents":[2147483647,0,0,1,1,2,2,3,3,5,5,6,6,7,7,8,8,9,9,10,10,11,11,12,12,13,13,14,14,15,15,17,17,18,18,19,19,20,20,21,21,25,25,26,26,29,29,30,30,31,31,32,32,34,34,36,36,37,37,39,39],"right_children":[2,4,6,8,-1,10,12,14,16,18,20,22,24,26,28,30,-1,32,34,36,38,40,-1,-1,-1,42,44,-1,-1,46,48,50,52,-1,54,-1,56,58,-1,60,-1,-1,-1,-1,-1,-1,-1,-1,-1,-1,-1,-1,-1,-1,-1,-1,-1,-1,-1,-1,-1],"split_conditions":[1.3728174E2,2.9E0,8.058076E1,9.53E1,-1.2472184E0,7.05E1,8.2781715E1,6.82E1,6.875E1,8.0181206E1,2.065E2,7.13E1,1.204E2,1.032E2,-2.74E1,6.2998535E1,7.7049416E-1,2.16E2,6.555E1,7.06E1,2.3E0,2.85E1,-3.6416632E-1,1.1472075E0,5.475341E-1,9.95E1,9.69E1,-3.5920966E-1,-1.192081E0,6.0288948E1,6.508693E1,4.64E0,2.206E2,-9.247323E-1,2.302E1,7.923209E-1,1.052E2,-6.62E0,2.8238863E-1,1.103E2,-1.38971E-1,-3.0391872E-1,-1.1238068E0,-4.6701574E-1,-8.82012E-2,-2.4575415E-1,2.1442306E-1,-7.07481E-1,-1.2787163E-1,2.4808443E-1,3.0947074E-2,-2.4798968E-1,9.1810994E-2,-4.7257486E-1,7.781516E-2,-8.4991515E-1,-1.4654999E-2,1.5000509E0,6.6188806E-1,3.0556807E-1,6.704332E-1],"split_indices":[28,5,27,6,0,13,26,3,13,29,17,3,6,2,25,29,0,18,13,3,11,16,0,0,0,1,1,0,0,29,29,0,18,0,0,0,1,5,0,1,0,0,0,0,0,0,0,0,0,0,0,0,0,0,0,0,0,0,0,0,0],"split_type":[0,0,0,0,0,0,0,0,0,0,0,0,0,0,0,0,0,0,0,0,0,0,0,0,0,0,0,0,0,0,0,0,0,0,0,0,0,0,0,0,0,0,0,0,0,0,0,0,0,0,0,0,0,0,0,0,0,0,0,0,0],"sum_hessian":[9.59E2,1.82E2,7.77E2,1.78E2,4E0,7.15E2,6.2E1,3.8E1,1.4E2,6.78E2,3.7E1,5.3E1,9E0,2.7E1,1.1E1,1.35E2,5E0,6.34E2,4.4E1,1.6E1,2.1E1,4.8E1,5E0,5E0,4E0,6E0,2.1E1,4E0,7E0,1.07E2,2.8E1,4.14E2,2.2E2,3E0,4.1E1,4E0,1.2E1,1.6E1,5E0,4.3E1,5E0,3E0,3E0,4E0,1.7E1,7.3E1,3.4E1,1.3E1,1.5E1,1.47E2,2.67E2,1.1E2,1.1E2,2E1,2.1E1,9E0,3E0,8E0,8E0,1.8E1,2.5E1],"tree_param":{"num_deleted":"0","num_feature":"38","num_nodes":"61","size_leaf_vector":"1"}},{"base_weights":[4.2048857E-1,-1.3864577E0,4.0903716E0,-4.762934E0,5.367401E-3,1.5585421E0,8.839736E0,-1.7638434E0,-6.736987E0,-4.344775E0,1.2052524E0,-1.3159102E1,2.061339E0,1.6508596E1,6.0185566E0,3.6931002E0,-5.211598E0,-9.465534E0,-3.8292342E-1,1.6605115E0,-1.403117E1,8.930785E0,5.4977E-1,-8.68135E-1,-2.8203648E-1,1.2689755E0,1.3475779E1,2.4999668E1,2.3879411E0,-3.7171268E0,9.651926E0,1.9577291E1,-2.9683008E0,-1.2666323E0,-9.268665E0,-1.0249489E1,8.8208064E-2,3.3139176E0,-1.1442011E1,-1.1289275E0,1.4705086E1,2.8134424E-2,-1.5301005E1,-3.1227288E0,1.3913327E1,1.0476476E0,-1.55766535E1,3.0852225E0,-3.4821768E0,1.8730627E-1,1.7372723E1,6.844491E-1,2.950593E1,4.0776274E-1,-2.8823185E0,-9.705096E0,5.0277424E0,7.563152E0,2.4372196E1,2.2980487E-1,1.3142604E0,-4.7083887E-1,1.1063522E-1,5.0564587E-2,-5.3002936E-1,-5.636689E-1,1.5235317E-1,-1.14275806E-1,-5.728293E-1,-1.1715292E-1,8.527309E-1,-1.7848232E-1,-7.3832923E-1,8.2228005E-1,-1.8904722E-1,-1.3146923E-1,1.0773343E0,-8.393771E-1,-2.6507458E-1,-4.251464E-1,4.8392918E-2,1.090009E0,4.4844753E-1,8.5215524E-2,-3.793636E-1,-1.2822737E0,-3.7917605E-1,-9.897723E-2,2.904769E-1,4.9857768E-1,-2.5467154E-1,2.2652443E-1,1.1511046E0,7.655795E-1,1.626249E0,4.5566827E-2,-2.990197E-1,-1.1064142E-1,-7.517597E-1,-1.1885184E-1,8.377086E-1,9.1975796E-1,2.4928735E-1,5.83018E-1,1.5482992E0],"categories":[],"categories_nodes":[],"categories_segments":[],"categories_sizes":[],"default_left":[0,0,0,0,0,0,0,0,0,0,0,0,0,0,0,0,0,0,0,0,0,0,0,0,0,0,0,0,0,0,0,0,0,0,0,0,0,0,0,0,0,0,0,0,0,0,0,0,0,0,0,0,0,0,0,0,0,0,0,0,0,0,0,0,0,0,0,0,0,0,0,0,0,0,0,0,0,0,0,0,0,0,0,0,0,0,0,0,0,0,0,0,0,0,0,0,0,0,0,0,0,0,0,0,0],"id":13,"left_children":[1,3,5,7,9,11,13,15,17,19,21,23,25,27,29,31,33,35,37,39,41,43,45,-1,-1,47,49,51,53,55,57,59,61,63,65,67,-1,69,71,73,75,-1,77,79,81,83,85,87,89,-1,91,-1,93,-1,95,97,99,101,103,-1,-1,-1,-1,-1,-1,-1,-1,-1,-1,-1,-1,-1,-1,-1,-1,-1,-1,-1,-1,-1,-1,-1,-1,-1,-1,-1,-1,-1,-1,-1,-1,-1,-1,-1,-1,-1,-1,-1,-1,-1,-1,-1,-1,-1,-1],"loss_changes":[6.371971E3,3.0269565E3,3.796975E3,1.1002949E3,2.390312E3,1.5652126E3,2.2782646E3,1.4492782E3,1.9545127E3,5.783324E3,1.8121003E3,1.20990845E2,1.8083909E3,3.4146484E3,2.937084E3,3.2341013E3,7.3944104E2,7.144126E2,1.4696598E3,2.2739553E3,7.142915E2,1.726127E3,2.680489E3,0E0,0E0,1.6502642E3,4.2571436E2,5.0921484E2,3.887762E2,1.2536346E3,1.657315E3,7.8053564E2,7.56568E2,5.432302E2,6.030316E2,6.838242E2,0E0,2.1401628E3,1.8100513E2,2.4845266E3,1.3630967E3,0E0,4.290547E2,2.070567E2,5.813096E2,1.8438271E3,6.0700806E2,1.9160104E3,1.1992028E3,0E0,5.4589795E2,0E0,1.1448242E1,0E0,8.822827E1,5.2408813E2,9.095791E2,1.4135457E3,2.2139648E2,0E0,0E0,0E0,0E0,0E0,0E0,0E0,0E0,0E0,0E0,0E0,0E0,0E0,0E0,0E0,0E0,0E0,0E0,0E0,0E0,0E0,0E0,0E0,0E0,0E0,0E0,0E0,0E0,0E0,0E0,0E0,0E0,0E0,0E0,0E0,0E0,0E0,0E0,0E0,0E0,0E0,0E0,0E0,0E0,0E0,0E0],"parents":[2147483647,0,0,1,1,2,2,3,3,4,4,5,5,6,6,7,7,8,8,9,9,10,10,11,11,12,12,13,13,14,14,15,15,16,16,17,17,18,18,19,19,20,20,21,21,22,22,25,25,26,26,27,27,28,28,29,29,30,30,31,31,32,32,33,33,34,34,35,35,37,37,38,38,39,39,40,40,42,42,43,43,44,44,45,45,46,46,47,47,48,48,50,50,52,52,54,54,55,55,56,56,57,57,58,58],"right_children":[2,4,6,8,10,12,14,16,18,20,22,24,26,28,30,32,34,36,38,40,42,44,46,-1,-1,48,50,52,54,56,58,60,62,64,66,68,-1,70,72,74,76,-1,78,80,82,84,86,88,90,-1,92,-1,94,-1,96,98,100,102,104,-1,-1,-1,-1,-1,-1,-1,-1,-1,-1,-1,-1,-1,-1,-1,-1,-1,-1,-1,-1,-1,-1,-1,-1,-1,-1,-1,-1,-1,-1,-1,-1,-1,-1,-1,-1,-1,-1,-1,-1,-1,-1,-1,-1,-1,-1],"split_conditions":[7.396908E1,1.3728174E2,6.894911E1,2.77E2,1.044E2,6.50833E1,7.638103E1,6.768834E1,1.143E2,1.023E2,1.5E2,3E-1,2.196E2,7.1043434E1,7.8599106E1,-5.7E0,-9E-1,2.672E1,2.1E0,5.8E0,6.48E1,1.043E2,7.359997E1,-8.68135E-1,-2.8203648E-1,1.9E0,-4.2E0,6.89E1,6.983881E1,1.042E2,7.093899E1,6.62E1,1.018E2,6.8206E3,-3E-1,-3.2E0,8.8208064E-2,6.72E1,1.92E2,-4.95E0,-6.99E0,2.8134424E-2,7.407525E3,1.41E2,1.4E2,4.1E0,2E-1,7.259055E1,2.129E2,1.8730627E-1,1.01E2,6.844491E-1,7.456742E1,4.0776274E-1,2.092E2,2.046E2,1.94E0,9.9E1,8.33E0,2.2980487E-1,1.3142604E0,-4.7083887E-1,1.1063522E-1,5.0564587E-2,-5.3002936E-1,-5.636689E-1,1.5235317E-1,-1.14275806E-1,-5.728293E-1,-1.1715292E-1,8.527309E-1,-1.7848232E-1,-7.3832923E-1,8.2228005E-1,-1.8904722E-1,-1.3146923E-1,1.0773343E0,-8.393771E-1,-2.6507458E-1,-4.251464E-1,4.8392918E-2,1.090009E0,4.4844753E-1,8.5215524E-2,-3.793636E-1,-1.2822737E0,-3.7917605E-1,-9.897723E-2,2.904769E-1,4.9857768E-1,-2.5467154E-1,2.2652443E-1,1.1511046E0,7.655795E-1,1.626249E0,4.5566827E-2,-2.990197E-1,-1.1064142E-1,-7.517597E-1,-1.1885184E-1,8.377086E-1,9.1975796E-1,2.4928735E-1,5.83018E-1,1.5482992E0],"split_indices":[27,28,14,9,7,30,27,27,7,7,9,11,18,29,27,15,11,10,11,11,3,1,27,0,0,11,11,3,14,7,14,3,7,21,10,11,0,3,17,0,10,0,21,9,9,11,11,29,17,0,1,0,27,0,18,18,0,7,0,0,0,0,0,0,0,0,0,0,0,0,0,0,0,0,0,0,0,0,0,0,0,0,0,0,0,0,0,0,0,0,0,0,0,0,0,0,0,0,0,0,0,0,0,0,0],"split_type":[0,0,0,0,0,0,0,0,0,0,0,0,0,0,0,0,0,0,0,0,0,0,0,0,0,0,0,0,0,0,0,0,0,0,0,0,0,0,0,0,0,0,0,0,0,0,0,0,0,0,0,0,0,0,0,0,0,0,0,0,0,0,0,0,0,0,0,0,0,0,0,0,0,0,0,0,0,0,0,0,0,0,0,0,0,0,0,0,0,0,0,0,0,0,0,0,0,0,0,0,0,0,0,0,0],"sum_hessian":[9.59E2,6.43E2,3.16E2,1.87E2,4.56E2,2.07E2,1.09E2,7.5E1,1.12E2,9.8E1,3.58E2,6E0,2.01E2,2.8E1,8.1E1,2.9E1,4.6E1,7.8E1,3.4E1,6.1E1,3.7E1,2.7E1,3.31E2,3E0,3E0,1.89E2,1.2E1,1.7E1,1.1E1,2.2E1,5.9E1,8E0,2.1E1,2.4E1,2.2E1,7.3E1,5E0,2.6E1,8E0,5.1E1,1E1,3E0,3.4E1,8E0,1.9E1,3.22E2,9E0,1.37E2,5.2E1,4E0,8E0,6E0,1.1E1,5E0,6E0,1.3E1,9E0,5.3E1,6E0,3E0,5E0,9E0,1.2E1,2E1,4E0,1.9E1,3E0,1E1,6.3E1,1.9E1,7E0,3E0,5E0,6E0,4.5E1,3E0,7E0,2.9E1,5E0,3E0,5E0,6E0,1.3E1,3E2,2.2E1,3E0,6E0,4.8E1,8.9E1,5E0,4.7E1,3E0,5E0,3E0,8E0,3E0,3E0,6E0,7E0,6E0,3E0,9E0,4.4E1,3E0,3E0],"tree_param":{"num_deleted":"0","num_feature":"38","num_nodes":"105","size_leaf_vector":"1"}},{"base_weights":[2.220389E-2,-6.8839324E-1,8.351439E0,-4.5594125E0,3.2179862E-1,6.7698755E0,1.2697223E0,-5.7204394E0,2.0269647E0,8.49622E0,-9.647525E-2,1.384047E1,4.2389207E0,-1.3157943E1,-4.828864E0,-5.3107123E0,1.0909723E1,1.06727E1,-3.120951E-1,-2.675251E0,1.0261738E0,-2.755082E-1,1.8084608E1,9.5298E0,-4.649034E-1,-7.396837E-2,-1.8322807E1,4.597439E-1,-5.309672E0,3.2816914E-1,-8.563456E0,1.5361136E1,1.5697764E-1,1.6214808E1,3.173518E0,-1.3768405E1,-1.311579E0,5.031887E-1,8.067623E0,1.6659077E-1,2.1486822E1,1.5838481E1,1.3671893E0,-5.5677733E0,8.382318E0,-5.7191145E-1,-1.106846E0,-2.03666E-1,-5.763264E-1,-1.4763483E-1,-6.4682895E-1,3.4677666E-1,9.504696E-1,4.984139E-1,1.185005E0,-3.377643E-2,5.128454E-1,-6.7282976E-3,-9.433217E-1,3.8374904E-1,-1.3344789E-1,-7.4904954E-1,3.780418E-2,-1.9562374E-1,7.728153E-1,1.2351019E0,6.012556E-1,1.0355892E0,3.9960322E-1,-1.0291727E-1,4.3789226E-1,1.3650899E-1,-4.366742E-1,9.222787E-2,7.919359E-1],"categories":[],"categories_nodes":[],"categories_segments":[],"categories_sizes":[],"default_left":[0,0,0,0,0,0,0,0,0,0,0,0,0,0,0,0,0,0,0,0,0,0,0,0,0,0,0,0,0,0,0,0,0,0,0,0,0,0,0,0,0,0,0,0,0,0,0,0,0,0,0,0,0,0,0,0,0,0,0,0,0,0,0,0,0,0,0,0,0,0,0,0,0,0,0],"id":14,"left_children":[1,3,5,7,9,11,-1,13,15,17,19,21,23,25,27,29,31,33,-1,35,37,-1,39,41,43,-1,45,-1,47,-1,49,51,-1,53,55,57,59,61,63,-1,65,67,69,71,73,-1,-1,-1,-1,-1,-1,-1,-1,-1,-1,-1,-1,-1,-1,-1,-1,-1,-1,-1,-1,-1,-1,-1,-1,-1,-1,-1,-1,-1,-1],"loss_changes":[5.6470654E3,3.439196E3,1.8464619E3,1.4037112E3,2.388224E3,1.1921985E3,0E0,9.624824E2,1.8835052E3,1.1576865E3,1.9281251E3,1.5791882E3,1.3243672E3,9.3600586E2,9.9241455E2,6.743794E2,3.9956982E2,1.1934417E3,0E0,3.0361733E3,1.7037971E3,0E0,6.7881055E2,1.2640076E3,1.3556298E3,0E0,3.2279053E1,0E0,9.968147E2,0E0,2.791883E2,1.1147522E2,0E0,5.552544E2,3.8958716E2,1.524687E3,2.2278516E3,1.7054752E3,2.894175E3,0E0,6.433984E1,3.6693164E2,3.2249997E2,5.235538E2,5.052461E2,0E0,0E0,0E0,0E0,0E0,0E0,0E0,0E0,0E0,0E0,0E0,0E0,0E0,0E0,0E0,0E0,0E0,0E0,0E0,0E0,0E0,0E0,0E0,0E0,0E0,0E0,0E0,0E0,0E0,0E0],"parents":[2147483647,0,0,1,1,2,2,3,3,4,4,5,5,7,7,8,8,9,9,10,10,11,11,12,12,13,13,14,14,15,15,16,16,17,17,19,19,20,20,22,22,23,23,24,24,26,26,28,28,30,30,31,31,33,33,34,34,35,35,36,36,37,37,38,38,40,40,41,41,42,42,43,43,44,44],"right_children":[2,4,6,8,10,12,-1,14,16,18,20,22,24,26,28,30,32,34,-1,36,38,-1,40,42,44,-1,46,-1,48,-1,50,52,-1,54,56,58,60,62,64,-1,66,68,70,72,74,-1,-1,-1,-1,-1,-1,-1,-1,-1,-1,-1,-1,-1,-1,-1,-1,-1,-1,-1,-1,-1,-1,-1,-1,-1,-1,-1,-1,-1,-1],"split_conditions":[7.999128E1,1.3728174E2,8.661188E1,1.144E2,6.602624E1,7.924285E3,1.2697223E0,1.63E2,6.426846E1,2.5E0,6.68E1,9.46E1,-9E-1,6.25E1,-1.68E2,-3.3E0,6.608882E1,7.65611E1,-3.120951E-1,1.01E2,2.248E2,-2.755082E-1,6.59E1,1.02E2,8.3299225E1,-7.396837E-2,6.909465E1,4.597439E-1,6.804469E1,3.2816914E-1,1.088E2,-1.303E1,1.5697764E-1,1.2879396E2,2.296E1,6.2613125E1,1.048E2,1.2367251E2,1.2243994E2,1.6659077E-1,9.95E1,1.209E2,8.3248E3,7.96499E3,1.9E1,-5.7191145E-1,-1.106846E0,-2.03666E-1,-5.763264E-1,-1.4763483E-1,-6.4682895E-1,3.4677666E-1,9.504696E-1,4.984139E-1,1.185005E0,-3.377643E-2,5.128454E-1,-6.7282976E-3,-9.433217E-1,3.8374904E-1,-1.3344789E-1,-7.4904954E-1,3.780418E-2,-1.9562374E-1,7.728153E-1,1.2351019E0,6.012556E-1,1.0355892E0,3.9960322E-1,-1.0291727E-1,4.3789226E-1,1.3650899E-1,-4.366742E-1,9.222787E-2,7.919359E-1],"split_indices":[27,28,26,7,27,21,0,9,27,11,8,7,11,8,12,11,27,26,0,6,18,0,8,7,29,0,27,0,14,0,2,0,0,31,0,29,6,31,31,0,7,6,21,21,9,0,0,0,0,0,0,0,0,0,0,0,0,0,0,0,0,0,0,0,0,0,0,0,0,0,0,0,0,0,0],"split_type":[0,0,0,0,0,0,0,0,0,0,0,0,0,0,0,0,0,0,0,0,0,0,0,0,0,0,0,0,0,0,0,0,0,0,0,0,0,0,0,0,0,0,0,0,0,0,0,0,0,0,0,0,0,0,0,0,0,0,0,0,0,0,0,0,0,0,0,0,0,0,0,0,0,0,0],"sum_hessian":[9.52E2,8.78E2,7.4E1,1.81E2,6.97E2,6.9E1,5E0,1.54E2,2.7E1,3.3E1,6.64E2,1.7E1,5.2E1,1.5E1,1.39E2,1.5E1,1.2E1,2.9E1,4E0,2.01E2,4.63E2,3E0,1.4E1,2.4E1,2.8E1,5E0,1E1,4E0,1.35E2,3E0,1.2E1,7E0,5E0,1.6E1,1.3E1,2.1E1,1.8E2,4.32E2,3.1E1,3E0,1.1E1,1.3E1,1.1E1,1.8E1,1E1,5E0,5E0,1.14E2,2.1E1,6E0,6E0,3E0,4E0,1E1,6E0,9E0,4E0,6E0,1.5E1,2.3E1,1.57E2,6E0,4.26E2,1.2E1,1.9E1,7E0,4E0,7E0,6E0,8E0,3E0,5E0,1.3E1,6E0,4E0],"tree_param":{"num_deleted":"0","num_feature":"38","num_nodes":"75","size_leaf_vector":"1"}},{"base_weights":[2.255043E-1,-7.5040305E-1,6.8118668E0,-2.7280433E0,9.480387E-1,4.03169E0,1.3763411E1,-5.6920714E0,-4.7546107E-1,9.940638E-1,6.909816E-1,7.260695E-2,6.921547E0,2.5216099E1,9.432388E0,-2.7612593E0,-9.916911E0,6.305318E0,-1.9636792E0,1.2112381E0,-1.6723043E1,-2.727536E0,1.1276603E1,9.768321E0,4.8005173E-1,1.5519532E0,5.076314E-1,2.0990252E0,1.841584E1,-7.988413E-1,-1.8964734E0,-1.7026089E1,-7.0150857E0,9.6124325E0,-3.2782056E0,-9.188824E0,-5.8969945E-1,-2.5201705E0,2.1678398E0,-1.1227025E0,-1.5213111E-1,1.1972018E0,-8.563476E0,9.749077E-2,8.2313555E-1,-1.2033837E-1,1.1812908E1,-4.0588018E-1,4.747208E0,-8.335193E0,9.203075E0,1.1843007E1,1.2614602E0,2.0260489E-1,-2.0990697E-1,-3.419145E-1,-1.1902323E0,-1.9589053E-1,-6.987104E-1,6.877536E-1,3.0404732E-1,-4.697443E-1,7.7244066E-2,-3.377274E-1,-7.930092E-1,9.1277355E-1,-6.0730357E-2,-5.259178E-2,-7.722028E-1,8.914285E-2,1.0271513E0,-4.0377828E-1,2.0131834E-1,-5.7121414E-1,-8.4066376E-2,2.4097176E-1,7.4544376E-1,4.7773486E-1,1.0359839E-1,-9.14378E-2,-6.366416E-1,8.6699075E-1,4.3597337E-2,7.278391E-1,2.732518E-1],"categories":[],"categories_nodes":[],"categories_segments":[],"categories_sizes":[],"default_left":[0,0,0,0,0,0,0,0,0,0,0,0,0,0,0,0,0,0,0,0,0,0,0,0,0,0,0,0,0,0,0,0,0,0,0,0,0,0,0,0,0,0,0,0,0,0,0,0,0,0,0,0,0,0,0,0,0,0,0,0,0,0,0,0,0,0,0,0,0,0,0,0,0,0,0,0,0,0,0,0,0,0,0,0,0],"id":15,"left_children":[1,3,5,7,9,11,13,15,17,-1,19,21,23,25,27,29,31,33,35,37,39,41,43,45,47,-1,-1,49,51,-1,53,55,57,59,61,63,65,67,69,-1,-1,71,73,-1,-1,-1,75,-1,77,79,81,83,-1,-1,-1,-1,-1,-1,-1,-1,-1,-1,-1,-1,-1,-1,-1,-1,-1,-1,-1,-1,-1,-1,-1,-1,-1,-1,-1,-1,-1,-1,-1,-1,-1],"loss_changes":[6.1762905E3,2.8141697E3,2.3392192E3,2.5805664E3,2.1791873E3,1.0285045E3,1.494752E3,2.0391782E3,2.2421199E3,0E0,4.0593574E3,1.255151E3,9.4783496E2,4.701792E2,1.7380239E3,1.1107766E3,1.2809688E3,1.2998973E3,1.8003542E3,1.5545786E3,9.4836475E2,7.4393384E2,3.530174E2,9.2552075E2,6.61887E2,0E0,0E0,1.2627996E3,2.3490039E2,0E0,1.3177301E3,1.1462661E3,1.021178E3,3.532627E2,3.3981314E2,3.6156836E2,1.8340487E3,1.6710223E3,2.4087915E3,0E0,0E0,5.56794E2,2.3543207E2,0E0,0E0,0E0,5.9737354E2,0E0,1.3337454E2,1.7554929E2,6.6094165E2,5.69115E1,0E0,0E0,0E0,0E0,0E0,0E0,0E0,0E0,0E0,0E0,0E0,0E0,0E0,0E0,0E0,0E0,0E0,0E0,0E0,0E0,0E0,0E0,0E0,0E0,0E0,0E0,0E0,0E0,0E0,0E0,0E0,0E0,0E0],"parents":[2147483647,0,0,1,1,2,2,3,3,4,4,5,5,6,6,7,7,8,8,10,10,11,11,12,12,13,13,14,14,15,15,16,16,17,17,18,18,19,19,20,20,21,21,22,22,23,23,24,24,27,27,28,28,30,30,31,31,32,32,33,33,34,34,35,35,36,36,37,37,38,38,41,41,42,42,46,46,48,48,49,49,50,50,51,51],"right_children":[2,4,6,8,10,12,14,16,18,-1,20,22,24,26,28,30,32,34,36,38,40,42,44,46,48,-1,-1,50,52,-1,54,56,58,60,62,64,66,68,70,-1,-1,72,74,-1,-1,-1,76,-1,78,80,82,84,-1,-1,-1,-1,-1,-1,-1,-1,-1,-1,-1,-1,-1,-1,-1,-1,-1,-1,-1,-1,-1,-1,-1,-1,-1,-1,-1,-1,-1,-1,-1,-1,-1],"split_conditions":[7.7883423E3,6.718095E1,6.99E1,-5E0,6.45E1,1.718E1,1.119E2,-6E1,1.61E0,9.940638E-1,6.3E0,1.067E2,8.3675835E1,7.913073E1,8.056709E1,-1.96E2,-1.4E0,6.72E1,6.65916E3,-9.4E0,1.3708557E2,2.025E2,-2.82E0,1.913E2,8.513068E1,1.5519532E0,5.076314E-1,8.10618E3,2.444E2,-7.988413E-1,-1.534E1,1.2417528E2,8.33E0,1.066E2,6.64E1,1.049E2,2.024E2,6.2613125E1,2.267E2,-1.1227025E0,-1.5213111E-1,-1.5E0,1.144E1,9.749077E-2,8.2313555E-1,-1.2033837E-1,1.415E1,-4.0588018E-1,1.255E2,2.003E2,1.6077304E2,8.258774E1,1.2614602E0,2.0260489E-1,-2.0990697E-1,-3.419145E-1,-1.1902323E0,-1.9589053E-1,-6.987104E-1,6.877536E-1,3.0404732E-1,-4.697443E-1,7.7244066E-2,-3.377274E-1,-7.930092E-1,9.1277355E-1,-6.0730357E-2,-5.259178E-2,-7.722028E-1,8.914285E-2,1.0271513E0,-4.0377828E-1,2.0131834E-1,-5.7121414E-1,-8.4066376E-2,2.4097176E-1,7.4544376E-1,4.7773486E-1,1.0359839E-1,-9.14378E-2,-6.366416E-1,8.6699075E-1,4.3597337E-2,7.278391E-1,2.732518E-1],"split_indices":[21,14,8,12,8,5,6,12,10,0,11,7,27,29,29,12,11,8,21,15,31,18,5,18,27,0,0,21,17,0,10,31,0,7,13,1,17,29,18,0,0,11,5,0,0,0,0,0,6,18,31,29,0,0,0,0,0,0,0,0,0,0,0,0,0,0,0,0,0,0,0,0,0,0,0,0,0,0,0,0,0,0,0,0,0],"split_type":[0,0,0,0,0,0,0,0,0,0,0,0,0,0,0,0,0,0,0,0,0,0,0,0,0,0,0,0,0,0,0,0,0,0,0,0,0,0,0,0,0,0,0,0,0,0,0,0,0,0,0,0,0,0,0,0,0,0,0,0,0,0,0,0,0,0,0,0,0,0,0,0,0,0,0,0,0,0,0,0,0,0,0,0,0],"sum_hessian":[9.59E2,8.36E2,1.23E2,3.86E2,4.5E2,8.9E1,3.4E1,1.66E2,2.2E2,5E0,4.45E2,3.8E1,5.1E1,8E0,2.6E1,9.9E1,6.7E1,3.9E1,1.81E2,4.33E2,1.2E1,3.1E1,7E0,3.5E1,1.6E1,5E0,3E0,1.5E1,1.1E1,5E0,9.4E1,1.8E1,4.9E1,2.9E1,1E1,2.8E1,1.53E2,8.8E1,3.45E2,8E0,4E0,1.9E1,1.2E1,3E0,4E0,5E0,3E1,5E0,1.1E1,6E0,9E0,7E0,4E0,2.6E1,6.8E1,8E0,1E1,3.5E1,1.4E1,1.2E1,1.7E1,4E0,6E0,2.2E1,6E0,4E0,1.49E2,8E1,8E0,3.39E2,6E0,4E0,1.5E1,8E0,4E0,1E1,2E1,3E0,8E0,3E0,3E0,4E0,5E0,4E0,3E0],"tree_param":{"num_deleted":"0","num_feature":"38","num_nodes":"85","size_leaf_vector":"1"}},{"base_weights":[-8.009395E-3,-4.672963E0,1.0791452E0,-5.760679E0,2.9507043E0,1.4657741E1,7.706142E-1,-4.402077E0,-1.160202E1,-2.4164204E-1,5.386847E0,7.1002774E0,1.3656522E0,9.5397586E-1,-1.2920217E1,-5.6722674E0,8.446631E0,2.4686094E-1,-1.525758E1,1.1185668E1,-3.6077636E-1,6.7184454E-1,2.2398593E0,4.5508116E-1,5.595688E0,-8.146672E-1,-1.8810947E-1,-1.1071288E1,-3.947599E0,-1.5547112E-1,1.2655252E1,-1.1776825E1,-1.3054541E0,1.16245486E-1,8.894647E-1,-3.278587E0,2.4052933E-1,2.8301248E-1,-4.6221223E-2,8.01146E-2,6.8854504E0,8.445668E-1,4.311366E0,-4.1805172E-1,-9.799356E-1,4.129694E-2,-3.4056085E-1,8.763831E-1,2.615896E-1,-7.111919E-1,-7.855078E-2,-3.7081607E-2,-2.4854477E-1,-7.2594947E-1,1.802246E-2,-4.5265913E-1,5.798971E-1,1.4044218E-1,7.4205244E-1],"categories":[],"categories_nodes":[],"categories_segments":[],"categories_sizes":[],"default_left":[0,0,0,0,0,0,0,0,0,0,0,0,0,0,0,0,0,0,0,0,0,0,0,0,0,0,0,0,0,0,0,0,0,0,0,0,0,0,0,0,0,0,0,0,0,0,0,0,0,0,0,0,0,0,0,0,0,0,0],"id":16,"left_children":[1,3,5,7,9,11,13,15,17,-1,19,21,-1,23,25,27,29,-1,31,33,35,-1,37,39,41,-1,-1,43,45,-1,47,49,-1,-1,-1,51,-1,-1,-1,53,55,-1,57,-1,-1,-1,-1,-1,-1,-1,-1,-1,-1,-1,-1,-1,-1,-1,-1],"loss_changes":[4.8030654E3,1.5016155E3,3.2046335E3,1.1932871E3,4.6221118E2,1.428542E3,1.8989296E3,2.1529534E3,1.8297068E3,0E0,6.05048E2,3.3791864E2,0E0,1.7174325E3,2.4560779E2,1.0535522E3,6.239257E2,0E0,5.9524365E2,4.8324817E2,1.6650932E2,0E0,9.2290726E1,1.6190604E3,9.695764E2,0E0,0E0,4.804602E2,1.2501567E3,0E0,2.315542E2,4.755498E2,0E0,0E0,0E0,2.5795341E1,0E0,0E0,0E0,2.606733E3,2.8843472E3,0E0,1.00074036E3,0E0,0E0,0E0,0E0,0E0,0E0,0E0,0E0,0E0,0E0,0E0,0E0,0E0,0E0,0E0,0E0],"parents":[2147483647,0,0,1,1,2,2,3,3,4,4,5,5,6,6,7,7,8,8,10,10,11,11,13,13,14,14,15,15,16,16,18,18,19,19,20,20,22,22,23,23,24,24,27,27,28,28,30,30,31,31,35,35,39,39,40,40,42,42],"right_children":[2,4,6,8,10,12,14,16,18,-1,20,22,-1,24,26,28,30,-1,32,34,36,-1,38,40,42,-1,-1,44,46,-1,48,50,-1,-1,-1,52,-1,-1,-1,54,56,-1,58,-1,-1,-1,-1,-1,-1,-1,-1,-1,-1,-1,-1,-1,-1,-1,-1],"split_conditions":[1.3728174E2,6.83E1,9.47E1,7.5808374E3,1.939E2,7.4793174E3,7.32E1,1.144E2,2.8E2,-2.4164204E-1,1.001E2,6.69E1,1.3656522E0,7.999128E1,1.071E2,1.048E2,1.035E2,2.4686094E-1,-2.58E1,6.56E1,1.061E2,6.7184454E-1,1.114E2,7.7515625E3,-2.314E1,-8.146672E-1,-1.8810947E-1,1.3593729E2,2.77E2,-1.5547112E-1,3.48E2,-1.44E1,-1.3054541E0,1.16245486E-1,8.894647E-1,6.76148E3,2.4052933E-1,2.8301248E-1,-4.6221223E-2,5.9454414E1,1.001E2,8.445668E-1,1.198E2,-4.1805172E-1,-9.799356E-1,4.129694E-2,-3.4056085E-1,8.763831E-1,2.615896E-1,-7.111919E-1,-7.855078E-2,-3.7081607E-2,-2.4854477E-1,-7.2594947E-1,1.802246E-2,-4.5265913E-1,5.798971E-1,1.4044218E-1,7.4205244E-1],"split_indices":[28,8,6,22,17,22,3,7,9,0,1,3,0,27,7,7,2,0,25,3,1,0,1,22,10,0,0,28,9,0,9,16,0,0,0,21,0,0,0,30,1,0,1,0,0,0,0,0,0,0,0,0,0,0,0,0,0,0,0],"split_type":[0,0,0,0,0,0,0,0,0,0,0,0,0,0,0,0,0,0,0,0,0,0,0,0,0,0,0,0,0,0,0,0,0,0,0,0,0,0,0,0,0,0,0,0,0,0,0,0,0,0,0,0,0,0,0,0,0,0,0],"sum_hessian":[9.45E2,1.78E2,7.67E2,1.56E2,2.2E1,1.6E1,7.51E2,1.28E2,2.8E1,5E0,1.7E1,1.1E1,5E0,7.42E2,9E0,1.17E2,1.1E1,5E0,2.3E1,8E0,9E0,4E0,7E0,6.71E2,7.1E1,6E0,3E0,2.7E1,9E1,3E0,8E0,1.9E1,4E0,4E0,4E0,6E0,3E0,3E0,4E0,6.35E2,3.6E1,6E0,6.5E1,2.2E1,5E0,3.4E1,5.6E1,4E0,4E0,1.5E1,4E0,3E0,3E0,1.1E1,6.24E2,8E0,2.8E1,5.8E1,7E0],"tree_param":{"num_deleted":"0","num_feature":"38","num_nodes":"59","size_leaf_vector":"1"}},{"base_weights":[-3.022923E-2,-1.2047749E0,4.5057974E0,-5.7672186E0,-5.411806E-1,1.3010255E0,1.0943091E1,-4.0057764E0,-1.225541E1,1.4549277E1,-7.24818E-1,-4.244412E0,4.7353706E0,-3.0346367E-1,1.2159792E1,-5.954488E0,5.1816006E0,-2.3538303E0,-1.6323671E1,9.4676393E-1,4.0553108E-1,-1.0800008E0,5.5949907E0,5.2208195E0,-1.0522652E1,1.053827E1,6.101879E-1,2.6280106E1,9.84086E0,-7.1662235E0,3.4109428E0,8.248834E0,-2.2618453E-1,1.16705015E-1,-3.2391518E-1,-9.584385E-1,-2.1968658E-1,-7.079027E-2,-5.2488804E0,1.3556763E0,1.3599038E1,1.01914786E-1,8.9922154E-1,8.955427E-1,-1.6852436E1,1.27995615E1,-4.798154E-1,-3.2576907E0,8.088411E0,6.775142E-1,1.5593972E0,-3.805638E-1,1.1779064E1,-4.678184E-1,-4.8147794E-2,3.947155E-1,-1.5105008E-1,-1.926262E-2,7.762391E-1,-1.2732539E-1,9.302585E-2,-3.293594E-1,1.13857485E-1,3.977687E-1,-2.9493183E-1,1.1096948E0,3.2574353E-1,4.6019784E-1,-1.8453811E-1,3.1775162E-1,-5.793597E-1,-1.0189689E0,-2.604836E-1,1.3454014E-1,9.1099197E-1,2.0683937E-1,-5.233211E-1,7.1345705E-1,-4.7895834E-1,5.0025654E-1,1.4604766E0],"categories":[],"categories_nodes":[],"categories_segments":[],"categories_sizes":[],"default_left":[0,0,0,0,0,0,0,0,0,0,0,0,0,0,0,0,0,0,0,0,0,0,0,0,0,0,0,0,0,0,0,0,0,0,0,0,0,0,0,0,0,0,0,0,0,0,0,0,0,0,0,0,0,0,0,0,0,0,0,0,0,0,0,0,0,0,0,0,0,0,0,0,0,0,0,0,0,0,0,0,0],"id":17,"left_children":[1,3,5,7,9,11,13,15,17,19,21,23,25,-1,27,29,31,33,35,-1,-1,37,39,41,43,45,47,49,51,53,55,57,-1,-1,-1,-1,-1,59,61,63,65,67,-1,69,71,73,-1,75,77,-1,-1,-1,79,-1,-1,-1,-1,-1,-1,-1,-1,-1,-1,-1,-1,-1,-1,-1,-1,-1,-1,-1,-1,-1,-1,-1,-1,-1,-1,-1,-1],"loss_changes":[5.0771357E3,2.2881501E3,4.0280303E3,1.0464248E3,1.8436791E3,2.5340806E3,1.4198423E3,1.4095039E3,7.653533E2,6.963818E1,1.4758611E3,3.086142E3,1.9553722E3,0E0,1.7351553E3,7.511184E2,4.5444513E2,1.5088214E2,3.8860742E2,0E0,0E0,2.6118154E3,1.1676771E3,1.3684082E3,2.2572039E3,1.6711741E3,1.4441508E3,7.272803E1,1.9166631E3,7.6436304E2,2.550302E2,6.985276E2,0E0,0E0,0E0,0E0,0E0,2.400273E3,1.2341606E3,1.1961621E3,5.83188E2,5.868586E2,0E0,8.909062E2,7.1253906E2,1.6474434E3,0E0,1.802989E3,1.9935304E3,0E0,0E0,0E0,1.218937E3,0E0,0E0,0E0,0E0,0E0,0E0,0E0,0E0,0E0,0E0,0E0,0E0,0E0,0E0,0E0,0E0,0E0,0E0,0E0,0E0,0E0,0E0,0E0,0E0,0E0,0E0,0E0,0E0],"parents":[2147483647,0,0,1,1,2,2,3,3,4,4,5,5,6,6,7,7,8,8,9,9,10,10,11,11,12,12,14,14,15,15,16,16,17,17,18,18,21,21,22,22,23,23,24,24,25,25,26,26,27,27,28,28,29,29,30,30,31,31,37,37,38,38,39,39,40,40,41,41,43,43,44,44,45,45,47,47,48,48,52,52],"right_children":[2,4,6,8,10,12,14,16,18,20,22,24,26,-1,28,30,32,34,36,-1,-1,38,40,42,44,46,48,50,52,54,56,58,-1,-1,-1,-1,-1,60,62,64,66,68,-1,70,72,74,-1,76,78,-1,-1,-1,80,-1,-1,-1,-1,-1,-1,-1,-1,-1,-1,-1,-1,-1,-1,-1,-1,-1,-1,-1,-1,-1,-1,-1,-1,-1,-1,-1,-1],"split_conditions":[6.98E1,2.008E2,7.291871E1,6.9151054E1,2.013E2,1E0,1.054E2,6.78E1,8E-1,1.071E2,8.058076E1,2.136E2,9E1,-3.0346367E-1,6.3E0,1.01E2,6.739875E3,-2.252E1,6.2E0,9.4676393E-1,4.0553108E-1,1.4798471E2,1.419E1,-1.8E0,1.2702208E2,-2E-1,7.984398E1,-4.6E0,1.35E1,2.8E0,1E0,6.57951E3,-2.2618453E-1,1.16705015E-1,-3.2391518E-1,-9.584385E-1,-2.1968658E-1,4E-1,8.1435905E1,1.218E1,1.794E1,-8.2E0,8.9922154E-1,1.144E2,7.6859085E1,1.022E2,-4.798154E-1,7.19158E3,1.5E0,6.775142E-1,1.5593972E0,-3.805638E-1,7.428885E3,-4.678184E-1,-4.8147794E-2,3.947155E-1,-1.5105008E-1,-1.926262E-2,7.762391E-1,-1.2732539E-1,9.302585E-2,-3.293594E-1,1.13857485E-1,3.977687E-1,-2.9493183E-1,1.1096948E0,3.2574353E-1,4.6019784E-1,-1.8453811E-1,3.1775162E-1,-5.793597E-1,-1.0189689E0,-2.604836E-1,1.3454014E-1,9.1099197E-1,2.0683937E-1,-5.233211E-1,7.1345705E-1,-4.7895834E-1,5.0025654E-1,1.4604766E0],"split_indices":[8,17,30,26,17,12,6,8,11,2,27,18,12,0,25,1,21,5,11,0,0,31,0,11,31,11,26,15,25,11,11,21,0,0,0,0,0,11,30,0,0,11,0,2,27,1,0,21,16,0,0,0,22,0,0,0,0,0,0,0,0,0,0,0,0,0,0,0,0,0,0,0,0,0,0,0,0,0,0,0,0],"split_type":[0,0,0,0,0,0,0,0,0,0,0,0,0,0,0,0,0,0,0,0,0,0,0,0,0,0,0,0,0,0,0,0,0,0,0,0,0,0,0,0,0,0,0,0,0,0,0,0,0,0,0,0,0,0,0,0,0,0,0,0,0,0,0,0,0,0,0,0,0,0,0,0,0,0,0,0,0,0,0,0,0],"sum_hessian":[9.51E2,7.56E2,1.95E2,9.5E1,6.61E2,1.31E2,6.4E1,7.6E1,1.9E1,7E0,6.54E2,5E1,8.1E1,4E0,6E1,6.3E1,1.3E1,6E0,1.3E1,3E0,4E0,6.2E2,3.4E1,2E1,3E1,3.3E1,4.8E1,7E0,5.3E1,5.6E1,7E0,1E1,3E0,3E0,3E0,1E1,3E0,5E2,1.2E2,2.3E1,1.1E1,1.5E1,5E0,1.1E1,1.9E1,3E1,3E0,3.2E1,1.6E1,3E0,4E0,5E0,4.8E1,4.1E1,1.5E1,4E0,3E0,5E0,5E0,2.19E2,2.81E2,1.02E2,1.8E1,1.2E1,1.1E1,4E0,7E0,4E0,1.1E1,8E0,3E0,1.4E1,5E0,1.1E1,1.9E1,1.6E1,1.6E1,1.2E1,4E0,4.5E1,3E0],"tree_param":{"num_deleted":"0","num_feature":"38","num_nodes":"81","size_leaf_vector":"1"}},{"base_weights":[6.550907E-2,-1.6881088E0,1.9388503E0,-6.556495E0,-6.773652E-1,1.4769679E0,1.6975609E0,6.8668526E-1,-7.714965E0,4.7050076E0,-2.1780357E0,5.595776E0,7.103497E-1,-8.352425E0,3.3893058E-1,5.6321063E0,-6.173754E-1,-1.7456037E0,-1.2447696E1,9.767701E0,-1.3942068E0,-4.8726607E-2,1.1754781E1,-9.126378E0,1.2842044E-1,3.1903176E0,1.48095E1,-4.882042E0,-6.338719E-1,-1.7938433E1,-2.741455E-3,1.5170633E0,1.28001E1,7.9993355E-1,-4.7188215E0,-2.5182505E0,2.6104572E0,1.0812728E0,1.6080267E1,-3.901015E-1,-8.906558E-1,7.228132E-2,9.335868E-1,9.262288E-1,2.137626E-1,-3.5668245E-1,1.4770032E-1,3.597086E-1,-8.26171E-2,-5.0043356E-1,-1.1130254E0,3.1726834E-1,-5.6599694E-1,1.7373589E0,5.1414454E-1,-3.9298322E-2,-9.038165E-1,8.78622E-1,-1.651786E-1,1.2151821E0,1.03570096E-1,4.4113532E-1,-2.654064E-1,4.291613E-1,1.4188821E0],"categories":[],"categories_nodes":[],"categories_segments":[],"categories_sizes":[],"default_left":[0,0,0,0,0,0,0,0,0,0,0,0,0,0,0,0,0,0,0,0,0,0,0,0,0,0,0,0,0,0,0,0,0,0,0,0,0,0,0,0,0,0,0,0,0,0,0,0,0,0,0,0,0,0,0,0,0,0,0,0,0,0,0,0,0],"id":18,"left_children":[1,3,5,7,9,-1,11,-1,13,15,17,19,21,23,-1,25,-1,27,29,31,33,35,37,39,-1,41,43,45,47,49,-1,51,53,-1,55,57,59,61,63,-1,-1,-1,-1,-1,-1,-1,-1,-1,-1,-1,-1,-1,-1,-1,-1,-1,-1,-1,-1,-1,-1,-1,-1,-1,-1],"loss_changes":[3.1865837E3,2.4601013E3,3.070136E3,2.126833E3,3.3700967E3,0E0,1.788731E3,0E0,8.143794E2,1.5075227E3,1.4245946E3,2.7556538E3,3.1288135E3,6.918218E2,0E0,1.9005581E3,0E0,1.0912334E3,8.8181494E2,1.4552842E3,2.156053E3,2.3049856E3,1.0889314E3,7.097759E2,0E0,1.8617166E3,6.2296216E2,1.4682745E3,1.8689554E3,8.243213E1,0E0,1.1250077E3,2.013748E3,0E0,1.6124338E3,2.9281567E3,1.9232766E3,4.428885E2,1.3200283E3,0E0,0E0,0E0,0E0,0E0,0E0,0E0,0E0,0E0,0E0,0E0,0E0,0E0,0E0,0E0,0E0,0E0,0E0,0E0,0E0,0E0,0E0,0E0,0E0,0E0,0E0],"parents":[2147483647,0,0,1,1,2,2,3,3,4,4,6,6,8,8,9,9,10,10,11,11,12,12,13,13,15,15,17,17,18,18,19,19,20,20,21,21,22,22,23,23,25,25,26,26,27,27,28,28,29,29,31,31,32,32,34,34,35,35,36,36,37,37,38,38],"right_children":[2,4,6,8,10,-1,12,-1,14,16,18,20,22,24,-1,26,-1,28,30,32,34,36,38,40,-1,42,44,46,48,50,-1,52,54,-1,56,58,60,62,64,-1,-1,-1,-1,-1,-1,-1,-1,-1,-1,-1,-1,-1,-1,-1,-1,-1,-1,-1,-1,-1,-1,-1,-1,-1,-1],"split_conditions":[1.4495515E2,1.042E2,6.093251E1,6.385E1,1.074E2,1.4769679E0,1.5E0,6.8668526E-1,8.4E0,6E0,1.4429756E2,7.06E1,7.06E1,1.444572E2,3.3893058E-1,2E0,-6.173754E-1,1.0005E2,1.114E2,-3E0,1.477856E2,1.415E1,7.01E1,7.283761E1,1.2842044E-1,7.272311E1,4.2E0,6.9E1,-1.33E1,6.7621544E1,-2.741455E-3,7.600463E1,-2.2E0,7.9993355E-1,-2.27E0,6.45E1,1.4590924E2,6.92E1,7.13E1,-3.901015E-1,-8.906558E-1,7.228132E-2,9.335868E-1,9.262288E-1,2.137626E-1,-3.5668245E-1,1.4770032E-1,3.597086E-1,-8.26171E-2,-5.0043356E-1,-1.1130254E0,3.1726834E-1,-5.6599694E-1,1.7373589E0,5.1414454E-1,-3.9298322E-2,-9.038165E-1,8.78622E-1,-1.651786E-1,1.2151821E0,1.03570096E-1,4.4113532E-1,-2.654064E-1,4.291613E-1,1.4188821E0],"split_indices":[28,7,30,13,7,0,0,0,11,11,28,8,13,28,0,11,0,19,7,15,28,0,8,26,0,26,11,8,16,30,0,27,15,0,0,8,28,8,3,0,0,0,0,0,0,0,0,0,0,0,0,0,0,0,0,0,0,0,0,0,0,0,0,0,0],"split_type":[0,0,0,0,0,0,0,0,0,0,0,0,0,0,0,0,0,0,0,0,0,0,0,0,0,0,0,0,0,0,0,0,0,0,0,0,0,0,0,0,0,0,0,0,0,0,0,0,0,0,0,0,0,0,0,0,0,0,0,0,0,0,0,0,0],"sum_hessian":[9.68E2,5E2,4.68E2,8.5E1,4.15E2,3E0,4.65E2,4E0,8.1E1,9E1,3.25E2,9.3E1,3.72E2,7.8E1,3E0,8.6E1,4E0,3.13E2,1.2E1,5.8E1,3.5E1,3.49E2,2.3E1,7.3E1,5E0,6.9E1,1.7E1,8.1E1,2.32E2,8E0,4E0,1.6E1,4.2E1,5E0,3E1,1.81E2,1.68E2,7E0,1.6E1,6.5E1,8E0,6.3E1,6E0,1.2E1,5E0,6.3E1,1.8E1,2.6E1,2.06E2,4E0,4E0,1.2E1,4E0,3E0,3.9E1,2.4E1,6E0,6E0,1.75E2,3E0,1.65E2,3E0,4E0,1.1E1,5E0],"tree_param":{"num_deleted":"0","num_feature":"38","num_nodes":"65","size_leaf_vector":"1"}},{"base_weights":[-2.8417522E-2,-2.348329E0,1.651822E0,-2.848968E0,7.3513207E0,1.715855E-2,4.066806E0,-2.2943125E0,-9.795697E0,1.2662873E0,2.6837316E0,1.2131084E0,-7.0820675E0,6.289378E0,4.2605776E-1,-1.7372688E0,-9.596079E0,-2.0246098E1,-6.862649E-1,7.35384E0,-3.4768703E0,-8.639657E-1,6.1116824E0,-1.0218869E1,4.9348694E-1,4.4683685E0,1.755005E1,9.2112905E-1,-1.1527137E0,-2.0641031E0,8.174041E-1,-1.2478919E0,-6.3623013E0,-2.756135E-1,-1.205251E0,-5.7222958E0,7.913701E-1,7.517823E-2,4.81601E-1,-4.8981115E-1,2.633269E-1,7.7096695E-1,-6.551087E0,8.579254E0,-7.0080953E0,-7.8815665E0,-9.8980093E-1,7.9633313E-1,-8.805767E0,-7.166241E-1,5.234487E0,2.0574287E-1,2.085178E1,6.260228E0,-3.1053276E0,-7.743417E-2,-7.1933275E-1,-5.476076E-1,1.15367435E-2,5.946913E-2,-8.5194296E-1,-4.475439E-2,3.1992015E-1,-1.3558078E0,-2.217075E-1,8.4557706E-1,1.11129224E-1,-5.7357264E-1,3.496581E-1,-8.6433935E-1,-2.5988483E-1,3.127697E-2,-6.475702E-1,1.2255644E0,2.2556572E-1,1.5710921E0,7.7912223E-1,-2.9605985E-1,5.918794E-1,-2.0789139E-1,6.8483174E-1],"categories":[],"categories_nodes":[],"categories_segments":[],"categories_sizes":[],"default_left":[0,0,0,0,0,0,0,0,0,0,0,0,0,0,0,0,0,0,0,0,0,0,0,0,0,0,0,0,0,0,0,0,0,0,0,0,0,0,0,0,0,0,0,0,0,0,0,0,0,0,0,0,0,0,0,0,0,0,0,0,0,0,0,0,0,0,0,0,0,0,0,0,0,0,0,0,0,0,0,0,0],"id":19,"left_children":[1,3,5,7,9,11,13,15,17,-1,19,21,23,25,27,29,31,33,35,37,39,41,43,45,47,49,51,-1,53,55,-1,-1,57,-1,-1,59,-1,-1,-1,-1,-1,61,63,65,67,69,-1,-1,71,-1,73,-1,75,77,79,-1,-1,-1,-1,-1,-1,-1,-1,-1,-1,-1,-1,-1,-1,-1,-1,-1,-1,-1,-1,-1,-1,-1,-1,-1,-1],"loss_changes":[3.7304434E3,1.9726138E3,2.1904873E3,1.4520315E3,1.6071765E3,2.82679E3,1.8092175E3,1.4301912E3,2.6495344E3,0E0,5.150576E2,2.9055947E3,1.1466399E3,2.7696836E3,2.466429E3,1.9947393E3,1.0799917E3,6.0330176E2,1.4201719E3,1.176839E2,4.9406662E2,1.8745387E3,2.8120708E3,6.022883E2,2.2937139E3,1.816959E3,7.545288E2,0E0,1.1770936E3,2.0529973E3,0E0,0E0,6.6934247E2,0E0,0E0,1.0386644E3,0E0,0E0,0E0,0E0,0E0,1.4782494E3,1.835681E3,3.774022E3,9.555662E2,6.399292E2,0E0,0E0,4.0032184E2,0E0,1.5175522E3,0E0,3.4112842E2,1.2256676E3,1.1877749E3,0E0,0E0,0E0,0E0,0E0,0E0,0E0,0E0,0E0,0E0,0E0,0E0,0E0,0E0,0E0,0E0,0E0,0E0,0E0,0E0,0E0,0E0,0E0,0E0,0E0,0E0],"parents":[2147483647,0,0,1,1,2,2,3,3,4,4,5,5,6,6,7,7,8,8,10,10,11,11,12,12,13,13,14,14,15,15,16,16,17,17,18,18,19,19,20,20,21,21,22,22,23,23,24,24,25,25,26,26,28,28,29,29,32,32,35,35,41,41,42,42,43,43,44,44,45,45,48,48,50,50,52,52,53,53,54,54],"right_children":[2,4,6,8,10,12,14,16,18,-1,20,22,24,26,28,30,32,34,36,38,40,42,44,46,48,50,52,-1,54,56,-1,-1,58,-1,-1,60,-1,-1,-1,-1,-1,62,64,66,68,70,-1,-1,72,-1,74,-1,76,78,80,-1,-1,-1,-1,-1,-1,-1,-1,-1,-1,-1,-1,-1,-1,-1,-1,-1,-1,-1,-1,-1,-1,-1,-1,-1,-1],"split_conditions":[6.718095E1,2.337E2,1.77E0,1.141E2,-8.88E0,3.8E0,8E-1,7.627475E3,1.4E0,1.2662873E0,1.252E2,9E-1,6.945E1,6.93E1,2.13E0,7.6101577E3,9.52E1,-1.331E1,-7.85E0,2.354E2,6.615E1,7.029169E1,-2.5E0,6.92E1,7.31E1,6.50833E1,7.313638E1,9.2112905E-1,6.775E1,7.734172E1,8.174041E-1,-1.2478919E0,1.5E1,-2.756135E-1,-1.205251E0,1.74E0,7.913701E-1,7.517823E-2,4.81601E-1,-4.8981115E-1,2.633269E-1,7.27504E3,9E-1,1.071E2,6.3E0,1.001E2,-9.8980093E-1,7.9633313E-1,6.305894E1,-7.166241E-1,6.719524E1,2.0574287E-1,7.47813E3,6.73384E1,1.069E2,-7.743417E-2,-7.1933275E-1,-5.476076E-1,1.15367435E-2,5.946913E-2,-8.5194296E-1,-4.475439E-2,3.1992015E-1,-1.3558078E0,-2.217075E-1,8.4557706E-1,1.11129224E-1,-5.7357264E-1,3.496581E-1,-8.6433935E-1,-2.5988483E-1,3.127697E-2,-6.475702E-1,1.2255644E0,2.2556572E-1,1.5710921E0,7.7912223E-1,-2.9605985E-1,5.918794E-1,-2.0789139E-1,6.8483174E-1],"split_indices":[14,17,5,2,10,11,11,21,11,0,1,11,13,3,5,21,7,5,0,17,13,30,5,13,3,30,30,0,13,30,0,0,16,0,0,5,0,0,0,0,0,21,16,2,16,1,0,0,29,0,14,0,21,14,7,0,0,0,0,0,0,0,0,0,0,0,0,0,0,0,0,0,0,0,0,0,0,0,0,0,0],"split_type":[0,0,0,0,0,0,0,0,0,0,0,0,0,0,0,0,0,0,0,0,0,0,0,0,0,0,0,0,0,0,0,0,0,0,0,0,0,0,0,0,0,0,0,0,0,0,0,0,0,0,0,0,0,0,0,0,0,0,0,0,0,0,0,0,0,0,0,0,0,0,0,0,0,0,0,0,0,0,0,0,0],"sum_hessian":[9.55E2,4.01E2,5.54E2,3.82E2,1.9E1,3.31E2,2.23E2,3.55E2,2.7E1,3E0,1.6E1,2.84E2,4.7E1,1.38E2,8.5E1,3.31E2,2.4E1,1.2E1,1.5E1,9E0,7E0,2E2,8.4E1,3.3E1,1.4E1,1.2E2,1.8E1,6E0,7.9E1,3.26E2,5E0,3E0,2.1E1,3E0,9E0,1.2E1,3E0,3E0,6E0,4E0,3E0,1.56E2,4.4E1,7.1E1,1.3E1,2.8E1,5E0,5E0,9E0,4E0,1.16E2,4E0,1.4E1,1.6E1,6.3E1,3.14E2,1.2E1,1.2E1,9E0,8E0,4E0,1.21E2,3.5E1,3E0,4.1E1,3E1,4.1E1,1E1,3E0,5E0,2.3E1,3E0,6E0,3E0,1.13E2,3E0,1.1E1,5E0,1.1E1,6E1,3E0],"tree_param":{"num_deleted":"0","num_feature":"38","num_nodes":"81","size_leaf_vector":"1"}},{"base_weights":[-7.059138E-2,-1.690818E0,2.7398312E0,-1.4839036E0,-9.806938E-1,7.656576E-1,8.042858E0,-4.1723E0,-1.1940034E-1,-4.1495144E-1,6.7905025E0,9.324502E0,-5.5137115E0,-3.3561516E0,-1.3699058E1,2.5048134E-1,-9.858324E0,-8.148074E-1,2.9709635E-2,9.2486E0,-5.1072474E0,1.4348337E1,4.928548E0,1.09334625E-1,-6.065687E-1,-2.5248556E0,-1.0787169E1,-9.854147E-1,-1.91141E-2,-1.4192283E0,2.7646613E0,4.447247E0,-1.9900621E1,9.752899E0,-7.477941E-1,6.2640204E0,1.4039469E1,1.2193992E-1,-5.0713176E-1,1.7891792E0,1.1061186E1,8.303045E0,-1.0980668E1,-7.3518294E-1,-9.628612E-2,-1.4816318E-1,-1.0581067E0,9.345746E-1,-8.779623E-2,3.8856468E-1,1.1715996E-2,-2.5296238E-1,6.433465E-1,-1.2868047E0,-3.0736282E-1,1.04103245E-1,7.068597E-1,-6.172754E-1,-1.3133356E-2,5.894536E-1,3.372171E-2,9.1687775E-1,1.7375098E-1,2.21962E-1,8.899419E-1,2.6720592E-1,1.4259248E0,4.0543032E-1,-1.0946703E0],"categories":[],"categories_nodes":[],"categories_segments":[],"categories_sizes":[],"default_left":[0,0,0,0,0,0,0,0,0,0,0,0,0,0,0,0,0,0,0,0,0,0,0,0,0,0,0,0,0,0,0,0,0,0,0,0,0,0,0,0,0,0,0,0,0,0,0,0,0,0,0,0,0,0,0,0,0,0,0,0,0,0,0,0,0,0,0,0,0],"id":20,"left_children":[1,3,5,7,-1,9,11,13,15,17,19,21,23,25,27,29,31,-1,33,35,37,39,41,-1,-1,43,45,-1,-1,47,49,51,53,55,57,59,61,-1,-1,-1,63,65,67,-1,-1,-1,-1,-1,-1,-1,-1,-1,-1,-1,-1,-1,-1,-1,-1,-1,-1,-1,-1,-1,-1,-1,-1,-1,-1],"loss_changes":[4.457871E3,2.2717856E3,3.7408972E3,2.2550925E3,0E0,1.8670577E3,1.7371382E3,1.5617942E3,1.47675E3,1.5556959E3,1.3052195E3,1.8928804E3,4.861501E2,1.1574885E3,1.2708357E3,1.6622487E3,2.2449602E3,0E0,1.6335542E3,4.2478052E2,3.2948428E2,2.4884043E3,2.7215E3,0E0,0E0,1.2396526E3,1.4771604E3,0E0,0E0,1.6426746E3,1.9989999E3,6.2616943E2,5.609219E2,5.0704272E2,1.1207692E3,7.319886E2,5.243855E2,0E0,0E0,0E0,1.5695688E3,2.296665E3,2.05375E3,0E0,0E0,0E0,0E0,0E0,0E0,0E0,0E0,0E0,0E0,0E0,0E0,0E0,0E0,0E0,0E0,0E0,0E0,0E0,0E0,0E0,0E0,0E0,0E0,0E0,0E0],"parents":[2147483647,0,0,1,1,2,2,3,3,5,5,6,6,7,7,8,8,9,9,10,10,11,11,12,12,13,13,14,14,15,15,16,16,18,18,19,19,20,20,21,21,22,22,25,25,26,26,29,29,30,30,31,31,32,32,33,33,34,34,35,35,36,36,40,40,41,41,42,42],"right_children":[2,4,6,8,-1,10,12,14,16,18,20,22,24,26,28,30,32,-1,34,36,38,40,42,-1,-1,44,46,-1,-1,48,50,52,54,56,58,60,62,-1,-1,-1,64,66,68,-1,-1,-1,-1,-1,-1,-1,-1,-1,-1,-1,-1,-1,-1,-1,-1,-1,-1,-1,-1,-1,-1,-1,-1,-1,-1],"split_conditions":[6.84E1,7.005E1,6.93E1,-4.08E0,-9.806938E-1,2.223E2,2.442E1,-4.86E0,7.5412E3,6.625E1,7.8866777E3,1.05E2,7.015E1,6.79E1,6.673217E1,6.72E1,7.44E0,-8.148074E-1,9.52E1,7.7515625E3,1.148E2,1.4072415E2,7.17E1,1.09334625E-1,-6.065687E-1,-2.24E1,-8.38E0,-9.854147E-1,-1.91141E-2,-1.996E1,1.3782497E2,-3.25E0,1.143E2,-5.7E0,-1.303E1,7.6045625E3,6.935E1,1.2193992E-1,-5.0713176E-1,1.7891792E0,7.02E1,7.8474077E3,1.012E2,-7.3518294E-1,-9.628612E-2,-1.4816318E-1,-1.0581067E0,9.345746E-1,-8.779623E-2,3.8856468E-1,1.1715996E-2,-2.5296238E-1,6.433465E-1,-1.2868047E0,-3.0736282E-1,1.04103245E-1,7.068597E-1,-6.172754E-1,-1.3133356E-2,5.894536E-1,3.372171E-2,9.1687775E-1,1.7375098E-1,2.21962E-1,8.899419E-1,2.6720592E-1,1.4259248E0,4.0543032E-1,-1.0946703E0],"split_indices":[8,13,3,0,0,18,10,0,22,13,22,2,13,8,29,13,10,0,2,22,2,31,13,0,0,10,0,0,0,10,31,0,7,11,0,22,13,0,0,0,8,22,6,0,0,0,0,0,0,0,0,0,0,0,0,0,0,0,0,0,0,0,0,0,0,0,0,0,0],"split_type":[0,0,0,0,0,0,0,0,0,0,0,0,0,0,0,0,0,0,0,0,0,0,0,0,0,0,0,0,0,0,0,0,0,0,0,0,0,0,0,0,0,0,0,0,0,0,0,0,0,0,0,0,0,0,0,0,0,0,0,0,0,0,0,0,0,0,0,0,0],"sum_hessian":[9.77E2,6.2E2,3.57E2,6.14E2,6E0,2.61E2,9.6E1,2.06E2,4.08E2,2.19E2,4.2E1,8.8E1,8E0,1.91E2,1.5E1,3.94E2,1.4E1,5E0,2.14E2,3.5E1,7E0,4E1,4.8E1,4E0,4E0,1.73E2,1.8E1,1E1,5E0,2.37E2,1.57E2,6E0,8E0,1.5E1,1.99E2,2.3E1,1.2E1,3E0,4E0,4E0,3.6E1,4E1,8E0,7E0,1.66E2,1.1E1,7E0,3E0,2.34E2,5.2E1,1.05E2,3E0,3E0,5E0,3E0,6E0,9E0,7E0,1.92E2,1.1E1,1.2E1,8E0,4E0,1.9E1,1.7E1,3.6E1,4E0,3E0,5E0],"tree_param":{"num_deleted":"0","num_feature":"38","num_nodes":"69","size_leaf_vector":"1"}},{"base_weights":[-2.5764858E-2,-5.585655E-1,6.7119923E0,-1.7023696E0,1.5531317E0,4.8854256E0,1.8741072E1,-3.5937877E0,-5.542533E-1,2.086141E0,-1.0086508E1,1.0212983E1,3.287233E-1,2.5184658E-1,1.2368493E0,-3.0938706E0,-1.0445923E0,3.4427706E-2,-7.906843E0,1.3453681E0,8.539201E0,-1.312646E1,3.8499337E-2,-2.7141675E-1,1.2230378E1,-6.1700935E0,6.814833E0,-2.702451E0,-8.130623E-1,-1.1676682E0,3.8641355E0,-3.5552697E0,-1.126407E0,2.341237E0,-8.623301E0,3.4519541E0,2.272104E1,-2.696142E-1,-8.380689E-1,1.9168413E1,7.4238653E0,-1.1916113E1,2.4894454E0,7.443437E-1,1.5299065E0,-1.5886353E-1,4.8356986E-1,-1.8566586E-2,-6.5914E-1,-3.5381204E-1,2.5806928E-1,-7.6914275E-1,9.1762654E-2,7.601958E-2,5.829449E-1,-5.6414986E-1,4.0679273E-1,3.942055E-1,-3.1926855E-1,4.0558252E-1,1.4922174E0,3.8416266E-1,1.276399E0,4.714419E-1,-7.122525E-2,-9.0471584E-1,-3.662499E-1,-2.560391E-1,4.0498695E-1,3.2449183E-1,-1.4628671E-1],"categories":[],"categories_nodes":[],"categories_segments":[],"categories_sizes":[],"default_left":[0,0,0,0,0,0,0,0,0,0,0,0,0,0,0,0,0,0,0,0,0,0,0,0,0,0,0,0,0,0,0,0,0,0,0,0,0,0,0,0,0,0,0,0,0,0,0,0,0,0,0,0,0,0,0,0,0,0,0,0,0,0,0,0,0,0,0,0,0,0,0],"id":21,"left_children":[1,3,5,7,9,11,13,15,17,19,21,23,25,-1,-1,27,-1,29,31,33,35,37,-1,-1,39,41,43,45,-1,47,49,51,-1,53,55,57,59,-1,-1,61,63,65,67,-1,69,-1,-1,-1,-1,-1,-1,-1,-1,-1,-1,-1,-1,-1,-1,-1,-1,-1,-1,-1,-1,-1,-1,-1,-1,-1,-1],"loss_changes":[3.4781392E3,2.1716594E3,1.4660854E3,1.2636174E3,1.9807173E3,1.5249824E3,6.119436E2,1.8354346E3,1.5765715E3,1.4359396E3,4.7338782E2,9.821577E2,1.517434E3,0E0,0E0,1.0622617E3,0E0,1.5608242E3,1.6351907E3,2.7297651E3,2.1554932E3,2.166466E2,0E0,0E0,7.220786E2,9.26249E2,7.434654E2,1.2639012E3,0E0,2.4623162E3,1.1859161E3,1.4322373E3,0E0,1.8853975E3,1.2064683E3,1.0969062E3,5.866543E2,0E0,0E0,5.3094727E2,3.158244E2,1.7693054E2,3.8333978E2,0E0,2.8453992E2,0E0,0E0,0E0,0E0,0E0,0E0,0E0,0E0,0E0,0E0,0E0,0E0,0E0,0E0,0E0,0E0,0E0,0E0,0E0,0E0,0E0,0E0,0E0,0E0,0E0,0E0],"parents":[2147483647,0,0,1,1,2,2,3,3,4,4,5,5,6,6,7,7,8,8,9,9,10,10,11,11,12,12,15,15,17,17,18,18,19,19,20,20,21,21,24,24,25,25,26,26,27,27,29,29,30,30,31,31,33,33,34,34,35,35,36,36,39,39,40,40,41,41,42,42,44,44],"right_children":[2,4,6,8,10,12,14,16,18,20,22,24,26,-1,-1,28,-1,30,32,34,36,38,-1,-1,40,42,44,46,-1,48,50,52,-1,54,56,58,60,-1,-1,62,64,66,68,-1,70,-1,-1,-1,-1,-1,-1,-1,-1,-1,-1,-1,-1,-1,-1,-1,-1,-1,-1,-1,-1,-1,-1,-1,-1,-1,-1],"split_conditions":[7.999128E1,6.8244705E1,8.5022316E1,-4.08E0,7.31E1,7.611553E1,6.945E1,-4.55E0,8.0181206E1,2.247E2,7.417875E3,6.37E1,8.11008E3,2.5184658E-1,1.2368493E0,1.075E2,-1.0445923E0,1.08E1,6.92E1,7.70095E3,7.263165E3,1.013E2,3.8499337E-2,-2.7141675E-1,9.94E1,1.943E1,-2.4E0,5.3E0,-8.130623E-1,7.563725E3,1E0,6.22363E3,-1.126407E0,7.05E1,-6E-1,2.1E0,6.89E1,-2.696142E-1,-8.380689E-1,9.37E1,2.4E0,-6.61E0,7.713572E1,7.443437E-1,1.929E1,-1.5886353E-1,4.8356986E-1,-1.8566586E-2,-6.5914E-1,-3.5381204E-1,2.5806928E-1,-7.6914275E-1,9.1762654E-2,7.601958E-2,5.829449E-1,-5.6414986E-1,4.0679273E-1,3.942055E-1,-3.1926855E-1,4.0558252E-1,1.4922174E0,3.8416266E-1,1.276399E0,4.714419E-1,-7.122525E-2,-9.0471584E-1,-3.662499E-1,-2.560391E-1,4.0498695E-1,3.2449183E-1,-1.4628671E-1],"split_indices":[27,14,29,0,3,26,13,0,29,18,21,3,21,0,0,1,0,15,3,22,21,19,0,0,7,5,11,15,0,21,16,22,0,13,16,11,3,0,0,7,11,10,26,0,5,0,0,0,0,0,0,0,0,0,0,0,0,0,0,0,0,0,0,0,0,0,0,0,0,0,0],"split_type":[0,0,0,0,0,0,0,0,0,0,0,0,0,0,0,0,0,0,0,0,0,0,0,0,0,0,0,0,0,0,0,0,0,0,0,0,0,0,0,0,0,0,0,0,0,0,0,0,0,0,0,0,0,0,0,0,0,0,0,0,0,0,0,0,0,0,0,0,0,0,0],"sum_hessian":[9.67E2,8.97E2,7E1,5.82E2,3.15E2,6.2E1,8E0,2.19E2,3.63E2,3.02E2,1.3E1,2.8E1,3.4E1,3E0,5E0,2.14E2,5E0,3.37E2,2.6E1,2.72E2,3E1,1E1,3E0,3E0,2.5E1,1.7E1,1.7E1,2.09E2,5E0,2.57E2,8E1,2.1E1,5E0,2.48E2,2.4E1,2.3E1,7E0,4E0,6E0,9E0,1.6E1,1E1,7E0,6E0,1.1E1,2.02E2,7E0,2.42E2,1.5E1,8E0,7.2E1,6E0,1.5E1,2.29E2,1.9E1,2.1E1,3E0,1.6E1,7E0,3E0,4E0,4E0,5E0,1.3E1,3E0,3E0,7E0,3E0,4E0,5E0,6E0],"tree_param":{"num_deleted":"0","num_feature":"38","num_nodes":"71","size_leaf_vector":"1"}},{"base_weights":[-2.5642222E-1,-1.4410223E0,2.0983236E0,-1.048499E0,-1.1304379E1,1.658378E0,1.6958864E1,-4.7597966E0,-2.1730682E-1,-7.484702E0,-1.0749649E0,1.9553525E0,-8.3843726E-1,2.4014106E-1,1.2851567E0,5.4583406E0,-7.493609E0,9.124285E0,-6.693896E-1,-1.3702471E1,9.3531525E-1,1.101341E0,7.1309266E0,9.3294096E-1,1.1224135E0,-4.5579553E0,-1.3013941E1,-2.1064031E-1,1.2159083E1,-2.0009289E0,2.6636455E0,-5.5361753E0,-1.1187395E0,-2.9061773E-1,3.757961E-1,3.5520523E0,-1.3944294E0,1.0533208E1,3.0602884E0,-1.9832943E-1,3.6865494E-1,1.39573915E-2,-3.5241216E-1,6.266318E-2,-7.630472E-1,6.2727116E-2,7.4883294E-1,-1.2335092E-1,6.0772836E-1,9.579184E-2,9.2651E-1,-4.0898067E-1,-7.4184686E-2,-3.1618217E-1,2.117743E-1,-3.8848326E-1,4.152977E-2,-1.5571202E-2,7.192463E-1,3.5060573E-1,-5.803274E-2],"categories":[],"categories_nodes":[],"categories_segments":[],"categories_sizes":[],"default_left":[0,0,0,0,0,0,0,0,0,0,0,0,0,0,0,0,0,0,0,0,0,0,0,0,0,0,0,0,0,0,0,0,0,0,0,0,0,0,0,0,0,0,0,0,0,0,0,0,0,0,0,0,0,0,0,0,0,0,0,0,0],"id":22,"left_children":[1,3,5,7,9,11,13,15,17,19,-1,21,-1,-1,-1,23,25,27,29,31,33,35,37,39,-1,41,43,-1,45,47,49,51,-1,-1,-1,53,55,57,59,-1,-1,-1,-1,-1,-1,-1,-1,-1,-1,-1,-1,-1,-1,-1,-1,-1,-1,-1,-1,-1,-1],"loss_changes":[2.6417607E3,2.426018E3,2.0425061E3,1.8709426E3,7.7077686E2,1.722275E3,8.301636E2,3.141832E3,2.104179E3,1.0088135E3,0E0,1.3394232E3,0E0,0E0,0E0,1.8219885E3,1.3650352E3,9.829524E2,2.1133455E3,6.523662E2,4.4348944E2,1.6137854E3,5.619326E2,